<?xml version="1.0" encoding="utf-8"?>
<Root>
  <ActivationFunctions>
    <Fn id="0" name="SteepenedSigmoid" prob="1" />
  </ActivationFunctions>
  <Networks>
    <Network id="0" birthGen="0" fitness="0">
      <Nodes>
        <Node type="bias" id="0" />
        <Node type="in" id="1" />
        <Node type="in" id="2" />
        <Node type="in" id="3" />
        <Node type="in" id="4" />
        <Node type="in" id="5" />
        <Node type="in" id="6" />
        <Node type="in" id="7" />
        <Node type="in" id="8" />
        <Node type="in" id="9" />
        <Node type="in" id="10" />
        <Node type="out" id="11" />
        <Node type="out" id="12" />
      </Nodes>
      <Connections>
        <Con id="13" src="0" tgt="11" wght="0.71563799399882555" />
        <Con id="14" src="0" tgt="12" wght="0.28022380173206329" />
        <Con id="15" src="1" tgt="11" wght="0.25250449776649475" />
        <Con id="16" src="1" tgt="12" wght="-0.50813972018659115" />
        <Con id="17" src="2" tgt="11" wght="-0.73822023626416922" />
        <Con id="18" src="2" tgt="12" wght="-0.78350803535431623" />
        <Con id="19" src="3" tgt="11" wght="-0.19428908079862595" />
        <Con id="20" src="3" tgt="12" wght="-0.40806678123772144" />
        <Con id="21" src="4" tgt="11" wght="-0.2382564814761281" />
        <Con id="22" src="4" tgt="12" wght="-0.57399735972285271" />
        <Con id="23" src="5" tgt="11" wght="-0.68294845893979073" />
        <Con id="24" src="5" tgt="12" wght="-0.36401215475052595" />
        <Con id="25" src="6" tgt="11" wght="-0.60721635352820158" />
        <Con id="26" src="6" tgt="12" wght="-0.30138242244720459" />
        <Con id="27" src="7" tgt="11" wght="-0.42624792084097862" />
        <Con id="28" src="7" tgt="12" wght="0.20217964798212051" />
        <Con id="29" src="8" tgt="11" wght="-0.57492468226701021" />
        <Con id="30" src="8" tgt="12" wght="-0.066450628452003" />
        <Con id="31" src="9" tgt="11" wght="-0.32839574571698904" />
        <Con id="32" src="9" tgt="12" wght="-0.57846659515053034" />
        <Con id="33" src="10" tgt="11" wght="0.43227197229862213" />
        <Con id="34" src="10" tgt="12" wght="0.51595175173133612" />
      </Connections>
    </Network>
    <Network id="1" birthGen="0" fitness="0">
      <Nodes>
        <Node type="bias" id="0" />
        <Node type="in" id="1" />
        <Node type="in" id="2" />
        <Node type="in" id="3" />
        <Node type="in" id="4" />
        <Node type="in" id="5" />
        <Node type="in" id="6" />
        <Node type="in" id="7" />
        <Node type="in" id="8" />
        <Node type="in" id="9" />
        <Node type="in" id="10" />
        <Node type="out" id="11" />
        <Node type="out" id="12" />
      </Nodes>
      <Connections>
        <Con id="13" src="0" tgt="11" wght="-0.82330069690942764" />
        <Con id="14" src="0" tgt="12" wght="-0.48229340836405754" />
        <Con id="15" src="1" tgt="11" wght="-0.89113064669072628" />
        <Con id="16" src="1" tgt="12" wght="-0.22770840767771006" />
        <Con id="17" src="2" tgt="11" wght="-0.0037984978407621384" />
        <Con id="18" src="2" tgt="12" wght="0.1040117247030139" />
        <Con id="19" src="3" tgt="11" wght="-0.41627413313835859" />
        <Con id="20" src="3" tgt="12" wght="0.22345924284309149" />
        <Con id="21" src="4" tgt="11" wght="-0.9428848372772336" />
        <Con id="22" src="4" tgt="12" wght="-0.31850659567862749" />
        <Con id="23" src="5" tgt="11" wght="0.11752152629196644" />
        <Con id="24" src="5" tgt="12" wght="0.28405393101274967" />
        <Con id="25" src="6" tgt="11" wght="0.79967976827174425" />
        <Con id="26" src="6" tgt="12" wght="-0.50703344587236643" />
        <Con id="27" src="7" tgt="11" wght="-0.48015317600220442" />
        <Con id="28" src="7" tgt="12" wght="-0.68430835846811533" />
        <Con id="29" src="8" tgt="11" wght="-0.65300774574279785" />
        <Con id="30" src="8" tgt="12" wght="0.2300995010882616" />
        <Con id="31" src="9" tgt="11" wght="0.87662785593420267" />
        <Con id="32" src="9" tgt="12" wght="0.70180218759924173" />
        <Con id="33" src="10" tgt="11" wght="-0.44819507468491793" />
        <Con id="34" src="10" tgt="12" wght="-0.4539753645658493" />
      </Connections>
    </Network>
    <Network id="2" birthGen="0" fitness="0">
      <Nodes>
        <Node type="bias" id="0" />
        <Node type="in" id="1" />
        <Node type="in" id="2" />
        <Node type="in" id="3" />
        <Node type="in" id="4" />
        <Node type="in" id="5" />
        <Node type="in" id="6" />
        <Node type="in" id="7" />
        <Node type="in" id="8" />
        <Node type="in" id="9" />
        <Node type="in" id="10" />
        <Node type="out" id="11" />
        <Node type="out" id="12" />
      </Nodes>
      <Connections>
        <Con id="13" src="0" tgt="11" wght="0.73026954755187035" />
        <Con id="14" src="0" tgt="12" wght="0.8163112411275506" />
        <Con id="15" src="1" tgt="11" wght="-0.21569170244038105" />
        <Con id="16" src="1" tgt="12" wght="-0.77862384542822838" />
        <Con id="17" src="2" tgt="11" wght="0.64119974244385958" />
        <Con id="18" src="2" tgt="12" wght="-0.052026183344423771" />
        <Con id="19" src="3" tgt="11" wght="0.80488723795861006" />
        <Con id="20" src="3" tgt="12" wght="0.78693240042775869" />
        <Con id="21" src="4" tgt="11" wght="0.83583913557231426" />
        <Con id="22" src="4" tgt="12" wght="0.036848168820142746" />
        <Con id="23" src="5" tgt="11" wght="-0.81092376448214054" />
        <Con id="24" src="5" tgt="12" wght="0.76502627413719893" />
        <Con id="25" src="6" tgt="11" wght="-0.31297232210636139" />
        <Con id="26" src="6" tgt="12" wght="-0.41089756973087788" />
        <Con id="27" src="7" tgt="11" wght="-0.45039020664989948" />
        <Con id="28" src="7" tgt="12" wght="0.65202065743505955" />
        <Con id="29" src="8" tgt="11" wght="0.082201589830219746" />
        <Con id="30" src="8" tgt="12" wght="0.30237922444939613" />
        <Con id="31" src="9" tgt="11" wght="0.89101678878068924" />
        <Con id="32" src="9" tgt="12" wght="-0.39477185346186161" />
        <Con id="33" src="10" tgt="11" wght="-0.88587546441704035" />
        <Con id="34" src="10" tgt="12" wght="0.20258419029414654" />
      </Connections>
    </Network>
    <Network id="3" birthGen="0" fitness="0">
      <Nodes>
        <Node type="bias" id="0" />
        <Node type="in" id="1" />
        <Node type="in" id="2" />
        <Node type="in" id="3" />
        <Node type="in" id="4" />
        <Node type="in" id="5" />
        <Node type="in" id="6" />
        <Node type="in" id="7" />
        <Node type="in" id="8" />
        <Node type="in" id="9" />
        <Node type="in" id="10" />
        <Node type="out" id="11" />
        <Node type="out" id="12" />
      </Nodes>
      <Connections>
        <Con id="13" src="0" tgt="11" wght="-0.79648540355265141" />
        <Con id="14" src="0" tgt="12" wght="-0.378278486430645" />
        <Con id="15" src="1" tgt="11" wght="-0.9512660214677453" />
        <Con id="16" src="1" tgt="12" wght="0.36013183277100325" />
        <Con id="17" src="2" tgt="11" wght="0.616656007245183" />
        <Con id="18" src="2" tgt="12" wght="0.55207523517310619" />
        <Con id="19" src="3" tgt="11" wght="0.14569128584116697" />
        <Con id="20" src="3" tgt="12" wght="-0.026017678901553154" />
        <Con id="21" src="4" tgt="11" wght="0.18145674373954535" />
        <Con id="22" src="4" tgt="12" wght="-0.83013936411589384" />
        <Con id="23" src="5" tgt="11" wght="-0.52030763030052185" />
        <Con id="24" src="5" tgt="12" wght="0.18824261520057917" />
        <Con id="25" src="6" tgt="11" wght="-0.49050725344568491" />
        <Con id="26" src="6" tgt="12" wght="-0.42367047350853682" />
        <Con id="27" src="7" tgt="11" wght="0.27109104115515947" />
        <Con id="28" src="7" tgt="12" wght="-0.18198301922529936" />
        <Con id="29" src="8" tgt="11" wght="0.1254220362752676" />
        <Con id="30" src="8" tgt="12" wght="-0.27434776816517115" />
        <Con id="31" src="9" tgt="11" wght="0.982387694530189" />
        <Con id="32" src="9" tgt="12" wght="-0.53028478007763624" />
        <Con id="33" src="10" tgt="11" wght="0.36929843388497829" />
        <Con id="34" src="10" tgt="12" wght="0.17396058794111013" />
      </Connections>
    </Network>
    <Network id="4" birthGen="0" fitness="0">
      <Nodes>
        <Node type="bias" id="0" />
        <Node type="in" id="1" />
        <Node type="in" id="2" />
        <Node type="in" id="3" />
        <Node type="in" id="4" />
        <Node type="in" id="5" />
        <Node type="in" id="6" />
        <Node type="in" id="7" />
        <Node type="in" id="8" />
        <Node type="in" id="9" />
        <Node type="in" id="10" />
        <Node type="out" id="11" />
        <Node type="out" id="12" />
      </Nodes>
      <Connections>
        <Con id="13" src="0" tgt="11" wght="0.053722422569990158" />
        <Con id="14" src="0" tgt="12" wght="-0.38952414225786924" />
        <Con id="15" src="1" tgt="11" wght="0.66873527411371469" />
        <Con id="16" src="1" tgt="12" wght="0.58799090702086687" />
        <Con id="17" src="2" tgt="11" wght="0.66389307752251625" />
        <Con id="18" src="2" tgt="12" wght="-0.47454138193279505" />
        <Con id="19" src="3" tgt="11" wght="0.19878613296896219" />
        <Con id="20" src="3" tgt="12" wght="0.89417594950646162" />
        <Con id="21" src="4" tgt="11" wght="-0.051766539923846722" />
        <Con id="22" src="4" tgt="12" wght="-0.0406068516895175" />
        <Con id="23" src="5" tgt="11" wght="-0.19528533518314362" />
        <Con id="24" src="5" tgt="12" wght="-0.71709404047578573" />
        <Con id="25" src="6" tgt="11" wght="0.9970785966143012" />
        <Con id="26" src="6" tgt="12" wght="-0.87670549936592579" />
        <Con id="27" src="7" tgt="11" wght="-0.58781175874173641" />
        <Con id="28" src="7" tgt="12" wght="0.13336071837693453" />
        <Con id="29" src="8" tgt="11" wght="0.68946379330009222" />
        <Con id="30" src="8" tgt="12" wght="-0.12698925565928221" />
        <Con id="31" src="9" tgt="11" wght="0.447257811203599" />
        <Con id="32" src="9" tgt="12" wght="0.88064980320632458" />
        <Con id="33" src="10" tgt="11" wght="0.56685021705925465" />
        <Con id="34" src="10" tgt="12" wght="0.91501178685575724" />
      </Connections>
    </Network>
    <Network id="5" birthGen="0" fitness="0">
      <Nodes>
        <Node type="bias" id="0" />
        <Node type="in" id="1" />
        <Node type="in" id="2" />
        <Node type="in" id="3" />
        <Node type="in" id="4" />
        <Node type="in" id="5" />
        <Node type="in" id="6" />
        <Node type="in" id="7" />
        <Node type="in" id="8" />
        <Node type="in" id="9" />
        <Node type="in" id="10" />
        <Node type="out" id="11" />
        <Node type="out" id="12" />
      </Nodes>
      <Connections>
        <Con id="13" src="0" tgt="11" wght="0.46625780407339334" />
        <Con id="14" src="0" tgt="12" wght="0.52164444234222174" />
        <Con id="15" src="1" tgt="11" wght="0.77791484631598" />
        <Con id="16" src="1" tgt="12" wght="0.56473161187022924" />
        <Con id="17" src="2" tgt="11" wght="-0.16573266312479973" />
        <Con id="18" src="2" tgt="12" wght="-0.50390941556543112" />
        <Con id="19" src="3" tgt="11" wght="-0.57353182602673769" />
        <Con id="20" src="3" tgt="12" wght="0.75260461401194334" />
        <Con id="21" src="4" tgt="11" wght="-0.4994325302541256" />
        <Con id="22" src="4" tgt="12" wght="0.61003797687590122" />
        <Con id="23" src="5" tgt="11" wght="0.26185121387243271" />
        <Con id="24" src="5" tgt="12" wght="-0.14331345446407795" />
        <Con id="25" src="6" tgt="11" wght="-0.74597177002578974" />
        <Con id="26" src="6" tgt="12" wght="0.47464657388627529" />
        <Con id="27" src="7" tgt="11" wght="0.83847792632877827" />
        <Con id="28" src="7" tgt="12" wght="0.0097850169986486435" />
        <Con id="29" src="8" tgt="11" wght="-0.10710815154016018" />
        <Con id="30" src="8" tgt="12" wght="0.36413775384426117" />
        <Con id="31" src="9" tgt="11" wght="0.97267009224742651" />
        <Con id="32" src="9" tgt="12" wght="-0.21108689997345209" />
        <Con id="33" src="10" tgt="11" wght="0.69591211248189211" />
        <Con id="34" src="10" tgt="12" wght="0.35314693208783865" />
      </Connections>
    </Network>
    <Network id="6" birthGen="0" fitness="0">
      <Nodes>
        <Node type="bias" id="0" />
        <Node type="in" id="1" />
        <Node type="in" id="2" />
        <Node type="in" id="3" />
        <Node type="in" id="4" />
        <Node type="in" id="5" />
        <Node type="in" id="6" />
        <Node type="in" id="7" />
        <Node type="in" id="8" />
        <Node type="in" id="9" />
        <Node type="in" id="10" />
        <Node type="out" id="11" />
        <Node type="out" id="12" />
      </Nodes>
      <Connections>
        <Con id="13" src="0" tgt="11" wght="-0.40620593912899494" />
        <Con id="14" src="0" tgt="12" wght="-0.68629624973982573" />
        <Con id="15" src="1" tgt="11" wght="0.015017984434962273" />
        <Con id="16" src="1" tgt="12" wght="0.18603202980011702" />
        <Con id="17" src="2" tgt="11" wght="0.25098748411983252" />
        <Con id="18" src="2" tgt="12" wght="0.085750309750437737" />
        <Con id="19" src="3" tgt="11" wght="0.85001300740987062" />
        <Con id="20" src="3" tgt="12" wght="0.90207323431968689" />
        <Con id="21" src="4" tgt="11" wght="0.63921466469764709" />
        <Con id="22" src="4" tgt="12" wght="0.0603431286290288" />
        <Con id="23" src="5" tgt="11" wght="0.3580184131860733" />
        <Con id="24" src="5" tgt="12" wght="0.4568770295009017" />
        <Con id="25" src="6" tgt="11" wght="-0.63866238482296467" />
        <Con id="26" src="6" tgt="12" wght="0.5189010975882411" />
        <Con id="27" src="7" tgt="11" wght="0.089636750519275665" />
        <Con id="28" src="7" tgt="12" wght="0.974146967753768" />
        <Con id="29" src="8" tgt="11" wght="0.010017759166657925" />
        <Con id="30" src="8" tgt="12" wght="0.83627467975020409" />
        <Con id="31" src="9" tgt="11" wght="0.665941902436316" />
        <Con id="32" src="9" tgt="12" wght="0.21084409672766924" />
        <Con id="33" src="10" tgt="11" wght="0.53199220262467861" />
        <Con id="34" src="10" tgt="12" wght="0.55553080607205629" />
      </Connections>
    </Network>
    <Network id="7" birthGen="0" fitness="0">
      <Nodes>
        <Node type="bias" id="0" />
        <Node type="in" id="1" />
        <Node type="in" id="2" />
        <Node type="in" id="3" />
        <Node type="in" id="4" />
        <Node type="in" id="5" />
        <Node type="in" id="6" />
        <Node type="in" id="7" />
        <Node type="in" id="8" />
        <Node type="in" id="9" />
        <Node type="in" id="10" />
        <Node type="out" id="11" />
        <Node type="out" id="12" />
      </Nodes>
      <Connections>
        <Con id="13" src="0" tgt="11" wght="0.638724927790463" />
        <Con id="14" src="0" tgt="12" wght="-0.799029503017664" />
        <Con id="15" src="1" tgt="11" wght="0.33170844800770283" />
        <Con id="16" src="1" tgt="12" wght="-0.36156654357910156" />
        <Con id="17" src="2" tgt="11" wght="0.55710304714739323" />
        <Con id="18" src="2" tgt="12" wght="0.12771555781364441" />
        <Con id="19" src="3" tgt="11" wght="-0.26500022225081921" />
        <Con id="20" src="3" tgt="12" wght="0.24791865609586239" />
        <Con id="21" src="4" tgt="11" wght="0.66829472593963146" />
        <Con id="22" src="4" tgt="12" wght="-0.94152196496725082" />
        <Con id="23" src="5" tgt="11" wght="-0.36190004739910364" />
        <Con id="24" src="5" tgt="12" wght="-0.59353224374353886" />
        <Con id="25" src="6" tgt="11" wght="-0.35122654959559441" />
        <Con id="26" src="6" tgt="12" wght="0.0016904165968298912" />
        <Con id="27" src="7" tgt="11" wght="0.7073308639228344" />
        <Con id="28" src="7" tgt="12" wght="-0.984293463639915" />
        <Con id="29" src="8" tgt="11" wght="-0.84322477784007788" />
        <Con id="30" src="8" tgt="12" wght="-0.44168931245803833" />
        <Con id="31" src="9" tgt="11" wght="-0.11994092911481857" />
        <Con id="32" src="9" tgt="12" wght="0.17643873393535614" />
        <Con id="33" src="10" tgt="11" wght="-0.73202128522098064" />
        <Con id="34" src="10" tgt="12" wght="-0.42084476724267006" />
      </Connections>
    </Network>
    <Network id="8" birthGen="0" fitness="0">
      <Nodes>
        <Node type="bias" id="0" />
        <Node type="in" id="1" />
        <Node type="in" id="2" />
        <Node type="in" id="3" />
        <Node type="in" id="4" />
        <Node type="in" id="5" />
        <Node type="in" id="6" />
        <Node type="in" id="7" />
        <Node type="in" id="8" />
        <Node type="in" id="9" />
        <Node type="in" id="10" />
        <Node type="out" id="11" />
        <Node type="out" id="12" />
      </Nodes>
      <Connections>
        <Con id="13" src="0" tgt="11" wght="-0.812484310939908" />
        <Con id="14" src="0" tgt="12" wght="-0.20297101326286793" />
        <Con id="15" src="1" tgt="11" wght="-0.60925108566880226" />
        <Con id="16" src="1" tgt="12" wght="-0.090558347292244434" />
        <Con id="17" src="2" tgt="11" wght="-0.021389758214354515" />
        <Con id="18" src="2" tgt="12" wght="0.92781308200210333" />
        <Con id="19" src="3" tgt="11" wght="0.35366175044327974" />
        <Con id="20" src="3" tgt="12" wght="0.4790885578840971" />
        <Con id="21" src="4" tgt="11" wght="0.26304493099451065" />
        <Con id="22" src="4" tgt="12" wght="-0.45015137549489737" />
        <Con id="23" src="5" tgt="11" wght="0.092835052870213985" />
        <Con id="24" src="5" tgt="12" wght="-0.2861018180847168" />
        <Con id="25" src="6" tgt="11" wght="-0.35535604320466518" />
        <Con id="26" src="6" tgt="12" wght="0.0091953594237566" />
        <Con id="27" src="7" tgt="11" wght="0.10664636362344027" />
        <Con id="28" src="7" tgt="12" wght="-0.49267497006803751" />
        <Con id="29" src="8" tgt="11" wght="0.89852064847946167" />
        <Con id="30" src="8" tgt="12" wght="0.89270816743373871" />
        <Con id="31" src="9" tgt="11" wght="-0.86317435186356306" />
        <Con id="32" src="9" tgt="12" wght="-0.668346531689167" />
        <Con id="33" src="10" tgt="11" wght="0.47334688622504473" />
        <Con id="34" src="10" tgt="12" wght="-0.867174600251019" />
      </Connections>
    </Network>
    <Network id="9" birthGen="0" fitness="0">
      <Nodes>
        <Node type="bias" id="0" />
        <Node type="in" id="1" />
        <Node type="in" id="2" />
        <Node type="in" id="3" />
        <Node type="in" id="4" />
        <Node type="in" id="5" />
        <Node type="in" id="6" />
        <Node type="in" id="7" />
        <Node type="in" id="8" />
        <Node type="in" id="9" />
        <Node type="in" id="10" />
        <Node type="out" id="11" />
        <Node type="out" id="12" />
      </Nodes>
      <Connections>
        <Con id="13" src="0" tgt="11" wght="0.14769296906888485" />
        <Con id="14" src="0" tgt="12" wght="0.18629842717200518" />
        <Con id="15" src="1" tgt="11" wght="-0.82776400353759527" />
        <Con id="16" src="1" tgt="12" wght="-0.41718640457838774" />
        <Con id="17" src="2" tgt="11" wght="0.84867631644010544" />
        <Con id="18" src="2" tgt="12" wght="-0.850163271650672" />
        <Con id="19" src="3" tgt="11" wght="0.57961395755410194" />
        <Con id="20" src="3" tgt="12" wght="0.7934955321252346" />
        <Con id="21" src="4" tgt="11" wght="-0.59259874187409878" />
        <Con id="22" src="4" tgt="12" wght="-0.93971884343773127" />
        <Con id="23" src="5" tgt="11" wght="0.11366238258779049" />
        <Con id="24" src="5" tgt="12" wght="-0.41668862476944923" />
        <Con id="25" src="6" tgt="11" wght="0.72673958819359541" />
        <Con id="26" src="6" tgt="12" wght="0.23010809067636728" />
        <Con id="27" src="7" tgt="11" wght="0.22408179193735123" />
        <Con id="28" src="7" tgt="12" wght="0.64669889025390148" />
        <Con id="29" src="8" tgt="11" wght="-0.025243465788662434" />
        <Con id="30" src="8" tgt="12" wght="-0.0064171673730015755" />
        <Con id="31" src="9" tgt="11" wght="0.79385809786617756" />
        <Con id="32" src="9" tgt="12" wght="-0.096708609722554684" />
        <Con id="33" src="10" tgt="11" wght="-0.928919973783195" />
        <Con id="34" src="10" tgt="12" wght="0.12688900250941515" />
      </Connections>
    </Network>
    <Network id="10" birthGen="0" fitness="0">
      <Nodes>
        <Node type="bias" id="0" />
        <Node type="in" id="1" />
        <Node type="in" id="2" />
        <Node type="in" id="3" />
        <Node type="in" id="4" />
        <Node type="in" id="5" />
        <Node type="in" id="6" />
        <Node type="in" id="7" />
        <Node type="in" id="8" />
        <Node type="in" id="9" />
        <Node type="in" id="10" />
        <Node type="out" id="11" />
        <Node type="out" id="12" />
      </Nodes>
      <Connections>
        <Con id="13" src="0" tgt="11" wght="-0.7031318387016654" />
        <Con id="14" src="0" tgt="12" wght="-0.21802068315446377" />
        <Con id="15" src="1" tgt="11" wght="0.1789559768512845" />
        <Con id="16" src="1" tgt="12" wght="0.77791079133749008" />
        <Con id="17" src="2" tgt="11" wght="-0.21014292631298304" />
        <Con id="18" src="2" tgt="12" wght="0.093440182507038116" />
        <Con id="19" src="3" tgt="11" wght="0.88234302960336208" />
        <Con id="20" src="3" tgt="12" wght="0.139224867336452" />
        <Con id="21" src="4" tgt="11" wght="-0.42657859437167645" />
        <Con id="22" src="4" tgt="12" wght="-0.70427603833377361" />
        <Con id="23" src="5" tgt="11" wght="-0.012052876874804497" />
        <Con id="24" src="5" tgt="12" wght="0.801332388073206" />
        <Con id="25" src="6" tgt="11" wght="-0.49895494896918535" />
        <Con id="26" src="6" tgt="12" wght="0.98524913936853409" />
        <Con id="27" src="7" tgt="11" wght="0.18368001654744148" />
        <Con id="28" src="7" tgt="12" wght="-0.11382867023348808" />
        <Con id="29" src="8" tgt="11" wght="0.7774341581389308" />
        <Con id="30" src="8" tgt="12" wght="0.1520016472786665" />
        <Con id="31" src="9" tgt="11" wght="0.48553914669901133" />
        <Con id="32" src="9" tgt="12" wght="-0.28572821617126465" />
        <Con id="33" src="10" tgt="11" wght="-0.35727550461888313" />
        <Con id="34" src="10" tgt="12" wght="0.39908794034272432" />
      </Connections>
    </Network>
    <Network id="11" birthGen="0" fitness="0">
      <Nodes>
        <Node type="bias" id="0" />
        <Node type="in" id="1" />
        <Node type="in" id="2" />
        <Node type="in" id="3" />
        <Node type="in" id="4" />
        <Node type="in" id="5" />
        <Node type="in" id="6" />
        <Node type="in" id="7" />
        <Node type="in" id="8" />
        <Node type="in" id="9" />
        <Node type="in" id="10" />
        <Node type="out" id="11" />
        <Node type="out" id="12" />
      </Nodes>
      <Connections>
        <Con id="13" src="0" tgt="11" wght="0.695836172439158" />
        <Con id="14" src="0" tgt="12" wght="-0.027695812284946442" />
        <Con id="15" src="1" tgt="11" wght="-0.07121029868721962" />
        <Con id="16" src="1" tgt="12" wght="-0.8825858561322093" />
        <Con id="17" src="2" tgt="11" wght="-0.67056225892156363" />
        <Con id="18" src="2" tgt="12" wght="0.55678531713783741" />
        <Con id="19" src="3" tgt="11" wght="-0.69614043924957514" />
        <Con id="20" src="3" tgt="12" wght="0.68971625808626413" />
        <Con id="21" src="4" tgt="11" wght="-0.14738614019006491" />
        <Con id="22" src="4" tgt="12" wght="-0.88238801527768373" />
        <Con id="23" src="5" tgt="11" wght="-0.14687332324683666" />
        <Con id="24" src="5" tgt="12" wght="-0.6729491725564003" />
        <Con id="25" src="6" tgt="11" wght="-0.86758977267891169" />
        <Con id="26" src="6" tgt="12" wght="-0.8665367579087615" />
        <Con id="27" src="7" tgt="11" wght="0.18836769368499517" />
        <Con id="28" src="7" tgt="12" wght="-0.35308466386049986" />
        <Con id="29" src="8" tgt="11" wght="-0.81643740739673376" />
        <Con id="30" src="8" tgt="12" wght="0.88372447807341814" />
        <Con id="31" src="9" tgt="11" wght="0.78375162649899721" />
        <Con id="32" src="9" tgt="12" wght="0.58888199459761381" />
        <Con id="33" src="10" tgt="11" wght="0.3459069998934865" />
        <Con id="34" src="10" tgt="12" wght="0.81137190200388432" />
      </Connections>
    </Network>
    <Network id="12" birthGen="0" fitness="0">
      <Nodes>
        <Node type="bias" id="0" />
        <Node type="in" id="1" />
        <Node type="in" id="2" />
        <Node type="in" id="3" />
        <Node type="in" id="4" />
        <Node type="in" id="5" />
        <Node type="in" id="6" />
        <Node type="in" id="7" />
        <Node type="in" id="8" />
        <Node type="in" id="9" />
        <Node type="in" id="10" />
        <Node type="out" id="11" />
        <Node type="out" id="12" />
      </Nodes>
      <Connections>
        <Con id="13" src="0" tgt="11" wght="-0.31867334805428982" />
        <Con id="14" src="0" tgt="12" wght="0.5961705856025219" />
        <Con id="15" src="1" tgt="11" wght="-0.88313362654298544" />
        <Con id="16" src="1" tgt="12" wght="-0.15424291044473648" />
        <Con id="17" src="2" tgt="11" wght="0.37269680574536324" />
        <Con id="18" src="2" tgt="12" wght="0.75759385339915752" />
        <Con id="19" src="3" tgt="11" wght="-0.19709758926182985" />
        <Con id="20" src="3" tgt="12" wght="0.29443727619946003" />
        <Con id="21" src="4" tgt="11" wght="-0.46128570940345526" />
        <Con id="22" src="4" tgt="12" wght="-0.53019049298018217" />
        <Con id="23" src="5" tgt="11" wght="-0.691873773932457" />
        <Con id="24" src="5" tgt="12" wght="0.53081294149160385" />
        <Con id="25" src="6" tgt="11" wght="-0.68590877670794725" />
        <Con id="26" src="6" tgt="12" wght="0.25708230305463076" />
        <Con id="27" src="7" tgt="11" wght="0.58950367197394371" />
        <Con id="28" src="7" tgt="12" wght="-0.25150975678116083" />
        <Con id="29" src="8" tgt="11" wght="-0.14882336929440498" />
        <Con id="30" src="8" tgt="12" wght="0.86211162619292736" />
        <Con id="31" src="9" tgt="11" wght="0.48692501895129681" />
        <Con id="32" src="9" tgt="12" wght="0.91864625923335552" />
        <Con id="33" src="10" tgt="11" wght="0.81387967150658369" />
        <Con id="34" src="10" tgt="12" wght="-0.96551549527794123" />
      </Connections>
    </Network>
    <Network id="13" birthGen="0" fitness="0">
      <Nodes>
        <Node type="bias" id="0" />
        <Node type="in" id="1" />
        <Node type="in" id="2" />
        <Node type="in" id="3" />
        <Node type="in" id="4" />
        <Node type="in" id="5" />
        <Node type="in" id="6" />
        <Node type="in" id="7" />
        <Node type="in" id="8" />
        <Node type="in" id="9" />
        <Node type="in" id="10" />
        <Node type="out" id="11" />
        <Node type="out" id="12" />
      </Nodes>
      <Connections>
        <Con id="13" src="0" tgt="11" wght="0.099304589442908764" />
        <Con id="14" src="0" tgt="12" wght="-0.95123398769646883" />
        <Con id="15" src="1" tgt="11" wght="0.80562216509133577" />
        <Con id="16" src="1" tgt="12" wght="0.64038220979273319" />
        <Con id="17" src="2" tgt="11" wght="-0.55501904431730509" />
        <Con id="18" src="2" tgt="12" wght="0.61798077076673508" />
        <Con id="19" src="3" tgt="11" wght="0.92017078027129173" />
        <Con id="20" src="3" tgt="12" wght="-0.44885133858770132" />
        <Con id="21" src="4" tgt="11" wght="0.32433665357530117" />
        <Con id="22" src="4" tgt="12" wght="0.70619342289865017" />
        <Con id="23" src="5" tgt="11" wght="0.715271539054811" />
        <Con id="24" src="5" tgt="12" wght="0.90374996047466993" />
        <Con id="25" src="6" tgt="11" wght="0.74335404019802809" />
        <Con id="26" src="6" tgt="12" wght="-0.074823623523116112" />
        <Con id="27" src="7" tgt="11" wght="0.04790815431624651" />
        <Con id="28" src="7" tgt="12" wght="-0.76819503493607044" />
        <Con id="29" src="8" tgt="11" wght="-0.73440080787986517" />
        <Con id="30" src="8" tgt="12" wght="-0.40167273581027985" />
        <Con id="31" src="9" tgt="11" wght="0.12089713849127293" />
        <Con id="32" src="9" tgt="12" wght="0.3896828293800354" />
        <Con id="33" src="10" tgt="11" wght="0.075464501045644283" />
        <Con id="34" src="10" tgt="12" wght="-0.61486717127263546" />
      </Connections>
    </Network>
    <Network id="14" birthGen="0" fitness="0">
      <Nodes>
        <Node type="bias" id="0" />
        <Node type="in" id="1" />
        <Node type="in" id="2" />
        <Node type="in" id="3" />
        <Node type="in" id="4" />
        <Node type="in" id="5" />
        <Node type="in" id="6" />
        <Node type="in" id="7" />
        <Node type="in" id="8" />
        <Node type="in" id="9" />
        <Node type="in" id="10" />
        <Node type="out" id="11" />
        <Node type="out" id="12" />
      </Nodes>
      <Connections>
        <Con id="13" src="0" tgt="11" wght="-0.63940629083663225" />
        <Con id="14" src="0" tgt="12" wght="0.84430539514869452" />
        <Con id="15" src="1" tgt="11" wght="-0.81513536535203457" />
        <Con id="16" src="1" tgt="12" wght="0.12733055092394352" />
        <Con id="17" src="2" tgt="11" wght="-0.84941553138196468" />
        <Con id="18" src="2" tgt="12" wght="-0.022343308664858341" />
        <Con id="19" src="3" tgt="11" wght="0.97944806702435017" />
        <Con id="20" src="3" tgt="12" wght="0.72588713467121124" />
        <Con id="21" src="4" tgt="11" wght="0.03683821577578783" />
        <Con id="22" src="4" tgt="12" wght="0.8043102789670229" />
        <Con id="23" src="5" tgt="11" wght="-0.67355820070952177" />
        <Con id="24" src="5" tgt="12" wght="0.59169927332550287" />
        <Con id="25" src="6" tgt="11" wght="-0.93854263611137867" />
        <Con id="26" src="6" tgt="12" wght="-0.067222540266811848" />
        <Con id="27" src="7" tgt="11" wght="0.16330033540725708" />
        <Con id="28" src="7" tgt="12" wght="0.52747457940131426" />
        <Con id="29" src="8" tgt="11" wght="0.49597855284810066" />
        <Con id="30" src="8" tgt="12" wght="0.586199389770627" />
        <Con id="31" src="9" tgt="11" wght="-0.10850626137107611" />
        <Con id="32" src="9" tgt="12" wght="-0.303155149333179" />
        <Con id="33" src="10" tgt="11" wght="-0.97460035607218742" />
        <Con id="34" src="10" tgt="12" wght="0.842565331608057" />
      </Connections>
    </Network>
    <Network id="15" birthGen="0" fitness="0">
      <Nodes>
        <Node type="bias" id="0" />
        <Node type="in" id="1" />
        <Node type="in" id="2" />
        <Node type="in" id="3" />
        <Node type="in" id="4" />
        <Node type="in" id="5" />
        <Node type="in" id="6" />
        <Node type="in" id="7" />
        <Node type="in" id="8" />
        <Node type="in" id="9" />
        <Node type="in" id="10" />
        <Node type="out" id="11" />
        <Node type="out" id="12" />
      </Nodes>
      <Connections>
        <Con id="13" src="0" tgt="11" wght="-0.58060115948319435" />
        <Con id="14" src="0" tgt="12" wght="-0.24655527900904417" />
        <Con id="15" src="1" tgt="11" wght="-0.7880948893725872" />
        <Con id="16" src="1" tgt="12" wght="0.97151861153543" />
        <Con id="17" src="2" tgt="11" wght="-0.814729786477983" />
        <Con id="18" src="2" tgt="12" wght="0.063476927578449249" />
        <Con id="19" src="3" tgt="11" wght="-0.44190737791359425" />
        <Con id="20" src="3" tgt="12" wght="-0.88784020952880383" />
        <Con id="21" src="4" tgt="11" wght="-0.11463191360235214" />
        <Con id="22" src="4" tgt="12" wght="0.20775101985782385" />
        <Con id="23" src="5" tgt="11" wght="-0.12367687188088894" />
        <Con id="24" src="5" tgt="12" wght="-0.80993503984063864" />
        <Con id="25" src="6" tgt="11" wght="-0.78394080977886915" />
        <Con id="26" src="6" tgt="12" wght="0.94225867185741663" />
        <Con id="27" src="7" tgt="11" wght="-0.26821733266115189" />
        <Con id="28" src="7" tgt="12" wght="-0.6210983544588089" />
        <Con id="29" src="8" tgt="11" wght="0.81883651949465275" />
        <Con id="30" src="8" tgt="12" wght="0.58735407143831253" />
        <Con id="31" src="9" tgt="11" wght="0.56951520685106516" />
        <Con id="32" src="9" tgt="12" wght="0.69529051054269075" />
        <Con id="33" src="10" tgt="11" wght="-0.83678081165999174" />
        <Con id="34" src="10" tgt="12" wght="-0.50770451873540878" />
      </Connections>
    </Network>
    <Network id="16" birthGen="0" fitness="0">
      <Nodes>
        <Node type="bias" id="0" />
        <Node type="in" id="1" />
        <Node type="in" id="2" />
        <Node type="in" id="3" />
        <Node type="in" id="4" />
        <Node type="in" id="5" />
        <Node type="in" id="6" />
        <Node type="in" id="7" />
        <Node type="in" id="8" />
        <Node type="in" id="9" />
        <Node type="in" id="10" />
        <Node type="out" id="11" />
        <Node type="out" id="12" />
      </Nodes>
      <Connections>
        <Con id="13" src="0" tgt="11" wght="-0.048362492583692074" />
        <Con id="14" src="0" tgt="12" wght="-0.90396434906870127" />
        <Con id="15" src="1" tgt="11" wght="-0.66987022385001183" />
        <Con id="16" src="1" tgt="12" wght="-0.76407740078866482" />
        <Con id="17" src="2" tgt="11" wght="0.52866017632186413" />
        <Con id="18" src="2" tgt="12" wght="0.018372729420661926" />
        <Con id="19" src="3" tgt="11" wght="-0.48265009839087725" />
        <Con id="20" src="3" tgt="12" wght="-0.87822226155549288" />
        <Con id="21" src="4" tgt="11" wght="0.41622933931648731" />
        <Con id="22" src="4" tgt="12" wght="0.98729511257261038" />
        <Con id="23" src="5" tgt="11" wght="0.90453831478953362" />
        <Con id="24" src="5" tgt="12" wght="-0.58579702209681273" />
        <Con id="25" src="6" tgt="11" wght="0.26275273505598307" />
        <Con id="26" src="6" tgt="12" wght="-0.8046166468411684" />
        <Con id="27" src="7" tgt="11" wght="-0.51143002323806286" />
        <Con id="28" src="7" tgt="12" wght="-0.14108085911720991" />
        <Con id="29" src="8" tgt="11" wght="0.50816264655441046" />
        <Con id="30" src="8" tgt="12" wght="-0.54789594281464815" />
        <Con id="31" src="9" tgt="11" wght="0.34456047974526882" />
        <Con id="32" src="9" tgt="12" wght="0.38597991969436407" />
        <Con id="33" src="10" tgt="11" wght="0.61068268492817879" />
        <Con id="34" src="10" tgt="12" wght="0.13707661163061857" />
      </Connections>
    </Network>
    <Network id="17" birthGen="0" fitness="0">
      <Nodes>
        <Node type="bias" id="0" />
        <Node type="in" id="1" />
        <Node type="in" id="2" />
        <Node type="in" id="3" />
        <Node type="in" id="4" />
        <Node type="in" id="5" />
        <Node type="in" id="6" />
        <Node type="in" id="7" />
        <Node type="in" id="8" />
        <Node type="in" id="9" />
        <Node type="in" id="10" />
        <Node type="out" id="11" />
        <Node type="out" id="12" />
      </Nodes>
      <Connections>
        <Con id="13" src="0" tgt="11" wght="0.79262748453766108" />
        <Con id="14" src="0" tgt="12" wght="0.18833892792463303" />
        <Con id="15" src="1" tgt="11" wght="0.71082011051476" />
        <Con id="16" src="1" tgt="12" wght="-0.63257116265594959" />
        <Con id="17" src="2" tgt="11" wght="0.58319381158798933" />
        <Con id="18" src="2" tgt="12" wght="0.28598446771502495" />
        <Con id="19" src="3" tgt="11" wght="0.2010244419798255" />
        <Con id="20" src="3" tgt="12" wght="-0.95595482364296913" />
        <Con id="21" src="4" tgt="11" wght="-0.24774358607828617" />
        <Con id="22" src="4" tgt="12" wght="-0.33201633859425783" />
        <Con id="23" src="5" tgt="11" wght="-0.66915418114513159" />
        <Con id="24" src="5" tgt="12" wght="-0.45262516010552645" />
        <Con id="25" src="6" tgt="11" wght="0.65123024117201567" />
        <Con id="26" src="6" tgt="12" wght="-0.45219867769628763" />
        <Con id="27" src="7" tgt="11" wght="0.11618975829333067" />
        <Con id="28" src="7" tgt="12" wght="-0.0011950619518756866" />
        <Con id="29" src="8" tgt="11" wght="0.43250720575451851" />
        <Con id="30" src="8" tgt="12" wght="0.00090111419558525085" />
        <Con id="31" src="9" tgt="11" wght="0.5642705699428916" />
        <Con id="32" src="9" tgt="12" wght="0.55051572434604168" />
        <Con id="33" src="10" tgt="11" wght="-0.73918354231864214" />
        <Con id="34" src="10" tgt="12" wght="0.68075849395245314" />
      </Connections>
    </Network>
    <Network id="18" birthGen="0" fitness="0">
      <Nodes>
        <Node type="bias" id="0" />
        <Node type="in" id="1" />
        <Node type="in" id="2" />
        <Node type="in" id="3" />
        <Node type="in" id="4" />
        <Node type="in" id="5" />
        <Node type="in" id="6" />
        <Node type="in" id="7" />
        <Node type="in" id="8" />
        <Node type="in" id="9" />
        <Node type="in" id="10" />
        <Node type="out" id="11" />
        <Node type="out" id="12" />
      </Nodes>
      <Connections>
        <Con id="13" src="0" tgt="11" wght="-0.526379999704659" />
        <Con id="14" src="0" tgt="12" wght="-0.032019633799791336" />
        <Con id="15" src="1" tgt="11" wght="-0.83739238604903221" />
        <Con id="16" src="1" tgt="12" wght="0.1392823550850153" />
        <Con id="17" src="2" tgt="11" wght="-0.17737833689898252" />
        <Con id="18" src="2" tgt="12" wght="0.46041351091116667" />
        <Con id="19" src="3" tgt="11" wght="-0.804857624694705" />
        <Con id="20" src="3" tgt="12" wght="0.65758683532476425" />
        <Con id="21" src="4" tgt="11" wght="-0.53627627994865179" />
        <Con id="22" src="4" tgt="12" wght="-0.2758820466697216" />
        <Con id="23" src="5" tgt="11" wght="-0.80965011194348335" />
        <Con id="24" src="5" tgt="12" wght="0.92801698856055737" />
        <Con id="25" src="6" tgt="11" wght="0.43286039214581251" />
        <Con id="26" src="6" tgt="12" wght="0.15275453589856625" />
        <Con id="27" src="7" tgt="11" wght="0.54797384887933731" />
        <Con id="28" src="7" tgt="12" wght="0.30199096165597439" />
        <Con id="29" src="8" tgt="11" wght="0.9453854626044631" />
        <Con id="30" src="8" tgt="12" wght="0.76791422907263041" />
        <Con id="31" src="9" tgt="11" wght="0.11350021604448557" />
        <Con id="32" src="9" tgt="12" wght="0.72857438772916794" />
        <Con id="33" src="10" tgt="11" wght="-0.85980481375008821" />
        <Con id="34" src="10" tgt="12" wght="0.97435109224170446" />
      </Connections>
    </Network>
    <Network id="19" birthGen="0" fitness="0">
      <Nodes>
        <Node type="bias" id="0" />
        <Node type="in" id="1" />
        <Node type="in" id="2" />
        <Node type="in" id="3" />
        <Node type="in" id="4" />
        <Node type="in" id="5" />
        <Node type="in" id="6" />
        <Node type="in" id="7" />
        <Node type="in" id="8" />
        <Node type="in" id="9" />
        <Node type="in" id="10" />
        <Node type="out" id="11" />
        <Node type="out" id="12" />
      </Nodes>
      <Connections>
        <Con id="13" src="0" tgt="11" wght="-0.15283442009240389" />
        <Con id="14" src="0" tgt="12" wght="0.35747970454394817" />
        <Con id="15" src="1" tgt="11" wght="0.68662926740944386" />
        <Con id="16" src="1" tgt="12" wght="0.805472195148468" />
        <Con id="17" src="2" tgt="11" wght="0.84868836030364037" />
        <Con id="18" src="2" tgt="12" wght="0.27996100299060345" />
        <Con id="19" src="3" tgt="11" wght="0.39033872541040182" />
        <Con id="20" src="3" tgt="12" wght="-0.93806846812367439" />
        <Con id="21" src="4" tgt="11" wght="0.40082599502056837" />
        <Con id="22" src="4" tgt="12" wght="-0.72182211559265852" />
        <Con id="23" src="5" tgt="11" wght="0.97181171085685492" />
        <Con id="24" src="5" tgt="12" wght="0.014508368447422981" />
        <Con id="25" src="6" tgt="11" wght="0.47510721441358328" />
        <Con id="26" src="6" tgt="12" wght="-0.88151959795504808" />
        <Con id="27" src="7" tgt="11" wght="-0.84578503668308258" />
        <Con id="28" src="7" tgt="12" wght="0.83956839889287949" />
        <Con id="29" src="8" tgt="11" wght="0.98578002117574215" />
        <Con id="30" src="8" tgt="12" wght="-0.24322878383100033" />
        <Con id="31" src="9" tgt="11" wght="-0.97721627168357372" />
        <Con id="32" src="9" tgt="12" wght="0.45712794084101915" />
        <Con id="33" src="10" tgt="11" wght="0.51198611035943031" />
        <Con id="34" src="10" tgt="12" wght="-0.26475615985691547" />
      </Connections>
    </Network>
    <Network id="20" birthGen="0" fitness="0">
      <Nodes>
        <Node type="bias" id="0" />
        <Node type="in" id="1" />
        <Node type="in" id="2" />
        <Node type="in" id="3" />
        <Node type="in" id="4" />
        <Node type="in" id="5" />
        <Node type="in" id="6" />
        <Node type="in" id="7" />
        <Node type="in" id="8" />
        <Node type="in" id="9" />
        <Node type="in" id="10" />
        <Node type="out" id="11" />
        <Node type="out" id="12" />
      </Nodes>
      <Connections>
        <Con id="13" src="0" tgt="11" wght="0.44628174230456352" />
        <Con id="14" src="0" tgt="12" wght="0.41123277693986893" />
        <Con id="15" src="1" tgt="11" wght="0.95290458295494318" />
        <Con id="16" src="1" tgt="12" wght="0.05373793002218008" />
        <Con id="17" src="2" tgt="11" wght="-0.57296588644385338" />
        <Con id="18" src="2" tgt="12" wght="-0.67225382477045059" />
        <Con id="19" src="3" tgt="11" wght="0.56626879144459963" />
        <Con id="20" src="3" tgt="12" wght="0.24217011872678995" />
        <Con id="21" src="4" tgt="11" wght="0.97990868054330349" />
        <Con id="22" src="4" tgt="12" wght="-0.10568236466497183" />
        <Con id="23" src="5" tgt="11" wght="0.060875218361616135" />
        <Con id="24" src="5" tgt="12" wght="0.081257450394332409" />
        <Con id="25" src="6" tgt="11" wght="-0.908395204693079" />
        <Con id="26" src="6" tgt="12" wght="-0.89257079642266035" />
        <Con id="27" src="7" tgt="11" wght="0.14991543628275394" />
        <Con id="28" src="7" tgt="12" wght="0.048872318118810654" />
        <Con id="29" src="8" tgt="11" wght="0.89878458436578512" />
        <Con id="30" src="8" tgt="12" wght="-0.53568815067410469" />
        <Con id="31" src="9" tgt="11" wght="-0.18617867771536112" />
        <Con id="32" src="9" tgt="12" wght="0.31989908311516047" />
        <Con id="33" src="10" tgt="11" wght="0.69695913605391979" />
        <Con id="34" src="10" tgt="12" wght="0.41623696498572826" />
      </Connections>
    </Network>
    <Network id="21" birthGen="0" fitness="0">
      <Nodes>
        <Node type="bias" id="0" />
        <Node type="in" id="1" />
        <Node type="in" id="2" />
        <Node type="in" id="3" />
        <Node type="in" id="4" />
        <Node type="in" id="5" />
        <Node type="in" id="6" />
        <Node type="in" id="7" />
        <Node type="in" id="8" />
        <Node type="in" id="9" />
        <Node type="in" id="10" />
        <Node type="out" id="11" />
        <Node type="out" id="12" />
      </Nodes>
      <Connections>
        <Con id="13" src="0" tgt="11" wght="-0.13409551978111267" />
        <Con id="14" src="0" tgt="12" wght="-0.3275463217869401" />
        <Con id="15" src="1" tgt="11" wght="0.90813419036567211" />
        <Con id="16" src="1" tgt="12" wght="0.044908960349857807" />
        <Con id="17" src="2" tgt="11" wght="0.012896065600216389" />
        <Con id="18" src="2" tgt="12" wght="0.10571626480668783" />
        <Con id="19" src="3" tgt="11" wght="-0.89334562607109547" />
        <Con id="20" src="3" tgt="12" wght="0.679973809979856" />
        <Con id="21" src="4" tgt="11" wght="-0.078213527798652649" />
        <Con id="22" src="4" tgt="12" wght="0.766695630736649" />
        <Con id="23" src="5" tgt="11" wght="0.55590161588042974" />
        <Con id="24" src="5" tgt="12" wght="-0.081565001048147678" />
        <Con id="25" src="6" tgt="11" wght="-0.35048953164368868" />
        <Con id="26" src="6" tgt="12" wght="-0.3034285930916667" />
        <Con id="27" src="7" tgt="11" wght="0.17713334318250418" />
        <Con id="28" src="7" tgt="12" wght="0.84846610575914383" />
        <Con id="29" src="8" tgt="11" wght="0.41352264117449522" />
        <Con id="30" src="8" tgt="12" wght="0.44024872593581676" />
        <Con id="31" src="9" tgt="11" wght="-0.77935759630054235" />
        <Con id="32" src="9" tgt="12" wght="0.20910044014453888" />
        <Con id="33" src="10" tgt="11" wght="0.26231516432017088" />
        <Con id="34" src="10" tgt="12" wght="-0.94992238283157349" />
      </Connections>
    </Network>
    <Network id="22" birthGen="0" fitness="0">
      <Nodes>
        <Node type="bias" id="0" />
        <Node type="in" id="1" />
        <Node type="in" id="2" />
        <Node type="in" id="3" />
        <Node type="in" id="4" />
        <Node type="in" id="5" />
        <Node type="in" id="6" />
        <Node type="in" id="7" />
        <Node type="in" id="8" />
        <Node type="in" id="9" />
        <Node type="in" id="10" />
        <Node type="out" id="11" />
        <Node type="out" id="12" />
      </Nodes>
      <Connections>
        <Con id="13" src="0" tgt="11" wght="0.69739407487213612" />
        <Con id="14" src="0" tgt="12" wght="0.44951367378234863" />
        <Con id="15" src="1" tgt="11" wght="0.6643935963511467" />
        <Con id="16" src="1" tgt="12" wght="0.17362849786877632" />
        <Con id="17" src="2" tgt="11" wght="-0.54067550972104073" />
        <Con id="18" src="2" tgt="12" wght="-0.78879077825695276" />
        <Con id="19" src="3" tgt="11" wght="-0.84304700791835785" />
        <Con id="20" src="3" tgt="12" wght="-0.079901035875082016" />
        <Con id="21" src="4" tgt="11" wght="-0.82454477623105049" />
        <Con id="22" src="4" tgt="12" wght="-0.32792704738676548" />
        <Con id="23" src="5" tgt="11" wght="-0.48979918379336596" />
        <Con id="24" src="5" tgt="12" wght="0.22308322228491306" />
        <Con id="25" src="6" tgt="11" wght="-0.91842243541032076" />
        <Con id="26" src="6" tgt="12" wght="0.194676267914474" />
        <Con id="27" src="7" tgt="11" wght="0.90142809227108955" />
        <Con id="28" src="7" tgt="12" wght="-0.13309270516037941" />
        <Con id="29" src="8" tgt="11" wght="-0.037151527591049671" />
        <Con id="30" src="8" tgt="12" wght="0.22185887210071087" />
        <Con id="31" src="9" tgt="11" wght="-0.42598928045481443" />
        <Con id="32" src="9" tgt="12" wght="0.79989390447735786" />
        <Con id="33" src="10" tgt="11" wght="-0.84878118615597486" />
        <Con id="34" src="10" tgt="12" wght="-0.73594415001571178" />
      </Connections>
    </Network>
    <Network id="23" birthGen="0" fitness="0">
      <Nodes>
        <Node type="bias" id="0" />
        <Node type="in" id="1" />
        <Node type="in" id="2" />
        <Node type="in" id="3" />
        <Node type="in" id="4" />
        <Node type="in" id="5" />
        <Node type="in" id="6" />
        <Node type="in" id="7" />
        <Node type="in" id="8" />
        <Node type="in" id="9" />
        <Node type="in" id="10" />
        <Node type="out" id="11" />
        <Node type="out" id="12" />
      </Nodes>
      <Connections>
        <Con id="13" src="0" tgt="11" wght="-0.048317736014723778" />
        <Con id="14" src="0" tgt="12" wght="0.089161443524062634" />
        <Con id="15" src="1" tgt="11" wght="-0.073972325772047043" />
        <Con id="16" src="1" tgt="12" wght="0.85607339441776276" />
        <Con id="17" src="2" tgt="11" wght="0.574119521304965" />
        <Con id="18" src="2" tgt="12" wght="0.1038040341809392" />
        <Con id="19" src="3" tgt="11" wght="0.081520030274987221" />
        <Con id="20" src="3" tgt="12" wght="0.56298418156802654" />
        <Con id="21" src="4" tgt="11" wght="-0.96939878538250923" />
        <Con id="22" src="4" tgt="12" wght="-0.15554048959165812" />
        <Con id="23" src="5" tgt="11" wght="0.87955164350569248" />
        <Con id="24" src="5" tgt="12" wght="0.022289951331913471" />
        <Con id="25" src="6" tgt="11" wght="-0.67607512883841991" />
        <Con id="26" src="6" tgt="12" wght="0.42574407253414392" />
        <Con id="27" src="7" tgt="11" wght="0.081786735914647579" />
        <Con id="28" src="7" tgt="12" wght="-0.55714968405663967" />
        <Con id="29" src="8" tgt="11" wght="0.53906024806201458" />
        <Con id="30" src="8" tgt="12" wght="-0.76235082745552063" />
        <Con id="31" src="9" tgt="11" wght="0.72832919843494892" />
        <Con id="32" src="9" tgt="12" wght="0.45648651383817196" />
        <Con id="33" src="10" tgt="11" wght="0.71975164860486984" />
        <Con id="34" src="10" tgt="12" wght="-0.014364365488290787" />
      </Connections>
    </Network>
    <Network id="24" birthGen="0" fitness="0">
      <Nodes>
        <Node type="bias" id="0" />
        <Node type="in" id="1" />
        <Node type="in" id="2" />
        <Node type="in" id="3" />
        <Node type="in" id="4" />
        <Node type="in" id="5" />
        <Node type="in" id="6" />
        <Node type="in" id="7" />
        <Node type="in" id="8" />
        <Node type="in" id="9" />
        <Node type="in" id="10" />
        <Node type="out" id="11" />
        <Node type="out" id="12" />
      </Nodes>
      <Connections>
        <Con id="13" src="0" tgt="11" wght="0.34965398628264666" />
        <Con id="14" src="0" tgt="12" wght="-0.26440498232841492" />
        <Con id="15" src="1" tgt="11" wght="0.81520172860473394" />
        <Con id="16" src="1" tgt="12" wght="-0.81532469298690557" />
        <Con id="17" src="2" tgt="11" wght="-0.9821635102853179" />
        <Con id="18" src="2" tgt="12" wght="-0.94745801761746407" />
        <Con id="19" src="3" tgt="11" wght="-0.68615005444735289" />
        <Con id="20" src="3" tgt="12" wght="0.78472889494150877" />
        <Con id="21" src="4" tgt="11" wght="-0.20235237199813128" />
        <Con id="22" src="4" tgt="12" wght="0.076560167595744133" />
        <Con id="23" src="5" tgt="11" wght="0.12487217132002115" />
        <Con id="24" src="5" tgt="12" wght="-0.91156689077615738" />
        <Con id="25" src="6" tgt="11" wght="0.5476609505712986" />
        <Con id="26" src="6" tgt="12" wght="-0.710043279454112" />
        <Con id="27" src="7" tgt="11" wght="0.35922999028116465" />
        <Con id="28" src="7" tgt="12" wght="-0.25081702321767807" />
        <Con id="29" src="8" tgt="11" wght="-0.052908067591488361" />
        <Con id="30" src="8" tgt="12" wght="0.31916276551783085" />
        <Con id="31" src="9" tgt="11" wght="0.8384035425260663" />
        <Con id="32" src="9" tgt="12" wght="0.71106383483856916" />
        <Con id="33" src="10" tgt="11" wght="-0.076297861523926258" />
        <Con id="34" src="10" tgt="12" wght="-0.44956828933209181" />
      </Connections>
    </Network>
    <Network id="25" birthGen="0" fitness="0">
      <Nodes>
        <Node type="bias" id="0" />
        <Node type="in" id="1" />
        <Node type="in" id="2" />
        <Node type="in" id="3" />
        <Node type="in" id="4" />
        <Node type="in" id="5" />
        <Node type="in" id="6" />
        <Node type="in" id="7" />
        <Node type="in" id="8" />
        <Node type="in" id="9" />
        <Node type="in" id="10" />
        <Node type="out" id="11" />
        <Node type="out" id="12" />
      </Nodes>
      <Connections>
        <Con id="13" src="0" tgt="11" wght="-0.087726923637092113" />
        <Con id="14" src="0" tgt="12" wght="0.42346639465540648" />
        <Con id="15" src="1" tgt="11" wght="0.10243215691298246" />
        <Con id="16" src="1" tgt="12" wght="-0.889646683819592" />
        <Con id="17" src="2" tgt="11" wght="-0.21617419645190239" />
        <Con id="18" src="2" tgt="12" wght="-0.55308027192950249" />
        <Con id="19" src="3" tgt="11" wght="-0.452533439733088" />
        <Con id="20" src="3" tgt="12" wght="0.10714359395205975" />
        <Con id="21" src="4" tgt="11" wght="-0.63882061280310154" />
        <Con id="22" src="4" tgt="12" wght="-0.64413346908986568" />
        <Con id="23" src="5" tgt="11" wght="0.7864858228713274" />
        <Con id="24" src="5" tgt="12" wght="-0.43581473082304" />
        <Con id="25" src="6" tgt="11" wght="0.45974822714924812" />
        <Con id="26" src="6" tgt="12" wght="-0.97852989658713341" />
        <Con id="27" src="7" tgt="11" wght="-0.869770236313343" />
        <Con id="28" src="7" tgt="12" wght="-0.58185083325952291" />
        <Con id="29" src="8" tgt="11" wght="0.90412714146077633" />
        <Con id="30" src="8" tgt="12" wght="-0.50903832353651524" />
        <Con id="31" src="9" tgt="11" wght="0.10403274279087782" />
        <Con id="32" src="9" tgt="12" wght="-0.59366453438997269" />
        <Con id="33" src="10" tgt="11" wght="0.56429931800812483" />
        <Con id="34" src="10" tgt="12" wght="-0.034222453832626343" />
      </Connections>
    </Network>
    <Network id="26" birthGen="0" fitness="0">
      <Nodes>
        <Node type="bias" id="0" />
        <Node type="in" id="1" />
        <Node type="in" id="2" />
        <Node type="in" id="3" />
        <Node type="in" id="4" />
        <Node type="in" id="5" />
        <Node type="in" id="6" />
        <Node type="in" id="7" />
        <Node type="in" id="8" />
        <Node type="in" id="9" />
        <Node type="in" id="10" />
        <Node type="out" id="11" />
        <Node type="out" id="12" />
      </Nodes>
      <Connections>
        <Con id="13" src="0" tgt="11" wght="0.79398083221167326" />
        <Con id="14" src="0" tgt="12" wght="0.404900255613029" />
        <Con id="15" src="1" tgt="11" wght="-0.52429367229342461" />
        <Con id="16" src="1" tgt="12" wght="-0.075010205619037151" />
        <Con id="17" src="2" tgt="11" wght="0.35247219260782003" />
        <Con id="18" src="2" tgt="12" wght="0.38154931273311377" />
        <Con id="19" src="3" tgt="11" wght="0.18750147242099047" />
        <Con id="20" src="3" tgt="12" wght="-0.34247548971325159" />
        <Con id="21" src="4" tgt="11" wght="0.3710927227512002" />
        <Con id="22" src="4" tgt="12" wght="0.81913018506020308" />
        <Con id="23" src="5" tgt="11" wght="0.19805497117340565" />
        <Con id="24" src="5" tgt="12" wght="-0.70347252022475" />
        <Con id="25" src="6" tgt="11" wght="-0.085862448439002037" />
        <Con id="26" src="6" tgt="12" wght="0.43645310774445534" />
        <Con id="27" src="7" tgt="11" wght="0.56601649988442659" />
        <Con id="28" src="7" tgt="12" wght="0.89796441048383713" />
        <Con id="29" src="8" tgt="11" wght="0.49775823578238487" />
        <Con id="30" src="8" tgt="12" wght="-0.30407390091568232" />
        <Con id="31" src="9" tgt="11" wght="-0.74595682229846716" />
        <Con id="32" src="9" tgt="12" wght="-0.48354430682957172" />
        <Con id="33" src="10" tgt="11" wght="0.520787401124835" />
        <Con id="34" src="10" tgt="12" wght="0.75984740257263184" />
      </Connections>
    </Network>
    <Network id="27" birthGen="0" fitness="0">
      <Nodes>
        <Node type="bias" id="0" />
        <Node type="in" id="1" />
        <Node type="in" id="2" />
        <Node type="in" id="3" />
        <Node type="in" id="4" />
        <Node type="in" id="5" />
        <Node type="in" id="6" />
        <Node type="in" id="7" />
        <Node type="in" id="8" />
        <Node type="in" id="9" />
        <Node type="in" id="10" />
        <Node type="out" id="11" />
        <Node type="out" id="12" />
      </Nodes>
      <Connections>
        <Con id="13" src="0" tgt="11" wght="-0.94418818689882755" />
        <Con id="14" src="0" tgt="12" wght="0.32675630040466785" />
        <Con id="15" src="1" tgt="11" wght="0.10895652510225773" />
        <Con id="16" src="1" tgt="12" wght="-0.36456624325364828" />
        <Con id="17" src="2" tgt="11" wght="0.023294486105442047" />
        <Con id="18" src="2" tgt="12" wght="-0.052367059513926506" />
        <Con id="19" src="3" tgt="11" wght="0.77997673954814672" />
        <Con id="20" src="3" tgt="12" wght="0.47448715381324291" />
        <Con id="21" src="4" tgt="11" wght="0.930887239985168" />
        <Con id="22" src="4" tgt="12" wght="-0.23071353882551193" />
        <Con id="23" src="5" tgt="11" wght="-0.1178013738244772" />
        <Con id="24" src="5" tgt="12" wght="-0.93232989124953747" />
        <Con id="25" src="6" tgt="11" wght="0.88240364100784063" />
        <Con id="26" src="6" tgt="12" wght="0.34575029090046883" />
        <Con id="27" src="7" tgt="11" wght="0.18201529979705811" />
        <Con id="28" src="7" tgt="12" wght="-0.21845541428774595" />
        <Con id="29" src="8" tgt="11" wght="-0.37839890830218792" />
        <Con id="30" src="8" tgt="12" wght="0.50201264023780823" />
        <Con id="31" src="9" tgt="11" wght="0.69484914001077414" />
        <Con id="32" src="9" tgt="12" wght="0.84388929698616266" />
        <Con id="33" src="10" tgt="11" wght="-0.86162513680756092" />
        <Con id="34" src="10" tgt="12" wght="0.89568644668906927" />
      </Connections>
    </Network>
    <Network id="28" birthGen="0" fitness="0">
      <Nodes>
        <Node type="bias" id="0" />
        <Node type="in" id="1" />
        <Node type="in" id="2" />
        <Node type="in" id="3" />
        <Node type="in" id="4" />
        <Node type="in" id="5" />
        <Node type="in" id="6" />
        <Node type="in" id="7" />
        <Node type="in" id="8" />
        <Node type="in" id="9" />
        <Node type="in" id="10" />
        <Node type="out" id="11" />
        <Node type="out" id="12" />
      </Nodes>
      <Connections>
        <Con id="13" src="0" tgt="11" wght="-0.94976334553211927" />
        <Con id="14" src="0" tgt="12" wght="0.63323025032877922" />
        <Con id="15" src="1" tgt="11" wght="0.74101770389825106" />
        <Con id="16" src="1" tgt="12" wght="-0.74196453206241131" />
        <Con id="17" src="2" tgt="11" wght="0.7941461531445384" />
        <Con id="18" src="2" tgt="12" wght="0.25077841710299253" />
        <Con id="19" src="3" tgt="11" wght="-0.70794092211872339" />
        <Con id="20" src="3" tgt="12" wght="-0.41384426131844521" />
        <Con id="21" src="4" tgt="11" wght="-0.78658814541995525" />
        <Con id="22" src="4" tgt="12" wght="-0.53885703906416893" />
        <Con id="23" src="5" tgt="11" wght="-0.9098225450143218" />
        <Con id="24" src="5" tgt="12" wght="-0.31924797035753727" />
        <Con id="25" src="6" tgt="11" wght="0.83131359703838825" />
        <Con id="26" src="6" tgt="12" wght="-0.0060636578127741814" />
        <Con id="27" src="7" tgt="11" wght="-0.064228483475744724" />
        <Con id="28" src="7" tgt="12" wght="-0.30794246774166822" />
        <Con id="29" src="8" tgt="11" wght="-0.20830205548554659" />
        <Con id="30" src="8" tgt="12" wght="0.68553199805319309" />
        <Con id="31" src="9" tgt="11" wght="-0.54702851921319962" />
        <Con id="32" src="9" tgt="12" wght="-0.65929779130965471" />
        <Con id="33" src="10" tgt="11" wght="-0.51303792186081409" />
        <Con id="34" src="10" tgt="12" wght="-0.74529524613171816" />
      </Connections>
    </Network>
    <Network id="29" birthGen="0" fitness="0">
      <Nodes>
        <Node type="bias" id="0" />
        <Node type="in" id="1" />
        <Node type="in" id="2" />
        <Node type="in" id="3" />
        <Node type="in" id="4" />
        <Node type="in" id="5" />
        <Node type="in" id="6" />
        <Node type="in" id="7" />
        <Node type="in" id="8" />
        <Node type="in" id="9" />
        <Node type="in" id="10" />
        <Node type="out" id="11" />
        <Node type="out" id="12" />
      </Nodes>
      <Connections>
        <Con id="13" src="0" tgt="11" wght="-0.29259014967828989" />
        <Con id="14" src="0" tgt="12" wght="-0.58172004111111164" />
        <Con id="15" src="1" tgt="11" wght="0.38065765611827374" />
        <Con id="16" src="1" tgt="12" wght="0.30107856821268797" />
        <Con id="17" src="2" tgt="11" wght="0.72135946247726679" />
        <Con id="18" src="2" tgt="12" wght="0.70015299320220947" />
        <Con id="19" src="3" tgt="11" wght="-0.59197947848588228" />
        <Con id="20" src="3" tgt="12" wght="0.33661113772541285" />
        <Con id="21" src="4" tgt="11" wght="-0.71339694689959288" />
        <Con id="22" src="4" tgt="12" wght="0.50963854230940342" />
        <Con id="23" src="5" tgt="11" wght="0.26610484719276428" />
        <Con id="24" src="5" tgt="12" wght="-0.13564456254243851" />
        <Con id="25" src="6" tgt="11" wght="-0.09072777908295393" />
        <Con id="26" src="6" tgt="12" wght="-0.50550799816846848" />
        <Con id="27" src="7" tgt="11" wght="-0.24223743565380573" />
        <Con id="28" src="7" tgt="12" wght="-0.64011517260223627" />
        <Con id="29" src="8" tgt="11" wght="-0.35353231336921453" />
        <Con id="30" src="8" tgt="12" wght="0.23347834777086973" />
        <Con id="31" src="9" tgt="11" wght="-0.11593659780919552" />
        <Con id="32" src="9" tgt="12" wght="-0.89305039867758751" />
        <Con id="33" src="10" tgt="11" wght="-0.37561252526938915" />
        <Con id="34" src="10" tgt="12" wght="0.71643590647727251" />
      </Connections>
    </Network>
    <Network id="30" birthGen="0" fitness="0">
      <Nodes>
        <Node type="bias" id="0" />
        <Node type="in" id="1" />
        <Node type="in" id="2" />
        <Node type="in" id="3" />
        <Node type="in" id="4" />
        <Node type="in" id="5" />
        <Node type="in" id="6" />
        <Node type="in" id="7" />
        <Node type="in" id="8" />
        <Node type="in" id="9" />
        <Node type="in" id="10" />
        <Node type="out" id="11" />
        <Node type="out" id="12" />
      </Nodes>
      <Connections>
        <Con id="13" src="0" tgt="11" wght="0.026839118450880051" />
        <Con id="14" src="0" tgt="12" wght="0.96256103925406933" />
        <Con id="15" src="1" tgt="11" wght="0.84708469919860363" />
        <Con id="16" src="1" tgt="12" wght="-0.50848586671054363" />
        <Con id="17" src="2" tgt="11" wght="-0.082037029787898064" />
        <Con id="18" src="2" tgt="12" wght="0.25349412951618433" />
        <Con id="19" src="3" tgt="11" wght="-0.91284267883747816" />
        <Con id="20" src="3" tgt="12" wght="0.5786435678601265" />
        <Con id="21" src="4" tgt="11" wght="0.84626563545316458" />
        <Con id="22" src="4" tgt="12" wght="-0.56459876336157322" />
        <Con id="23" src="5" tgt="11" wght="-0.1225419407710433" />
        <Con id="24" src="5" tgt="12" wght="-0.36833027191460133" />
        <Con id="25" src="6" tgt="11" wght="-0.21834056917577982" />
        <Con id="26" src="6" tgt="12" wght="0.3969415295869112" />
        <Con id="27" src="7" tgt="11" wght="0.62943188566714525" />
        <Con id="28" src="7" tgt="12" wght="0.59676482621580362" />
        <Con id="29" src="8" tgt="11" wght="0.86345233954489231" />
        <Con id="30" src="8" tgt="12" wght="0.89645600784569979" />
        <Con id="31" src="9" tgt="11" wght="-0.015418270602822304" />
        <Con id="32" src="9" tgt="12" wght="0.788962404243648" />
        <Con id="33" src="10" tgt="11" wght="0.78616081550717354" />
        <Con id="34" src="10" tgt="12" wght="-0.34222050104290247" />
      </Connections>
    </Network>
    <Network id="31" birthGen="0" fitness="0">
      <Nodes>
        <Node type="bias" id="0" />
        <Node type="in" id="1" />
        <Node type="in" id="2" />
        <Node type="in" id="3" />
        <Node type="in" id="4" />
        <Node type="in" id="5" />
        <Node type="in" id="6" />
        <Node type="in" id="7" />
        <Node type="in" id="8" />
        <Node type="in" id="9" />
        <Node type="in" id="10" />
        <Node type="out" id="11" />
        <Node type="out" id="12" />
      </Nodes>
      <Connections>
        <Con id="13" src="0" tgt="11" wght="-0.5360696678981185" />
        <Con id="14" src="0" tgt="12" wght="0.55449910927563906" />
        <Con id="15" src="1" tgt="11" wght="-0.5688725458458066" />
        <Con id="16" src="1" tgt="12" wght="-0.86543412506580353" />
        <Con id="17" src="2" tgt="11" wght="-0.13844235986471176" />
        <Con id="18" src="2" tgt="12" wght="0.845398006029427" />
        <Con id="19" src="3" tgt="11" wght="0.1199451545253396" />
        <Con id="20" src="3" tgt="12" wght="0.83224083483219147" />
        <Con id="21" src="4" tgt="11" wght="0.67355282511562109" />
        <Con id="22" src="4" tgt="12" wght="0.50203481409698725" />
        <Con id="23" src="5" tgt="11" wght="-0.41277842223644257" />
        <Con id="24" src="5" tgt="12" wght="0.54456563293933868" />
        <Con id="25" src="6" tgt="11" wght="0.322193737141788" />
        <Con id="26" src="6" tgt="12" wght="-0.462538949213922" />
        <Con id="27" src="7" tgt="11" wght="0.66936260648071766" />
        <Con id="28" src="7" tgt="12" wght="0.14382245391607285" />
        <Con id="29" src="8" tgt="11" wght="-0.722474031150341" />
        <Con id="30" src="8" tgt="12" wght="-0.11930098291486502" />
        <Con id="31" src="9" tgt="11" wght="-0.62656344939023256" />
        <Con id="32" src="9" tgt="12" wght="0.23862846102565527" />
        <Con id="33" src="10" tgt="11" wght="-0.79436081182211637" />
        <Con id="34" src="10" tgt="12" wght="0.068495226092636585" />
      </Connections>
    </Network>
    <Network id="32" birthGen="0" fitness="0">
      <Nodes>
        <Node type="bias" id="0" />
        <Node type="in" id="1" />
        <Node type="in" id="2" />
        <Node type="in" id="3" />
        <Node type="in" id="4" />
        <Node type="in" id="5" />
        <Node type="in" id="6" />
        <Node type="in" id="7" />
        <Node type="in" id="8" />
        <Node type="in" id="9" />
        <Node type="in" id="10" />
        <Node type="out" id="11" />
        <Node type="out" id="12" />
      </Nodes>
      <Connections>
        <Con id="13" src="0" tgt="11" wght="-0.66807724814862013" />
        <Con id="14" src="0" tgt="12" wght="-0.814578752964735" />
        <Con id="15" src="1" tgt="11" wght="-0.1165338596329093" />
        <Con id="16" src="1" tgt="12" wght="0.43891030270606279" />
        <Con id="17" src="2" tgt="11" wght="0.96997564937919378" />
        <Con id="18" src="2" tgt="12" wght="0.068144729360938072" />
        <Con id="19" src="3" tgt="11" wght="-0.73300235625356436" />
        <Con id="20" src="3" tgt="12" wght="-0.72298996336758137" />
        <Con id="21" src="4" tgt="11" wght="-0.16304840426892042" />
        <Con id="22" src="4" tgt="12" wght="-0.85955571383237839" />
        <Con id="23" src="5" tgt="11" wght="0.77003133576363325" />
        <Con id="24" src="5" tgt="12" wght="-0.067803432233631611" />
        <Con id="25" src="6" tgt="11" wght="-0.51728113368153572" />
        <Con id="26" src="6" tgt="12" wght="-0.847642376087606" />
        <Con id="27" src="7" tgt="11" wght="0.58923738729208708" />
        <Con id="28" src="7" tgt="12" wght="-0.43642986752092838" />
        <Con id="29" src="8" tgt="11" wght="-0.98604355100542307" />
        <Con id="30" src="8" tgt="12" wght="0.71685289591550827" />
        <Con id="31" src="9" tgt="11" wght="-0.318426551297307" />
        <Con id="32" src="9" tgt="12" wght="0.393693421036005" />
        <Con id="33" src="10" tgt="11" wght="0.008520347997546196" />
        <Con id="34" src="10" tgt="12" wght="-0.9748454662039876" />
      </Connections>
    </Network>
    <Network id="33" birthGen="0" fitness="0">
      <Nodes>
        <Node type="bias" id="0" />
        <Node type="in" id="1" />
        <Node type="in" id="2" />
        <Node type="in" id="3" />
        <Node type="in" id="4" />
        <Node type="in" id="5" />
        <Node type="in" id="6" />
        <Node type="in" id="7" />
        <Node type="in" id="8" />
        <Node type="in" id="9" />
        <Node type="in" id="10" />
        <Node type="out" id="11" />
        <Node type="out" id="12" />
      </Nodes>
      <Connections>
        <Con id="13" src="0" tgt="11" wght="0.35383117105811834" />
        <Con id="14" src="0" tgt="12" wght="-0.35555039998143911" />
        <Con id="15" src="1" tgt="11" wght="0.34260095842182636" />
        <Con id="16" src="1" tgt="12" wght="-0.11441910266876221" />
        <Con id="17" src="2" tgt="11" wght="0.60598684102296829" />
        <Con id="18" src="2" tgt="12" wght="-0.742640963755548" />
        <Con id="19" src="3" tgt="11" wght="0.092187222093343735" />
        <Con id="20" src="3" tgt="12" wght="-0.0015968503430485725" />
        <Con id="21" src="4" tgt="11" wght="-0.83250545617192984" />
        <Con id="22" src="4" tgt="12" wght="0.39020905923098326" />
        <Con id="23" src="5" tgt="11" wght="-0.93501921463757753" />
        <Con id="24" src="5" tgt="12" wght="0.42171179596334696" />
        <Con id="25" src="6" tgt="11" wght="-0.43917716108262539" />
        <Con id="26" src="6" tgt="12" wght="-0.0017159217968583107" />
        <Con id="27" src="7" tgt="11" wght="0.33385214954614639" />
        <Con id="28" src="7" tgt="12" wght="-0.32934465724974871" />
        <Con id="29" src="8" tgt="11" wght="0.426977657712996" />
        <Con id="30" src="8" tgt="12" wght="-0.92472549341619015" />
        <Con id="31" src="9" tgt="11" wght="-0.42681783158332109" />
        <Con id="32" src="9" tgt="12" wght="0.838903047144413" />
        <Con id="33" src="10" tgt="11" wght="-0.48360428772866726" />
        <Con id="34" src="10" tgt="12" wght="0.51388185191899538" />
      </Connections>
    </Network>
    <Network id="34" birthGen="0" fitness="0">
      <Nodes>
        <Node type="bias" id="0" />
        <Node type="in" id="1" />
        <Node type="in" id="2" />
        <Node type="in" id="3" />
        <Node type="in" id="4" />
        <Node type="in" id="5" />
        <Node type="in" id="6" />
        <Node type="in" id="7" />
        <Node type="in" id="8" />
        <Node type="in" id="9" />
        <Node type="in" id="10" />
        <Node type="out" id="11" />
        <Node type="out" id="12" />
      </Nodes>
      <Connections>
        <Con id="13" src="0" tgt="11" wght="-0.61396371945738792" />
        <Con id="14" src="0" tgt="12" wght="-0.6160314753651619" />
        <Con id="15" src="1" tgt="11" wght="-0.43876480218023062" />
        <Con id="16" src="1" tgt="12" wght="0.25596322678029537" />
        <Con id="17" src="2" tgt="11" wght="0.033342649228870869" />
        <Con id="18" src="2" tgt="12" wght="-0.41628300491720438" />
        <Con id="19" src="3" tgt="11" wght="0.6005471246317029" />
        <Con id="20" src="3" tgt="12" wght="-0.80524611379951239" />
        <Con id="21" src="4" tgt="11" wght="0.36184688284993172" />
        <Con id="22" src="4" tgt="12" wght="-0.74073081836104393" />
        <Con id="23" src="5" tgt="11" wght="-0.88475377485156059" />
        <Con id="24" src="5" tgt="12" wght="0.87733426783233881" />
        <Con id="25" src="6" tgt="11" wght="0.088996230624616146" />
        <Con id="26" src="6" tgt="12" wght="0.64434905350208282" />
        <Con id="27" src="7" tgt="11" wght="-0.63006851635873318" />
        <Con id="28" src="7" tgt="12" wght="0.10357494652271271" />
        <Con id="29" src="8" tgt="11" wght="0.58700282778590918" />
        <Con id="30" src="8" tgt="12" wght="-0.1432644771412015" />
        <Con id="31" src="9" tgt="11" wght="0.72379665914922953" />
        <Con id="32" src="9" tgt="12" wght="-0.25062836799770594" />
        <Con id="33" src="10" tgt="11" wght="0.97987186256796122" />
        <Con id="34" src="10" tgt="12" wght="0.27752918843179941" />
      </Connections>
    </Network>
    <Network id="35" birthGen="0" fitness="0">
      <Nodes>
        <Node type="bias" id="0" />
        <Node type="in" id="1" />
        <Node type="in" id="2" />
        <Node type="in" id="3" />
        <Node type="in" id="4" />
        <Node type="in" id="5" />
        <Node type="in" id="6" />
        <Node type="in" id="7" />
        <Node type="in" id="8" />
        <Node type="in" id="9" />
        <Node type="in" id="10" />
        <Node type="out" id="11" />
        <Node type="out" id="12" />
      </Nodes>
      <Connections>
        <Con id="13" src="0" tgt="11" wght="-0.57443307247012854" />
        <Con id="14" src="0" tgt="12" wght="0.4242120236158371" />
        <Con id="15" src="1" tgt="11" wght="0.79298118408769369" />
        <Con id="16" src="1" tgt="12" wght="-0.41737686190754175" />
        <Con id="17" src="2" tgt="11" wght="0.77513385191559792" />
        <Con id="18" src="2" tgt="12" wght="-0.90497284010052681" />
        <Con id="19" src="3" tgt="11" wght="-0.83267167769372463" />
        <Con id="20" src="3" tgt="12" wght="0.53606823179870844" />
        <Con id="21" src="4" tgt="11" wght="0.53128237370401621" />
        <Con id="22" src="4" tgt="12" wght="-0.072271666489541531" />
        <Con id="23" src="5" tgt="11" wght="0.97221825923770666" />
        <Con id="24" src="5" tgt="12" wght="0.6386239705607295" />
        <Con id="25" src="6" tgt="11" wght="-0.73321756534278393" />
        <Con id="26" src="6" tgt="12" wght="0.96458412334322929" />
        <Con id="27" src="7" tgt="11" wght="-0.031333846971392632" />
        <Con id="28" src="7" tgt="12" wght="0.5748243173584342" />
        <Con id="29" src="8" tgt="11" wght="0.83198160864412785" />
        <Con id="30" src="8" tgt="12" wght="-0.0845905002206564" />
        <Con id="31" src="9" tgt="11" wght="0.25440962333232164" />
        <Con id="32" src="9" tgt="12" wght="0.79118431732058525" />
        <Con id="33" src="10" tgt="11" wght="0.073550717905163765" />
        <Con id="34" src="10" tgt="12" wght="0.57207213994115591" />
      </Connections>
    </Network>
    <Network id="36" birthGen="0" fitness="0">
      <Nodes>
        <Node type="bias" id="0" />
        <Node type="in" id="1" />
        <Node type="in" id="2" />
        <Node type="in" id="3" />
        <Node type="in" id="4" />
        <Node type="in" id="5" />
        <Node type="in" id="6" />
        <Node type="in" id="7" />
        <Node type="in" id="8" />
        <Node type="in" id="9" />
        <Node type="in" id="10" />
        <Node type="out" id="11" />
        <Node type="out" id="12" />
      </Nodes>
      <Connections>
        <Con id="13" src="0" tgt="11" wght="0.905826898291707" />
        <Con id="14" src="0" tgt="12" wght="0.064961466006934643" />
        <Con id="15" src="1" tgt="11" wght="0.2001295443624258" />
        <Con id="16" src="1" tgt="12" wght="-0.66995089314877987" />
        <Con id="17" src="2" tgt="11" wght="0.17032281961292028" />
        <Con id="18" src="2" tgt="12" wght="-0.49326460901647806" />
        <Con id="19" src="3" tgt="11" wght="-0.08963859174400568" />
        <Con id="20" src="3" tgt="12" wght="0.71269185654819012" />
        <Con id="21" src="4" tgt="11" wght="0.66292721033096313" />
        <Con id="22" src="4" tgt="12" wght="-0.79633135907351971" />
        <Con id="23" src="5" tgt="11" wght="-0.0020750546827912331" />
        <Con id="24" src="5" tgt="12" wght="-0.29633014649152756" />
        <Con id="25" src="6" tgt="11" wght="0.049810162745416164" />
        <Con id="26" src="6" tgt="12" wght="0.040863586589694023" />
        <Con id="27" src="7" tgt="11" wght="-0.93295958265662193" />
        <Con id="28" src="7" tgt="12" wght="-0.0367691470310092" />
        <Con id="29" src="8" tgt="11" wght="0.73896808270365" />
        <Con id="30" src="8" tgt="12" wght="-0.20270830392837524" />
        <Con id="31" src="9" tgt="11" wght="-0.96449881512671709" />
        <Con id="32" src="9" tgt="12" wght="0.72005943674594164" />
        <Con id="33" src="10" tgt="11" wght="0.067139496095478535" />
        <Con id="34" src="10" tgt="12" wght="-0.059054853394627571" />
      </Connections>
    </Network>
    <Network id="37" birthGen="0" fitness="0">
      <Nodes>
        <Node type="bias" id="0" />
        <Node type="in" id="1" />
        <Node type="in" id="2" />
        <Node type="in" id="3" />
        <Node type="in" id="4" />
        <Node type="in" id="5" />
        <Node type="in" id="6" />
        <Node type="in" id="7" />
        <Node type="in" id="8" />
        <Node type="in" id="9" />
        <Node type="in" id="10" />
        <Node type="out" id="11" />
        <Node type="out" id="12" />
      </Nodes>
      <Connections>
        <Con id="13" src="0" tgt="11" wght="0.92343241162598133" />
        <Con id="14" src="0" tgt="12" wght="-0.44309974741190672" />
        <Con id="15" src="1" tgt="11" wght="0.42974960338324308" />
        <Con id="16" src="1" tgt="12" wght="-0.77696002461016178" />
        <Con id="17" src="2" tgt="11" wght="0.055670637637376785" />
        <Con id="18" src="2" tgt="12" wght="-0.010704425163567066" />
        <Con id="19" src="3" tgt="11" wght="-0.50614957138895988" />
        <Con id="20" src="3" tgt="12" wght="0.58826221060007811" />
        <Con id="21" src="4" tgt="11" wght="0.69738177768886089" />
        <Con id="22" src="4" tgt="12" wght="-0.652574117295444" />
        <Con id="23" src="5" tgt="11" wght="0.82206635177135468" />
        <Con id="24" src="5" tgt="12" wght="-0.44445956777781248" />
        <Con id="25" src="6" tgt="11" wght="0.48973632883280516" />
        <Con id="26" src="6" tgt="12" wght="0.32080431282520294" />
        <Con id="27" src="7" tgt="11" wght="-0.93936286866664886" />
        <Con id="28" src="7" tgt="12" wght="-0.63994784746319056" />
        <Con id="29" src="8" tgt="11" wght="-0.67072626296430826" />
        <Con id="30" src="8" tgt="12" wght="0.23394652456045151" />
        <Con id="31" src="9" tgt="11" wght="-0.39162164367735386" />
        <Con id="32" src="9" tgt="12" wght="-0.55301939509809017" />
        <Con id="33" src="10" tgt="11" wght="-0.44731678254902363" />
        <Con id="34" src="10" tgt="12" wght="-0.78961082547903061" />
      </Connections>
    </Network>
    <Network id="38" birthGen="0" fitness="0">
      <Nodes>
        <Node type="bias" id="0" />
        <Node type="in" id="1" />
        <Node type="in" id="2" />
        <Node type="in" id="3" />
        <Node type="in" id="4" />
        <Node type="in" id="5" />
        <Node type="in" id="6" />
        <Node type="in" id="7" />
        <Node type="in" id="8" />
        <Node type="in" id="9" />
        <Node type="in" id="10" />
        <Node type="out" id="11" />
        <Node type="out" id="12" />
      </Nodes>
      <Connections>
        <Con id="13" src="0" tgt="11" wght="0.6842902721837163" />
        <Con id="14" src="0" tgt="12" wght="0.76757179386913776" />
        <Con id="15" src="1" tgt="11" wght="0.80133651476353407" />
        <Con id="16" src="1" tgt="12" wght="0.93674659729003906" />
        <Con id="17" src="2" tgt="11" wght="0.15165632031857967" />
        <Con id="18" src="2" tgt="12" wght="-0.08201226219534874" />
        <Con id="19" src="3" tgt="11" wght="-0.38100787345319986" />
        <Con id="20" src="3" tgt="12" wght="-0.662350369617343" />
        <Con id="21" src="4" tgt="11" wght="-0.37984139565378428" />
        <Con id="22" src="4" tgt="12" wght="-0.75870557129383087" />
        <Con id="23" src="5" tgt="11" wght="0.313707796856761" />
        <Con id="24" src="5" tgt="12" wght="0.34635353554040194" />
        <Con id="25" src="6" tgt="11" wght="0.71036496572196484" />
        <Con id="26" src="6" tgt="12" wght="-0.94880117196589708" />
        <Con id="27" src="7" tgt="11" wght="0.96123306360095739" />
        <Con id="28" src="7" tgt="12" wght="-0.47875746991485357" />
        <Con id="29" src="8" tgt="11" wght="-0.43205171450972557" />
        <Con id="30" src="8" tgt="12" wght="0.093176900409162045" />
        <Con id="31" src="9" tgt="11" wght="0.96797330118715763" />
        <Con id="32" src="9" tgt="12" wght="0.35138531122356653" />
        <Con id="33" src="10" tgt="11" wght="0.55286176968365908" />
        <Con id="34" src="10" tgt="12" wght="0.59848152473568916" />
      </Connections>
    </Network>
    <Network id="39" birthGen="0" fitness="0">
      <Nodes>
        <Node type="bias" id="0" />
        <Node type="in" id="1" />
        <Node type="in" id="2" />
        <Node type="in" id="3" />
        <Node type="in" id="4" />
        <Node type="in" id="5" />
        <Node type="in" id="6" />
        <Node type="in" id="7" />
        <Node type="in" id="8" />
        <Node type="in" id="9" />
        <Node type="in" id="10" />
        <Node type="out" id="11" />
        <Node type="out" id="12" />
      </Nodes>
      <Connections>
        <Con id="13" src="0" tgt="11" wght="0.03189845010638237" />
        <Con id="14" src="0" tgt="12" wght="0.46975869033485651" />
        <Con id="15" src="1" tgt="11" wght="-0.7963390750810504" />
        <Con id="16" src="1" tgt="12" wght="-0.57724326197057962" />
        <Con id="17" src="2" tgt="11" wght="0.8236679695546627" />
        <Con id="18" src="2" tgt="12" wght="0.86877054814249277" />
        <Con id="19" src="3" tgt="11" wght="-0.0049102958291769028" />
        <Con id="20" src="3" tgt="12" wght="-0.505189273506403" />
        <Con id="21" src="4" tgt="11" wght="-0.32822498865425587" />
        <Con id="22" src="4" tgt="12" wght="-0.30683091934770346" />
        <Con id="23" src="5" tgt="11" wght="0.72449804469943047" />
        <Con id="24" src="5" tgt="12" wght="0.55148833710700274" />
        <Con id="25" src="6" tgt="11" wght="0.24583480693399906" />
        <Con id="26" src="6" tgt="12" wght="0.257027137093246" />
        <Con id="27" src="7" tgt="11" wght="-0.28371283318847418" />
        <Con id="28" src="7" tgt="12" wght="0.57091157790273428" />
        <Con id="29" src="8" tgt="11" wght="-0.28288043569773436" />
        <Con id="30" src="8" tgt="12" wght="0.087367042899131775" />
        <Con id="31" src="9" tgt="11" wght="-0.66351605486124754" />
        <Con id="32" src="9" tgt="12" wght="-0.71669034659862518" />
        <Con id="33" src="10" tgt="11" wght="-0.53133798111230135" />
        <Con id="34" src="10" tgt="12" wght="0.78800548147410154" />
      </Connections>
    </Network>
    <Network id="40" birthGen="0" fitness="0">
      <Nodes>
        <Node type="bias" id="0" />
        <Node type="in" id="1" />
        <Node type="in" id="2" />
        <Node type="in" id="3" />
        <Node type="in" id="4" />
        <Node type="in" id="5" />
        <Node type="in" id="6" />
        <Node type="in" id="7" />
        <Node type="in" id="8" />
        <Node type="in" id="9" />
        <Node type="in" id="10" />
        <Node type="out" id="11" />
        <Node type="out" id="12" />
      </Nodes>
      <Connections>
        <Con id="13" src="0" tgt="11" wght="0.40013672970235348" />
        <Con id="14" src="0" tgt="12" wght="-0.53265454899519682" />
        <Con id="15" src="1" tgt="11" wght="-0.9252379797399044" />
        <Con id="16" src="1" tgt="12" wght="-0.073302025906741619" />
        <Con id="17" src="2" tgt="11" wght="-0.24546795058995485" />
        <Con id="18" src="2" tgt="12" wght="-0.96741806901991367" />
        <Con id="19" src="3" tgt="11" wght="-0.06408379040658474" />
        <Con id="20" src="3" tgt="12" wght="0.5462110722437501" />
        <Con id="21" src="4" tgt="11" wght="0.37891071941703558" />
        <Con id="22" src="4" tgt="12" wght="-0.055952521972358227" />
        <Con id="23" src="5" tgt="11" wght="-0.12196921184659004" />
        <Con id="24" src="5" tgt="12" wght="-0.24044698011130095" />
        <Con id="25" src="6" tgt="11" wght="-0.6804259167984128" />
        <Con id="26" src="6" tgt="12" wght="-0.0095624933019280434" />
        <Con id="27" src="7" tgt="11" wght="0.28648179769515991" />
        <Con id="28" src="7" tgt="12" wght="-0.67849570419639349" />
        <Con id="29" src="8" tgt="11" wght="-0.18684324435889721" />
        <Con id="30" src="8" tgt="12" wght="0.054633594118058681" />
        <Con id="31" src="9" tgt="11" wght="-0.47159925568848848" />
        <Con id="32" src="9" tgt="12" wght="0.47404773253947496" />
        <Con id="33" src="10" tgt="11" wght="-0.58209031727164984" />
        <Con id="34" src="10" tgt="12" wght="-0.12783932685852051" />
      </Connections>
    </Network>
    <Network id="41" birthGen="0" fitness="0">
      <Nodes>
        <Node type="bias" id="0" />
        <Node type="in" id="1" />
        <Node type="in" id="2" />
        <Node type="in" id="3" />
        <Node type="in" id="4" />
        <Node type="in" id="5" />
        <Node type="in" id="6" />
        <Node type="in" id="7" />
        <Node type="in" id="8" />
        <Node type="in" id="9" />
        <Node type="in" id="10" />
        <Node type="out" id="11" />
        <Node type="out" id="12" />
      </Nodes>
      <Connections>
        <Con id="13" src="0" tgt="11" wght="-0.29054539278149605" />
        <Con id="14" src="0" tgt="12" wght="0.88409528229385614" />
        <Con id="15" src="1" tgt="11" wght="0.67295088898390532" />
        <Con id="16" src="1" tgt="12" wght="0.53539000824093819" />
        <Con id="17" src="2" tgt="11" wght="0.12385738082230091" />
        <Con id="18" src="2" tgt="12" wght="0.046700217761099339" />
        <Con id="19" src="3" tgt="11" wght="-0.063043694943189621" />
        <Con id="20" src="3" tgt="12" wght="0.91349581070244312" />
        <Con id="21" src="4" tgt="11" wght="-0.4374899584800005" />
        <Con id="22" src="4" tgt="12" wght="-0.45199965871870518" />
        <Con id="23" src="5" tgt="11" wght="0.45901911612600088" />
        <Con id="24" src="5" tgt="12" wght="-0.17448830045759678" />
        <Con id="25" src="6" tgt="11" wght="-0.9802050581201911" />
        <Con id="26" src="6" tgt="12" wght="-0.87550622690469027" />
        <Con id="27" src="7" tgt="11" wght="0.59104999713599682" />
        <Con id="28" src="7" tgt="12" wght="0.13231019675731659" />
        <Con id="29" src="8" tgt="11" wght="0.10084041114896536" />
        <Con id="30" src="8" tgt="12" wght="0.091860181652009487" />
        <Con id="31" src="9" tgt="11" wght="-0.95148565340787172" />
        <Con id="32" src="9" tgt="12" wght="0.012704851105809212" />
        <Con id="33" src="10" tgt="11" wght="-0.53521506395190954" />
        <Con id="34" src="10" tgt="12" wght="-0.24587785080075264" />
      </Connections>
    </Network>
    <Network id="42" birthGen="0" fitness="0">
      <Nodes>
        <Node type="bias" id="0" />
        <Node type="in" id="1" />
        <Node type="in" id="2" />
        <Node type="in" id="3" />
        <Node type="in" id="4" />
        <Node type="in" id="5" />
        <Node type="in" id="6" />
        <Node type="in" id="7" />
        <Node type="in" id="8" />
        <Node type="in" id="9" />
        <Node type="in" id="10" />
        <Node type="out" id="11" />
        <Node type="out" id="12" />
      </Nodes>
      <Connections>
        <Con id="13" src="0" tgt="11" wght="-0.31556726433336735" />
        <Con id="14" src="0" tgt="12" wght="-0.78078610543161631" />
        <Con id="15" src="1" tgt="11" wght="-0.537435719743371" />
        <Con id="16" src="1" tgt="12" wght="0.85430490504950285" />
        <Con id="17" src="2" tgt="11" wght="0.64507628232240677" />
        <Con id="18" src="2" tgt="12" wght="0.908620617352426" />
        <Con id="19" src="3" tgt="11" wght="0.40711702033877373" />
        <Con id="20" src="3" tgt="12" wght="-0.98752970341593027" />
        <Con id="21" src="4" tgt="11" wght="-0.0782428178936243" />
        <Con id="22" src="4" tgt="12" wght="-0.05162180308252573" />
        <Con id="23" src="5" tgt="11" wght="-0.49098721146583557" />
        <Con id="24" src="5" tgt="12" wght="0.64013752155005932" />
        <Con id="25" src="6" tgt="11" wght="-0.68016140535473824" />
        <Con id="26" src="6" tgt="12" wght="-0.80735450237989426" />
        <Con id="27" src="7" tgt="11" wght="0.71853441558778286" />
        <Con id="28" src="7" tgt="12" wght="0.115927679464221" />
        <Con id="29" src="8" tgt="11" wght="-0.41395615227520466" />
        <Con id="30" src="8" tgt="12" wght="0.48372516501694918" />
        <Con id="31" src="9" tgt="11" wght="0.76305907592177391" />
        <Con id="32" src="9" tgt="12" wght="-0.61661206558346748" />
        <Con id="33" src="10" tgt="11" wght="-0.77735261339694262" />
        <Con id="34" src="10" tgt="12" wght="0.1005013482645154" />
      </Connections>
    </Network>
    <Network id="43" birthGen="0" fitness="0">
      <Nodes>
        <Node type="bias" id="0" />
        <Node type="in" id="1" />
        <Node type="in" id="2" />
        <Node type="in" id="3" />
        <Node type="in" id="4" />
        <Node type="in" id="5" />
        <Node type="in" id="6" />
        <Node type="in" id="7" />
        <Node type="in" id="8" />
        <Node type="in" id="9" />
        <Node type="in" id="10" />
        <Node type="out" id="11" />
        <Node type="out" id="12" />
      </Nodes>
      <Connections>
        <Con id="13" src="0" tgt="11" wght="0.74974272027611732" />
        <Con id="14" src="0" tgt="12" wght="0.52905544638633728" />
        <Con id="15" src="1" tgt="11" wght="-0.474359979853034" />
        <Con id="16" src="1" tgt="12" wght="0.14925692323595285" />
        <Con id="17" src="2" tgt="11" wght="0.6223154328763485" />
        <Con id="18" src="2" tgt="12" wght="-0.14428344741463661" />
        <Con id="19" src="3" tgt="11" wght="-0.18440184462815523" />
        <Con id="20" src="3" tgt="12" wght="-0.24366222321987152" />
        <Con id="21" src="4" tgt="11" wght="0.60555136948823929" />
        <Con id="22" src="4" tgt="12" wght="-0.26655469927936792" />
        <Con id="23" src="5" tgt="11" wght="-0.57221635151654482" />
        <Con id="24" src="5" tgt="12" wght="0.09041825495660305" />
        <Con id="25" src="6" tgt="11" wght="-0.56288157496601343" />
        <Con id="26" src="6" tgt="12" wght="0.58144242689013481" />
        <Con id="27" src="7" tgt="11" wght="0.764226233586669" />
        <Con id="28" src="7" tgt="12" wght="-0.16087139584124088" />
        <Con id="29" src="8" tgt="11" wght="0.74447594210505486" />
        <Con id="30" src="8" tgt="12" wght="-0.0991193475201726" />
        <Con id="31" src="9" tgt="11" wght="-0.35581862833350897" />
        <Con id="32" src="9" tgt="12" wght="0.2627724027261138" />
        <Con id="33" src="10" tgt="11" wght="0.1176586514338851" />
        <Con id="34" src="10" tgt="12" wght="-0.68358198832720518" />
      </Connections>
    </Network>
    <Network id="44" birthGen="0" fitness="0">
      <Nodes>
        <Node type="bias" id="0" />
        <Node type="in" id="1" />
        <Node type="in" id="2" />
        <Node type="in" id="3" />
        <Node type="in" id="4" />
        <Node type="in" id="5" />
        <Node type="in" id="6" />
        <Node type="in" id="7" />
        <Node type="in" id="8" />
        <Node type="in" id="9" />
        <Node type="in" id="10" />
        <Node type="out" id="11" />
        <Node type="out" id="12" />
      </Nodes>
      <Connections>
        <Con id="13" src="0" tgt="11" wght="-0.48292468395084143" />
        <Con id="14" src="0" tgt="12" wght="0.21447664778679609" />
        <Con id="15" src="1" tgt="11" wght="-0.54433798417449" />
        <Con id="16" src="1" tgt="12" wght="-0.98834823071956635" />
        <Con id="17" src="2" tgt="11" wght="0.33196076285094023" />
        <Con id="18" src="2" tgt="12" wght="0.40388966258615255" />
        <Con id="19" src="3" tgt="11" wght="0.10602391138672829" />
        <Con id="20" src="3" tgt="12" wght="0.75625559873878956" />
        <Con id="21" src="4" tgt="11" wght="0.23145077005028725" />
        <Con id="22" src="4" tgt="12" wght="-0.60861997865140438" />
        <Con id="23" src="5" tgt="11" wght="0.40671132132411003" />
        <Con id="24" src="5" tgt="12" wght="0.93353954236954451" />
        <Con id="25" src="6" tgt="11" wght="0.39955906942486763" />
        <Con id="26" src="6" tgt="12" wght="-0.8813752168789506" />
        <Con id="27" src="7" tgt="11" wght="-0.93268912192434072" />
        <Con id="28" src="7" tgt="12" wght="-0.83082151412963867" />
        <Con id="29" src="8" tgt="11" wght="-0.87691133189946413" />
        <Con id="30" src="8" tgt="12" wght="0.30820458102971315" />
        <Con id="31" src="9" tgt="11" wght="0.970194791443646" />
        <Con id="32" src="9" tgt="12" wght="0.3047358151525259" />
        <Con id="33" src="10" tgt="11" wght="-0.5110698826611042" />
        <Con id="34" src="10" tgt="12" wght="-0.580530196428299" />
      </Connections>
    </Network>
    <Network id="45" birthGen="0" fitness="0">
      <Nodes>
        <Node type="bias" id="0" />
        <Node type="in" id="1" />
        <Node type="in" id="2" />
        <Node type="in" id="3" />
        <Node type="in" id="4" />
        <Node type="in" id="5" />
        <Node type="in" id="6" />
        <Node type="in" id="7" />
        <Node type="in" id="8" />
        <Node type="in" id="9" />
        <Node type="in" id="10" />
        <Node type="out" id="11" />
        <Node type="out" id="12" />
      </Nodes>
      <Connections>
        <Con id="13" src="0" tgt="11" wght="0.34212945308536291" />
        <Con id="14" src="0" tgt="12" wght="0.17998925317078829" />
        <Con id="15" src="1" tgt="11" wght="-0.0096505153924226761" />
        <Con id="16" src="1" tgt="12" wght="0.458005896769464" />
        <Con id="17" src="2" tgt="11" wght="-0.655645715072751" />
        <Con id="18" src="2" tgt="12" wght="0.13976561743766069" />
        <Con id="19" src="3" tgt="11" wght="-0.18030146416276693" />
        <Con id="20" src="3" tgt="12" wght="0.62568619847297668" />
        <Con id="21" src="4" tgt="11" wght="0.16953196469694376" />
        <Con id="22" src="4" tgt="12" wght="-0.6343988049775362" />
        <Con id="23" src="5" tgt="11" wght="-0.81238735560327768" />
        <Con id="24" src="5" tgt="12" wght="0.940928366035223" />
        <Con id="25" src="6" tgt="11" wght="0.67449000850319862" />
        <Con id="26" src="6" tgt="12" wght="0.43635180313140154" />
        <Con id="27" src="7" tgt="11" wght="-0.38222194369882345" />
        <Con id="28" src="7" tgt="12" wght="0.13589527923613787" />
        <Con id="29" src="8" tgt="11" wght="0.61893017310649157" />
        <Con id="30" src="8" tgt="12" wght="0.76828585471957922" />
        <Con id="31" src="9" tgt="11" wght="0.21481749322265387" />
        <Con id="32" src="9" tgt="12" wght="0.9524103095754981" />
        <Con id="33" src="10" tgt="11" wght="0.18630801513791084" />
        <Con id="34" src="10" tgt="12" wght="-0.66170061659067869" />
      </Connections>
    </Network>
    <Network id="46" birthGen="0" fitness="0">
      <Nodes>
        <Node type="bias" id="0" />
        <Node type="in" id="1" />
        <Node type="in" id="2" />
        <Node type="in" id="3" />
        <Node type="in" id="4" />
        <Node type="in" id="5" />
        <Node type="in" id="6" />
        <Node type="in" id="7" />
        <Node type="in" id="8" />
        <Node type="in" id="9" />
        <Node type="in" id="10" />
        <Node type="out" id="11" />
        <Node type="out" id="12" />
      </Nodes>
      <Connections>
        <Con id="13" src="0" tgt="11" wght="0.860962338745594" />
        <Con id="14" src="0" tgt="12" wght="-0.019245857372879982" />
        <Con id="15" src="1" tgt="11" wght="-0.053201260976493359" />
        <Con id="16" src="1" tgt="12" wght="0.11117243207991123" />
        <Con id="17" src="2" tgt="11" wght="-0.50423968862742186" />
        <Con id="18" src="2" tgt="12" wght="-0.9713612999767065" />
        <Con id="19" src="3" tgt="11" wght="-0.966860861517489" />
        <Con id="20" src="3" tgt="12" wght="0.73506178334355354" />
        <Con id="21" src="4" tgt="11" wght="-0.26997040212154388" />
        <Con id="22" src="4" tgt="12" wght="0.13623642548918724" />
        <Con id="23" src="5" tgt="11" wght="0.58097655139863491" />
        <Con id="24" src="5" tgt="12" wght="0.698073809966445" />
        <Con id="25" src="6" tgt="11" wght="-0.98019682895392179" />
        <Con id="26" src="6" tgt="12" wght="-0.16337225493043661" />
        <Con id="27" src="7" tgt="11" wght="0.56257905904203653" />
        <Con id="28" src="7" tgt="12" wght="-0.28588591609150171" />
        <Con id="29" src="8" tgt="11" wght="0.173870668746531" />
        <Con id="30" src="8" tgt="12" wght="-0.945140422321856" />
        <Con id="31" src="9" tgt="11" wght="0.660950442776084" />
        <Con id="32" src="9" tgt="12" wght="-0.35141164809465408" />
        <Con id="33" src="10" tgt="11" wght="-0.17286106571555138" />
        <Con id="34" src="10" tgt="12" wght="-0.750566802918911" />
      </Connections>
    </Network>
    <Network id="47" birthGen="0" fitness="0">
      <Nodes>
        <Node type="bias" id="0" />
        <Node type="in" id="1" />
        <Node type="in" id="2" />
        <Node type="in" id="3" />
        <Node type="in" id="4" />
        <Node type="in" id="5" />
        <Node type="in" id="6" />
        <Node type="in" id="7" />
        <Node type="in" id="8" />
        <Node type="in" id="9" />
        <Node type="in" id="10" />
        <Node type="out" id="11" />
        <Node type="out" id="12" />
      </Nodes>
      <Connections>
        <Con id="13" src="0" tgt="11" wght="-0.98099843692034483" />
        <Con id="14" src="0" tgt="12" wght="0.90357753075659275" />
        <Con id="15" src="1" tgt="11" wght="0.6495116027072072" />
        <Con id="16" src="1" tgt="12" wght="0.96097628306597471" />
        <Con id="17" src="2" tgt="11" wght="0.52586676925420761" />
        <Con id="18" src="2" tgt="12" wght="0.59668517392128706" />
        <Con id="19" src="3" tgt="11" wght="-0.030605322681367397" />
        <Con id="20" src="3" tgt="12" wght="-0.19926310051232576" />
        <Con id="21" src="4" tgt="11" wght="-0.48778906278312206" />
        <Con id="22" src="4" tgt="12" wght="-0.72898363322019577" />
        <Con id="23" src="5" tgt="11" wght="0.93404522258788347" />
        <Con id="24" src="5" tgt="12" wght="0.34224551450461149" />
        <Con id="25" src="6" tgt="11" wght="0.79810655955225229" />
        <Con id="26" src="6" tgt="12" wght="-0.2880936348810792" />
        <Con id="27" src="7" tgt="11" wght="-0.65518120490014553" />
        <Con id="28" src="7" tgt="12" wght="-0.97306210175156593" />
        <Con id="29" src="8" tgt="11" wght="-0.42823465168476105" />
        <Con id="30" src="8" tgt="12" wght="0.89272653963416815" />
