<?xml version="1.0" encoding="utf-8"?>
<Root>
  <ActivationFunctions>
    <Fn id="0" name="SteepenedSigmoid" prob="1" />
  </ActivationFunctions>
  <Networks>
    <Network id="0" birthGen="0" fitness="0">
      <Nodes>
        <Node type="bias" id="0" />
        <Node type="in" id="1" />
        <Node type="in" id="2" />
        <Node type="in" id="3" />
        <Node type="in" id="4" />
        <Node type="in" id="5" />
        <Node type="in" id="6" />
        <Node type="in" id="7" />
        <Node type="in" id="8" />
        <Node type="in" id="9" />
        <Node type="in" id="10" />
        <Node type="out" id="11" />
        <Node type="out" id="12" />
      </Nodes>
      <Connections>
        <Con id="13" src="0" tgt="11" wght="2.390785813331604" />
        <Con id="14" src="0" tgt="12" wght="-2.7279084268957376" />
        <Con id="15" src="1" tgt="11" wght="3.3118785126134753" />
        <Con id="16" src="1" tgt="12" wght="1.556712631136179" />
        <Con id="17" src="2" tgt="11" wght="-0.2118233684450388" />
        <Con id="18" src="2" tgt="12" wght="4.0298513881862164" />
        <Con id="19" src="3" tgt="11" wght="-2.0281293150037527" />
        <Con id="20" src="3" tgt="12" wght="1.2559444876387715" />
        <Con id="21" src="4" tgt="11" wght="2.1881321771070361" />
        <Con id="22" src="4" tgt="12" wght="1.5067736292257905" />
        <Con id="23" src="5" tgt="11" wght="4.7968933265656233" />
        <Con id="24" src="5" tgt="12" wght="-3.2596352649852633" />
        <Con id="25" src="6" tgt="11" wght="-0.13072779402136803" />
        <Con id="26" src="6" tgt="12" wght="-2.5718306936323643" />
        <Con id="27" src="7" tgt="11" wght="-3.0509359017014503" />
        <Con id="28" src="7" tgt="12" wght="-1.7350308643653989" />
        <Con id="29" src="8" tgt="11" wght="1.5621272334828973" />
        <Con id="30" src="8" tgt="12" wght="-2.8360641002655029" />
        <Con id="31" src="9" tgt="11" wght="3.9550754614174366" />
        <Con id="32" src="9" tgt="12" wght="-1.5864888392388821" />
        <Con id="33" src="10" tgt="11" wght="2.3444952582940459" />
        <Con id="34" src="10" tgt="12" wght="-3.592341486364603" />
      </Connections>
    </Network>
    <Network id="1" birthGen="0" fitness="0">
      <Nodes>
        <Node type="bias" id="0" />
        <Node type="in" id="1" />
        <Node type="in" id="2" />
        <Node type="in" id="3" />
        <Node type="in" id="4" />
        <Node type="in" id="5" />
        <Node type="in" id="6" />
        <Node type="in" id="7" />
        <Node type="in" id="8" />
        <Node type="in" id="9" />
        <Node type="in" id="10" />
        <Node type="out" id="11" />
        <Node type="out" id="12" />
      </Nodes>
      <Connections>
        <Con id="13" src="0" tgt="11" wght="4.8037655837833881" />
        <Con id="14" src="0" tgt="12" wght="2.0998962176963687" />
        <Con id="15" src="1" tgt="11" wght="0.82347775809466839" />
        <Con id="16" src="1" tgt="12" wght="-2.787985373288393" />
        <Con id="17" src="2" tgt="11" wght="1.8876911094412208" />
        <Con id="18" src="2" tgt="12" wght="-4.1025834204629064" />
        <Con id="19" src="3" tgt="11" wght="0.02016283106058836" />
        <Con id="20" src="3" tgt="12" wght="4.7436093352735043" />
        <Con id="21" src="4" tgt="11" wght="-2.7950934646651149" />
        <Con id="22" src="4" tgt="12" wght="2.2392605803906918" />
        <Con id="23" src="5" tgt="11" wght="2.2388803586363792" />
        <Con id="24" src="5" tgt="12" wght="-1.857037334702909" />
        <Con id="25" src="6" tgt="11" wght="1.8872565915808082" />
        <Con id="26" src="6" tgt="12" wght="-2.1374462079256773" />
        <Con id="27" src="7" tgt="11" wght="-4.7726886719465256" />
        <Con id="28" src="7" tgt="12" wght="-4.3589625367894769" />
        <Con id="29" src="8" tgt="11" wght="3.2409453997388482" />
        <Con id="30" src="8" tgt="12" wght="0.45372448395937681" />
        <Con id="31" src="9" tgt="11" wght="0.659315874800086" />
        <Con id="32" src="9" tgt="12" wght="2.77851568069309" />
        <Con id="33" src="10" tgt="11" wght="2.851909501478076" />
        <Con id="34" src="10" tgt="12" wght="-0.91716801282018423" />
      </Connections>
    </Network>
    <Network id="2" birthGen="0" fitness="0">
      <Nodes>
        <Node type="bias" id="0" />
        <Node type="in" id="1" />
        <Node type="in" id="2" />
        <Node type="in" id="3" />
        <Node type="in" id="4" />
        <Node type="in" id="5" />
        <Node type="in" id="6" />
        <Node type="in" id="7" />
        <Node type="in" id="8" />
        <Node type="in" id="9" />
        <Node type="in" id="10" />
        <Node type="out" id="11" />
        <Node type="out" id="12" />
      </Nodes>
      <Connections>
        <Con id="13" src="0" tgt="11" wght="-0.87177252396941185" />
        <Con id="14" src="0" tgt="12" wght="-1.7382955271750689" />
        <Con id="15" src="1" tgt="11" wght="3.2270513102412224" />
        <Con id="16" src="1" tgt="12" wght="-4.3676067562773824" />
        <Con id="17" src="2" tgt="11" wght="-2.0437704538926482" />
        <Con id="18" src="2" tgt="12" wght="-1.6014197049662471" />
        <Con id="19" src="3" tgt="11" wght="-1.9643665384501219" />
        <Con id="20" src="3" tgt="12" wght="1.1563737317919731" />
        <Con id="21" src="4" tgt="11" wght="2.601893711835146" />
        <Con id="22" src="4" tgt="12" wght="-1.5351832844316959" />
        <Con id="23" src="5" tgt="11" wght="-3.6358474567532539" />
        <Con id="24" src="5" tgt="12" wght="3.9106155885383487" />
        <Con id="25" src="6" tgt="11" wght="3.6004876019433141" />
        <Con id="26" src="6" tgt="12" wght="-1.1209496902301908" />
        <Con id="27" src="7" tgt="11" wght="4.7881239419803023" />
        <Con id="28" src="7" tgt="12" wght="-0.0781654380261898" />
        <Con id="29" src="8" tgt="11" wght="-2.3757951194420457" />
        <Con id="30" src="8" tgt="12" wght="3.1581275723874569" />
        <Con id="31" src="9" tgt="11" wght="-4.6322122076526284" />
        <Con id="32" src="9" tgt="12" wght="-3.8826980860903859" />
        <Con id="33" src="10" tgt="11" wght="0.76919946353882551" />
        <Con id="34" src="10" tgt="12" wght="-1.7965476866811514" />
      </Connections>
    </Network>
    <Network id="3" birthGen="0" fitness="0">
      <Nodes>
        <Node type="bias" id="0" />
        <Node type="in" id="1" />
        <Node type="in" id="2" />
        <Node type="in" id="3" />
        <Node type="in" id="4" />
        <Node type="in" id="5" />
        <Node type="in" id="6" />
        <Node type="in" id="7" />
        <Node type="in" id="8" />
        <Node type="in" id="9" />
        <Node type="in" id="10" />
        <Node type="out" id="11" />
        <Node type="out" id="12" />
      </Nodes>
      <Connections>
        <Con id="13" src="0" tgt="11" wght="-1.9534106692299247" />
        <Con id="14" src="0" tgt="12" wght="-1.9811390154063702" />
        <Con id="15" src="1" tgt="11" wght="-0.0981846684589982" />
        <Con id="16" src="1" tgt="12" wght="1.0598303657025099" />
        <Con id="17" src="2" tgt="11" wght="2.9414691030979156" />
        <Con id="18" src="2" tgt="12" wght="2.7190898451954126" />
        <Con id="19" src="3" tgt="11" wght="-0.3500056779012084" />
        <Con id="20" src="3" tgt="12" wght="3.4256615163758397" />
        <Con id="21" src="4" tgt="11" wght="-0.88992048054933548" />
        <Con id="22" src="4" tgt="12" wght="-0.50153128802776337" />
        <Con id="23" src="5" tgt="11" wght="-2.0141573343425989" />
        <Con id="24" src="5" tgt="12" wght="-3.3490849426016212" />
        <Con id="25" src="6" tgt="11" wght="-1.7437258502468467" />
        <Con id="26" src="6" tgt="12" wght="-1.3536878302693367" />
        <Con id="27" src="7" tgt="11" wght="-2.6561944512650371" />
        <Con id="28" src="7" tgt="12" wght="0.76580239459872246" />
        <Con id="29" src="8" tgt="11" wght="1.4328509476035833" />
        <Con id="30" src="8" tgt="12" wght="2.774952226318419" />
        <Con id="31" src="9" tgt="11" wght="3.3113581640645862" />
        <Con id="32" src="9" tgt="12" wght="0.10976169258356094" />
        <Con id="33" src="10" tgt="11" wght="1.3931095413863659" />
        <Con id="34" src="10" tgt="12" wght="-0.39311552420258522" />
      </Connections>
    </Network>
    <Network id="4" birthGen="0" fitness="0">
      <Nodes>
        <Node type="bias" id="0" />
        <Node type="in" id="1" />
        <Node type="in" id="2" />
        <Node type="in" id="3" />
        <Node type="in" id="4" />
        <Node type="in" id="5" />
        <Node type="in" id="6" />
        <Node type="in" id="7" />
        <Node type="in" id="8" />
        <Node type="in" id="9" />
        <Node type="in" id="10" />
        <Node type="out" id="11" />
        <Node type="out" id="12" />
      </Nodes>
      <Connections>
        <Con id="13" src="0" tgt="11" wght="3.068544389680028" />
        <Con id="14" src="0" tgt="12" wght="3.9089972851797938" />
        <Con id="15" src="1" tgt="11" wght="-2.3763063084334135" />
        <Con id="16" src="1" tgt="12" wght="2.5545559823513031" />
        <Con id="17" src="2" tgt="11" wght="3.292482984252274" />
        <Con id="18" src="2" tgt="12" wght="-1.0908289812505245" />
        <Con id="19" src="3" tgt="11" wght="-2.933585150167346" />
        <Con id="20" src="3" tgt="12" wght="1.0865679755806923" />
        <Con id="21" src="4" tgt="11" wght="2.0719884010031819" />
        <Con id="22" src="4" tgt="12" wght="2.6266924012452364" />
        <Con id="23" src="5" tgt="11" wght="-4.1408183705061674" />
        <Con id="24" src="5" tgt="12" wght="-1.3138997973874211" />
        <Con id="25" src="6" tgt="11" wght="-0.83434482105076313" />
        <Con id="26" src="6" tgt="12" wght="-3.2731200475245714" />
        <Con id="27" src="7" tgt="11" wght="-4.7114279307425022" />
        <Con id="28" src="7" tgt="12" wght="-1.4753347681835294" />
        <Con id="29" src="8" tgt="11" wght="2.8860026597976685" />
        <Con id="30" src="8" tgt="12" wght="-2.5016783224418759" />
        <Con id="31" src="9" tgt="11" wght="-2.7311182860285044" />
        <Con id="32" src="9" tgt="12" wght="0.2272114809602499" />
        <Con id="33" src="10" tgt="11" wght="3.3916967129334807" />
        <Con id="34" src="10" tgt="12" wght="3.2114908378571272" />
      </Connections>
    </Network>
    <Network id="5" birthGen="0" fitness="0">
      <Nodes>
        <Node type="bias" id="0" />
        <Node type="in" id="1" />
        <Node type="in" id="2" />
        <Node type="in" id="3" />
        <Node type="in" id="4" />
        <Node type="in" id="5" />
        <Node type="in" id="6" />
        <Node type="in" id="7" />
        <Node type="in" id="8" />
        <Node type="in" id="9" />
        <Node type="in" id="10" />
        <Node type="out" id="11" />
        <Node type="out" id="12" />
      </Nodes>
      <Connections>
        <Con id="13" src="0" tgt="11" wght="1.7000825563445687" />
        <Con id="14" src="0" tgt="12" wght="1.4075639192014933" />
        <Con id="15" src="1" tgt="11" wght="2.33698224183172" />
        <Con id="16" src="1" tgt="12" wght="-4.3446046207100153" />
        <Con id="17" src="2" tgt="11" wght="-1.6214462416246533" />
        <Con id="18" src="2" tgt="12" wght="3.8836189080029726" />
        <Con id="19" src="3" tgt="11" wght="4.6361347427591681" />
        <Con id="20" src="3" tgt="12" wght="-4.3194434838369489" />
        <Con id="21" src="4" tgt="11" wght="-0.76913973782211542" />
        <Con id="22" src="4" tgt="12" wght="0.36719079595059156" />
        <Con id="23" src="5" tgt="11" wght="0.48601793590933084" />
        <Con id="24" src="5" tgt="12" wght="3.6173121398314834" />
        <Con id="25" src="6" tgt="11" wght="0.251489351503551" />
        <Con id="26" src="6" tgt="12" wght="3.3610120881348848" />
        <Con id="27" src="7" tgt="11" wght="3.9872052427381277" />
        <Con id="28" src="7" tgt="12" wght="-4.987707082182169" />
        <Con id="29" src="8" tgt="11" wght="4.1336846584454179" />
        <Con id="30" src="8" tgt="12" wght="-0.85205087438225746" />
        <Con id="31" src="9" tgt="11" wght="3.5799508588388562" />
        <Con id="32" src="9" tgt="12" wght="-0.92084103729575872" />
        <Con id="33" src="10" tgt="11" wght="-4.5612251618877053" />
        <Con id="34" src="10" tgt="12" wght="1.6190860234200954" />
      </Connections>
    </Network>
    <Network id="6" birthGen="0" fitness="0">
      <Nodes>
        <Node type="bias" id="0" />
        <Node type="in" id="1" />
        <Node type="in" id="2" />
        <Node type="in" id="3" />
        <Node type="in" id="4" />
        <Node type="in" id="5" />
        <Node type="in" id="6" />
        <Node type="in" id="7" />
        <Node type="in" id="8" />
        <Node type="in" id="9" />
        <Node type="in" id="10" />
        <Node type="out" id="11" />
        <Node type="out" id="12" />
      </Nodes>
      <Connections>
        <Con id="13" src="0" tgt="11" wght="2.2367078345268965" />
        <Con id="14" src="0" tgt="12" wght="-1.5247565321624279" />
        <Con id="15" src="1" tgt="11" wght="2.1825519809499383" />
        <Con id="16" src="1" tgt="12" wght="-2.2186869382858276" />
        <Con id="17" src="2" tgt="11" wght="0.29376675374805927" />
        <Con id="18" src="2" tgt="12" wght="0.0763460760936141" />
        <Con id="19" src="3" tgt="11" wght="-0.67113520111888647" />
        <Con id="20" src="3" tgt="12" wght="-4.9619997898116708" />
        <Con id="21" src="4" tgt="11" wght="1.8708514235913754" />
        <Con id="22" src="4" tgt="12" wght="-0.23142503574490547" />
        <Con id="23" src="5" tgt="11" wght="-1.0314000211656094" />
        <Con id="24" src="5" tgt="12" wght="-3.6094366293400526" />
        <Con id="25" src="6" tgt="11" wght="-0.8590397285297513" />
        <Con id="26" src="6" tgt="12" wght="-4.0590978600084782" />
        <Con id="27" src="7" tgt="11" wght="1.7930833483114839" />
        <Con id="28" src="7" tgt="12" wght="-4.1001615952700377" />
        <Con id="29" src="8" tgt="11" wght="4.9297467479482293" />
        <Con id="30" src="8" tgt="12" wght="-1.963328905403614" />
        <Con id="31" src="9" tgt="11" wght="3.8308017887175083" />
        <Con id="32" src="9" tgt="12" wght="2.6916309399530292" />
        <Con id="33" src="10" tgt="11" wght="-1.7543933494016528" />
        <Con id="34" src="10" tgt="12" wght="2.2639119485393167" />
      </Connections>
    </Network>
    <Network id="7" birthGen="0" fitness="0">
      <Nodes>
        <Node type="bias" id="0" />
        <Node type="in" id="1" />
        <Node type="in" id="2" />
        <Node type="in" id="3" />
        <Node type="in" id="4" />
        <Node type="in" id="5" />
        <Node type="in" id="6" />
        <Node type="in" id="7" />
        <Node type="in" id="8" />
        <Node type="in" id="9" />
        <Node type="in" id="10" />
        <Node type="out" id="11" />
        <Node type="out" id="12" />
      </Nodes>
      <Connections>
        <Con id="13" src="0" tgt="11" wght="-3.151802415959537" />
        <Con id="14" src="0" tgt="12" wght="0.40941019076853991" />
        <Con id="15" src="1" tgt="11" wght="-0.75569349341094494" />
        <Con id="16" src="1" tgt="12" wght="1.8688594922423363" />
        <Con id="17" src="2" tgt="11" wght="2.1061726054176688" />
        <Con id="18" src="2" tgt="12" wght="3.4077069256454706" />
        <Con id="19" src="3" tgt="11" wght="-1.3847940322011709" />
        <Con id="20" src="3" tgt="12" wght="1.0686365328729153" />
        <Con id="21" src="4" tgt="11" wght="4.4423532439395785" />
        <Con id="22" src="4" tgt="12" wght="-0.94831780064851046" />
        <Con id="23" src="5" tgt="11" wght="-1.4584945654496551" />
        <Con id="24" src="5" tgt="12" wght="-3.8373972894623876" />
        <Con id="25" src="6" tgt="11" wght="-1.6364668123424053" />
        <Con id="26" src="6" tgt="12" wght="-0.34062980674207211" />
        <Con id="27" src="7" tgt="11" wght="-4.9548903852701187" />
        <Con id="28" src="7" tgt="12" wght="-1.6202101483941078" />
        <Con id="29" src="8" tgt="11" wght="1.1385602131485939" />
        <Con id="30" src="8" tgt="12" wght="-1.5626902459189296" />
        <Con id="31" src="9" tgt="11" wght="-1.6414364753291011" />
        <Con id="32" src="9" tgt="12" wght="-1.801613993011415" />
        <Con id="33" src="10" tgt="11" wght="3.2734383968636394" />
        <Con id="34" src="10" tgt="12" wght="0.0062667764723300934" />
      </Connections>
    </Network>
    <Network id="8" birthGen="0" fitness="0">
      <Nodes>
        <Node type="bias" id="0" />
        <Node type="in" id="1" />
        <Node type="in" id="2" />
        <Node type="in" id="3" />
        <Node type="in" id="4" />
        <Node type="in" id="5" />
        <Node type="in" id="6" />
        <Node type="in" id="7" />
        <Node type="in" id="8" />
        <Node type="in" id="9" />
        <Node type="in" id="10" />
        <Node type="out" id="11" />
        <Node type="out" id="12" />
      </Nodes>
      <Connections>
        <Con id="13" src="0" tgt="11" wght="4.39350251108408" />
        <Con id="14" src="0" tgt="12" wght="0.47516001388430595" />
        <Con id="15" src="1" tgt="11" wght="-0.13570838142186403" />
        <Con id="16" src="1" tgt="12" wght="1.1054638307541609" />
        <Con id="17" src="2" tgt="11" wght="3.8111541559919715" />
        <Con id="18" src="2" tgt="12" wght="-3.3406163938343525" />
        <Con id="19" src="3" tgt="11" wght="2.2547987103462219" />
        <Con id="20" src="3" tgt="12" wght="4.8643125221133232" />
        <Con id="21" src="4" tgt="11" wght="0.85100186988711357" />
        <Con id="22" src="4" tgt="12" wght="-4.8359156539663672" />
        <Con id="23" src="5" tgt="11" wght="-0.018957830034196377" />
        <Con id="24" src="5" tgt="12" wght="-1.7377653950825334" />
        <Con id="25" src="6" tgt="11" wght="-2.5915898289531469" />
        <Con id="26" src="6" tgt="12" wght="2.5533764949068427" />
        <Con id="27" src="7" tgt="11" wght="2.7669277461245656" />
        <Con id="28" src="7" tgt="12" wght="-4.2759317578747869" />
        <Con id="29" src="8" tgt="11" wght="-1.8687419081106782" />
        <Con id="30" src="8" tgt="12" wght="3.2815771596506238" />
        <Con id="31" src="9" tgt="11" wght="1.3114311313256621" />
        <Con id="32" src="9" tgt="12" wght="2.2386821685358882" />
        <Con id="33" src="10" tgt="11" wght="1.7576836096122861" />
        <Con id="34" src="10" tgt="12" wght="3.5089961579069495" />
      </Connections>
    </Network>
    <Network id="9" birthGen="0" fitness="0">
      <Nodes>
        <Node type="bias" id="0" />
        <Node type="in" id="1" />
        <Node type="in" id="2" />
        <Node type="in" id="3" />
        <Node type="in" id="4" />
        <Node type="in" id="5" />
        <Node type="in" id="6" />
        <Node type="in" id="7" />
        <Node type="in" id="8" />
        <Node type="in" id="9" />
        <Node type="in" id="10" />
        <Node type="out" id="11" />
        <Node type="out" id="12" />
      </Nodes>
      <Connections>
        <Con id="13" src="0" tgt="11" wght="-0.95360551495105028" />
        <Con id="14" src="0" tgt="12" wght="-3.0878293281421065" />
        <Con id="15" src="1" tgt="11" wght="-0.72139994241297245" />
        <Con id="16" src="1" tgt="12" wght="0.16176622826606035" />
        <Con id="17" src="2" tgt="11" wght="-3.5113201383501291" />
        <Con id="18" src="2" tgt="12" wght="-3.2842727703973651" />
        <Con id="19" src="3" tgt="11" wght="0.46370740048587322" />
        <Con id="20" src="3" tgt="12" wght="3.5289408732205629" />
        <Con id="21" src="4" tgt="11" wght="-2.2205964708700776" />
        <Con id="22" src="4" tgt="12" wght="0.40118921548128128" />
        <Con id="23" src="5" tgt="11" wght="1.5489825559780002" />
        <Con id="24" src="5" tgt="12" wght="0.44456931296736" />
        <Con id="25" src="6" tgt="11" wght="2.5387067068368196" />
        <Con id="26" src="6" tgt="12" wght="-2.7107232669368386" />
        <Con id="27" src="7" tgt="11" wght="0.79680267255753279" />
        <Con id="28" src="7" tgt="12" wght="0.45224867295473814" />
        <Con id="29" src="8" tgt="11" wght="1.2181862071156502" />
        <Con id="30" src="8" tgt="12" wght="4.5483983680605888" />
        <Con id="31" src="9" tgt="11" wght="1.5006335824728012" />
        <Con id="32" src="9" tgt="12" wght="4.8565146513283253" />
        <Con id="33" src="10" tgt="11" wght="3.9518084935843945" />
        <Con id="34" src="10" tgt="12" wght="0.46420556027442217" />
      </Connections>
    </Network>
    <Network id="10" birthGen="0" fitness="0">
      <Nodes>
        <Node type="bias" id="0" />
        <Node type="in" id="1" />
        <Node type="in" id="2" />
        <Node type="in" id="3" />
        <Node type="in" id="4" />
        <Node type="in" id="5" />
        <Node type="in" id="6" />
        <Node type="in" id="7" />
        <Node type="in" id="8" />
        <Node type="in" id="9" />
        <Node type="in" id="10" />
        <Node type="out" id="11" />
        <Node type="out" id="12" />
      </Nodes>
      <Connections>
        <Con id="13" src="0" tgt="11" wght="-1.3594154035672545" />
        <Con id="14" src="0" tgt="12" wght="-1.7608176358044147" />
        <Con id="15" src="1" tgt="11" wght="2.1262286882847548" />
        <Con id="16" src="1" tgt="12" wght="-4.0067422855645418" />
        <Con id="17" src="2" tgt="11" wght="-4.3125475198030472" />
        <Con id="18" src="2" tgt="12" wght="-2.4265646003186703" />
        <Con id="19" src="3" tgt="11" wght="-4.0269212517887354" />
        <Con id="20" src="3" tgt="12" wght="3.6665034247562289" />
        <Con id="21" src="4" tgt="11" wght="-2.7958800178021193" />
        <Con id="22" src="4" tgt="12" wght="-3.1880288384854794" />
        <Con id="23" src="5" tgt="11" wght="1.8990017706528306" />
        <Con id="24" src="5" tgt="12" wght="-1.9399699149653316" />
        <Con id="25" src="6" tgt="11" wght="0.81585686653852463" />
        <Con id="26" src="6" tgt="12" wght="1.0908244457095861" />
        <Con id="27" src="7" tgt="11" wght="4.037290713749826" />
        <Con id="28" src="7" tgt="12" wght="-1.1021137656643987" />
        <Con id="29" src="8" tgt="11" wght="3.8757436769083142" />
        <Con id="30" src="8" tgt="12" wght="-0.59592710342258215" />
        <Con id="31" src="9" tgt="11" wght="-0.75684469658881426" />
        <Con id="32" src="9" tgt="12" wght="2.7907701907679439" />
        <Con id="33" src="10" tgt="11" wght="-3.3697555586695671" />
        <Con id="34" src="10" tgt="12" wght="-2.2651575552299619" />
      </Connections>
    </Network>
    <Network id="11" birthGen="0" fitness="0">
      <Nodes>
        <Node type="bias" id="0" />
        <Node type="in" id="1" />
        <Node type="in" id="2" />
        <Node type="in" id="3" />
        <Node type="in" id="4" />
        <Node type="in" id="5" />
        <Node type="in" id="6" />
        <Node type="in" id="7" />
        <Node type="in" id="8" />
        <Node type="in" id="9" />
        <Node type="in" id="10" />
        <Node type="out" id="11" />
        <Node type="out" id="12" />
      </Nodes>
      <Connections>
        <Con id="13" src="0" tgt="11" wght="-3.3121033851057291" />
        <Con id="14" src="0" tgt="12" wght="1.3751599891111255" />
        <Con id="15" src="1" tgt="11" wght="-4.6496859053149819" />
        <Con id="16" src="1" tgt="12" wght="4.7663998510688543" />
        <Con id="17" src="2" tgt="11" wght="3.9103796985000372" />
        <Con id="18" src="2" tgt="12" wght="3.1982612609863281" />
        <Con id="19" src="3" tgt="11" wght="-4.5887446636334062" />
        <Con id="20" src="3" tgt="12" wght="1.6279468638822436" />
        <Con id="21" src="4" tgt="11" wght="-2.3043616348877549" />
        <Con id="22" src="4" tgt="12" wght="-4.4592218659818172" />
        <Con id="23" src="5" tgt="11" wght="1.0753487749025226" />
        <Con id="24" src="5" tgt="12" wght="-4.6822583768516779" />
        <Con id="25" src="6" tgt="11" wght="-1.0489983530715108" />
        <Con id="26" src="6" tgt="12" wght="0.90978806838393211" />
        <Con id="27" src="7" tgt="11" wght="-4.8662446811795235" />
        <Con id="28" src="7" tgt="12" wght="-4.6757376426830888" />
        <Con id="29" src="8" tgt="11" wght="1.3308497704565525" />
        <Con id="30" src="8" tgt="12" wght="-4.4508699979633093" />
        <Con id="31" src="9" tgt="11" wght="-3.5638183122500777" />
        <Con id="32" src="9" tgt="12" wght="-4.1806688206270337" />
        <Con id="33" src="10" tgt="11" wght="-0.6498686783015728" />
        <Con id="34" src="10" tgt="12" wght="4.2672140710055828" />
      </Connections>
    </Network>
    <Network id="12" birthGen="0" fitness="0">
      <Nodes>
        <Node type="bias" id="0" />
        <Node type="in" id="1" />
        <Node type="in" id="2" />
        <Node type="in" id="3" />
        <Node type="in" id="4" />
        <Node type="in" id="5" />
        <Node type="in" id="6" />
        <Node type="in" id="7" />
        <Node type="in" id="8" />
        <Node type="in" id="9" />
        <Node type="in" id="10" />
        <Node type="out" id="11" />
        <Node type="out" id="12" />
      </Nodes>
      <Connections>
        <Con id="13" src="0" tgt="11" wght="2.7153879916295409" />
        <Con id="14" src="0" tgt="12" wght="-4.2426487104967237" />
        <Con id="15" src="1" tgt="11" wght="1.1982543673366308" />
        <Con id="16" src="1" tgt="12" wght="3.7038222281262279" />
        <Con id="17" src="2" tgt="11" wght="-2.3528586514294147" />
        <Con id="18" src="2" tgt="12" wght="4.6196752320975065" />
        <Con id="19" src="3" tgt="11" wght="1.0417143628001213" />
        <Con id="20" src="3" tgt="12" wght="3.7985380785539746" />
        <Con id="21" src="4" tgt="11" wght="4.36437364667654" />
        <Con id="22" src="4" tgt="12" wght="-1.4093854231759906" />
        <Con id="23" src="5" tgt="11" wght="-2.4034352414309978" />
        <Con id="24" src="5" tgt="12" wght="1.5788264386355877" />
        <Con id="25" src="6" tgt="11" wght="-1.3223926909267902" />
        <Con id="26" src="6" tgt="12" wght="1.3654212700203061" />
        <Con id="27" src="7" tgt="11" wght="4.1192940156906843" />
        <Con id="28" src="7" tgt="12" wght="-1.3829299202188849" />
        <Con id="29" src="8" tgt="11" wght="4.0489591984078288" />
        <Con id="30" src="8" tgt="12" wght="4.6142396191135049" />
        <Con id="31" src="9" tgt="11" wght="-0.19902344793081284" />
        <Con id="32" src="9" tgt="12" wght="2.697815322317183" />
        <Con id="33" src="10" tgt="11" wght="-2.6445360528305173" />
        <Con id="34" src="10" tgt="12" wght="-4.8402741784229875" />
      </Connections>
    </Network>
    <Network id="13" birthGen="0" fitness="0">
      <Nodes>
        <Node type="bias" id="0" />
        <Node type="in" id="1" />
        <Node type="in" id="2" />
        <Node type="in" id="3" />
        <Node type="in" id="4" />
        <Node type="in" id="5" />
        <Node type="in" id="6" />
        <Node type="in" id="7" />
        <Node type="in" id="8" />
        <Node type="in" id="9" />
        <Node type="in" id="10" />
        <Node type="out" id="11" />
        <Node type="out" id="12" />
      </Nodes>
      <Connections>
        <Con id="13" src="0" tgt="11" wght="4.4215842615813017" />
        <Con id="14" src="0" tgt="12" wght="4.3991280626505613" />
        <Con id="15" src="1" tgt="11" wght="-3.6127828061580658" />
        <Con id="16" src="1" tgt="12" wght="-4.3997225072234869" />
        <Con id="17" src="2" tgt="11" wght="4.53998523298651" />
        <Con id="18" src="2" tgt="12" wght="0.95508321188390255" />
        <Con id="19" src="3" tgt="11" wght="4.9640826229006052" />
        <Con id="20" src="3" tgt="12" wght="3.9340638369321823" />
        <Con id="21" src="4" tgt="11" wght="-3.158601364120841" />
        <Con id="22" src="4" tgt="12" wght="-4.1355240345001221" />
        <Con id="23" src="5" tgt="11" wght="-2.5736422836780548" />
        <Con id="24" src="5" tgt="12" wght="-4.7076121903955936" />
        <Con id="25" src="6" tgt="11" wght="-4.4432415952906013" />
        <Con id="26" src="6" tgt="12" wght="-4.8927092272788286" />
        <Con id="27" src="7" tgt="11" wght="4.6211406961083412" />
        <Con id="28" src="7" tgt="12" wght="2.6529213087633252" />
        <Con id="29" src="8" tgt="11" wght="2.0409968215972185" />
        <Con id="30" src="8" tgt="12" wght="-2.504127249121666" />
        <Con id="31" src="9" tgt="11" wght="-0.26899566873908043" />
        <Con id="32" src="9" tgt="12" wght="1.7931224405765533" />
        <Con id="33" src="10" tgt="11" wght="-1.0417821537703276" />
        <Con id="34" src="10" tgt="12" wght="4.7647522017359734" />
      </Connections>
    </Network>
    <Network id="14" birthGen="0" fitness="0">
      <Nodes>
        <Node type="bias" id="0" />
        <Node type="in" id="1" />
        <Node type="in" id="2" />
        <Node type="in" id="3" />
        <Node type="in" id="4" />
        <Node type="in" id="5" />
        <Node type="in" id="6" />
        <Node type="in" id="7" />
        <Node type="in" id="8" />
        <Node type="in" id="9" />
        <Node type="in" id="10" />
        <Node type="out" id="11" />
        <Node type="out" id="12" />
      </Nodes>
      <Connections>
        <Con id="13" src="0" tgt="11" wght="-4.5476570492610335" />
        <Con id="14" src="0" tgt="12" wght="-0.092888064682483673" />
        <Con id="15" src="1" tgt="11" wght="-4.42922446411103" />
        <Con id="16" src="1" tgt="12" wght="-4.3686735443770885" />
        <Con id="17" src="2" tgt="11" wght="0.89775875676423311" />
        <Con id="18" src="2" tgt="12" wght="-1.923332866281271" />
        <Con id="19" src="3" tgt="11" wght="-1.4426926383748651" />
        <Con id="20" src="3" tgt="12" wght="3.4500527568161488" />
        <Con id="21" src="4" tgt="11" wght="-4.2185095930472016" />
        <Con id="22" src="4" tgt="12" wght="-2.3228413192555308" />
        <Con id="23" src="5" tgt="11" wght="2.4206901760771871" />
        <Con id="24" src="5" tgt="12" wght="-3.0587896844372153" />
        <Con id="25" src="6" tgt="11" wght="-1.6677985806018114" />
        <Con id="26" src="6" tgt="12" wght="-1.9368254998698831" />
        <Con id="27" src="7" tgt="11" wght="0.052349143661558628" />
        <Con id="28" src="7" tgt="12" wght="-4.8756918637081981" />
        <Con id="29" src="8" tgt="11" wght="-3.3729124907404184" />
        <Con id="30" src="8" tgt="12" wght="-3.0195465451106429" />
        <Con id="31" src="9" tgt="11" wght="-0.76953794341534376" />
        <Con id="32" src="9" tgt="12" wght="2.7969329617917538" />
        <Con id="33" src="10" tgt="11" wght="-1.9606998562812805" />
        <Con id="34" src="10" tgt="12" wght="-4.7775277914479375" />
      </Connections>
    </Network>
    <Network id="15" birthGen="0" fitness="0">
      <Nodes>
        <Node type="bias" id="0" />
        <Node type="in" id="1" />
        <Node type="in" id="2" />
        <Node type="in" id="3" />
        <Node type="in" id="4" />
        <Node type="in" id="5" />
        <Node type="in" id="6" />
        <Node type="in" id="7" />
        <Node type="in" id="8" />
        <Node type="in" id="9" />
        <Node type="in" id="10" />
        <Node type="out" id="11" />
        <Node type="out" id="12" />
      </Nodes>
      <Connections>
        <Con id="13" src="0" tgt="11" wght="-3.987792725674808" />
        <Con id="14" src="0" tgt="12" wght="-4.1986018000170588" />
        <Con id="15" src="1" tgt="11" wght="4.2474197456613183" />
        <Con id="16" src="1" tgt="12" wght="-4.7798268310725689" />
        <Con id="17" src="2" tgt="11" wght="0.1374847861006856" />
        <Con id="18" src="2" tgt="12" wght="-0.78909071628004313" />
        <Con id="19" src="3" tgt="11" wght="-1.3224843004718423" />
        <Con id="20" src="3" tgt="12" wght="-0.71496327873319387" />
        <Con id="21" src="4" tgt="11" wght="-4.8807346867397428" />
        <Con id="22" src="4" tgt="12" wght="2.1710332995280623" />
        <Con id="23" src="5" tgt="11" wght="0.8468135166913271" />
        <Con id="24" src="5" tgt="12" wght="-0.32362768426537514" />
        <Con id="25" src="6" tgt="11" wght="3.0299873650074005" />
        <Con id="26" src="6" tgt="12" wght="1.4572563022375107" />
        <Con id="27" src="7" tgt="11" wght="-3.5993163799867034" />
        <Con id="28" src="7" tgt="12" wght="-1.6724882181733847" />
        <Con id="29" src="8" tgt="11" wght="-2.1977377450093627" />
        <Con id="30" src="8" tgt="12" wght="-2.7246882347390056" />
        <Con id="31" src="9" tgt="11" wght="2.3181388480588794" />
        <Con id="32" src="9" tgt="12" wght="2.6454547978937626" />
        <Con id="33" src="10" tgt="11" wght="-1.4350383216515183" />
        <Con id="34" src="10" tgt="12" wght="-2.3336902912706137" />
      </Connections>
    </Network>
    <Network id="16" birthGen="0" fitness="0">
      <Nodes>
        <Node type="bias" id="0" />
        <Node type="in" id="1" />
        <Node type="in" id="2" />
        <Node type="in" id="3" />
        <Node type="in" id="4" />
        <Node type="in" id="5" />
        <Node type="in" id="6" />
        <Node type="in" id="7" />
        <Node type="in" id="8" />
        <Node type="in" id="9" />
        <Node type="in" id="10" />
        <Node type="out" id="11" />
        <Node type="out" id="12" />
      </Nodes>
      <Connections>
        <Con id="13" src="0" tgt="11" wght="1.071261540055275" />
        <Con id="14" src="0" tgt="12" wght="0.884432727470994" />
        <Con id="15" src="1" tgt="11" wght="-3.36591103579849" />
        <Con id="16" src="1" tgt="12" wght="-4.770396463572979" />
        <Con id="17" src="2" tgt="11" wght="-4.7377311158925295" />
        <Con id="18" src="2" tgt="12" wght="0.39286338724195957" />
        <Con id="19" src="3" tgt="11" wght="0.20605731289833784" />
        <Con id="20" src="3" tgt="12" wght="-1.0108200740069151" />
        <Con id="21" src="4" tgt="11" wght="3.4179410664364696" />
        <Con id="22" src="4" tgt="12" wght="-2.9259307868778706" />
        <Con id="23" src="5" tgt="11" wght="-1.1183922970667481" />
        <Con id="24" src="5" tgt="12" wght="-3.4105030307546258" />
        <Con id="25" src="6" tgt="11" wght="-1.1288592824712396" />
        <Con id="26" src="6" tgt="12" wght="2.4327890109270811" />
        <Con id="27" src="7" tgt="11" wght="2.4392304150387645" />
        <Con id="28" src="7" tgt="12" wght="4.1520027304068208" />
        <Con id="29" src="8" tgt="11" wght="-1.9230629689991474" />
        <Con id="30" src="8" tgt="12" wght="1.2946778861805797" />
        <Con id="31" src="9" tgt="11" wght="2.4352658353745937" />
        <Con id="32" src="9" tgt="12" wght="0.99739158526062965" />
        <Con id="33" src="10" tgt="11" wght="4.0271163498982787" />
        <Con id="34" src="10" tgt="12" wght="-1.8084366200491786" />
      </Connections>
    </Network>
    <Network id="17" birthGen="0" fitness="0">
      <Nodes>
        <Node type="bias" id="0" />
        <Node type="in" id="1" />
        <Node type="in" id="2" />
        <Node type="in" id="3" />
        <Node type="in" id="4" />
        <Node type="in" id="5" />
        <Node type="in" id="6" />
        <Node type="in" id="7" />
        <Node type="in" id="8" />
        <Node type="in" id="9" />
        <Node type="in" id="10" />
        <Node type="out" id="11" />
        <Node type="out" id="12" />
      </Nodes>
      <Connections>
        <Con id="13" src="0" tgt="11" wght="3.42807084787637" />
        <Con id="14" src="0" tgt="12" wght="-2.5833844859153032" />
        <Con id="15" src="1" tgt="11" wght="1.5181359648704529" />
        <Con id="16" src="1" tgt="12" wght="0.74651439674198627" />
        <Con id="17" src="2" tgt="11" wght="-0.36849931348115206" />
        <Con id="18" src="2" tgt="12" wght="1.1711502587422729" />
        <Con id="19" src="3" tgt="11" wght="0.055517787113785744" />
        <Con id="20" src="3" tgt="12" wght="-0.045885052531957626" />
        <Con id="21" src="4" tgt="11" wght="3.01828196272254" />
        <Con id="22" src="4" tgt="12" wght="-4.5045516220852733" />
        <Con id="23" src="5" tgt="11" wght="-3.4569252841174603" />
        <Con id="24" src="5" tgt="12" wght="-1.1259002797305584" />
        <Con id="25" src="6" tgt="11" wght="-4.1374186985194683" />
        <Con id="26" src="6" tgt="12" wght="-3.3864043978974223" />
        <Con id="27" src="7" tgt="11" wght="-1.9218056183308363" />
        <Con id="28" src="7" tgt="12" wght="-1.1106539377942681" />
        <Con id="29" src="8" tgt="11" wght="-1.2016928009688854" />
        <Con id="30" src="8" tgt="12" wght="-0.1717741135507822" />
        <Con id="31" src="9" tgt="11" wght="0.27033579535782337" />
        <Con id="32" src="9" tgt="12" wght="-2.1955073298886418" />
        <Con id="33" src="10" tgt="11" wght="3.1407039472833276" />
        <Con id="34" src="10" tgt="12" wght="2.3880620254203677" />
      </Connections>
    </Network>
    <Network id="18" birthGen="0" fitness="0">
      <Nodes>
        <Node type="bias" id="0" />
        <Node type="in" id="1" />
        <Node type="in" id="2" />
        <Node type="in" id="3" />
        <Node type="in" id="4" />
        <Node type="in" id="5" />
        <Node type="in" id="6" />
        <Node type="in" id="7" />
        <Node type="in" id="8" />
        <Node type="in" id="9" />
        <Node type="in" id="10" />
        <Node type="out" id="11" />
        <Node type="out" id="12" />
      </Nodes>
      <Connections>
        <Con id="13" src="0" tgt="11" wght="-3.845749138854444" />
        <Con id="14" src="0" tgt="12" wght="-0.94991548452526331" />
        <Con id="15" src="1" tgt="11" wght="-4.59271936211735" />
        <Con id="16" src="1" tgt="12" wght="-4.5823989249765873" />
        <Con id="17" src="2" tgt="11" wght="0.74841834604740143" />
        <Con id="18" src="2" tgt="12" wght="0.77129455283284187" />
        <Con id="19" src="3" tgt="11" wght="-0.13254233635962009" />
        <Con id="20" src="3" tgt="12" wght="-1.3797593303024769" />
        <Con id="21" src="4" tgt="11" wght="-2.9118343535810709" />
        <Con id="22" src="4" tgt="12" wght="-3.0664342641830444" />
        <Con id="23" src="5" tgt="11" wght="0.070605026558041573" />
        <Con id="24" src="5" tgt="12" wght="4.4396796030923724" />
        <Con id="25" src="6" tgt="11" wght="4.4743756717070937" />
        <Con id="26" src="6" tgt="12" wght="0.65959243103861809" />
        <Con id="27" src="7" tgt="11" wght="-0.86266022175550461" />
        <Con id="28" src="7" tgt="12" wght="-2.8742852201685309" />
        <Con id="29" src="8" tgt="11" wght="2.5751079199835658" />
        <Con id="30" src="8" tgt="12" wght="3.7947596749290824" />
        <Con id="31" src="9" tgt="11" wght="-2.5537331542000175" />
        <Con id="32" src="9" tgt="12" wght="-0.4144322918727994" />
        <Con id="33" src="10" tgt="11" wght="-2.6280142739415169" />
        <Con id="34" src="10" tgt="12" wght="0.87347622495144606" />
      </Connections>
    </Network>
    <Network id="19" birthGen="0" fitness="0">
      <Nodes>
        <Node type="bias" id="0" />
        <Node type="in" id="1" />
        <Node type="in" id="2" />
        <Node type="in" id="3" />
        <Node type="in" id="4" />
        <Node type="in" id="5" />
        <Node type="in" id="6" />
        <Node type="in" id="7" />
        <Node type="in" id="8" />
        <Node type="in" id="9" />
        <Node type="in" id="10" />
        <Node type="out" id="11" />
        <Node type="out" id="12" />
      </Nodes>
      <Connections>
        <Con id="13" src="0" tgt="11" wght="3.5519493278115988" />
        <Con id="14" src="0" tgt="12" wght="-4.2523077735677361" />
        <Con id="15" src="1" tgt="11" wght="-2.9298556223511696" />
        <Con id="16" src="1" tgt="12" wght="2.4414700549095869" />
        <Con id="17" src="2" tgt="11" wght="2.43453124538064" />
        <Con id="18" src="2" tgt="12" wght="-4.9370679492130876" />
        <Con id="19" src="3" tgt="11" wght="3.8308103010058403" />
        <Con id="20" src="3" tgt="12" wght="-0.95520859118551016" />
        <Con id="21" src="4" tgt="11" wght="-0.42325049173086882" />
        <Con id="22" src="4" tgt="12" wght="-2.3767142556607723" />
        <Con id="23" src="5" tgt="11" wght="-4.8805370880290866" />
        <Con id="24" src="5" tgt="12" wght="3.9002138562500477" />
        <Con id="25" src="6" tgt="11" wght="-4.35353587847203" />
        <Con id="26" src="6" tgt="12" wght="-2.884717620909214" />
        <Con id="27" src="7" tgt="11" wght="-2.5004036212339997" />
        <Con id="28" src="7" tgt="12" wght="2.8968806797638535" />
        <Con id="29" src="8" tgt="11" wght="3.133352966979146" />
        <Con id="30" src="8" tgt="12" wght="-2.0793782407417893" />
        <Con id="31" src="9" tgt="11" wght="-0.64345324877649546" />
        <Con id="32" src="9" tgt="12" wght="0.86535486858338118" />
        <Con id="33" src="10" tgt="11" wght="-3.6135048558935523" />
        <Con id="34" src="10" tgt="12" wght="0.50269731786102057" />
      </Connections>
    </Network>
    <Network id="20" birthGen="0" fitness="0">
      <Nodes>
        <Node type="bias" id="0" />
        <Node type="in" id="1" />
        <Node type="in" id="2" />
        <Node type="in" id="3" />
        <Node type="in" id="4" />
        <Node type="in" id="5" />
        <Node type="in" id="6" />
        <Node type="in" id="7" />
        <Node type="in" id="8" />
        <Node type="in" id="9" />
        <Node type="in" id="10" />
        <Node type="out" id="11" />
        <Node type="out" id="12" />
      </Nodes>
      <Connections>
        <Con id="13" src="0" tgt="11" wght="-3.3413309091702104" />
        <Con id="14" src="0" tgt="12" wght="-4.446804947219789" />
        <Con id="15" src="1" tgt="11" wght="-4.8077634256333113" />
        <Con id="16" src="1" tgt="12" wght="2.9186160396784544" />
        <Con id="17" src="2" tgt="11" wght="-4.9189173663035035" />
        <Con id="18" src="2" tgt="12" wght="-1.0050829034298658" />
        <Con id="19" src="3" tgt="11" wght="2.3128428449854255" />
        <Con id="20" src="3" tgt="12" wght="-2.8353434056043625" />
        <Con id="21" src="4" tgt="11" wght="2.2531244205310941" />
        <Con id="22" src="4" tgt="12" wght="0.56658300571143627" />
        <Con id="23" src="5" tgt="11" wght="3.1959688244387507" />
        <Con id="24" src="5" tgt="12" wght="-3.4428906487300992" />
        <Con id="25" src="6" tgt="11" wght="3.5190124716609716" />
        <Con id="26" src="6" tgt="12" wght="-0.31163268722593784" />
        <Con id="27" src="7" tgt="11" wght="0.78039302490651608" />
        <Con id="28" src="7" tgt="12" wght="0.26265927124768496" />
        <Con id="29" src="8" tgt="11" wght="1.4069906249642372" />
        <Con id="30" src="8" tgt="12" wght="2.7664769068360329" />
        <Con id="31" src="9" tgt="11" wght="-1.618109904229641" />
        <Con id="32" src="9" tgt="12" wght="-0.696223801933229" />
        <Con id="33" src="10" tgt="11" wght="1.0445271898061037" />
        <Con id="34" src="10" tgt="12" wght="-4.5672974921762943" />
      </Connections>
    </Network>
    <Network id="21" birthGen="0" fitness="0">
      <Nodes>
        <Node type="bias" id="0" />
        <Node type="in" id="1" />
        <Node type="in" id="2" />
        <Node type="in" id="3" />
        <Node type="in" id="4" />
        <Node type="in" id="5" />
        <Node type="in" id="6" />
        <Node type="in" id="7" />
        <Node type="in" id="8" />
        <Node type="in" id="9" />
        <Node type="in" id="10" />
        <Node type="out" id="11" />
        <Node type="out" id="12" />
      </Nodes>
      <Connections>
        <Con id="13" src="0" tgt="11" wght="-2.6948381820693612" />
        <Con id="14" src="0" tgt="12" wght="2.0869428664445877" />
        <Con id="15" src="1" tgt="11" wght="0.95048695337027311" />
        <Con id="16" src="1" tgt="12" wght="0.6179116340354085" />
        <Con id="17" src="2" tgt="11" wght="-1.6115677636116743" />
        <Con id="18" src="2" tgt="12" wght="-1.5013199904933572" />
        <Con id="19" src="3" tgt="11" wght="0.74976014904677868" />
        <Con id="20" src="3" tgt="12" wght="2.4743275949731469" />
        <Con id="21" src="4" tgt="11" wght="-4.8255293862894177" />
        <Con id="22" src="4" tgt="12" wght="0.31987851951271296" />
        <Con id="23" src="5" tgt="11" wght="-0.22578610107302666" />
        <Con id="24" src="5" tgt="12" wght="-1.4295656979084015" />
        <Con id="25" src="6" tgt="11" wght="-1.7793876864016056" />
        <Con id="26" src="6" tgt="12" wght="-4.8500921251252294" />
        <Con id="27" src="7" tgt="11" wght="3.504664096981287" />
        <Con id="28" src="7" tgt="12" wght="0.00410350039601326" />
        <Con id="29" src="8" tgt="11" wght="-2.8245571767911315" />
        <Con id="30" src="8" tgt="12" wght="-1.7060207389295101" />
        <Con id="31" src="9" tgt="11" wght="-4.9594535026699305" />
        <Con id="32" src="9" tgt="12" wght="3.893035901710391" />
        <Con id="33" src="10" tgt="11" wght="-3.9398509077727795" />
        <Con id="34" src="10" tgt="12" wght="-4.986290642991662" />
      </Connections>
    </Network>
    <Network id="22" birthGen="0" fitness="0">
      <Nodes>
        <Node type="bias" id="0" />
        <Node type="in" id="1" />
        <Node type="in" id="2" />
        <Node type="in" id="3" />
        <Node type="in" id="4" />
        <Node type="in" id="5" />
        <Node type="in" id="6" />
        <Node type="in" id="7" />
        <Node type="in" id="8" />
        <Node type="in" id="9" />
        <Node type="in" id="10" />
        <Node type="out" id="11" />
        <Node type="out" id="12" />
      </Nodes>
      <Connections>
        <Con id="13" src="0" tgt="11" wght="-3.0752053810283542" />
        <Con id="14" src="0" tgt="12" wght="0.5036624800413847" />
        <Con id="15" src="1" tgt="11" wght="-4.6441495325416327" />
        <Con id="16" src="1" tgt="12" wght="-3.7956505361944437" />
        <Con id="17" src="2" tgt="11" wght="-4.0077607799321413" />
        <Con id="18" src="2" tgt="12" wght="1.0698422277346253" />
        <Con id="19" src="3" tgt="11" wght="-1.7861619358882308" />
        <Con id="20" src="3" tgt="12" wght="0.92781804502010345" />
        <Con id="21" src="4" tgt="11" wght="-4.8252509161829948" />
        <Con id="22" src="4" tgt="12" wght="-1.9231232907623053" />
        <Con id="23" src="5" tgt="11" wght="-2.0743875810876489" />
        <Con id="24" src="5" tgt="12" wght="-2.9210976837202907" />
        <Con id="25" src="6" tgt="11" wght="-2.8081341413781047" />
        <Con id="26" src="6" tgt="12" wght="-2.0416037412360311" />
        <Con id="27" src="7" tgt="11" wght="4.83551659155637" />
        <Con id="28" src="7" tgt="12" wght="1.1957055097445846" />
        <Con id="29" src="8" tgt="11" wght="-0.037827729247510433" />
        <Con id="30" src="8" tgt="12" wght="-3.6097543500363827" />
        <Con id="31" src="9" tgt="11" wght="-3.8628709176555276" />
        <Con id="32" src="9" tgt="12" wght="2.3199331667274237" />
        <Con id="33" src="10" tgt="11" wght="-3.4208979737013578" />
        <Con id="34" src="10" tgt="12" wght="-3.7515411479398608" />
      </Connections>
    </Network>
    <Network id="23" birthGen="0" fitness="0">
      <Nodes>
        <Node type="bias" id="0" />
        <Node type="in" id="1" />
        <Node type="in" id="2" />
        <Node type="in" id="3" />
        <Node type="in" id="4" />
        <Node type="in" id="5" />
        <Node type="in" id="6" />
        <Node type="in" id="7" />
        <Node type="in" id="8" />
        <Node type="in" id="9" />
        <Node type="in" id="10" />
        <Node type="out" id="11" />
        <Node type="out" id="12" />
      </Nodes>
      <Connections>
        <Con id="13" src="0" tgt="11" wght="-4.4984561577439308" />
        <Con id="14" src="0" tgt="12" wght="2.0397270703688264" />
        <Con id="15" src="1" tgt="11" wght="4.7902160743251443" />
        <Con id="16" src="1" tgt="12" wght="-2.9002012545242906" />
        <Con id="17" src="2" tgt="11" wght="1.1022876296192408" />
        <Con id="18" src="2" tgt="12" wght="-0.13712586835026741" />
        <Con id="19" src="3" tgt="11" wght="2.6371542736887932" />
        <Con id="20" src="3" tgt="12" wght="0.7543081883341074" />
        <Con id="21" src="4" tgt="11" wght="4.2438187683001161" />
        <Con id="22" src="4" tgt="12" wght="-3.6139272712171078" />
        <Con id="23" src="5" tgt="11" wght="-0.30719165690243244" />
        <Con id="24" src="5" tgt="12" wght="1.9050641963258386" />
        <Con id="25" src="6" tgt="11" wght="0.56278553791344166" />
        <Con id="26" src="6" tgt="12" wght="-2.4441731395199895" />
        <Con id="27" src="7" tgt="11" wght="3.7754200166091323" />
        <Con id="28" src="7" tgt="12" wght="-1.7717417469248176" />
        <Con id="29" src="8" tgt="11" wght="0.80611462239176035" />
        <Con id="30" src="8" tgt="12" wght="-4.6637695655226707" />
        <Con id="31" src="9" tgt="11" wght="3.760660532861948" />
        <Con id="32" src="9" tgt="12" wght="-0.28440580703318119" />
        <Con id="33" src="10" tgt="11" wght="-0.039522531442344189" />
        <Con id="34" src="10" tgt="12" wght="-2.5333807338029146" />
      </Connections>
    </Network>
    <Network id="24" birthGen="0" fitness="0">
      <Nodes>
        <Node type="bias" id="0" />
        <Node type="in" id="1" />
        <Node type="in" id="2" />
        <Node type="in" id="3" />
        <Node type="in" id="4" />
        <Node type="in" id="5" />
        <Node type="in" id="6" />
        <Node type="in" id="7" />
        <Node type="in" id="8" />
        <Node type="in" id="9" />
        <Node type="in" id="10" />
        <Node type="out" id="11" />
        <Node type="out" id="12" />
      </Nodes>
      <Connections>
        <Con id="13" src="0" tgt="11" wght="0.90203528292477131" />
        <Con id="14" src="0" tgt="12" wght="4.3995654303580523" />
        <Con id="15" src="1" tgt="11" wght="4.9387233471497893" />
        <Con id="16" src="1" tgt="12" wght="-3.5669051390141249" />
        <Con id="17" src="2" tgt="11" wght="-3.7373069440945983" />
        <Con id="18" src="2" tgt="12" wght="-1.1459405953064561" />
        <Con id="19" src="3" tgt="11" wght="3.5265732137486339" />
        <Con id="20" src="3" tgt="12" wght="0.36163038574159145" />
        <Con id="21" src="4" tgt="11" wght="-3.1443402217701077" />
        <Con id="22" src="4" tgt="12" wght="2.6058707712218165" />
        <Con id="23" src="5" tgt="11" wght="-1.3826010748744011" />
        <Con id="24" src="5" tgt="12" wght="1.7539936164394021" />
        <Con id="25" src="6" tgt="11" wght="3.5105760721489787" />
        <Con id="26" src="6" tgt="12" wght="-1.2657973449677229" />
        <Con id="27" src="7" tgt="11" wght="-4.8001265618950129" />
        <Con id="28" src="7" tgt="12" wght="1.429127873852849" />
        <Con id="29" src="8" tgt="11" wght="2.1172179561108351" />
        <Con id="30" src="8" tgt="12" wght="4.260234939865768" />
        <Con id="31" src="9" tgt="11" wght="-1.0936874896287918" />
        <Con id="32" src="9" tgt="12" wght="3.1903772056102753" />
        <Con id="33" src="10" tgt="11" wght="-1.7898807860910892" />
        <Con id="34" src="10" tgt="12" wght="-0.4802982322871685" />
      </Connections>
    </Network>
    <Network id="25" birthGen="0" fitness="0">
      <Nodes>
        <Node type="bias" id="0" />
        <Node type="in" id="1" />
        <Node type="in" id="2" />
        <Node type="in" id="3" />
        <Node type="in" id="4" />
        <Node type="in" id="5" />
        <Node type="in" id="6" />
        <Node type="in" id="7" />
        <Node type="in" id="8" />
        <Node type="in" id="9" />
        <Node type="in" id="10" />
        <Node type="out" id="11" />
        <Node type="out" id="12" />
      </Nodes>
      <Connections>
        <Con id="13" src="0" tgt="11" wght="-1.0715270601212978" />
        <Con id="14" src="0" tgt="12" wght="-4.5488713961094618" />
        <Con id="15" src="1" tgt="11" wght="0.784559533931315" />
        <Con id="16" src="1" tgt="12" wght="-2.3098467849195004" />
        <Con id="17" src="2" tgt="11" wght="4.5140973571687937" />
        <Con id="18" src="2" tgt="12" wght="2.7161393780261278" />
        <Con id="19" src="3" tgt="11" wght="-4.8641667328774929" />
        <Con id="20" src="3" tgt="12" wght="-2.211051257327199" />
        <Con id="21" src="4" tgt="11" wght="0.8943961001932621" />
        <Con id="22" src="4" tgt="12" wght="4.8888707393780351" />
        <Con id="23" src="5" tgt="11" wght="-1.9328110618516803" />
        <Con id="24" src="5" tgt="12" wght="-2.7352949930354953" />
        <Con id="25" src="6" tgt="11" wght="2.5968343345448375" />
        <Con id="26" src="6" tgt="12" wght="3.7611543852835894" />
        <Con id="27" src="7" tgt="11" wght="-0.17541914246976376" />
        <Con id="28" src="7" tgt="12" wght="-3.7477886071428657" />
        <Con id="29" src="8" tgt="11" wght="-2.0999282086268067" />
        <Con id="30" src="8" tgt="12" wght="-4.8351446539163589" />
        <Con id="31" src="9" tgt="11" wght="-0.9895720612257719" />
        <Con id="32" src="9" tgt="12" wght="1.7470220942050219" />
        <Con id="33" src="10" tgt="11" wght="-0.84273100830614567" />
        <Con id="34" src="10" tgt="12" wght="0.69701549597084522" />
      </Connections>
    </Network>
    <Network id="26" birthGen="0" fitness="0">
      <Nodes>
        <Node type="bias" id="0" />
        <Node type="in" id="1" />
        <Node type="in" id="2" />
        <Node type="in" id="3" />
        <Node type="in" id="4" />
        <Node type="in" id="5" />
        <Node type="in" id="6" />
        <Node type="in" id="7" />
        <Node type="in" id="8" />
        <Node type="in" id="9" />
        <Node type="in" id="10" />
        <Node type="out" id="11" />
        <Node type="out" id="12" />
      </Nodes>
      <Connections>
        <Con id="13" src="0" tgt="11" wght="-3.0522951856255531" />
        <Con id="14" src="0" tgt="12" wght="-0.85198757704347372" />
        <Con id="15" src="1" tgt="11" wght="3.12079019844532" />
        <Con id="16" src="1" tgt="12" wght="4.43879509344697" />
        <Con id="17" src="2" tgt="11" wght="2.1045156940817833" />
        <Con id="18" src="2" tgt="12" wght="1.0582885751500726" />
        <Con id="19" src="3" tgt="11" wght="-3.7035012058913708" />
        <Con id="20" src="3" tgt="12" wght="-1.1618032772094011" />
        <Con id="21" src="4" tgt="11" wght="-3.01278333645314" />
        <Con id="22" src="4" tgt="12" wght="-0.97759814001619816" />
        <Con id="23" src="5" tgt="11" wght="3.5445213364437222" />
        <Con id="24" src="5" tgt="12" wght="-4.6336813922971487" />
        <Con id="25" src="6" tgt="11" wght="-0.47167405020445585" />
        <Con id="26" src="6" tgt="12" wght="1.721886289305985" />
        <Con id="27" src="7" tgt="11" wght="4.7131525818258524" />
        <Con id="28" src="7" tgt="12" wght="-1.6772014368325472" />
        <Con id="29" src="8" tgt="11" wght="2.9981304937973619" />
        <Con id="30" src="8" tgt="12" wght="-2.7428491180762649" />
        <Con id="31" src="9" tgt="11" wght="-1.622624509036541" />
        <Con id="32" src="9" tgt="12" wght="-3.5824662772938609" />
        <Con id="33" src="10" tgt="11" wght="-1.1662236042320728" />
        <Con id="34" src="10" tgt="12" wght="0.26770018972456455" />
      </Connections>
    </Network>
    <Network id="27" birthGen="0" fitness="0">
      <Nodes>
        <Node type="bias" id="0" />
        <Node type="in" id="1" />
        <Node type="in" id="2" />
        <Node type="in" id="3" />
        <Node type="in" id="4" />
        <Node type="in" id="5" />
        <Node type="in" id="6" />
        <Node type="in" id="7" />
        <Node type="in" id="8" />
        <Node type="in" id="9" />
        <Node type="in" id="10" />
        <Node type="out" id="11" />
        <Node type="out" id="12" />
      </Nodes>
      <Connections>
        <Con id="13" src="0" tgt="11" wght="2.3117303056642413" />
        <Con id="14" src="0" tgt="12" wght="2.0618633413687348" />
        <Con id="15" src="1" tgt="11" wght="-2.9626624472439289" />
        <Con id="16" src="1" tgt="12" wght="2.9648648807778955" />
        <Con id="17" src="2" tgt="11" wght="4.2850173683837056" />
        <Con id="18" src="2" tgt="12" wght="3.517239186912775" />
        <Con id="19" src="3" tgt="11" wght="0.049673193134367466" />
        <Con id="20" src="3" tgt="12" wght="4.995228536427021" />
        <Con id="21" src="4" tgt="11" wght="-0.69476164411753416" />
        <Con id="22" src="4" tgt="12" wght="-2.3028196161612868" />
        <Con id="23" src="5" tgt="11" wght="-1.0835842275992036" />
        <Con id="24" src="5" tgt="12" wght="-2.4798414297401905" />
        <Con id="25" src="6" tgt="11" wght="1.823208462446928" />
        <Con id="26" src="6" tgt="12" wght="-2.2748001711443067" />
        <Con id="27" src="7" tgt="11" wght="-0.075316205620765686" />
        <Con id="28" src="7" tgt="12" wght="-2.2057381318882108" />
        <Con id="29" src="8" tgt="11" wght="3.561045597307384" />
        <Con id="30" src="8" tgt="12" wght="3.9102475345134735" />
        <Con id="31" src="9" tgt="11" wght="-3.6646101111546159" />
        <Con id="32" src="9" tgt="12" wght="2.1004077699035406" />
        <Con id="33" src="10" tgt="11" wght="2.9042410058900714" />
        <Con id="34" src="10" tgt="12" wght="2.4902575276792049" />
      </Connections>
    </Network>
    <Network id="28" birthGen="0" fitness="0">
      <Nodes>
        <Node type="bias" id="0" />
        <Node type="in" id="1" />
        <Node type="in" id="2" />
        <Node type="in" id="3" />
        <Node type="in" id="4" />
        <Node type="in" id="5" />
        <Node type="in" id="6" />
        <Node type="in" id="7" />
        <Node type="in" id="8" />
        <Node type="in" id="9" />
        <Node type="in" id="10" />
        <Node type="out" id="11" />
        <Node type="out" id="12" />
      </Nodes>
      <Connections>
        <Con id="13" src="0" tgt="11" wght="-2.761016502045095" />
        <Con id="14" src="0" tgt="12" wght="2.924240417778492" />
        <Con id="15" src="1" tgt="11" wght="0.64922383986413479" />
        <Con id="16" src="1" tgt="12" wght="-1.7595251509919763" />
        <Con id="17" src="2" tgt="11" wght="-2.4785730009898543" />
        <Con id="18" src="2" tgt="12" wght="-3.4214788163080812" />
        <Con id="19" src="3" tgt="11" wght="-1.9127393374219537" />
        <Con id="20" src="3" tgt="12" wght="-4.9483163701370358" />
        <Con id="21" src="4" tgt="11" wght="-0.78802316449582577" />
        <Con id="22" src="4" tgt="12" wght="-3.5866628214716911" />
        <Con id="23" src="5" tgt="11" wght="2.6278630550950766" />
        <Con id="24" src="5" tgt="12" wght="-2.03324300237" />
        <Con id="25" src="6" tgt="11" wght="3.4776697726920247" />
        <Con id="26" src="6" tgt="12" wght="-0.26650848798453808" />
        <Con id="27" src="7" tgt="11" wght="-2.0383396465331316" />
        <Con id="28" src="7" tgt="12" wght="-1.1553146783262491" />
        <Con id="29" src="8" tgt="11" wght="4.2308501806110144" />
        <Con id="30" src="8" tgt="12" wght="-1.39146757312119" />
        <Con id="31" src="9" tgt="11" wght="-4.7998795798048377" />
        <Con id="32" src="9" tgt="12" wght="-4.1511434270069" />
        <Con id="33" src="10" tgt="11" wght="3.7716831313446164" />
        <Con id="34" src="10" tgt="12" wght="-1.2622320977970958" />
      </Connections>
    </Network>
    <Network id="29" birthGen="0" fitness="0">
      <Nodes>
        <Node type="bias" id="0" />
        <Node type="in" id="1" />
        <Node type="in" id="2" />
        <Node type="in" id="3" />
        <Node type="in" id="4" />
        <Node type="in" id="5" />
        <Node type="in" id="6" />
        <Node type="in" id="7" />
        <Node type="in" id="8" />
        <Node type="in" id="9" />
        <Node type="in" id="10" />
        <Node type="out" id="11" />
        <Node type="out" id="12" />
      </Nodes>
      <Connections>
        <Con id="13" src="0" tgt="11" wght="-1.050520590506494" />
        <Con id="14" src="0" tgt="12" wght="-3.1356528447940946" />
        <Con id="15" src="1" tgt="11" wght="0.45759688131511211" />
        <Con id="16" src="1" tgt="12" wght="-2.4490057956427336" />
        <Con id="17" src="2" tgt="11" wght="4.820569371804595" />
        <Con id="18" src="2" tgt="12" wght="-4.9967057397589087" />
        <Con id="19" src="3" tgt="11" wght="0.21755771245807409" />
        <Con id="20" src="3" tgt="12" wght="3.9947520894929767" />
        <Con id="21" src="4" tgt="11" wght="-1.8757395725697279" />
        <Con id="22" src="4" tgt="12" wght="4.2678830772638321" />
        <Con id="23" src="5" tgt="11" wght="4.2804138781502843" />
        <Con id="24" src="5" tgt="12" wght="-0.77203905209898949" />
        <Con id="25" src="6" tgt="11" wght="1.5001067332923412" />
        <Con id="26" src="6" tgt="12" wght="-1.9814231805503368" />
        <Con id="27" src="7" tgt="11" wght="4.7282499726861715" />
        <Con id="28" src="7" tgt="12" wght="-0.53947994951158762" />
        <Con id="29" src="8" tgt="11" wght="1.1442654207348824" />
        <Con id="30" src="8" tgt="12" wght="-2.0223268773406744" />
        <Con id="31" src="9" tgt="11" wght="-0.25538878981024027" />
        <Con id="32" src="9" tgt="12" wght="3.6868797987699509" />
        <Con id="33" src="10" tgt="11" wght="-0.07486206479370594" />
        <Con id="34" src="10" tgt="12" wght="4.1507874941453338" />
      </Connections>
    </Network>
    <Network id="30" birthGen="0" fitness="0">
      <Nodes>
        <Node type="bias" id="0" />
        <Node type="in" id="1" />
        <Node type="in" id="2" />
        <Node type="in" id="3" />
        <Node type="in" id="4" />
        <Node type="in" id="5" />
        <Node type="in" id="6" />
        <Node type="in" id="7" />
        <Node type="in" id="8" />
        <Node type="in" id="9" />
        <Node type="in" id="10" />
        <Node type="out" id="11" />
        <Node type="out" id="12" />
      </Nodes>
      <Connections>
        <Con id="13" src="0" tgt="11" wght="-3.5887415055185556" />
        <Con id="14" src="0" tgt="12" wght="-1.6901397705078125" />
        <Con id="15" src="1" tgt="11" wght="-0.47460656147450209" />
        <Con id="16" src="1" tgt="12" wght="-0.600319872610271" />
        <Con id="17" src="2" tgt="11" wght="-1.5601858031004667" />
        <Con id="18" src="2" tgt="12" wght="4.9147011712193489" />
        <Con id="19" src="3" tgt="11" wght="-3.1659055082127452" />
        <Con id="20" src="3" tgt="12" wght="-1.1401932034641504" />
        <Con id="21" src="4" tgt="11" wght="-2.0270432159304619" />
        <Con id="22" src="4" tgt="12" wght="-2.7736794203519821" />
        <Con id="23" src="5" tgt="11" wght="0.048183691687881947" />
        <Con id="24" src="5" tgt="12" wght="-4.3654822837561369" />
        <Con id="25" src="6" tgt="11" wght="-2.3941847961395979" />
        <Con id="26" src="6" tgt="12" wght="4.10443670116365" />
        <Con id="27" src="7" tgt="11" wght="-1.1432193918153644" />
        <Con id="28" src="7" tgt="12" wght="1.7713089287281036" />
        <Con id="29" src="8" tgt="11" wght="0.29289072379469872" />
        <Con id="30" src="8" tgt="12" wght="4.2028918955475092" />
        <Con id="31" src="9" tgt="11" wght="-3.9034883351996541" />
        <Con id="32" src="9" tgt="12" wght="-1.2057776795700192" />
        <Con id="33" src="10" tgt="11" wght="3.1243982771411538" />
        <Con id="34" src="10" tgt="12" wght="0.76115777716040611" />
      </Connections>
    </Network>
    <Network id="31" birthGen="0" fitness="0">
      <Nodes>
        <Node type="bias" id="0" />
        <Node type="in" id="1" />
        <Node type="in" id="2" />
        <Node type="in" id="3" />
        <Node type="in" id="4" />
        <Node type="in" id="5" />
        <Node type="in" id="6" />
        <Node type="in" id="7" />
        <Node type="in" id="8" />
        <Node type="in" id="9" />
        <Node type="in" id="10" />
        <Node type="out" id="11" />
        <Node type="out" id="12" />
      </Nodes>
      <Connections>
        <Con id="13" src="0" tgt="11" wght="-1.6919927671551704" />
        <Con id="14" src="0" tgt="12" wght="0.67927318159490824" />
        <Con id="15" src="1" tgt="11" wght="-0.329281878657639" />
        <Con id="16" src="1" tgt="12" wght="-3.0243527796119452" />
        <Con id="17" src="2" tgt="11" wght="-3.8784174202010036" />
        <Con id="18" src="2" tgt="12" wght="0.26950852945446968" />
        <Con id="19" src="3" tgt="11" wght="2.64693773817271" />
        <Con id="20" src="3" tgt="12" wght="2.4619169905781746" />
        <Con id="21" src="4" tgt="11" wght="-0.88545761536806822" />
        <Con id="22" src="4" tgt="12" wght="4.7840238269418478" />
        <Con id="23" src="5" tgt="11" wght="0.019149300642311573" />
        <Con id="24" src="5" tgt="12" wght="-0.32075968571007252" />
        <Con id="25" src="6" tgt="11" wght="-4.332399726845324" />
        <Con id="26" src="6" tgt="12" wght="-0.969612062908709" />
        <Con id="27" src="7" tgt="11" wght="2.0520813297480345" />
        <Con id="28" src="7" tgt="12" wght="2.0486591663211584" />
        <Con id="29" src="8" tgt="11" wght="3.1650959793478251" />
        <Con id="30" src="8" tgt="12" wght="-4.935532002709806" />
        <Con id="31" src="9" tgt="11" wght="-2.5291520217433572" />
        <Con id="32" src="9" tgt="12" wght="-3.3954343432560563" />
        <Con id="33" src="10" tgt="11" wght="4.259009319357574" />
        <Con id="34" src="10" tgt="12" wght="4.8148714890703559" />
      </Connections>
    </Network>
    <Network id="32" birthGen="0" fitness="0">
      <Nodes>
        <Node type="bias" id="0" />
        <Node type="in" id="1" />
        <Node type="in" id="2" />
        <Node type="in" id="3" />
        <Node type="in" id="4" />
        <Node type="in" id="5" />
        <Node type="in" id="6" />
        <Node type="in" id="7" />
        <Node type="in" id="8" />
        <Node type="in" id="9" />
        <Node type="in" id="10" />
        <Node type="out" id="11" />
        <Node type="out" id="12" />
      </Nodes>
      <Connections>
        <Con id="13" src="0" tgt="11" wght="-1.4273972250521183" />
        <Con id="14" src="0" tgt="12" wght="2.9894170258194208" />
        <Con id="15" src="1" tgt="11" wght="-3.4265331830829382" />
        <Con id="16" src="1" tgt="12" wght="3.700504656881094" />
        <Con id="17" src="2" tgt="11" wght="0.81225820351392031" />
        <Con id="18" src="2" tgt="12" wght="-3.3969297166913748" />
        <Con id="19" src="3" tgt="11" wght="0.51482080481946468" />
        <Con id="20" src="3" tgt="12" wght="2.401968389749527" />
        <Con id="21" src="4" tgt="11" wght="4.9174794880673289" />
        <Con id="22" src="4" tgt="12" wght="2.9864310752600431" />
        <Con id="23" src="5" tgt="11" wght="-3.9047656767070293" />
        <Con id="24" src="5" tgt="12" wght="1.4791141357272863" />
        <Con id="25" src="6" tgt="11" wght="3.337206426076591" />
        <Con id="26" src="6" tgt="12" wght="-0.92241424135863781" />
        <Con id="27" src="7" tgt="11" wght="-0.099276299588382244" />
        <Con id="28" src="7" tgt="12" wght="-0.16322096809744835" />
        <Con id="29" src="8" tgt="11" wght="-0.825472422875464" />
        <Con id="30" src="8" tgt="12" wght="-3.3965451410040259" />
        <Con id="31" src="9" tgt="11" wght="-2.8199946461245418" />
        <Con id="32" src="9" tgt="12" wght="1.1318634822964668" />
        <Con id="33" src="10" tgt="11" wght="-3.5282656317576766" />
        <Con id="34" src="10" tgt="12" wght="-1.8096723826602101" />
      </Connections>
    </Network>
    <Network id="33" birthGen="0" fitness="0">
      <Nodes>
        <Node type="bias" id="0" />
        <Node type="in" id="1" />
        <Node type="in" id="2" />
        <Node type="in" id="3" />
        <Node type="in" id="4" />
        <Node type="in" id="5" />
        <Node type="in" id="6" />
        <Node type="in" id="7" />
        <Node type="in" id="8" />
        <Node type="in" id="9" />
        <Node type="in" id="10" />
        <Node type="out" id="11" />
        <Node type="out" id="12" />
      </Nodes>
      <Connections>
        <Con id="13" src="0" tgt="11" wght="-0.79654729459434748" />
        <Con id="14" src="0" tgt="12" wght="1.8893827917054296" />
        <Con id="15" src="1" tgt="11" wght="-1.6678834846243262" />
        <Con id="16" src="1" tgt="12" wght="1.6920304205268621" />
        <Con id="17" src="2" tgt="11" wght="-2.1424573706462979" />
        <Con id="18" src="2" tgt="12" wght="-1.5712857991456985" />
        <Con id="19" src="3" tgt="11" wght="-1.7523215245455503" />
        <Con id="20" src="3" tgt="12" wght="-0.029182876460254192" />
        <Con id="21" src="4" tgt="11" wght="0.64430680125951767" />
        <Con id="22" src="4" tgt="12" wght="2.4088630126789212" />
        <Con id="23" src="5" tgt="11" wght="-3.972780667245388" />
        <Con id="24" src="5" tgt="12" wght="-1.5770745323970914" />
        <Con id="25" src="6" tgt="11" wght="3.18480187561363" />
        <Con id="26" src="6" tgt="12" wght="-0.41527591180056334" />
        <Con id="27" src="7" tgt="11" wght="4.115967801772058" />
        <Con id="28" src="7" tgt="12" wght="-1.0220270417630672" />
        <Con id="29" src="8" tgt="11" wght="-0.89654054958373308" />
        <Con id="30" src="8" tgt="12" wght="-4.3109807325527072" />
        <Con id="31" src="9" tgt="11" wght="-3.2411982584744692" />
        <Con id="32" src="9" tgt="12" wght="-0.86174913216382265" />
        <Con id="33" src="10" tgt="11" wght="3.8909331569448113" />
        <Con id="34" src="10" tgt="12" wght="-4.8218376049771905" />
      </Connections>
    </Network>
    <Network id="34" birthGen="0" fitness="0">
      <Nodes>
        <Node type="bias" id="0" />
        <Node type="in" id="1" />
        <Node type="in" id="2" />
        <Node type="in" id="3" />
        <Node type="in" id="4" />
        <Node type="in" id="5" />
        <Node type="in" id="6" />
        <Node type="in" id="7" />
        <Node type="in" id="8" />
        <Node type="in" id="9" />
        <Node type="in" id="10" />
        <Node type="out" id="11" />
        <Node type="out" id="12" />
      </Nodes>
      <Connections>
        <Con id="13" src="0" tgt="11" wght="-4.8715948453173041" />
        <Con id="14" src="0" tgt="12" wght="2.7978798002004623" />
        <Con id="15" src="1" tgt="11" wght="-2.44178204331547" />
        <Con id="16" src="1" tgt="12" wght="0.16513642389327288" />
        <Con id="17" src="2" tgt="11" wght="1.4088489580899477" />
        <Con id="18" src="2" tgt="12" wght="-3.4629003331065178" />
        <Con id="19" src="3" tgt="11" wght="3.1310835108160973" />
        <Con id="20" src="3" tgt="12" wght="-0.83080371376127" />
        <Con id="21" src="4" tgt="11" wght="-3.2287515420466661" />
        <Con id="22" src="4" tgt="12" wght="-0.12765151914209127" />
        <Con id="23" src="5" tgt="11" wght="-2.0681819226592779" />
        <Con id="24" src="5" tgt="12" wght="2.689611641690135" />
        <Con id="25" src="6" tgt="11" wght="-4.181216792203486" />
        <Con id="26" src="6" tgt="12" wght="-4.2450570873916149" />
        <Con id="27" src="7" tgt="11" wght="-2.8298122109845281" />
        <Con id="28" src="7" tgt="12" wght="-1.5208012098446488" />
        <Con id="29" src="8" tgt="11" wght="1.4537750417366624" />
        <Con id="30" src="8" tgt="12" wght="0.28815621044486761" />
        <Con id="31" src="9" tgt="11" wght="-0.095821572467684746" />
        <Con id="32" src="9" tgt="12" wght="-4.5644627371802926" />
        <Con id="33" src="10" tgt="11" wght="1.9804056826978922" />
        <Con id="34" src="10" tgt="12" wght="4.7633227659389377" />
      </Connections>
    </Network>
    <Network id="35" birthGen="0" fitness="0">
      <Nodes>
        <Node type="bias" id="0" />
        <Node type="in" id="1" />
        <Node type="in" id="2" />
        <Node type="in" id="3" />
        <Node type="in" id="4" />
        <Node type="in" id="5" />
        <Node type="in" id="6" />
        <Node type="in" id="7" />
        <Node type="in" id="8" />
        <Node type="in" id="9" />
        <Node type="in" id="10" />
        <Node type="out" id="11" />
        <Node type="out" id="12" />
      </Nodes>
      <Connections>
        <Con id="13" src="0" tgt="11" wght="-2.1341751702129841" />
        <Con id="14" src="0" tgt="12" wght="-0.75194063596427441" />
        <Con id="15" src="1" tgt="11" wght="2.100728084333241" />
        <Con id="16" src="1" tgt="12" wght="-0.9131133696064353" />
        <Con id="17" src="2" tgt="11" wght="3.4937890572473407" />
        <Con id="18" src="2" tgt="12" wght="-4.03017211239785" />
        <Con id="19" src="3" tgt="11" wght="3.7053304351866245" />
        <Con id="20" src="3" tgt="12" wght="-0.63808165024966" />
        <Con id="21" src="4" tgt="11" wght="-1.8566359719261527" />
        <Con id="22" src="4" tgt="12" wght="-2.808359838090837" />
        <Con id="23" src="5" tgt="11" wght="-4.434186820872128" />
        <Con id="24" src="5" tgt="12" wght="0.6401700247079134" />
        <Con id="25" src="6" tgt="11" wght="0.36950687877833843" />
        <Con id="26" src="6" tgt="12" wght="3.3893132861703634" />
        <Con id="27" src="7" tgt="11" wght="3.8743664091452956" />
        <Con id="28" src="7" tgt="12" wght="-4.08080231398344" />
        <Con id="29" src="8" tgt="11" wght="-0.1008239621296525" />
        <Con id="30" src="8" tgt="12" wght="2.9606899805366993" />
        <Con id="31" src="9" tgt="11" wght="1.1050175596028566" />
        <Con id="32" src="9" tgt="12" wght="4.7261463757604361" />
        <Con id="33" src="10" tgt="11" wght="2.7217957423999906" />
        <Con id="34" src="10" tgt="12" wght="-0.78697885386645794" />
      </Connections>
    </Network>
    <Network id="36" birthGen="0" fitness="0">
      <Nodes>
        <Node type="bias" id="0" />
        <Node type="in" id="1" />
        <Node type="in" id="2" />
        <Node type="in" id="3" />
        <Node type="in" id="4" />
        <Node type="in" id="5" />
        <Node type="in" id="6" />
        <Node type="in" id="7" />
        <Node type="in" id="8" />
        <Node type="in" id="9" />
        <Node type="in" id="10" />
        <Node type="out" id="11" />
        <Node type="out" id="12" />
      </Nodes>
      <Connections>
        <Con id="13" src="0" tgt="11" wght="4.0075858170166612" />
        <Con id="14" src="0" tgt="12" wght="0.37436577491462231" />
        <Con id="15" src="1" tgt="11" wght="1.6806383524090052" />
        <Con id="16" src="1" tgt="12" wght="3.3069737488403916" />
        <Con id="17" src="2" tgt="11" wght="-3.9619113691151142" />
        <Con id="18" src="2" tgt="12" wght="-4.1967450827360153" />
        <Con id="19" src="3" tgt="11" wght="1.8519831914454699" />
        <Con id="20" src="3" tgt="12" wght="-0.70645673200488091" />
        <Con id="21" src="4" tgt="11" wght="-1.9710734719410539" />
        <Con id="22" src="4" tgt="12" wght="0.48129149246960878" />
        <Con id="23" src="5" tgt="11" wght="-4.7299464978277683" />
        <Con id="24" src="5" tgt="12" wght="-2.2506891842931509" />
        <Con id="25" src="6" tgt="11" wght="-2.705513252876699" />
        <Con id="26" src="6" tgt="12" wght="-0.72422877419739962" />
        <Con id="27" src="7" tgt="11" wght="-0.48757945187389851" />
        <Con id="28" src="7" tgt="12" wght="0.21526508964598179" />
        <Con id="29" src="8" tgt="11" wght="-3.2121630990877748" />
        <Con id="30" src="8" tgt="12" wght="1.690184255130589" />
        <Con id="31" src="9" tgt="11" wght="-0.294010853394866" />
        <Con id="32" src="9" tgt="12" wght="-1.7991172103211284" />
        <Con id="33" src="10" tgt="11" wght="3.8072187406942248" />
        <Con id="34" src="10" tgt="12" wght="2.1292152628302574" />
      </Connections>
    </Network>
    <Network id="37" birthGen="0" fitness="0">
      <Nodes>
        <Node type="bias" id="0" />
        <Node type="in" id="1" />
        <Node type="in" id="2" />
        <Node type="in" id="3" />
        <Node type="in" id="4" />
        <Node type="in" id="5" />
        <Node type="in" id="6" />
        <Node type="in" id="7" />
        <Node type="in" id="8" />
        <Node type="in" id="9" />
        <Node type="in" id="10" />
        <Node type="out" id="11" />
        <Node type="out" id="12" />
      </Nodes>
      <Connections>
        <Con id="13" src="0" tgt="11" wght="0.960885132662952" />
        <Con id="14" src="0" tgt="12" wght="-2.1163501543924212" />
        <Con id="15" src="1" tgt="11" wght="0.60636081732809544" />
        <Con id="16" src="1" tgt="12" wght="3.6590291606262326" />
        <Con id="17" src="2" tgt="11" wght="4.5509228482842445" />
        <Con id="18" src="2" tgt="12" wght="4.5349007332697511" />
        <Con id="19" src="3" tgt="11" wght="-0.45265969354659319" />
        <Con id="20" src="3" tgt="12" wght="-3.0801426246762276" />
        <Con id="21" src="4" tgt="11" wght="3.8424363685771823" />
        <Con id="22" src="4" tgt="12" wght="1.5435807779431343" />
        <Con id="23" src="5" tgt="11" wght="-0.22976330481469631" />
        <Con id="24" src="5" tgt="12" wght="-0.38626517169177532" />
        <Con id="25" src="6" tgt="11" wght="-2.8755437722429633" />
        <Con id="26" src="6" tgt="12" wght="3.6431576916947961" />
        <Con id="27" src="7" tgt="11" wght="0.87941919919103384" />
        <Con id="28" src="7" tgt="12" wght="-4.2276593670248985" />
        <Con id="29" src="8" tgt="11" wght="-3.0817323364317417" />
        <Con id="30" src="8" tgt="12" wght="4.9710194393992424" />
        <Con id="31" src="9" tgt="11" wght="-4.5240684552118182" />
        <Con id="32" src="9" tgt="12" wght="-1.6559543507173657" />
        <Con id="33" src="10" tgt="11" wght="3.4207895863801241" />
        <Con id="34" src="10" tgt="12" wght="4.7465367708355188" />
      </Connections>
    </Network>
    <Network id="38" birthGen="0" fitness="0">
      <Nodes>
        <Node type="bias" id="0" />
        <Node type="in" id="1" />
        <Node type="in" id="2" />
        <Node type="in" id="3" />
        <Node type="in" id="4" />
        <Node type="in" id="5" />
        <Node type="in" id="6" />
        <Node type="in" id="7" />
        <Node type="in" id="8" />
        <Node type="in" id="9" />
        <Node type="in" id="10" />
        <Node type="out" id="11" />
        <Node type="out" id="12" />
      </Nodes>
      <Connections>
        <Con id="13" src="0" tgt="11" wght="-0.95258484594523907" />
        <Con id="14" src="0" tgt="12" wght="2.2409736551344395" />
        <Con id="15" src="1" tgt="11" wght="-3.603833494707942" />
        <Con id="16" src="1" tgt="12" wght="3.6499610403552651" />
        <Con id="17" src="2" tgt="11" wght="1.246280730701983" />
        <Con id="18" src="2" tgt="12" wght="1.7962130531668663" />
        <Con id="19" src="3" tgt="11" wght="-2.8349089017137885" />
        <Con id="20" src="3" tgt="12" wght="-2.3621781868860126" />
        <Con id="21" src="4" tgt="11" wght="-2.0885949581861496" />
        <Con id="22" src="4" tgt="12" wght="4.0248870803043246" />
        <Con id="23" src="5" tgt="11" wght="1.3339345483109355" />
        <Con id="24" src="5" tgt="12" wght="2.7605827338993549" />
        <Con id="25" src="6" tgt="11" wght="2.1743115643039346" />
        <Con id="26" src="6" tgt="12" wght="-0.66366326063871384" />
        <Con id="27" src="7" tgt="11" wght="-0.079529592767357826" />
        <Con id="28" src="7" tgt="12" wght="0.78746176324784756" />
        <Con id="29" src="8" tgt="11" wght="1.784810172393918" />
        <Con id="30" src="8" tgt="12" wght="4.4885475188493729" />
        <Con id="31" src="9" tgt="11" wght="-3.9080933015793562" />
        <Con id="32" src="9" tgt="12" wght="-4.7316627623513341" />
        <Con id="33" src="10" tgt="11" wght="-2.7574936719611287" />
        <Con id="34" src="10" tgt="12" wght="2.356468141078949" />
      </Connections>
    </Network>
    <Network id="39" birthGen="0" fitness="0">
      <Nodes>
        <Node type="bias" id="0" />
        <Node type="in" id="1" />
        <Node type="in" id="2" />
        <Node type="in" id="3" />
        <Node type="in" id="4" />
        <Node type="in" id="5" />
        <Node type="in" id="6" />
        <Node type="in" id="7" />
        <Node type="in" id="8" />
        <Node type="in" id="9" />
        <Node type="in" id="10" />
        <Node type="out" id="11" />
        <Node type="out" id="12" />
      </Nodes>
      <Connections>
        <Con id="13" src="0" tgt="11" wght="0.64833337441086769" />
        <Con id="14" src="0" tgt="12" wght="4.4885935075581074" />
        <Con id="15" src="1" tgt="11" wght="-3.1979114608839154" />
        <Con id="16" src="1" tgt="12" wght="3.855995973572135" />
        <Con id="17" src="2" tgt="11" wght="-2.2163160378113389" />
        <Con id="18" src="2" tgt="12" wght="-3.43426747713238" />
        <Con id="19" src="3" tgt="11" wght="4.79616345372051" />
        <Con id="20" src="3" tgt="12" wght="-3.68046207819134" />
        <Con id="21" src="4" tgt="11" wght="3.9586355118080974" />
        <Con id="22" src="4" tgt="12" wght="-1.7386129125952721" />
        <Con id="23" src="5" tgt="11" wght="-0.50686103291809559" />
        <Con id="24" src="5" tgt="12" wght="-0.942743974737823" />
        <Con id="25" src="6" tgt="11" wght="1.4555222913622856" />
        <Con id="26" src="6" tgt="12" wght="-4.350603437051177" />
        <Con id="27" src="7" tgt="11" wght="0.48840364906936884" />
        <Con id="28" src="7" tgt="12" wght="-4.5973001327365637" />
        <Con id="29" src="8" tgt="11" wght="-4.1262029111385345" />
        <Con id="30" src="8" tgt="12" wght="1.7876162845641375" />
        <Con id="31" src="9" tgt="11" wght="1.0810079658403993" />
        <Con id="32" src="9" tgt="12" wght="-1.7169975489377975" />
        <Con id="33" src="10" tgt="11" wght="-4.3415439547970891" />
        <Con id="34" src="10" tgt="12" wght="1.6065654857084155" />
      </Connections>
    </Network>
    <Network id="40" birthGen="0" fitness="0">
      <Nodes>
        <Node type="bias" id="0" />
        <Node type="in" id="1" />
        <Node type="in" id="2" />
        <Node type="in" id="3" />
        <Node type="in" id="4" />
        <Node type="in" id="5" />
        <Node type="in" id="6" />
        <Node type="in" id="7" />
        <Node type="in" id="8" />
        <Node type="in" id="9" />
        <Node type="in" id="10" />
        <Node type="out" id="11" />
        <Node type="out" id="12" />
      </Nodes>
      <Connections>
        <Con id="13" src="0" tgt="11" wght="-1.4394249208271503" />
        <Con id="14" src="0" tgt="12" wght="-3.3092088671401143" />
        <Con id="15" src="1" tgt="11" wght="3.3446861477568746" />
        <Con id="16" src="1" tgt="12" wght="4.9303719820454717" />
        <Con id="17" src="2" tgt="11" wght="4.1898244619369507" />
        <Con id="18" src="2" tgt="12" wght="0.13018161989748478" />
        <Con id="19" src="3" tgt="11" wght="-4.9124591611325741" />
        <Con id="20" src="3" tgt="12" wght="1.6663390770554543" />
        <Con id="21" src="4" tgt="11" wght="3.9007614040747285" />
        <Con id="22" src="4" tgt="12" wght="-3.1639239657670259" />
        <Con id="23" src="5" tgt="11" wght="-4.297571717761457" />
        <Con id="24" src="5" tgt="12" wght="-3.4365024324506521" />
        <Con id="25" src="6" tgt="11" wght="2.5188742531463504" />
        <Con id="26" src="6" tgt="12" wght="3.7503033922985196" />
        <Con id="27" src="7" tgt="11" wght="-2.9863535845652223" />
        <Con id="28" src="7" tgt="12" wght="-2.4651984125375748" />
        <Con id="29" src="8" tgt="11" wght="1.0775613179430366" />
        <Con id="30" src="8" tgt="12" wght="4.087031427770853" />
        <Con id="31" src="9" tgt="11" wght="3.63956933375448" />
        <Con id="32" src="9" tgt="12" wght="4.310132609680295" />
        <Con id="33" src="10" tgt="11" wght="2.9186726827174425" />
        <Con id="34" src="10" tgt="12" wght="-4.9876429513096809" />
      </Connections>
    </Network>
    <Network id="41" birthGen="0" fitness="0">
      <Nodes>
        <Node type="bias" id="0" />
        <Node type="in" id="1" />
        <Node type="in" id="2" />
        <Node type="in" id="3" />
        <Node type="in" id="4" />
        <Node type="in" id="5" />
        <Node type="in" id="6" />
        <Node type="in" id="7" />
        <Node type="in" id="8" />
        <Node type="in" id="9" />
        <Node type="in" id="10" />
        <Node type="out" id="11" />
        <Node type="out" id="12" />
      </Nodes>
      <Connections>
        <Con id="13" src="0" tgt="11" wght="4.8841360677033663" />
        <Con id="14" src="0" tgt="12" wght="0.010381937026977539" />
        <Con id="15" src="1" tgt="11" wght="-4.4257992040365934" />
        <Con id="16" src="1" tgt="12" wght="0.37496857810765505" />
        <Con id="17" src="2" tgt="11" wght="4.2073654010891914" />
        <Con id="18" src="2" tgt="12" wght="2.5658334651961923" />
        <Con id="19" src="3" tgt="11" wght="-2.6943239709362388" />
        <Con id="20" src="3" tgt="12" wght="0.97243199590593576" />
        <Con id="21" src="4" tgt="11" wght="-1.2569380085915327" />
        <Con id="22" src="4" tgt="12" wght="-2.7635119296610355" />
        <Con id="23" src="5" tgt="11" wght="1.1294978298246861" />
        <Con id="24" src="5" tgt="12" wght="-0.046372581273317337" />
        <Con id="25" src="6" tgt="11" wght="-3.6181058408692479" />
        <Con id="26" src="6" tgt="12" wght="0.27683555148541927" />
        <Con id="27" src="7" tgt="11" wght="-2.8804134344682097" />
        <Con id="28" src="7" tgt="12" wght="3.0444616032764316" />
        <Con id="29" src="8" tgt="11" wght="-0.16903704032301903" />
        <Con id="30" src="8" tgt="12" wght="-2.7611022954806685" />
        <Con id="31" src="9" tgt="11" wght="4.3799678515642881" />
        <Con id="32" src="9" tgt="12" wght="-0.10851858649402857" />
        <Con id="33" src="10" tgt="11" wght="-3.0427117040380836" />
        <Con id="34" src="10" tgt="12" wght="3.9854315435513854" />
      </Connections>
    </Network>
    <Network id="42" birthGen="0" fitness="0">
      <Nodes>
        <Node type="bias" id="0" />
        <Node type="in" id="1" />
        <Node type="in" id="2" />
        <Node type="in" id="3" />
        <Node type="in" id="4" />
        <Node type="in" id="5" />
        <Node type="in" id="6" />
        <Node type="in" id="7" />
        <Node type="in" id="8" />
        <Node type="in" id="9" />
        <Node type="in" id="10" />
        <Node type="out" id="11" />
        <Node type="out" id="12" />
      </Nodes>
      <Connections>
        <Con id="13" src="0" tgt="11" wght="1.8309485912322998" />
        <Con id="14" src="0" tgt="12" wght="1.2597013963386416" />
        <Con id="15" src="1" tgt="11" wght="2.9972998471930623" />
        <Con id="16" src="1" tgt="12" wght="2.9647282045334578" />
        <Con id="17" src="2" tgt="11" wght="0.0079086888581514359" />
        <Con id="18" src="2" tgt="12" wght="-3.4515001717954874" />
        <Con id="19" src="3" tgt="11" wght="-2.6754105510190129" />
        <Con id="20" src="3" tgt="12" wght="-0.52412708289921284" />
        <Con id="21" src="4" tgt="11" wght="-4.4361722515895963" />
        <Con id="22" src="4" tgt="12" wght="-3.4371851338073611" />
        <Con id="23" src="5" tgt="11" wght="2.3641714686527848" />
        <Con id="24" src="5" tgt="12" wght="-1.7075834888964891" />
        <Con id="25" src="6" tgt="11" wght="-3.3996702032163739" />
        <Con id="26" src="6" tgt="12" wght="0.18936373759061098" />
        <Con id="27" src="7" tgt="11" wght="-2.8186611691489816" />
        <Con id="28" src="7" tgt="12" wght="-0.46062528621405363" />
        <Con id="29" src="8" tgt="11" wght="3.7474859785288572" />
        <Con id="30" src="8" tgt="12" wght="-2.357113566249609" />
        <Con id="31" src="9" tgt="11" wght="1.2855873210355639" />
        <Con id="32" src="9" tgt="12" wght="-0.079066725447773933" />
        <Con id="33" src="10" tgt="11" wght="3.8330508628860116" />
        <Con id="34" src="10" tgt="12" wght="1.6104059061035514" />
      </Connections>
    </Network>
    <Network id="43" birthGen="0" fitness="0">
      <Nodes>
        <Node type="bias" id="0" />
        <Node type="in" id="1" />
        <Node type="in" id="2" />
        <Node type="in" id="3" />
        <Node type="in" id="4" />
        <Node type="in" id="5" />
        <Node type="in" id="6" />
        <Node type="in" id="7" />
        <Node type="in" id="8" />
        <Node type="in" id="9" />
        <Node type="in" id="10" />
        <Node type="out" id="11" />
        <Node type="out" id="12" />
      </Nodes>
      <Connections>
        <Con id="13" src="0" tgt="11" wght="-3.9680927153676748" />
        <Con id="14" src="0" tgt="12" wght="1.4844775013625622" />
        <Con id="15" src="1" tgt="11" wght="2.337761134840548" />
        <Con id="16" src="1" tgt="12" wght="3.6250858986750245" />
        <Con id="17" src="2" tgt="11" wght="-1.7206486314535141" />
        <Con id="18" src="2" tgt="12" wght="-3.74588037841022" />
        <Con id="19" src="3" tgt="11" wght="-0.93193099368363619" />
        <Con id="20" src="3" tgt="12" wght="-0.17297135200351477" />
        <Con id="21" src="4" tgt="11" wght="-4.1899793827906251" />
        <Con id="22" src="4" tgt="12" wght="-0.036345524713397026" />
        <Con id="23" src="5" tgt="11" wght="-1.3970736972987652" />
        <Con id="24" src="5" tgt="12" wght="0.20030392799526453" />
        <Con id="25" src="6" tgt="11" wght="1.9798569567501545" />
        <Con id="26" src="6" tgt="12" wght="3.9232648722827435" />
        <Con id="27" src="7" tgt="11" wght="4.6962476801127195" />
        <Con id="28" src="7" tgt="12" wght="1.5401291754096746" />
        <Con id="29" src="8" tgt="11" wght="3.585597756318748" />
        <Con id="30" src="8" tgt="12" wght="4.4437111914157867" />
        <Con id="31" src="9" tgt="11" wght="-4.0177965629845858" />
        <Con id="32" src="9" tgt="12" wght="4.21762187499553" />
        <Con id="33" src="10" tgt="11" wght="-0.50033474806696177" />
        <Con id="34" src="10" tgt="12" wght="-4.2308857711032033" />
      </Connections>
    </Network>
    <Network id="44" birthGen="0" fitness="0">
      <Nodes>
        <Node type="bias" id="0" />
        <Node type="in" id="1" />
        <Node type="in" id="2" />
        <Node type="in" id="3" />
        <Node type="in" id="4" />
        <Node type="in" id="5" />
        <Node type="in" id="6" />
        <Node type="in" id="7" />
        <Node type="in" id="8" />
        <Node type="in" id="9" />
        <Node type="in" id="10" />
        <Node type="out" id="11" />
        <Node type="out" id="12" />
      </Nodes>
      <Connections>
        <Con id="13" src="0" tgt="11" wght="3.8504919409751892" />
        <Con id="14" src="0" tgt="12" wght="-2.0985262701287866" />
        <Con id="15" src="1" tgt="11" wght="-4.1447129938751459" />
        <Con id="16" src="1" tgt="12" wght="0.68087509833276272" />
        <Con id="17" src="2" tgt="11" wght="-4.0847621951252222" />
        <Con id="18" src="2" tgt="12" wght="1.1456460738554597" />
        <Con id="19" src="3" tgt="11" wght="1.3235705811530352" />
        <Con id="20" src="3" tgt="12" wght="3.0472553707659245" />
        <Con id="21" src="4" tgt="11" wght="-2.7428305335342884" />
        <Con id="22" src="4" tgt="12" wght="-2.8373701823875308" />
        <Con id="23" src="5" tgt="11" wght="-4.1682056989520788" />
        <Con id="24" src="5" tgt="12" wght="-1.875874325633049" />
        <Con id="25" src="6" tgt="11" wght="4.5748697500675917" />
        <Con id="26" src="6" tgt="12" wght="3.0767268408089876" />
        <Con id="27" src="7" tgt="11" wght="2.3062686435878277" />
        <Con id="28" src="7" tgt="12" wght="0.13019960839301348" />
        <Con id="29" src="8" tgt="11" wght="0.37773230113089085" />
        <Con id="30" src="8" tgt="12" wght="1.6058153146877885" />
        <Con id="31" src="9" tgt="11" wght="-2.503697294741869" />
        <Con id="32" src="9" tgt="12" wght="3.941386011429131" />
        <Con id="33" src="10" tgt="11" wght="4.2090289806947112" />
        <Con id="34" src="10" tgt="12" wght="3.716168412938714" />
      </Connections>
    </Network>
    <Network id="45" birthGen="0" fitness="0">
      <Nodes>
        <Node type="bias" id="0" />
        <Node type="in" id="1" />
        <Node type="in" id="2" />
        <Node type="in" id="3" />
        <Node type="in" id="4" />
        <Node type="in" id="5" />
        <Node type="in" id="6" />
        <Node type="in" id="7" />
        <Node type="in" id="8" />
        <Node type="in" id="9" />
        <Node type="in" id="10" />
        <Node type="out" id="11" />
        <Node type="out" id="12" />
      </Nodes>
      <Connections>
        <Con id="13" src="0" tgt="11" wght="4.2046738835051656" />
        <Con id="14" src="0" tgt="12" wght="-0.56185068096965551" />
        <Con id="15" src="1" tgt="11" wght="-3.1282796477898955" />
        <Con id="16" src="1" tgt="12" wght="-1.8745000287890434" />
        <Con id="17" src="2" tgt="11" wght="3.3556294906884432" />
        <Con id="18" src="2" tgt="12" wght="1.1951623810455203" />
        <Con id="19" src="3" tgt="11" wght="1.7976912902668118" />
        <Con id="20" src="3" tgt="12" wght="4.6820104401558638" />
        <Con id="21" src="4" tgt="11" wght="0.091330832801759243" />
        <Con id="22" src="4" tgt="12" wght="-1.7668429063633084" />
        <Con id="23" src="5" tgt="11" wght="-2.6165440585464239" />
        <Con id="24" src="5" tgt="12" wght="4.5767715945839882" />
        <Con id="25" src="6" tgt="11" wght="-3.8861412787809968" />
        <Con id="26" src="6" tgt="12" wght="-1.0165717219933867" />
        <Con id="27" src="7" tgt="11" wght="-0.96094341017305851" />
        <Con id="28" src="7" tgt="12" wght="0.28426951728761196" />
        <Con id="29" src="8" tgt="11" wght="0.43392947874963284" />
        <Con id="30" src="8" tgt="12" wght="-2.4345574015751481" />
        <Con id="31" src="9" tgt="11" wght="-3.0349661316722631" />
        <Con id="32" src="9" tgt="12" wght="-0.90484199579805136" />
        <Con id="33" src="10" tgt="11" wght="-4.609106364659965" />
        <Con id="34" src="10" tgt="12" wght="-2.17470639385283" />
      </Connections>
    </Network>
    <Network id="46" birthGen="0" fitness="0">
      <Nodes>
        <Node type="bias" id="0" />
        <Node type="in" id="1" />
        <Node type="in" id="2" />
        <Node type="in" id="3" />
        <Node type="in" id="4" />
        <Node type="in" id="5" />
        <Node type="in" id="6" />
        <Node type="in" id="7" />
        <Node type="in" id="8" />
        <Node type="in" id="9" />
        <Node type="in" id="10" />
        <Node type="out" id="11" />
        <Node type="out" id="12" />
      </Nodes>
      <Connections>
        <Con id="13" src="0" tgt="11" wght="-0.25096953380852938" />
        <Con id="14" src="0" tgt="12" wght="3.92076734919101" />
        <Con id="15" src="1" tgt="11" wght="0.97264131065458059" />
        <Con id="16" src="1" tgt="12" wght="-2.7875495282933116" />
        <Con id="17" src="2" tgt="11" wght="1.1786477593705058" />
        <Con id="18" src="2" tgt="12" wght="-4.7057031793519855" />
        <Con id="19" src="3" tgt="11" wght="0.17145578283816576" />
        <Con id="20" src="3" tgt="12" wght="-1.6101909009739757" />
        <Con id="21" src="4" tgt="11" wght="-2.8790024807676673" />
        <Con id="22" src="4" tgt="12" wght="-1.8442800035700202" />
        <Con id="23" src="5" tgt="11" wght="-2.2870635380968451" />
        <Con id="24" src="5" tgt="12" wght="-2.5785927753895521" />
        <Con id="25" src="6" tgt="11" wght="4.466776829212904" />
        <Con id="26" src="6" tgt="12" wght="-3.1841930886730552" />
        <Con id="27" src="7" tgt="11" wght="-1.908267866820097" />
        <Con id="28" src="7" tgt="12" wght="3.8826243439689279" />
        <Con id="29" src="8" tgt="11" wght="-0.16975704114884138" />
        <Con id="30" src="8" tgt="12" wght="2.7356303296983242" />
        <Con id="31" src="9" tgt="11" wght="-3.7643423257395625" />
        <Con id="32" src="9" tgt="12" wght="0.17650030553340912" />
        <Con id="33" src="10" tgt="11" wght="0.89274183847010136" />
        <Con id="34" src="10" tgt="12" wght="4.8816438857465982" />
      </Connections>
    </Network>
    <Network id="47" birthGen="0" fitness="0">
      <Nodes>
        <Node type="bias" id="0" />
        <Node type="in" id="1" />
        <Node type="in" id="2" />
        <Node type="in" id="3" />
        <Node type="in" id="4" />
        <Node type="in" id="5" />
        <Node type="in" id="6" />
        <Node type="in" id="7" />
        <Node type="in" id="8" />
        <Node type="in" id="9" />
        <Node type="in" id="10" />
        <Node type="out" id="11" />
        <Node type="out" id="12" />
      </Nodes>
      <Connections>
        <Con id="13" src="0" tgt="11" wght="2.4561769980937243" />
        <Con id="14" src="0" tgt="12" wght="0.66983375232666731" />
        <Con id="15" src="1" tgt="11" wght="-3.727756030857563" />
        <Con id="16" src="1" tgt="12" wght="-2.5337063614279032" />
        <Con id="17" src="2" tgt="11" wght="-0.82191567867994308" />
        <Con id="18" src="2" tgt="12" wght="-3.5579821327701211" />
        <Con id="19" src="3" tgt="11" wght="-0.013858429156243801" />
        <Con id="20" src="3" tgt="12" wght="3.23223615065217" />
        <Con id="21" src="4" tgt="11" wght="-0.35587487276643515" />
        <Con id="22" src="4" tgt="12" wght="3.9313144842162728" />
        <Con id="23" src="5" tgt="11" wght="2.2214060090482235" />
        <Con id="24" src="5" tgt="12" wght="-2.5165288615971804" />
        <Con id="25" src="6" tgt="11" wght="-2.1100772731006145" />
        <Con id="26" src="6" tgt="12" wght="-2.2271106811240315" />
        <Con id="27" src="7" tgt="11" wght="-4.9244891759008169" />
        <Con id="28" src="7" tgt="12" wght="2.2133083129301667" />
        <Con id="29" src="8" tgt="11" wght="2.4165606312453747" />
        <Con id="30" src="8" tgt="12" wght="-3.5066491272300482" />
        <Con id="31" src="9" tgt="11" wght="4.0228405315428972" />
        <Con id="32" src="9" tgt="12" wght="1.868489645421505" />
        <Con id="33" src="10" tgt="11" wght="-2.2556864283978939" />
        <Con id="34" src="10" tgt="12" wght="0.2591410418972373" />
      </Connections>
    </Network>
    <Network id="48" birthGen="0" fitness="0">
      <Nodes>
        <Node type="bias" id="0" />
        <Node type="in" id="1" />
        <Node type="in" id="2" />
        <Node type="in" id="3" />
        <Node type="in" id="4" />
        <Node type="in" id="5" />
        <Node type="in" id="6" />
        <Node type="in" id="7" />
        <Node type="in" id="8" />
        <Node type="in" id="9" />
        <Node type="in" id="10" />
        <Node type="out" id="11" />
