<?xml version="1.0" encoding="utf-8"?>
<Root>
  <ActivationFunctions>
    <Fn id="0" name="SteepenedSigmoid" prob="1" />
  </ActivationFunctions>
  <Networks>
    <Network id="117060" birthGen="852" fitness="45.200259406139608">
      <Nodes>
        <Node type="bias" id="0" />
        <Node type="in" id="1" />
        <Node type="in" id="2" />
        <Node type="in" id="3" />
        <Node type="in" id="4" />
        <Node type="in" id="5" />
        <Node type="in" id="6" />
        <Node type="in" id="7" />
        <Node type="in" id="8" />
        <Node type="in" id="9" />
        <Node type="in" id="10" />
        <Node type="out" id="11" />
        <Node type="out" id="12" />
        <Node type="hid" id="1146" />
      </Nodes>
      <Connections>
        <Con id="13" src="0" tgt="11" wght="-0.99327149102464318" />
        <Con id="14" src="0" tgt="12" wght="-3.3290383409543196" />
        <Con id="15" src="1" tgt="11" wght="3.7596412864513695" />
        <Con id="16" src="1" tgt="12" wght="-3.2557771146788856" />
        <Con id="17" src="2" tgt="11" wght="-0.55664972054791861" />
        <Con id="18" src="2" tgt="12" wght="2.5846035871654749" />
        <Con id="19" src="3" tgt="11" wght="0.50317695830017328" />
        <Con id="20" src="3" tgt="12" wght="4.8768830648623407" />
        <Con id="21" src="4" tgt="11" wght="-3.8068387144314517" />
        <Con id="22" src="4" tgt="12" wght="4.7730161645116738" />
        <Con id="23" src="5" tgt="11" wght="1.2103437663843608" />
        <Con id="24" src="5" tgt="12" wght="-4.0463996611438064" />
        <Con id="25" src="6" tgt="11" wght="-2.13459265894283" />
        <Con id="27" src="7" tgt="11" wght="-4.499841658398509" />
        <Con id="28" src="7" tgt="12" wght="4.330482443355578" />
        <Con id="29" src="8" tgt="11" wght="-2.4709336758022489" />
        <Con id="30" src="8" tgt="12" wght="0.061296825647845304" />
        <Con id="31" src="9" tgt="11" wght="-0.66189912910106707" />
        <Con id="32" src="9" tgt="12" wght="-4.3548395996913314" />
        <Con id="33" src="10" tgt="11" wght="-3.195046635252246" />
        <Con id="34" src="10" tgt="12" wght="0.026968996971845627" />
        <Con id="1147" src="6" tgt="1146" wght="-1.356288748793304" />
        <Con id="1148" src="1146" tgt="12" wght="5" />
      </Connections>
    </Network>
    <Network id="164252" birthGen="2360" fitness="125.85845431224297">
      <Nodes>
        <Node type="bias" id="0" />
        <Node type="in" id="1" />
        <Node type="in" id="2" />
        <Node type="in" id="3" />
        <Node type="in" id="4" />
        <Node type="in" id="5" />
        <Node type="in" id="6" />
        <Node type="in" id="7" />
        <Node type="in" id="8" />
        <Node type="in" id="9" />
        <Node type="in" id="10" />
        <Node type="out" id="11" />
        <Node type="out" id="12" />
        <Node type="hid" id="1316" />
        <Node type="hid" id="1541" />
      </Nodes>
      <Connections>
        <Con id="13" src="0" tgt="11" wght="3.7683459324762225" />
        <Con id="14" src="0" tgt="12" wght="1.8911888189350177" />
        <Con id="15" src="1" tgt="11" wght="0.76764581476603355" />
        <Con id="16" src="1" tgt="12" wght="0.9679252370511956" />
        <Con id="17" src="2" tgt="11" wght="-4.28294313551415" />
        <Con id="18" src="2" tgt="12" wght="-2.457725100684911" />
        <Con id="19" src="3" tgt="11" wght="-4.20906647168167" />
        <Con id="21" src="4" tgt="11" wght="-4.9179204781587194" />
        <Con id="22" src="4" tgt="12" wght="-1.3035367740811448" />
        <Con id="23" src="5" tgt="11" wght="4.7076977788255734" />
        <Con id="24" src="5" tgt="12" wght="2.6402706009675785" />
        <Con id="25" src="6" tgt="11" wght="3.3612162677590915" />
        <Con id="26" src="6" tgt="12" wght="-1.5214735468311318" />
        <Con id="27" src="7" tgt="11" wght="0.33284297798626583" />
        <Con id="28" src="7" tgt="12" wght="2.4903451326634611" />
        <Con id="29" src="8" tgt="11" wght="-1.7156395318464563" />
        <Con id="31" src="9" tgt="11" wght="2.0778101107634277" />
        <Con id="32" src="9" tgt="12" wght="-1.8358779520621904" />
        <Con id="33" src="10" tgt="11" wght="-0.23345028396014275" />
        <Con id="34" src="10" tgt="12" wght="-3.0665897245056195" />
        <Con id="1317" src="3" tgt="1316" wght="4.4151192201950957" />
        <Con id="1318" src="1316" tgt="12" wght="1.1141479193785491" />
        <Con id="1405" src="1316" tgt="11" wght="-2.0170067227445543" />
        <Con id="1542" src="8" tgt="1541" wght="3.8275008371992607" />
        <Con id="1543" src="1541" tgt="12" wght="4.9930778517985175" />
        <Con id="1573" src="5" tgt="1316" wght="-2.3333477904088795" />
        <Con id="1602" src="6" tgt="1316" wght="0.058620772324502468" />
      </Connections>
    </Network>
    <Network id="596502" birthGen="1655" fitness="61.424201233698525">
      <Nodes>
        <Node type="bias" id="0" />
        <Node type="in" id="1" />
        <Node type="in" id="2" />
        <Node type="in" id="3" />
        <Node type="in" id="4" />
        <Node type="in" id="5" />
        <Node type="in" id="6" />
        <Node type="in" id="7" />
        <Node type="in" id="8" />
        <Node type="in" id="9" />
        <Node type="in" id="10" />
        <Node type="out" id="11" />
        <Node type="out" id="12" />
        <Node type="hid" id="5946" />
        <Node type="hid" id="5988" />
        <Node type="hid" id="6013" />
      </Nodes>
      <Connections>
        <Con id="13" src="0" tgt="11" wght="-3.631294463321638" />
        <Con id="15" src="1" tgt="11" wght="-1.7599032720392798" />
        <Con id="16" src="1" tgt="12" wght="4.0908329722572123" />
        <Con id="17" src="2" tgt="11" wght="-4.7825583578249642" />
        <Con id="18" src="2" tgt="12" wght="-1.0819813199228019" />
        <Con id="20" src="3" tgt="12" wght="0.167451617307961" />
        <Con id="21" src="4" tgt="11" wght="3.7349596177227795" />
        <Con id="22" src="4" tgt="12" wght="3.6653192248353221" />
        <Con id="24" src="5" tgt="12" wght="-3.9010985084056973" />
        <Con id="25" src="6" tgt="11" wght="1.5392113681358282" />
        <Con id="26" src="6" tgt="12" wght="0.28755872704494617" />
        <Con id="28" src="7" tgt="12" wght="-2.2664401583852873" />
        <Con id="29" src="8" tgt="11" wght="0.79385014745690474" />
        <Con id="30" src="8" tgt="12" wght="2.9761683445020983" />
        <Con id="31" src="9" tgt="11" wght="1.7277470147341907" />
        <Con id="32" src="9" tgt="12" wght="2.9141012725122959" />
        <Con id="33" src="10" tgt="11" wght="-0.20811163764120086" />
        <Con id="34" src="10" tgt="12" wght="-3.7769828231665445" />
        <Con id="5947" src="5" tgt="5946" wght="-0.80049922906085247" />
        <Con id="5948" src="5946" tgt="11" wght="4.9657295182167349" />
        <Con id="5989" src="0" tgt="5988" wght="0.23447336540674219" />
        <Con id="5990" src="5988" tgt="12" wght="5" />
        <Con id="5995" src="3" tgt="5946" wght="-0.82972854048893419" />
        <Con id="5997" src="6" tgt="5946" wght="3.20771227943749" />
        <Con id="6014" src="3" tgt="6013" wght="-1.9226991042339687" />
        <Con id="6015" src="6013" tgt="11" wght="5" />
        <Con id="6098" src="2" tgt="5946" wght="-0.37981367902830243" />
      </Connections>
    </Network>
    <Network id="904634" birthGen="437" fitness="46.43021624257301">
      <Nodes>
        <Node type="bias" id="0" />
        <Node type="in" id="1" />
        <Node type="in" id="2" />
        <Node type="in" id="3" />
        <Node type="in" id="4" />
        <Node type="in" id="5" />
        <Node type="in" id="6" />
        <Node type="in" id="7" />
        <Node type="in" id="8" />
        <Node type="in" id="9" />
        <Node type="in" id="10" />
        <Node type="out" id="11" />
        <Node type="out" id="12" />
        <Node type="hid" id="9158" />
        <Node type="hid" id="9200" />
      </Nodes>
      <Connections>
        <Con id="13" src="0" tgt="11" wght="1.3451870999432596" />
        <Con id="14" src="0" tgt="12" wght="2.07089598187511" />
        <Con id="15" src="1" tgt="11" wght="-2.7058126917108893" />
        <Con id="16" src="1" tgt="12" wght="0.98256092751398683" />
        <Con id="17" src="2" tgt="11" wght="-4.8191067669540644" />
        <Con id="18" src="2" tgt="12" wght="-1.6734570497646928" />
        <Con id="19" src="3" tgt="11" wght="1.9502097032136327" />
        <Con id="20" src="3" tgt="12" wght="3.7101173866540194" />
        <Con id="21" src="4" tgt="11" wght="4.5703933254511488" />
        <Con id="23" src="5" tgt="11" wght="4.9539222489163528" />
        <Con id="24" src="5" tgt="12" wght="4.0417585731484" />
        <Con id="25" src="6" tgt="11" wght="4.5596226560883224" />
        <Con id="26" src="6" tgt="12" wght="4.9186644684332448" />
        <Con id="27" src="7" tgt="11" wght="-4.1108271647840864" />
        <Con id="28" src="7" tgt="12" wght="2.9768794539611312" />
        <Con id="29" src="8" tgt="11" wght="-2.8809380871312156" />
        <Con id="30" src="8" tgt="12" wght="1.5640941927901291" />
        <Con id="31" src="9" tgt="11" wght="-3.9569156529889042" />
        <Con id="32" src="9" tgt="12" wght="2.8818123321980238" />
        <Con id="33" src="10" tgt="11" wght="-2.487460464839911" />
        <Con id="1732" src="4" tgt="12" wght="-4.2638584179803729" />
        <Con id="9159" src="4" tgt="9158" wght="-4.4425140967049694" />
        <Con id="9160" src="9158" tgt="12" wght="5" />
        <Con id="9167" src="9158" tgt="11" wght="-4.30315641451786" />
        <Con id="9201" src="10" tgt="9200" wght="2.4926052056252956" />
        <Con id="9202" src="9200" tgt="12" wght="5" />
      </Connections>
    </Network>
    <Network id="907536" birthGen="145" fitness="20.857640793461506">
      <Nodes>
        <Node type="bias" id="0" />
        <Node type="in" id="1" />
        <Node type="in" id="2" />
        <Node type="in" id="3" />
        <Node type="in" id="4" />
        <Node type="in" id="5" />
        <Node type="in" id="6" />
        <Node type="in" id="7" />
        <Node type="in" id="8" />
        <Node type="in" id="9" />
        <Node type="in" id="10" />
        <Node type="out" id="11" />
        <Node type="out" id="12" />
      </Nodes>
      <Connections>
        <Con id="13" src="0" tgt="11" wght="-4.2013548011891544" />
        <Con id="14" src="0" tgt="12" wght="-1.1096500069834292" />
        <Con id="15" src="1" tgt="11" wght="-1.999304867349565" />
        <Con id="16" src="1" tgt="12" wght="2.898458182133286" />
        <Con id="17" src="2" tgt="11" wght="2.7881101635284722" />
        <Con id="18" src="2" tgt="12" wght="-3.1217567712003" />
        <Con id="19" src="3" tgt="11" wght="0.66666964441537857" />
        <Con id="20" src="3" tgt="12" wght="4.7951175944180982" />
        <Con id="21" src="4" tgt="11" wght="-3.3021395614759514" />
        <Con id="22" src="4" tgt="12" wght="1.4581641058907555" />
        <Con id="23" src="5" tgt="11" wght="-2.7818360583833819" />
        <Con id="24" src="5" tgt="12" wght="-2.5845432141795754" />
        <Con id="25" src="6" tgt="11" wght="-2.2641918808221817" />
        <Con id="26" src="6" tgt="12" wght="-0.49813499780595305" />
        <Con id="27" src="7" tgt="11" wght="0.020004075486212969" />
        <Con id="28" src="7" tgt="12" wght="2.156500166747719" />
        <Con id="29" src="8" tgt="11" wght="-0.22727092495188117" />
        <Con id="30" src="8" tgt="12" wght="-4.38136942750101" />
        <Con id="31" src="9" tgt="11" wght="0.0012753414921462536" />
        <Con id="32" src="9" tgt="12" wght="-4.4498095288872719" />
        <Con id="33" src="10" tgt="11" wght="-2.6508714118972421" />
        <Con id="34" src="10" tgt="12" wght="2.1584830619394779" />
      </Connections>
    </Network>
    <Network id="1463267" birthGen="2835" fitness="16.278641236441867">
      <Nodes>
        <Node type="bias" id="0" />
        <Node type="in" id="1" />
        <Node type="in" id="2" />
        <Node type="in" id="3" />
        <Node type="in" id="4" />
        <Node type="in" id="5" />
        <Node type="in" id="6" />
        <Node type="in" id="7" />
        <Node type="in" id="8" />
        <Node type="in" id="9" />
        <Node type="in" id="10" />
        <Node type="out" id="11" />
        <Node type="out" id="12" />
        <Node type="hid" id="14332" />
        <Node type="hid" id="14339" />
      </Nodes>
      <Connections>
        <Con id="13" src="0" tgt="11" wght="-2.8486936276586712" />
        <Con id="14" src="0" tgt="12" wght="0.37683800091002673" />
        <Con id="16" src="1" tgt="12" wght="4.6706829671994843" />
        <Con id="17" src="2" tgt="11" wght="-4.5240966225812276" />
        <Con id="18" src="2" tgt="12" wght="1.165282124505072" />
        <Con id="19" src="3" tgt="11" wght="-3.4681947728772662" />
        <Con id="20" src="3" tgt="12" wght="-1.5141628424709248" />
        <Con id="21" src="4" tgt="11" wght="4.8056260167652418" />
        <Con id="22" src="4" tgt="12" wght="3.0890373893457506" />
        <Con id="23" src="5" tgt="11" wght="0.105950041278876" />
        <Con id="24" src="5" tgt="12" wght="-0.333130443744027" />
        <Con id="25" src="6" tgt="11" wght="-4.62079753862357" />
        <Con id="26" src="6" tgt="12" wght="-1.8526135070760759" />
        <Con id="27" src="7" tgt="11" wght="1.403226508126832" />
        <Con id="28" src="7" tgt="12" wght="2.7337303315289319" />
        <Con id="29" src="8" tgt="11" wght="2.1043581689164488" />
        <Con id="30" src="8" tgt="12" wght="-3.7043955121249255" />
        <Con id="31" src="9" tgt="11" wght="2.2891685631694014" />
        <Con id="32" src="9" tgt="12" wght="2.2784770320137553" />
        <Con id="34" src="10" tgt="12" wght="2.4050634534708055" />
        <Con id="14333" src="10" tgt="14332" wght="-4.4384865999988" />
        <Con id="14334" src="14332" tgt="11" wght="-0.623345597871061" />
        <Con id="14340" src="1" tgt="14339" wght="-1.7189124581496806" />
        <Con id="14341" src="14339" tgt="11" wght="5" />
        <Con id="14342" src="5" tgt="14332" wght="4.85047824197358" />
        <Con id="14346" src="7" tgt="14332" wght="-2.30464184201328" />
        <Con id="14368" src="9" tgt="14332" wght="2.6821731828973312" />
        <Con id="14369" src="14332" tgt="12" wght="-0.29298858484253287" />
        <Con id="14374" src="6" tgt="14332" wght="1.043504539411515" />
        <Con id="14420" src="1" tgt="14332" wght="-3.1565983581332882" />
        <Con id="14424" src="14339" tgt="12" wght="-1.0148254923426205" />
        <Con id="14447" src="8" tgt="14332" wght="0.30666512160474019" />
        <Con id="14460" src="0" tgt="14332" wght="-3.9237887971103191" />
      </Connections>
    </Network>
    <Network id="2448245" birthGen="4337" fitness="59.619647797437374">
      <Nodes>
        <Node type="bias" id="0" />
        <Node type="in" id="1" />
        <Node type="in" id="2" />
        <Node type="in" id="3" />
        <Node type="in" id="4" />
        <Node type="in" id="5" />
        <Node type="in" id="6" />
        <Node type="in" id="7" />
        <Node type="in" id="8" />
        <Node type="in" id="9" />
        <Node type="in" id="10" />
        <Node type="out" id="11" />
        <Node type="out" id="12" />
      </Nodes>
      <Connections>
        <Con id="13" src="0" tgt="11" wght="0.78826874085833287" />
        <Con id="14" src="0" tgt="12" wght="2.0147678097258468" />
        <Con id="15" src="1" tgt="11" wght="0.96468156669288874" />
        <Con id="16" src="1" tgt="12" wght="3.0763810425864131" />
        <Con id="17" src="2" tgt="11" wght="0.48216892850132403" />
        <Con id="18" src="2" tgt="12" wght="-3.4323279832506319" />
        <Con id="19" src="3" tgt="11" wght="1.9299582461051403" />
        <Con id="20" src="3" tgt="12" wght="-2.2606784988610604" />
        <Con id="21" src="4" tgt="11" wght="-3.9513536952770214" />
        <Con id="22" src="4" tgt="12" wght="1.5352904750942922" />
        <Con id="23" src="5" tgt="11" wght="4.6345058991080572" />
        <Con id="24" src="5" tgt="12" wght="4.0818952213993791" />
        <Con id="25" src="6" tgt="11" wght="-1.4422505221328206" />
        <Con id="26" src="6" tgt="12" wght="-2.8365912483441296" />
        <Con id="27" src="7" tgt="11" wght="-0.35607097204774618" />
        <Con id="28" src="7" tgt="12" wght="4.2774503887633655" />
        <Con id="29" src="8" tgt="11" wght="-0.20409456582507352" />
        <Con id="30" src="8" tgt="12" wght="-3.7295863522018751" />
        <Con id="31" src="9" tgt="11" wght="1.9795913191497425" />
        <Con id="32" src="9" tgt="12" wght="3.5400870256639911" />
        <Con id="33" src="10" tgt="11" wght="3.47475640657202" />
        <Con id="34" src="10" tgt="12" wght="3.63381371177452" />
      </Connections>
    </Network>
    <Network id="2890955" birthGen="2177" fitness="54.994832601055073">
      <Nodes>
        <Node type="bias" id="0" />
        <Node type="in" id="1" />
        <Node type="in" id="2" />
        <Node type="in" id="3" />
        <Node type="in" id="4" />
        <Node type="in" id="5" />
        <Node type="in" id="6" />
        <Node type="in" id="7" />
        <Node type="in" id="8" />
        <Node type="in" id="9" />
        <Node type="in" id="10" />
        <Node type="out" id="11" />
        <Node type="out" id="12" />
      </Nodes>
      <Connections>
        <Con id="13" src="0" tgt="11" wght="-4.263888241828635" />
        <Con id="14" src="0" tgt="12" wght="1.8345303262944375" />
        <Con id="15" src="1" tgt="11" wght="0.23614750942215323" />
        <Con id="16" src="1" tgt="12" wght="-0.75780909532263518" />
        <Con id="17" src="2" tgt="11" wght="-3.5233211852333923" />
        <Con id="18" src="2" tgt="12" wght="-4.8454827473897453" />
        <Con id="19" src="3" tgt="11" wght="-3.7901405807490738" />
        <Con id="20" src="3" tgt="12" wght="-1.5561786608489594" />
        <Con id="21" src="4" tgt="11" wght="3.246051062363382" />
        <Con id="22" src="4" tgt="12" wght="4.6167194657867769" />
        <Con id="23" src="5" tgt="11" wght="-0.89378762757405639" />
        <Con id="24" src="5" tgt="12" wght="1.6249800528490552" />
        <Con id="25" src="6" tgt="11" wght="-1.3187573174782743" />
        <Con id="26" src="6" tgt="12" wght="1.3328023261965618" />
        <Con id="27" src="7" tgt="11" wght="4.5622678282335087" />
        <Con id="28" src="7" tgt="12" wght="2.3201443308744865" />
        <Con id="29" src="8" tgt="11" wght="4.1671379045960322" />
        <Con id="30" src="8" tgt="12" wght="-2.2754110292172762" />
        <Con id="31" src="9" tgt="11" wght="-2.4783364147879183" />
        <Con id="32" src="9" tgt="12" wght="-2.0310559053905308" />
        <Con id="33" src="10" tgt="11" wght="3.5906821177812245" />
        <Con id="34" src="10" tgt="12" wght="0.58959740632049917" />
      </Connections>
    </Network>
    <Network id="3044248" birthGen="2673" fitness="49.983669962374073">
      <Nodes>
        <Node type="bias" id="0" />
        <Node type="in" id="1" />
        <Node type="in" id="2" />
        <Node type="in" id="3" />
        <Node type="in" id="4" />
        <Node type="in" id="5" />
        <Node type="in" id="6" />
        <Node type="in" id="7" />
        <Node type="in" id="8" />
        <Node type="in" id="9" />
        <Node type="in" id="10" />
        <Node type="out" id="11" />
        <Node type="out" id="12" />
      </Nodes>
      <Connections>
        <Con id="13" src="0" tgt="11" wght="-1.637731176994647" />
        <Con id="14" src="0" tgt="12" wght="1.8604209879413247" />
        <Con id="15" src="1" tgt="11" wght="1.6223977745434044" />
        <Con id="16" src="1" tgt="12" wght="0.707422899962675" />
        <Con id="17" src="2" tgt="11" wght="-0.65333331599770383" />
        <Con id="18" src="2" tgt="12" wght="-1.768904683297768" />
        <Con id="19" src="3" tgt="11" wght="-4.216432767837099" />
        <Con id="20" src="3" tgt="12" wght="4.3707372263646658" />
        <Con id="21" src="4" tgt="11" wght="-2.01197533298959" />
        <Con id="22" src="4" tgt="12" wght="4.5415367591246216" />
        <Con id="23" src="5" tgt="11" wght="4.9676096745215457" />
        <Con id="24" src="5" tgt="12" wght="3.3271419001673488" />
        <Con id="25" src="6" tgt="11" wght="2.2752785525380363" />
        <Con id="26" src="6" tgt="12" wght="-4.242144562118364" />
        <Con id="27" src="7" tgt="11" wght="2.089185989547659" />
        <Con id="28" src="7" tgt="12" wght="-4.2624649509874413" />
        <Con id="29" src="8" tgt="11" wght="-0.18564216518221111" />
        <Con id="30" src="8" tgt="12" wght="1.6672573474816697" />
        <Con id="32" src="9" tgt="12" wght="3.4096365845783652" />
        <Con id="33" src="10" tgt="11" wght="-2.2601829196220056" />
        <Con id="34" src="10" tgt="12" wght="-2.6207735959785934" />
        <Con id="2125" src="9" tgt="11" wght="1.4341204351939447" />
      </Connections>
    </Network>
    <Network id="3058970" birthGen="737" fitness="20.819266604763449">
      <Nodes>
        <Node type="bias" id="0" />
        <Node type="in" id="1" />
        <Node type="in" id="2" />
        <Node type="in" id="3" />
        <Node type="in" id="4" />
        <Node type="in" id="5" />
        <Node type="in" id="6" />
        <Node type="in" id="7" />
        <Node type="in" id="8" />
        <Node type="in" id="9" />
        <Node type="in" id="10" />
        <Node type="out" id="11" />
        <Node type="out" id="12" />
        <Node type="hid" id="31056" />
      </Nodes>
      <Connections>
        <Con id="13" src="0" tgt="11" wght="-0.568094199988991" />
        <Con id="14" src="0" tgt="12" wght="-4.2066358914598823" />
        <Con id="15" src="1" tgt="11" wght="4.3878499715268635" />
        <Con id="16" src="1" tgt="12" wght="-3.4481348809131882" />
        <Con id="17" src="2" tgt="11" wght="-1.1115602417959447" />
        <Con id="18" src="2" tgt="12" wght="-3.2632658048532903" />
        <Con id="19" src="3" tgt="11" wght="2.191773210215743" />
        <Con id="21" src="4" tgt="11" wght="-2.9980137628827643" />
        <Con id="22" src="4" tgt="12" wght="0.070524412347065163" />
        <Con id="23" src="5" tgt="11" wght="-3.4604723635129631" />
        <Con id="24" src="5" tgt="12" wght="3.1704196217469871" />
        <Con id="25" src="6" tgt="11" wght="-3.8595926552079618" />
        <Con id="26" src="6" tgt="12" wght="3.189346722792834" />
        <Con id="27" src="7" tgt="11" wght="-1.0907042168180112" />
        <Con id="28" src="7" tgt="12" wght="4.4654653853094235" />
        <Con id="29" src="8" tgt="11" wght="-4.04084909097744" />
        <Con id="30" src="8" tgt="12" wght="-4.44040265167132" />
        <Con id="31" src="9" tgt="11" wght="-3.8623419869691134" />
        <Con id="32" src="9" tgt="12" wght="-0.4352152853998898" />
        <Con id="33" src="10" tgt="11" wght="3.3850668801991928" />
        <Con id="34" src="10" tgt="12" wght="-2.4520066855510354" />
        <Con id="31057" src="3" tgt="31056" wght="0.37688241711706166" />
        <Con id="31058" src="31056" tgt="12" wght="5" />
        <Con id="31068" src="31056" tgt="11" wght="-3.6518448378679706" />
      </Connections>
    </Network>
    <Network id="3072304" birthGen="666" fitness="11.48954608404472">
      <Nodes>
        <Node type="bias" id="0" />
        <Node type="in" id="1" />
        <Node type="in" id="2" />
        <Node type="in" id="3" />
        <Node type="in" id="4" />
        <Node type="in" id="5" />
        <Node type="in" id="6" />
        <Node type="in" id="7" />
        <Node type="in" id="8" />
        <Node type="in" id="9" />
        <Node type="in" id="10" />
        <Node type="out" id="11" />
        <Node type="out" id="12" />
      </Nodes>
      <Connections>
        <Con id="13" src="0" tgt="11" wght="-4.33382329531014" />
        <Con id="14" src="0" tgt="12" wght="-3.3264298156244627" />
        <Con id="15" src="1" tgt="11" wght="4.3668897201848429" />
        <Con id="16" src="1" tgt="12" wght="-3.876634777453178" />
        <Con id="17" src="2" tgt="11" wght="-0.53478272112954994" />
        <Con id="18" src="2" tgt="12" wght="2.5795738381952074" />
        <Con id="19" src="3" tgt="11" wght="-4.150729000780232" />
        <Con id="20" src="3" tgt="12" wght="3.078667635563761" />
        <Con id="21" src="4" tgt="11" wght="0.32847840829018782" />
        <Con id="22" src="4" tgt="12" wght="4.7736565252226484" />
        <Con id="23" src="5" tgt="11" wght="-2.0050159911625087" />
        <Con id="24" src="5" tgt="12" wght="-4.0620238137201978" />
        <Con id="25" src="6" tgt="11" wght="-1.2541337421041612" />
        <Con id="26" src="6" tgt="12" wght="2.0750319586570769" />
        <Con id="27" src="7" tgt="11" wght="-4.499841658398509" />
        <Con id="28" src="7" tgt="12" wght="4.315225379470407" />
        <Con id="29" src="8" tgt="11" wght="0.95576848834753036" />
        <Con id="30" src="8" tgt="12" wght="0.62448337855874636" />
        <Con id="31" src="9" tgt="11" wght="2.3768846784147937" />
        <Con id="32" src="9" tgt="12" wght="-3.8239266253135313" />
        <Con id="33" src="10" tgt="11" wght="-3.2023503188975155" />
        <Con id="34" src="10" tgt="12" wght="-0.17403415637090802" />
      </Connections>
    </Network>
    <Network id="3096608" birthGen="1215" fitness="124.73765134985271">
      <Nodes>
        <Node type="bias" id="0" />
        <Node type="in" id="1" />
        <Node type="in" id="2" />
        <Node type="in" id="3" />
        <Node type="in" id="4" />
        <Node type="in" id="5" />
        <Node type="in" id="6" />
        <Node type="in" id="7" />
        <Node type="in" id="8" />
        <Node type="in" id="9" />
        <Node type="in" id="10" />
        <Node type="out" id="11" />
        <Node type="out" id="12" />
      </Nodes>
      <Connections>
        <Con id="13" src="0" tgt="11" wght="2.6558491878581667" />
        <Con id="14" src="0" tgt="12" wght="3.4299534205446061" />
        <Con id="15" src="1" tgt="11" wght="-0.92699964297935367" />
        <Con id="16" src="1" tgt="12" wght="-4.0056055365130305" />
        <Con id="17" src="2" tgt="11" wght="-4.2513569244340728" />
        <Con id="18" src="2" tgt="12" wght="-1.3809400387599418" />
        <Con id="19" src="3" tgt="11" wght="-3.34624584218093" />
        <Con id="20" src="3" tgt="12" wght="3.8087594648823142" />
        <Con id="21" src="4" tgt="11" wght="-2.3896456537928663" />
        <Con id="22" src="4" tgt="12" wght="-1.2279183603823185" />
        <Con id="23" src="5" tgt="11" wght="0.91654366679583121" />
        <Con id="24" src="5" tgt="12" wght="4.5428620253233909" />
        <Con id="25" src="6" tgt="11" wght="-2.6180424541517175" />
        <Con id="26" src="6" tgt="12" wght="0.31490196939557791" />
        <Con id="27" src="7" tgt="11" wght="1.1873439496840936" />
        <Con id="28" src="7" tgt="12" wght="4.326752399828111" />
        <Con id="29" src="8" tgt="11" wght="1.2727524046640719" />
        <Con id="30" src="8" tgt="12" wght="-0.69125191478356118" />
        <Con id="31" src="9" tgt="11" wght="2.0426462939940393" />
        <Con id="32" src="9" tgt="12" wght="0.91841657878831029" />
        <Con id="33" src="10" tgt="11" wght="0.21141835372972156" />
        <Con id="34" src="10" tgt="12" wght="-1.1877121637329671" />
      </Connections>
    </Network>
    <Network id="4474239" birthGen="4005" fitness="32.190293817354167">
      <Nodes>
        <Node type="bias" id="0" />
        <Node type="in" id="1" />
        <Node type="in" id="2" />
        <Node type="in" id="3" />
        <Node type="in" id="4" />
        <Node type="in" id="5" />
        <Node type="in" id="6" />
        <Node type="in" id="7" />
        <Node type="in" id="8" />
        <Node type="in" id="9" />
        <Node type="in" id="10" />
        <Node type="out" id="11" />
        <Node type="out" id="12" />
        <Node type="hid" id="45409" />
      </Nodes>
      <Connections>
        <Con id="13" src="0" tgt="11" wght="-2.8203091108607743" />
        <Con id="14" src="0" tgt="12" wght="0.36849261570109004" />
        <Con id="15" src="1" tgt="11" wght="-1.7354223463461116" />
        <Con id="16" src="1" tgt="12" wght="2.0352444510012315" />
        <Con id="17" src="2" tgt="11" wght="-1.5233846826071926" />
        <Con id="18" src="2" tgt="12" wght="-3.8881704927090324" />
        <Con id="19" src="3" tgt="11" wght="-3.4846172604324295" />
        <Con id="20" src="3" tgt="12" wght="1.9906994684640695" />
        <Con id="21" src="4" tgt="11" wght="4.8188564227893949" />
        <Con id="22" src="4" tgt="12" wght="3.1161163999361396" />
        <Con id="23" src="5" tgt="11" wght="-2.6553804636932909" />
        <Con id="24" src="5" tgt="12" wght="0.85982237011194229" />
        <Con id="25" src="6" tgt="11" wght="-4.64935984852603" />
        <Con id="26" src="6" tgt="12" wght="-0.31014550681042463" />
        <Con id="27" src="7" tgt="11" wght="1.4132079965786355" />
        <Con id="28" src="7" tgt="12" wght="0.74919444987658068" />
        <Con id="29" src="8" tgt="11" wght="2.0822421763584944" />
        <Con id="30" src="8" tgt="12" wght="-3.694840179268462" />
        <Con id="31" src="9" tgt="11" wght="2.0150238866541463" />
        <Con id="32" src="9" tgt="12" wght="-2.2141627496339824" />
        <Con id="33" src="10" tgt="11" wght="2.3125498997899228" />
        <Con id="34" src="10" tgt="12" wght="0.30408357735723257" />
        <Con id="45410" src="2" tgt="45409" wght="-1.5250592982925522" />
        <Con id="45411" src="45409" tgt="11" wght="4.9806855655904334" />
      </Connections>
    </Network>
    <Network id="4902442" birthGen="1452" fitness="55.963413550359128">
      <Nodes>
        <Node type="bias" id="0" />
        <Node type="in" id="1" />
        <Node type="in" id="2" />
        <Node type="in" id="3" />
        <Node type="in" id="4" />
        <Node type="in" id="5" />
        <Node type="in" id="6" />
        <Node type="in" id="7" />
        <Node type="in" id="8" />
        <Node type="in" id="9" />
        <Node type="in" id="10" />
        <Node type="out" id="11" />
        <Node type="out" id="12" />
        <Node type="hid" id="49771" />
        <Node type="hid" id="49806" />
      </Nodes>
      <Connections>
        <Con id="13" src="0" tgt="11" wght="-2.5350132895017929" />
        <Con id="15" src="1" tgt="11" wght="-1.6740766954783994" />
        <Con id="16" src="1" tgt="12" wght="-2.2125050214909208" />
        <Con id="17" src="2" tgt="11" wght="4.1118811350315809" />
        <Con id="19" src="3" tgt="11" wght="-4.6025747872636726" />
        <Con id="20" src="3" tgt="12" wght="0.51295582711673959" />
        <Con id="21" src="4" tgt="11" wght="1.1116946005893433" />
        <Con id="22" src="4" tgt="12" wght="2.7698129865071381" />
        <Con id="23" src="5" tgt="11" wght="2.3988801015005246" />
        <Con id="24" src="5" tgt="12" wght="1.094530254763938" />
        <Con id="25" src="6" tgt="11" wght="2.4661070813240547" />
        <Con id="26" src="6" tgt="12" wght="-0.52034011603050456" />
        <Con id="27" src="7" tgt="11" wght="2.8403126289040745" />
        <Con id="28" src="7" tgt="12" wght="4.9549747692491017" />
        <Con id="29" src="8" tgt="11" wght="3.2685472510365252" />
        <Con id="30" src="8" tgt="12" wght="4.5232150403859013" />
        <Con id="31" src="9" tgt="11" wght="2.3195793439904406" />
        <Con id="32" src="9" tgt="12" wght="-3.1070332349725192" />
        <Con id="33" src="10" tgt="11" wght="2.4340505230534033" />
        <Con id="34" src="10" tgt="12" wght="-2.5902530364692211" />
        <Con id="148" src="0" tgt="12" wght="-0.68230949342250824" />
        <Con id="49772" src="2" tgt="49771" wght="3.361051666606683" />
        <Con id="49773" src="49771" tgt="12" wght="3.7383795448732395" />
        <Con id="49807" src="0" tgt="49806" wght="-1.3945935276576138" />
        <Con id="49808" src="49806" tgt="12" wght="-1.9696249198793758" />
        <Con id="49813" src="10" tgt="49771" wght="1.8875244189985097" />
        <Con id="49858" src="3" tgt="49771" wght="4.7953180522921448" />
      </Connections>
    </Network>
    <Network id="6503243" birthGen="194" fitness="122.55081439649953">
      <Nodes>
        <Node type="bias" id="0" />
        <Node type="in" id="1" />
        <Node type="in" id="2" />
        <Node type="in" id="3" />
        <Node type="in" id="4" />
        <Node type="in" id="5" />
        <Node type="in" id="6" />
        <Node type="in" id="7" />
        <Node type="in" id="8" />
        <Node type="in" id="9" />
        <Node type="in" id="10" />
        <Node type="out" id="11" />
        <Node type="out" id="12" />
      </Nodes>
      <Connections>
        <Con id="13" src="0" tgt="11" wght="-4.1283151274546981" />
        <Con id="14" src="0" tgt="12" wght="1.8490293063223362" />
        <Con id="15" src="1" tgt="11" wght="0.23614750942215323" />
        <Con id="16" src="1" tgt="12" wght="-0.74788523139432073" />
        <Con id="17" src="2" tgt="11" wght="-3.5193813848309219" />
        <Con id="18" src="2" tgt="12" wght="-0.71397700812667608" />
        <Con id="19" src="3" tgt="11" wght="-0.96666161669418216" />
        <Con id="20" src="3" tgt="12" wght="4.3974160986673576" />
        <Con id="21" src="4" tgt="11" wght="-0.89241463769421769" />
        <Con id="22" src="4" tgt="12" wght="1.239748124498874" />
        <Con id="23" src="5" tgt="11" wght="4.69276994233951" />
        <Con id="24" src="5" tgt="12" wght="3.7184826950264354" />
        <Con id="25" src="6" tgt="11" wght="2.2730538008449206" />
        <Con id="26" src="6" tgt="12" wght="-1.5302470093593001" />
        <Con id="27" src="7" tgt="11" wght="4.5885539003838831" />
        <Con id="28" src="7" tgt="12" wght="1.0810023779049516" />
        <Con id="29" src="8" tgt="11" wght="3.523244068492204" />
        <Con id="30" src="8" tgt="12" wght="2.97703878255561" />
        <Con id="31" src="9" tgt="11" wght="2.0826703822240233" />
        <Con id="32" src="9" tgt="12" wght="1.38515445869416" />
        <Con id="33" src="10" tgt="11" wght="3.6170069465185875" />
        <Con id="34" src="10" tgt="12" wght="-2.8572692698799074" />
      </Connections>
    </Network>
    <Network id="6565916" birthGen="3134" fitness="38.950449075441824">
      <Nodes>
        <Node type="bias" id="0" />
        <Node type="in" id="1" />
        <Node type="in" id="2" />
        <Node type="in" id="3" />
        <Node type="in" id="4" />
        <Node type="in" id="5" />
        <Node type="in" id="6" />
        <Node type="in" id="7" />
        <Node type="in" id="8" />
        <Node type="in" id="9" />
        <Node type="in" id="10" />
        <Node type="out" id="11" />
        <Node type="out" id="12" />
        <Node type="hid" id="65793" />
        <Node type="hid" id="65796" />
        <Node type="hid" id="65951" />
      </Nodes>
      <Connections>
        <Con id="13" src="0" tgt="11" wght="4.1756589938579758" />
        <Con id="14" src="0" tgt="12" wght="-1.1207446255872102" />
        <Con id="15" src="1" tgt="11" wght="-4.389020309317857" />
        <Con id="16" src="1" tgt="12" wght="-3.143390911411537" />
        <Con id="17" src="2" tgt="11" wght="3.6825631804635655" />
        <Con id="19" src="3" tgt="11" wght="0.21919359299113725" />
        <Con id="20" src="3" tgt="12" wght="3.2658264114480118" />
        <Con id="21" src="4" tgt="11" wght="1.2248938119199926" />
        <Con id="22" src="4" tgt="12" wght="-1.963568153487663" />
        <Con id="24" src="5" tgt="12" wght="-0.67896113077373454" />
        <Con id="25" src="6" tgt="11" wght="0.39996795308828653" />
        <Con id="26" src="6" tgt="12" wght="0.743935056746818" />
        <Con id="27" src="7" tgt="11" wght="-1.6262251442371258" />
        <Con id="28" src="7" tgt="12" wght="0.41350866921441887" />
        <Con id="29" src="8" tgt="11" wght="0.71162657062136647" />
        <Con id="30" src="8" tgt="12" wght="-2.8643171792068247" />
        <Con id="31" src="9" tgt="11" wght="-4.5173186653504667" />
        <Con id="32" src="9" tgt="12" wght="-4.8501998369960226" />
        <Con id="33" src="10" tgt="11" wght="-2.9577401632651332" />
        <Con id="34" src="10" tgt="12" wght="-2.9363510666895705" />
        <Con id="101" src="2" tgt="12" wght="3.4593329914707116" />
        <Con id="65794" src="5" tgt="65793" wght="4.4627885752452991" />
        <Con id="65795" src="65793" tgt="11" wght="2.7855484742619394" />
        <Con id="65797" src="2" tgt="65796" wght="0.73847547337371822" />
        <Con id="65798" src="65796" tgt="12" wght="4.9772997151040963" />
        <Con id="65807" src="65796" tgt="65793" wght="1.7544421661838447" />
        <Con id="65826" src="4" tgt="65793" wght="1.6322553903053954" />
        <Con id="65952" src="7" tgt="65951" wght="3.328040135356308" />
        <Con id="65953" src="65951" tgt="65793" wght="4.9879522946166928" />
        <Con id="65989" src="8" tgt="65796" wght="0.70421217931799718" />
        <Con id="66078" src="65951" tgt="12" wght="4.3098237870714149" />
        <Con id="66134" src="3" tgt="65796" wght="-3.0977132404223084" />
        <Con id="66200" src="2" tgt="65793" wght="2.9755441458852805" />
      </Connections>
    </Network>
    <Network id="6610771" birthGen="2243" fitness="79.968729779525987">
      <Nodes>
        <Node type="bias" id="0" />
        <Node type="in" id="1" />
        <Node type="in" id="2" />
        <Node type="in" id="3" />
        <Node type="in" id="4" />
        <Node type="in" id="5" />
        <Node type="in" id="6" />
        <Node type="in" id="7" />
        <Node type="in" id="8" />
        <Node type="in" id="9" />
        <Node type="in" id="10" />
        <Node type="out" id="11" />
        <Node type="out" id="12" />
        <Node type="hid" id="66471" />
        <Node type="hid" id="66495" />
      </Nodes>
      <Connections>
        <Con id="13" src="0" tgt="11" wght="-2.8244397012289753" />
        <Con id="14" src="0" tgt="12" wght="0.37548785159515885" />
        <Con id="15" src="1" tgt="11" wght="-1.7483377946890324" />
        <Con id="16" src="1" tgt="12" wght="0.33847664784499559" />
        <Con id="18" src="2" tgt="12" wght="1.1521501561090801" />
        <Con id="19" src="3" tgt="11" wght="-3.4894207792345417" />
        <Con id="20" src="3" tgt="12" wght="-1.8832967096936379" />
        <Con id="21" src="4" tgt="11" wght="4.799257275618217" />
        <Con id="22" src="4" tgt="12" wght="3.1231959833547611" />
        <Con id="23" src="5" tgt="11" wght="3.1503867991921206" />
        <Con id="24" src="5" tgt="12" wght="1.6376484502405801" />
        <Con id="25" src="6" tgt="11" wght="-2.443057504328682" />
        <Con id="26" src="6" tgt="12" wght="-1.8915090409284057" />
        <Con id="27" src="7" tgt="11" wght="-1.0493562114425004" />
        <Con id="28" src="7" tgt="12" wght="-3.141421265900135" />
        <Con id="29" src="8" tgt="11" wght="2.0813722666914085" />
        <Con id="30" src="8" tgt="12" wght="-3.6966405442757715" />
        <Con id="31" src="9" tgt="11" wght="2.2905413105508874" />
        <Con id="32" src="9" tgt="12" wght="4.8348759889314472" />
        <Con id="33" src="10" tgt="11" wght="2.301476683744907" />
        <Con id="1388" src="2" tgt="11" wght="2.2368496379434055" />
        <Con id="66472" src="2" tgt="66471" wght="-1.5446644634841216" />
        <Con id="66473" src="66471" tgt="11" wght="5" />
        <Con id="66496" src="10" tgt="66495" wght="2.4110893483150639" />
        <Con id="66497" src="66495" tgt="12" wght="4.9911215846292105" />
        <Con id="66509" src="1" tgt="66471" wght="-1.0947568576713871" />
        <Con id="66532" src="66495" tgt="11" wght="-2.4623735900968313" />
        <Con id="66554" src="6" tgt="66471" wght="2.6568126611607941" />
        <Con id="66700" src="5" tgt="66471" wght="3.1668843131536106" />
      </Connections>
    </Network>
    <Network id="7312344" birthGen="149" fitness="119.67023088474433">
      <Nodes>
        <Node type="bias" id="0" />
        <Node type="in" id="1" />
        <Node type="in" id="2" />
        <Node type="in" id="3" />
        <Node type="in" id="4" />
        <Node type="in" id="5" />
        <Node type="in" id="6" />
        <Node type="in" id="7" />
        <Node type="in" id="8" />
        <Node type="in" id="9" />
        <Node type="in" id="10" />
        <Node type="out" id="11" />
        <Node type="out" id="12" />
      </Nodes>
      <Connections>
        <Con id="13" src="0" tgt="11" wght="-0.93472900334745646" />
        <Con id="14" src="0" tgt="12" wght="2.6941058444365744" />
        <Con id="15" src="1" tgt="11" wght="-4.4332575029693544" />
        <Con id="16" src="1" tgt="12" wght="3.6005776291689156" />
        <Con id="17" src="2" tgt="11" wght="-4.2757549555972219" />
        <Con id="18" src="2" tgt="12" wght="1.5965220355428755" />
        <Con id="19" src="3" tgt="11" wght="-2.6135371415875852" />
        <Con id="20" src="3" tgt="12" wght="3.5160367540083826" />
        <Con id="21" src="4" tgt="11" wght="1.5817122557200491" />
        <Con id="22" src="4" tgt="12" wght="-3.0276324739679694" />
        <Con id="23" src="5" tgt="11" wght="4.69276994233951" />
        <Con id="24" src="5" tgt="12" wght="-3.6774532795376027" />
        <Con id="25" src="6" tgt="11" wght="2.2363947582522377" />
        <Con id="26" src="6" tgt="12" wght="-4.0137993800453842" />
        <Con id="27" src="7" tgt="11" wght="3.1138249603100121" />
        <Con id="28" src="7" tgt="12" wght="3.4314806899055839" />
        <Con id="29" src="8" tgt="11" wght="3.523244068492204" />
        <Con id="30" src="8" tgt="12" wght="3.2532425713725388" />
        <Con id="31" src="9" tgt="11" wght="1.9071624616338805" />
        <Con id="32" src="9" tgt="12" wght="-1.8066927441395819" />
        <Con id="33" src="10" tgt="11" wght="-1.9025633632010959" />
        <Con id="34" src="10" tgt="12" wght="0.98853189032524824" />
      </Connections>
    </Network>
    <Network id="8022059" birthGen="556" fitness="26.398987071360708">
      <Nodes>
        <Node type="bias" id="0" />
        <Node type="in" id="1" />
        <Node type="in" id="2" />
        <Node type="in" id="3" />
        <Node type="in" id="4" />
        <Node type="in" id="5" />
        <Node type="in" id="6" />
        <Node type="in" id="7" />
        <Node type="in" id="8" />
        <Node type="in" id="9" />
        <Node type="in" id="10" />
        <Node type="out" id="11" />
        <Node type="out" id="12" />
      </Nodes>
      <Connections>
        <Con id="13" src="0" tgt="11" wght="-2.834611602115638" />
        <Con id="14" src="0" tgt="12" wght="0.35851351451128721" />
        <Con id="15" src="1" tgt="11" wght="-1.7590090915340912" />
        <Con id="16" src="1" tgt="12" wght="4.2251329129604009" />
        <Con id="17" src="2" tgt="11" wght="-1.5166720361781385" />
        <Con id="18" src="2" tgt="12" wght="3.4442986804060638" />
        <Con id="19" src="3" tgt="11" wght="-3.4859139874624967" />
        <Con id="20" src="3" tgt="12" wght="1.9797591748647392" />
        <Con id="21" src="4" tgt="11" wght="0.10805610476389459" />
        <Con id="22" src="4" tgt="12" wght="3.1136194406458753" />
        <Con id="23" src="5" tgt="11" wght="4.3564605549909174" />
        <Con id="24" src="5" tgt="12" wght="1.6476445645093918" />
        <Con id="25" src="6" tgt="11" wght="3.9912638696841896" />
        <Con id="26" src="6" tgt="12" wght="4.5239686815617741" />
        <Con id="27" src="7" tgt="11" wght="1.4066704572178423" />
        <Con id="28" src="7" tgt="12" wght="-3.141421265900135" />
        <Con id="29" src="8" tgt="11" wght="2.0662360993590703" />
        <Con id="30" src="8" tgt="12" wght="-0.65720904851332307" />
        <Con id="31" src="9" tgt="11" wght="2.2637691544832133" />
        <Con id="32" src="9" tgt="12" wght="2.30868758301426" />
        <Con id="33" src="10" tgt="11" wght="2.3110820284645603" />
        <Con id="34" src="10" tgt="12" wght="2.4286129112543127" />
      </Connections>
    </Network>
    <Network id="8093675" birthGen="3581" fitness="57.581261367329191">
      <Nodes>
        <Node type="bias" id="0" />
        <Node type="in" id="1" />
        <Node type="in" id="2" />
        <Node type="in" id="3" />
        <Node type="in" id="4" />
        <Node type="in" id="5" />
        <Node type="in" id="6" />
        <Node type="in" id="7" />
        <Node type="in" id="8" />
        <Node type="in" id="9" />
        <Node type="in" id="10" />
        <Node type="out" id="11" />
        <Node type="out" id="12" />
        <Node type="hid" id="81482" />
        <Node type="hid" id="81502" />
        <Node type="hid" id="81669" />
        <Node type="hid" id="81768" />
      </Nodes>
      <Connections>
        <Con id="13" src="0" tgt="11" wght="-2.8091164292252526" />
        <Con id="15" src="1" tgt="11" wght="-1.7395599842045622" />
        <Con id="16" src="1" tgt="12" wght="1.0907058012765372" />
        <Con id="17" src="2" tgt="11" wght="-1.5351862030337427" />
        <Con id="18" src="2" tgt="12" wght="-1.3169224794265706" />
        <Con id="19" src="3" tgt="11" wght="-3.4489122388094957" />
        <Con id="20" src="3" tgt="12" wght="1.3234274811111391" />
        <Con id="21" src="4" tgt="11" wght="4.7999058008353286" />
        <Con id="22" src="4" tgt="12" wght="3.0707556326876091" />
        <Con id="24" src="5" tgt="12" wght="1.6327946989716331" />
        <Con id="25" src="6" tgt="11" wght="4.4754315525772475" />
        <Con id="27" src="7" tgt="11" wght="0.3667890013571532" />
        <Con id="29" src="8" tgt="11" wght="2.1008236024763489" />
        <Con id="30" src="8" tgt="12" wght="-3.7502290310740292" />
        <Con id="31" src="9" tgt="11" wght="-3.9055680545560412" />
        <Con id="32" src="9" tgt="12" wght="2.30603614687801" />
        <Con id="33" src="10" tgt="11" wght="2.699148045018867" />
        <Con id="34" src="10" tgt="12" wght="2.438446605112238" />
        <Con id="182" src="5" tgt="11" wght="4.1987873876555319" />
        <Con id="81483" src="5" tgt="81482" wght="4.6964852637555525" />
        <Con id="81484" src="81482" tgt="11" wght="5" />
        <Con id="81503" src="0" tgt="81502" wght="0.35716133079281748" />
        <Con id="81504" src="81502" tgt="12" wght="5" />
        <Con id="81512" src="81502" tgt="11" wght="-4.3934704774714506" />
        <Con id="81519" src="3" tgt="81482" wght="-0.50555859395692837" />
        <Con id="81532" src="9" tgt="81482" wght="3.7418214856128391" />
        <Con id="81587" src="10" tgt="81482" wght="-1.5673007799324032" />
        <Con id="81591" src="81482" tgt="12" wght="-3.6048142771128351" />
        <Con id="81671" src="81669" tgt="12" wght="5" />
        <Con id="81676" src="9" tgt="81502" wght="-2.1747498423792422" />
        <Con id="81769" src="6" tgt="81768" wght="-1.8807793226262994" />
        <Con id="81770" src="81768" tgt="81669" wght="5" />
      </Connections>
    </Network>
  </Networks>
</Root>