<?xml version="1.0" encoding="utf-8"?>
<Root>
  <ActivationFunctions>
    <Fn id="0" name="SteepenedSigmoid" prob="1" />
  </ActivationFunctions>
  <Networks>
    <Network id="0" birthGen="0" fitness="0">
      <Nodes>
        <Node type="bias" id="0" />
        <Node type="in" id="1" />
        <Node type="in" id="2" />
        <Node type="in" id="3" />
        <Node type="in" id="4" />
        <Node type="in" id="5" />
        <Node type="in" id="6" />
        <Node type="in" id="7" />
        <Node type="in" id="8" />
        <Node type="in" id="9" />
        <Node type="in" id="10" />
        <Node type="out" id="11" />
        <Node type="out" id="12" />
      </Nodes>
      <Connections>
        <Con id="13" src="0" tgt="11" wght="-0.87293445412069559" />
        <Con id="14" src="0" tgt="12" wght="0.61123341880738735" />
        <Con id="15" src="1" tgt="11" wght="-0.55845270305871964" />
        <Con id="16" src="1" tgt="12" wght="0.39149358402937651" />
        <Con id="17" src="2" tgt="11" wght="-0.92962363362312317" />
        <Con id="18" src="2" tgt="12" wght="0.5590489637106657" />
        <Con id="19" src="3" tgt="11" wght="-0.32236916478723288" />
        <Con id="20" src="3" tgt="12" wght="-0.13500253576785326" />
        <Con id="21" src="4" tgt="11" wght="-0.66176147852092981" />
        <Con id="22" src="4" tgt="12" wght="0.24126421473920345" />
        <Con id="23" src="5" tgt="11" wght="0.96377755980938673" />
        <Con id="24" src="5" tgt="12" wght="0.8234238289296627" />
        <Con id="25" src="6" tgt="11" wght="-0.27559969946742058" />
        <Con id="26" src="6" tgt="12" wght="0.22812744881957769" />
        <Con id="27" src="7" tgt="11" wght="0.034132217057049274" />
        <Con id="28" src="7" tgt="12" wght="0.86268134228885174" />
        <Con id="29" src="8" tgt="11" wght="-0.28666125610470772" />
        <Con id="30" src="8" tgt="12" wght="0.658365991897881" />
        <Con id="31" src="9" tgt="11" wght="0.044709117151796818" />
        <Con id="32" src="9" tgt="12" wght="-0.55095767322927713" />
        <Con id="33" src="10" tgt="11" wght="-0.32445132452994585" />
        <Con id="34" src="10" tgt="12" wght="-0.74317682255059481" />
      </Connections>
    </Network>
    <Network id="1" birthGen="0" fitness="0">
      <Nodes>
        <Node type="bias" id="0" />
        <Node type="in" id="1" />
        <Node type="in" id="2" />
        <Node type="in" id="3" />
        <Node type="in" id="4" />
        <Node type="in" id="5" />
        <Node type="in" id="6" />
        <Node type="in" id="7" />
        <Node type="in" id="8" />
        <Node type="in" id="9" />
        <Node type="in" id="10" />
        <Node type="out" id="11" />
        <Node type="out" id="12" />
      </Nodes>
      <Connections>
        <Con id="13" src="0" tgt="11" wght="0.70623618923127651" />
        <Con id="14" src="0" tgt="12" wght="0.53234101366251707" />
        <Con id="15" src="1" tgt="11" wght="0.43507312424480915" />
        <Con id="16" src="1" tgt="12" wght="0.34849921427667141" />
        <Con id="17" src="2" tgt="11" wght="-0.70309687685221434" />
        <Con id="18" src="2" tgt="12" wght="0.85898772720247507" />
        <Con id="19" src="3" tgt="11" wght="0.58683701604604721" />
        <Con id="20" src="3" tgt="12" wght="0.904756405390799" />
        <Con id="21" src="4" tgt="11" wght="-0.71481500379741192" />
        <Con id="22" src="4" tgt="12" wght="-0.84924583602696657" />
        <Con id="23" src="5" tgt="11" wght="-0.80412279069423676" />
        <Con id="24" src="5" tgt="12" wght="-0.6966754412278533" />
        <Con id="25" src="6" tgt="11" wght="0.99590001348406076" />
        <Con id="26" src="6" tgt="12" wght="-0.32759480457752943" />
        <Con id="27" src="7" tgt="11" wght="0.27407942991703749" />
        <Con id="28" src="7" tgt="12" wght="0.81419709417968988" />
        <Con id="29" src="8" tgt="11" wght="0.31318265479058027" />
        <Con id="30" src="8" tgt="12" wght="0.94824900757521391" />
        <Con id="31" src="9" tgt="11" wght="-0.2251277007162571" />
        <Con id="32" src="9" tgt="12" wght="0.78409537766128778" />
        <Con id="33" src="10" tgt="11" wght="-0.10686858464032412" />
        <Con id="34" src="10" tgt="12" wght="-0.28485785331577063" />
      </Connections>
    </Network>
    <Network id="2" birthGen="0" fitness="0">
      <Nodes>
        <Node type="bias" id="0" />
        <Node type="in" id="1" />
        <Node type="in" id="2" />
        <Node type="in" id="3" />
        <Node type="in" id="4" />
        <Node type="in" id="5" />
        <Node type="in" id="6" />
        <Node type="in" id="7" />
        <Node type="in" id="8" />
        <Node type="in" id="9" />
        <Node type="in" id="10" />
        <Node type="out" id="11" />
        <Node type="out" id="12" />
      </Nodes>
      <Connections>
        <Con id="13" src="0" tgt="11" wght="0.32689822465181351" />
        <Con id="14" src="0" tgt="12" wght="0.65872912108898163" />
        <Con id="15" src="1" tgt="11" wght="-0.83655909914523363" />
        <Con id="16" src="1" tgt="12" wght="-0.516194773837924" />
        <Con id="17" src="2" tgt="11" wght="-0.67994867637753487" />
        <Con id="18" src="2" tgt="12" wght="-0.77863720431923866" />
        <Con id="19" src="3" tgt="11" wght="-0.70086204819381237" />
        <Con id="20" src="3" tgt="12" wght="0.017824914306402206" />
        <Con id="21" src="4" tgt="11" wght="0.23469702061265707" />
        <Con id="22" src="4" tgt="12" wght="-0.64055092167109251" />
        <Con id="23" src="5" tgt="11" wght="-0.89450412057340145" />
        <Con id="24" src="5" tgt="12" wght="0.73636339418590069" />
        <Con id="25" src="6" tgt="11" wght="0.6529709454625845" />
        <Con id="26" src="6" tgt="12" wght="0.77409170940518379" />
        <Con id="27" src="7" tgt="11" wght="-0.94350454770028591" />
        <Con id="28" src="7" tgt="12" wght="-0.44733330514281988" />
        <Con id="29" src="8" tgt="11" wght="0.89464526530355215" />
        <Con id="30" src="8" tgt="12" wght="0.81651463266462088" />
        <Con id="31" src="9" tgt="11" wght="0.36267237458378077" />
        <Con id="32" src="9" tgt="12" wght="0.89727964997291565" />
        <Con id="33" src="10" tgt="11" wght="0.7653108723461628" />
        <Con id="34" src="10" tgt="12" wght="-0.61936311889439821" />
      </Connections>
    </Network>
    <Network id="3" birthGen="0" fitness="0">
      <Nodes>
        <Node type="bias" id="0" />
        <Node type="in" id="1" />
        <Node type="in" id="2" />
        <Node type="in" id="3" />
        <Node type="in" id="4" />
        <Node type="in" id="5" />
        <Node type="in" id="6" />
        <Node type="in" id="7" />
        <Node type="in" id="8" />
        <Node type="in" id="9" />
        <Node type="in" id="10" />
        <Node type="out" id="11" />
        <Node type="out" id="12" />
      </Nodes>
      <Connections>
        <Con id="13" src="0" tgt="11" wght="-0.58773054555058479" />
        <Con id="14" src="0" tgt="12" wght="-0.637356105260551" />
        <Con id="15" src="1" tgt="11" wght="-0.3473369749262929" />
        <Con id="16" src="1" tgt="12" wght="0.76411127392202616" />
        <Con id="17" src="2" tgt="11" wght="-0.84859140682965517" />
        <Con id="18" src="2" tgt="12" wght="-0.55645064637064934" />
        <Con id="19" src="3" tgt="11" wght="-0.82391208130866289" />
        <Con id="20" src="3" tgt="12" wght="-0.68049473222345114" />
        <Con id="21" src="4" tgt="11" wght="-0.27502511627972126" />
        <Con id="22" src="4" tgt="12" wght="-0.32978781126439571" />
        <Con id="23" src="5" tgt="11" wght="-0.046255684457719326" />
        <Con id="24" src="5" tgt="12" wght="0.7900460846722126" />
        <Con id="25" src="6" tgt="11" wght="-0.63026731461286545" />
        <Con id="26" src="6" tgt="12" wght="0.60913835745304823" />
        <Con id="27" src="7" tgt="11" wght="0.511315505951643" />
        <Con id="28" src="7" tgt="12" wght="0.83399464562535286" />
        <Con id="29" src="8" tgt="11" wght="-0.48519146163016558" />
        <Con id="30" src="8" tgt="12" wght="0.46553600113838911" />
        <Con id="31" src="9" tgt="11" wght="0.2203989140689373" />
        <Con id="32" src="9" tgt="12" wght="-0.70796580333262682" />
        <Con id="33" src="10" tgt="11" wght="0.75496246013790369" />
        <Con id="34" src="10" tgt="12" wght="-0.99162110034376383" />
      </Connections>
    </Network>
    <Network id="4" birthGen="0" fitness="0">
      <Nodes>
        <Node type="bias" id="0" />
        <Node type="in" id="1" />
        <Node type="in" id="2" />
        <Node type="in" id="3" />
        <Node type="in" id="4" />
        <Node type="in" id="5" />
        <Node type="in" id="6" />
        <Node type="in" id="7" />
        <Node type="in" id="8" />
        <Node type="in" id="9" />
        <Node type="in" id="10" />
        <Node type="out" id="11" />
        <Node type="out" id="12" />
      </Nodes>
      <Connections>
        <Con id="13" src="0" tgt="11" wght="-0.86953440867364407" />
        <Con id="14" src="0" tgt="12" wght="-0.78667580150067806" />
        <Con id="15" src="1" tgt="11" wght="-0.49564092420041561" />
        <Con id="16" src="1" tgt="12" wght="-0.72618048079311848" />
        <Con id="17" src="2" tgt="11" wght="-0.34828095603734255" />
        <Con id="18" src="2" tgt="12" wght="0.8634925065562129" />
        <Con id="19" src="3" tgt="11" wght="-0.2077711708843708" />
        <Con id="20" src="3" tgt="12" wght="0.60583889205008745" />
        <Con id="21" src="4" tgt="11" wght="-0.36809275764971972" />
        <Con id="22" src="4" tgt="12" wght="-0.784674814902246" />
        <Con id="23" src="5" tgt="11" wght="-0.68901207204908133" />
        <Con id="24" src="5" tgt="12" wght="0.29383657779544592" />
        <Con id="25" src="6" tgt="11" wght="-0.279920537956059" />
        <Con id="26" src="6" tgt="12" wght="-0.59975594561547041" />
        <Con id="27" src="7" tgt="11" wght="-0.30178314540535212" />
        <Con id="28" src="7" tgt="12" wght="-0.08336065337061882" />
        <Con id="29" src="8" tgt="11" wght="0.039383227936923504" />
        <Con id="30" src="8" tgt="12" wght="-0.8352519441395998" />
        <Con id="31" src="9" tgt="11" wght="-0.14021100290119648" />
        <Con id="32" src="9" tgt="12" wght="-0.026291407644748688" />
        <Con id="33" src="10" tgt="11" wght="0.68837394192814827" />
        <Con id="34" src="10" tgt="12" wght="-0.38177175540477037" />
      </Connections>
    </Network>
    <Network id="5" birthGen="0" fitness="0">
      <Nodes>
        <Node type="bias" id="0" />
        <Node type="in" id="1" />
        <Node type="in" id="2" />
        <Node type="in" id="3" />
        <Node type="in" id="4" />
        <Node type="in" id="5" />
        <Node type="in" id="6" />
        <Node type="in" id="7" />
        <Node type="in" id="8" />
        <Node type="in" id="9" />
        <Node type="in" id="10" />
        <Node type="out" id="11" />
        <Node type="out" id="12" />
      </Nodes>
      <Connections>
        <Con id="13" src="0" tgt="11" wght="0.20421142131090164" />
        <Con id="14" src="0" tgt="12" wght="-0.31171480286866426" />
        <Con id="15" src="1" tgt="11" wght="-0.85247050318866968" />
        <Con id="16" src="1" tgt="12" wght="-0.091797966510057449" />
        <Con id="17" src="2" tgt="11" wght="-0.90806804876774549" />
        <Con id="18" src="2" tgt="12" wght="-0.6862948564812541" />
        <Con id="19" src="3" tgt="11" wght="-0.88688893243670464" />
        <Con id="20" src="3" tgt="12" wght="0.41564572788774967" />
        <Con id="21" src="4" tgt="11" wght="0.259421581402421" />
        <Con id="22" src="4" tgt="12" wght="0.994169550947845" />
        <Con id="23" src="5" tgt="11" wght="0.87201524712145329" />
        <Con id="24" src="5" tgt="12" wght="0.25877515040338039" />
        <Con id="25" src="6" tgt="11" wght="0.24891382735222578" />
        <Con id="26" src="6" tgt="12" wght="0.066303173080086708" />
        <Con id="27" src="7" tgt="11" wght="0.15218742378056049" />
        <Con id="28" src="7" tgt="12" wght="0.87525663804262877" />
        <Con id="29" src="8" tgt="11" wght="-0.11238097306340933" />
        <Con id="30" src="8" tgt="12" wght="0.87012409325689077" />
        <Con id="31" src="9" tgt="11" wght="-0.66215350665152073" />
        <Con id="32" src="9" tgt="12" wght="-0.17212373856455088" />
        <Con id="33" src="10" tgt="11" wght="0.86013535410165787" />
        <Con id="34" src="10" tgt="12" wght="-0.55507250688970089" />
      </Connections>
    </Network>
    <Network id="6" birthGen="0" fitness="0">
      <Nodes>
        <Node type="bias" id="0" />
        <Node type="in" id="1" />
        <Node type="in" id="2" />
        <Node type="in" id="3" />
        <Node type="in" id="4" />
        <Node type="in" id="5" />
        <Node type="in" id="6" />
        <Node type="in" id="7" />
        <Node type="in" id="8" />
        <Node type="in" id="9" />
        <Node type="in" id="10" />
        <Node type="out" id="11" />
        <Node type="out" id="12" />
      </Nodes>
      <Connections>
        <Con id="13" src="0" tgt="11" wght="0.67792532034218311" />
        <Con id="14" src="0" tgt="12" wght="-0.4337818194180727" />
        <Con id="15" src="1" tgt="11" wght="0.862884160131216" />
        <Con id="16" src="1" tgt="12" wght="0.88284786324948072" />
        <Con id="17" src="2" tgt="11" wght="-0.067968854680657387" />
        <Con id="18" src="2" tgt="12" wght="0.560695824213326" />
        <Con id="19" src="3" tgt="11" wght="0.54953051637858152" />
        <Con id="20" src="3" tgt="12" wght="-0.1639584181830287" />
        <Con id="21" src="4" tgt="11" wght="-0.36847212538123131" />
        <Con id="22" src="4" tgt="12" wght="-0.96314716245979071" />
        <Con id="23" src="5" tgt="11" wght="-0.50412819813936949" />
        <Con id="24" src="5" tgt="12" wght="0.50332430377602577" />
        <Con id="25" src="6" tgt="11" wght="0.24986962880939245" />
        <Con id="26" src="6" tgt="12" wght="0.356735548004508" />
        <Con id="27" src="7" tgt="11" wght="-0.69499603286385536" />
        <Con id="28" src="7" tgt="12" wght="0.033096287399530411" />
        <Con id="29" src="8" tgt="11" wght="-0.99606991093605757" />
        <Con id="30" src="8" tgt="12" wght="-0.12109613697975874" />
        <Con id="31" src="9" tgt="11" wght="-0.574699766933918" />
        <Con id="32" src="9" tgt="12" wght="0.087296271696686745" />
        <Con id="33" src="10" tgt="11" wght="0.11864636745303869" />
        <Con id="34" src="10" tgt="12" wght="-0.51600447110831738" />
      </Connections>
    </Network>
    <Network id="7" birthGen="0" fitness="0">
      <Nodes>
        <Node type="bias" id="0" />
        <Node type="in" id="1" />
        <Node type="in" id="2" />
        <Node type="in" id="3" />
        <Node type="in" id="4" />
        <Node type="in" id="5" />
        <Node type="in" id="6" />
        <Node type="in" id="7" />
        <Node type="in" id="8" />
        <Node type="in" id="9" />
        <Node type="in" id="10" />
        <Node type="out" id="11" />
        <Node type="out" id="12" />
      </Nodes>
      <Connections>
        <Con id="13" src="0" tgt="11" wght="0.97082348074764013" />
        <Con id="14" src="0" tgt="12" wght="0.33350187353789806" />
        <Con id="15" src="1" tgt="11" wght="0.010100735351443291" />
        <Con id="16" src="1" tgt="12" wght="0.8498504338786006" />
        <Con id="17" src="2" tgt="11" wght="-0.15404521953314543" />
        <Con id="18" src="2" tgt="12" wght="-0.35453380923718214" />
        <Con id="19" src="3" tgt="11" wght="-0.11291258316487074" />
        <Con id="20" src="3" tgt="12" wght="0.6880564671009779" />
        <Con id="21" src="4" tgt="11" wght="-0.43271497450768948" />
        <Con id="22" src="4" tgt="12" wght="-0.29964650049805641" />
        <Con id="23" src="5" tgt="11" wght="-0.71512082405388355" />
        <Con id="24" src="5" tgt="12" wght="-0.81648294534534216" />
        <Con id="25" src="6" tgt="11" wght="-0.0077104661613702774" />
        <Con id="26" src="6" tgt="12" wght="-0.78899824153631926" />
        <Con id="27" src="7" tgt="11" wght="0.76721884123981" />
        <Con id="28" src="7" tgt="12" wght="0.89331531897187233" />
        <Con id="29" src="8" tgt="11" wght="0.3216253500431776" />
        <Con id="30" src="8" tgt="12" wght="0.48770361486822367" />
        <Con id="31" src="9" tgt="11" wght="0.66831124760210514" />
        <Con id="32" src="9" tgt="12" wght="0.38533459790050983" />
        <Con id="33" src="10" tgt="11" wght="0.46131913922727108" />
        <Con id="34" src="10" tgt="12" wght="0.0958964666351676" />
      </Connections>
    </Network>
    <Network id="8" birthGen="0" fitness="0">
      <Nodes>
        <Node type="bias" id="0" />
        <Node type="in" id="1" />
        <Node type="in" id="2" />
        <Node type="in" id="3" />
        <Node type="in" id="4" />
        <Node type="in" id="5" />
        <Node type="in" id="6" />
        <Node type="in" id="7" />
        <Node type="in" id="8" />
        <Node type="in" id="9" />
        <Node type="in" id="10" />
        <Node type="out" id="11" />
        <Node type="out" id="12" />
      </Nodes>
      <Connections>
        <Con id="13" src="0" tgt="11" wght="0.727709237486124" />
        <Con id="14" src="0" tgt="12" wght="0.8148891506716609" />
        <Con id="15" src="1" tgt="11" wght="0.49824664182960987" />
        <Con id="16" src="1" tgt="12" wght="-0.14392928313463926" />
        <Con id="17" src="2" tgt="11" wght="-0.54969119653105736" />
        <Con id="18" src="2" tgt="12" wght="0.49919571354985237" />
        <Con id="19" src="3" tgt="11" wght="0.62187183741480112" />
        <Con id="20" src="3" tgt="12" wght="-0.9801432266831398" />
        <Con id="21" src="4" tgt="11" wght="0.35166937857866287" />
        <Con id="22" src="4" tgt="12" wght="-0.693741312250495" />
        <Con id="23" src="5" tgt="11" wght="-0.57340050581842661" />
        <Con id="24" src="5" tgt="12" wght="-0.81442851666361094" />
        <Con id="25" src="6" tgt="11" wght="0.57750838156789541" />
        <Con id="26" src="6" tgt="12" wght="-0.5820423886179924" />
        <Con id="27" src="7" tgt="11" wght="-0.046375586651265621" />
        <Con id="28" src="7" tgt="12" wght="0.99371735844761133" />
        <Con id="29" src="8" tgt="11" wght="-0.52243584580719471" />
        <Con id="30" src="8" tgt="12" wght="0.83407029695808887" />
        <Con id="31" src="9" tgt="11" wght="-0.56038342230021954" />
        <Con id="32" src="9" tgt="12" wght="-0.69480239041149616" />
        <Con id="33" src="10" tgt="11" wght="0.87158790230751038" />
        <Con id="34" src="10" tgt="12" wght="0.637259678915143" />
      </Connections>
    </Network>
    <Network id="9" birthGen="0" fitness="0">
      <Nodes>
        <Node type="bias" id="0" />
        <Node type="in" id="1" />
        <Node type="in" id="2" />
        <Node type="in" id="3" />
        <Node type="in" id="4" />
        <Node type="in" id="5" />
        <Node type="in" id="6" />
        <Node type="in" id="7" />
        <Node type="in" id="8" />
        <Node type="in" id="9" />
        <Node type="in" id="10" />
        <Node type="out" id="11" />
        <Node type="out" id="12" />
      </Nodes>
      <Connections>
        <Con id="13" src="0" tgt="11" wght="-0.005938665010035038" />
        <Con id="14" src="0" tgt="12" wght="0.10690449457615614" />
        <Con id="15" src="1" tgt="11" wght="-0.84931457694619894" />
        <Con id="16" src="1" tgt="12" wght="-0.44821501895785332" />
        <Con id="17" src="2" tgt="11" wght="0.043644363060593605" />
        <Con id="18" src="2" tgt="12" wght="-0.39648701250553131" />
        <Con id="19" src="3" tgt="11" wght="-0.18231359496712685" />
        <Con id="20" src="3" tgt="12" wght="-0.34927984420210123" />
        <Con id="21" src="4" tgt="11" wght="0.27774352487176657" />
        <Con id="22" src="4" tgt="12" wght="0.50990977138280869" />
        <Con id="23" src="5" tgt="11" wght="-0.92436961177736521" />
        <Con id="24" src="5" tgt="12" wght="-0.46912899147719145" />
        <Con id="25" src="6" tgt="11" wght="0.46426198352128267" />
        <Con id="26" src="6" tgt="12" wght="-0.4494476830586791" />
        <Con id="27" src="7" tgt="11" wght="0.09961976483464241" />
        <Con id="28" src="7" tgt="12" wght="0.84658076148480177" />
        <Con id="29" src="8" tgt="11" wght="-0.855961156077683" />
        <Con id="30" src="8" tgt="12" wght="0.67592198401689529" />
        <Con id="31" src="9" tgt="11" wght="-0.68481780309230089" />
        <Con id="32" src="9" tgt="12" wght="0.51350506115704775" />
        <Con id="33" src="10" tgt="11" wght="-0.69656857382506132" />
        <Con id="34" src="10" tgt="12" wght="-0.64470456633716822" />
      </Connections>
    </Network>
    <Network id="10" birthGen="0" fitness="0">
      <Nodes>
        <Node type="bias" id="0" />
        <Node type="in" id="1" />
        <Node type="in" id="2" />
        <Node type="in" id="3" />
        <Node type="in" id="4" />
        <Node type="in" id="5" />
        <Node type="in" id="6" />
        <Node type="in" id="7" />
        <Node type="in" id="8" />
        <Node type="in" id="9" />
        <Node type="in" id="10" />
        <Node type="out" id="11" />
        <Node type="out" id="12" />
      </Nodes>
      <Connections>
        <Con id="13" src="0" tgt="11" wght="0.013591785915195942" />
        <Con id="14" src="0" tgt="12" wght="0.17032404523342848" />
        <Con id="15" src="1" tgt="11" wght="0.1399992574006319" />
        <Con id="16" src="1" tgt="12" wght="-0.13120848685503006" />
        <Con id="17" src="2" tgt="11" wght="0.56170143280178308" />
        <Con id="18" src="2" tgt="12" wght="0.046208246611058712" />
        <Con id="19" src="3" tgt="11" wght="0.49092885386198759" />
        <Con id="20" src="3" tgt="12" wght="0.80654031969606876" />
        <Con id="21" src="4" tgt="11" wght="-0.79394247755408287" />
        <Con id="22" src="4" tgt="12" wght="0.39792043156921864" />
        <Con id="23" src="5" tgt="11" wght="0.8823521239683032" />
        <Con id="24" src="5" tgt="12" wght="-0.82909559924155474" />
        <Con id="25" src="6" tgt="11" wght="0.2800579285249114" />
        <Con id="26" src="6" tgt="12" wght="0.46278597321361303" />
        <Con id="27" src="7" tgt="11" wght="0.62267251033335924" />
        <Con id="28" src="7" tgt="12" wght="0.72451679594814777" />
        <Con id="29" src="8" tgt="11" wght="0.649293857626617" />
        <Con id="30" src="8" tgt="12" wght="-0.95403879322111607" />
        <Con id="31" src="9" tgt="11" wght="0.550545385107398" />
        <Con id="32" src="9" tgt="12" wght="0.93076440505683422" />
        <Con id="33" src="10" tgt="11" wght="-0.060093875043094158" />
        <Con id="34" src="10" tgt="12" wght="0.74384903907775879" />
      </Connections>
    </Network>
    <Network id="11" birthGen="0" fitness="0">
      <Nodes>
        <Node type="bias" id="0" />
        <Node type="in" id="1" />
        <Node type="in" id="2" />
        <Node type="in" id="3" />
        <Node type="in" id="4" />
        <Node type="in" id="5" />
        <Node type="in" id="6" />
        <Node type="in" id="7" />
        <Node type="in" id="8" />
        <Node type="in" id="9" />
        <Node type="in" id="10" />
        <Node type="out" id="11" />
        <Node type="out" id="12" />
      </Nodes>
      <Connections>
        <Con id="13" src="0" tgt="11" wght="-0.52356932312250137" />
        <Con id="14" src="0" tgt="12" wght="-0.77665870077908039" />
        <Con id="15" src="1" tgt="11" wght="-0.41380923148244619" />
        <Con id="16" src="1" tgt="12" wght="-0.80229806806892157" />
        <Con id="17" src="2" tgt="11" wght="0.7603783868253231" />
        <Con id="18" src="2" tgt="12" wght="-0.10768500622361898" />
        <Con id="19" src="3" tgt="11" wght="-0.197077508084476" />
        <Con id="20" src="3" tgt="12" wght="0.30955041013658047" />
        <Con id="21" src="4" tgt="11" wght="-0.70699926279485226" />
        <Con id="22" src="4" tgt="12" wght="0.90696175675839186" />
        <Con id="23" src="5" tgt="11" wght="-0.90831231698393822" />
        <Con id="24" src="5" tgt="12" wght="0.71063573844730854" />
        <Con id="25" src="6" tgt="11" wght="-0.38538386207073927" />
        <Con id="26" src="6" tgt="12" wght="-0.46959975361824036" />
        <Con id="27" src="7" tgt="11" wght="-0.2783742593601346" />
        <Con id="28" src="7" tgt="12" wght="-0.83270416595041752" />
        <Con id="29" src="8" tgt="11" wght="0.0676581971347332" />
        <Con id="30" src="8" tgt="12" wght="0.984307436272502" />
        <Con id="31" src="9" tgt="11" wght="-0.31092400010675192" />
        <Con id="32" src="9" tgt="12" wght="-0.59356522653251886" />
        <Con id="33" src="10" tgt="11" wght="-0.38300539180636406" />
        <Con id="34" src="10" tgt="12" wght="-0.25575396046042442" />
      </Connections>
    </Network>
    <Network id="12" birthGen="0" fitness="0">
      <Nodes>
        <Node type="bias" id="0" />
        <Node type="in" id="1" />
        <Node type="in" id="2" />
        <Node type="in" id="3" />
        <Node type="in" id="4" />
        <Node type="in" id="5" />
        <Node type="in" id="6" />
        <Node type="in" id="7" />
        <Node type="in" id="8" />
        <Node type="in" id="9" />
        <Node type="in" id="10" />
        <Node type="out" id="11" />
        <Node type="out" id="12" />
      </Nodes>
      <Connections>
        <Con id="13" src="0" tgt="11" wght="-0.76629816088825464" />
        <Con id="14" src="0" tgt="12" wght="-0.11498791072517633" />
        <Con id="15" src="1" tgt="11" wght="-0.78731965832412243" />
        <Con id="16" src="1" tgt="12" wght="-0.18212004192173481" />
        <Con id="17" src="2" tgt="11" wght="-0.88449052348732948" />
        <Con id="18" src="2" tgt="12" wght="-0.42061417084187269" />
        <Con id="19" src="3" tgt="11" wght="-0.030375819653272629" />
        <Con id="20" src="3" tgt="12" wght="-0.44379754364490509" />
        <Con id="21" src="4" tgt="11" wght="-0.53895977418869734" />
        <Con id="22" src="4" tgt="12" wght="-0.078278719447553158" />
        <Con id="23" src="5" tgt="11" wght="-0.20871494244784117" />
        <Con id="24" src="5" tgt="12" wght="0.49661194253712893" />
        <Con id="25" src="6" tgt="11" wght="0.49407196138054132" />
        <Con id="26" src="6" tgt="12" wght="0.97252941597253084" />
        <Con id="27" src="7" tgt="11" wght="-0.94347536098212" />
        <Con id="28" src="7" tgt="12" wght="0.74760558176785707" />
        <Con id="29" src="8" tgt="11" wght="0.23196920659393072" />
        <Con id="30" src="8" tgt="12" wght="-0.33430110570043325" />
        <Con id="31" src="9" tgt="11" wght="0.795812695287168" />
        <Con id="32" src="9" tgt="12" wght="-0.39437228627502918" />
        <Con id="33" src="10" tgt="11" wght="0.18858798127621412" />
        <Con id="34" src="10" tgt="12" wght="-0.73060713056474924" />
      </Connections>
    </Network>
    <Network id="13" birthGen="0" fitness="0">
      <Nodes>
        <Node type="bias" id="0" />
        <Node type="in" id="1" />
        <Node type="in" id="2" />
        <Node type="in" id="3" />
        <Node type="in" id="4" />
        <Node type="in" id="5" />
        <Node type="in" id="6" />
        <Node type="in" id="7" />
        <Node type="in" id="8" />
        <Node type="in" id="9" />
        <Node type="in" id="10" />
        <Node type="out" id="11" />
        <Node type="out" id="12" />
      </Nodes>
      <Connections>
        <Con id="13" src="0" tgt="11" wght="-0.10817825049161911" />
        <Con id="14" src="0" tgt="12" wght="0.84443769045174122" />
        <Con id="15" src="1" tgt="11" wght="0.63361380994319916" />
        <Con id="16" src="1" tgt="12" wght="0.52104226686060429" />
        <Con id="17" src="2" tgt="11" wght="-0.33273610565811396" />
        <Con id="18" src="2" tgt="12" wght="0.67619296070188284" />
        <Con id="19" src="3" tgt="11" wght="-0.66935901343822479" />
        <Con id="20" src="3" tgt="12" wght="0.11017159838229418" />
        <Con id="21" src="4" tgt="11" wght="0.7549769859761" />
        <Con id="22" src="4" tgt="12" wght="-0.022370538674294949" />
        <Con id="23" src="5" tgt="11" wght="0.17773650866001844" />
        <Con id="24" src="5" tgt="12" wght="0.792543207295239" />
        <Con id="25" src="6" tgt="11" wght="0.22928808256983757" />
        <Con id="26" src="6" tgt="12" wght="0.17060756497085094" />
        <Con id="27" src="7" tgt="11" wght="-0.03738681972026825" />
        <Con id="28" src="7" tgt="12" wght="-0.079945745877921581" />
        <Con id="29" src="8" tgt="11" wght="0.084594638086855412" />
        <Con id="30" src="8" tgt="12" wght="0.50780152436345816" />
        <Con id="31" src="9" tgt="11" wght="0.070881328545510769" />
        <Con id="32" src="9" tgt="12" wght="-0.74484085384756327" />
        <Con id="33" src="10" tgt="11" wght="0.86148968804627657" />
        <Con id="34" src="10" tgt="12" wght="-0.32286093663424253" />
      </Connections>
    </Network>
    <Network id="14" birthGen="0" fitness="0">
      <Nodes>
        <Node type="bias" id="0" />
        <Node type="in" id="1" />
        <Node type="in" id="2" />
        <Node type="in" id="3" />
        <Node type="in" id="4" />
        <Node type="in" id="5" />
        <Node type="in" id="6" />
        <Node type="in" id="7" />
        <Node type="in" id="8" />
        <Node type="in" id="9" />
        <Node type="in" id="10" />
        <Node type="out" id="11" />
        <Node type="out" id="12" />
      </Nodes>
      <Connections>
        <Con id="13" src="0" tgt="11" wght="0.8472046097740531" />
        <Con id="14" src="0" tgt="12" wght="-0.72326032724231482" />
        <Con id="15" src="1" tgt="11" wght="-0.19676642306149006" />
        <Con id="16" src="1" tgt="12" wght="-0.61119650490581989" />
        <Con id="17" src="2" tgt="11" wght="-0.80721055902540684" />
        <Con id="18" src="2" tgt="12" wght="0.34590760059654713" />
        <Con id="19" src="3" tgt="11" wght="0.98892504721879959" />
        <Con id="20" src="3" tgt="12" wght="-0.567570997402072" />
        <Con id="21" src="4" tgt="11" wght="0.8786477604880929" />
        <Con id="22" src="4" tgt="12" wght="0.11351566109806299" />
        <Con id="23" src="5" tgt="11" wght="-0.38277352787554264" />
        <Con id="24" src="5" tgt="12" wght="0.82841822411865" />
        <Con id="25" src="6" tgt="11" wght="0.24888038169592619" />
        <Con id="26" src="6" tgt="12" wght="0.2298435140401125" />
        <Con id="27" src="7" tgt="11" wght="0.30515890289098024" />
        <Con id="28" src="7" tgt="12" wght="0.86564389336854219" />
        <Con id="29" src="8" tgt="11" wght="0.40895656310021877" />
        <Con id="30" src="8" tgt="12" wght="0.69606402609497309" />
        <Con id="31" src="9" tgt="11" wght="-0.48036212380975485" />
        <Con id="32" src="9" tgt="12" wght="0.039998901076614857" />
        <Con id="33" src="10" tgt="11" wght="0.26292286347597837" />
        <Con id="34" src="10" tgt="12" wght="0.98573555704206228" />
      </Connections>
    </Network>
    <Network id="15" birthGen="0" fitness="0">
      <Nodes>
        <Node type="bias" id="0" />
        <Node type="in" id="1" />
        <Node type="in" id="2" />
        <Node type="in" id="3" />
        <Node type="in" id="4" />
        <Node type="in" id="5" />
        <Node type="in" id="6" />
        <Node type="in" id="7" />
        <Node type="in" id="8" />
        <Node type="in" id="9" />
        <Node type="in" id="10" />
        <Node type="out" id="11" />
        <Node type="out" id="12" />
      </Nodes>
      <Connections>
        <Con id="13" src="0" tgt="11" wght="-0.083982455544173717" />
        <Con id="14" src="0" tgt="12" wght="-0.1676099793985486" />
        <Con id="15" src="1" tgt="11" wght="-0.93130655772984028" />
        <Con id="16" src="1" tgt="12" wght="-0.69989528227597475" />
        <Con id="17" src="2" tgt="11" wght="0.09654889814555645" />
        <Con id="18" src="2" tgt="12" wght="-0.51317592710256577" />
        <Con id="19" src="3" tgt="11" wght="-0.91760175488889217" />
        <Con id="20" src="3" tgt="12" wght="-0.23878492787480354" />
        <Con id="21" src="4" tgt="11" wght="0.51440319418907166" />
        <Con id="22" src="4" tgt="12" wght="-0.866729280911386" />
        <Con id="23" src="5" tgt="11" wght="0.66602463461458683" />
        <Con id="24" src="5" tgt="12" wght="0.27706643473356962" />
        <Con id="25" src="6" tgt="11" wght="-0.0060721496120095253" />
        <Con id="26" src="6" tgt="12" wght="-0.0067215403541922569" />
        <Con id="27" src="7" tgt="11" wght="0.080447059124708176" />
        <Con id="28" src="7" tgt="12" wght="-0.84490963350981474" />
        <Con id="29" src="8" tgt="11" wght="-0.81260874960571527" />
        <Con id="30" src="8" tgt="12" wght="0.0695390272885561" />
        <Con id="31" src="9" tgt="11" wght="-0.74106287583708763" />
        <Con id="32" src="9" tgt="12" wght="0.58451406564563513" />
        <Con id="33" src="10" tgt="11" wght="-0.0637994334101677" />
        <Con id="34" src="10" tgt="12" wght="0.76723168045282364" />
      </Connections>
    </Network>
    <Network id="16" birthGen="0" fitness="0">
      <Nodes>
        <Node type="bias" id="0" />
        <Node type="in" id="1" />
        <Node type="in" id="2" />
        <Node type="in" id="3" />
        <Node type="in" id="4" />
        <Node type="in" id="5" />
        <Node type="in" id="6" />
        <Node type="in" id="7" />
        <Node type="in" id="8" />
        <Node type="in" id="9" />
        <Node type="in" id="10" />
        <Node type="out" id="11" />
        <Node type="out" id="12" />
      </Nodes>
      <Connections>
        <Con id="13" src="0" tgt="11" wght="0.56544934492558241" />
        <Con id="14" src="0" tgt="12" wght="-0.88472654391080141" />
        <Con id="15" src="1" tgt="11" wght="-0.29090035799890757" />
        <Con id="16" src="1" tgt="12" wght="0.86283744312822819" />
        <Con id="17" src="2" tgt="11" wght="0.36471119802445173" />
        <Con id="18" src="2" tgt="12" wght="-0.14708040282130241" />
        <Con id="19" src="3" tgt="11" wght="0.57476315647363663" />
        <Con id="20" src="3" tgt="12" wght="0.77927633374929428" />
        <Con id="21" src="4" tgt="11" wght="0.3732788385823369" />
        <Con id="22" src="4" tgt="12" wght="-0.12386737484484911" />
        <Con id="23" src="5" tgt="11" wght="-0.91504218801856041" />
        <Con id="24" src="5" tgt="12" wght="0.828633664175868" />
        <Con id="25" src="6" tgt="11" wght="-0.571351115591824" />
        <Con id="26" src="6" tgt="12" wght="0.33074643276631832" />
        <Con id="27" src="7" tgt="11" wght="0.68976745195686817" />
        <Con id="28" src="7" tgt="12" wght="-0.37027308903634548" />
        <Con id="29" src="8" tgt="11" wght="-0.707952911965549" />
        <Con id="30" src="8" tgt="12" wght="-0.83006230089813471" />
        <Con id="31" src="9" tgt="11" wght="-0.58919216133654118" />
        <Con id="32" src="9" tgt="12" wght="-0.82680739276111126" />
        <Con id="33" src="10" tgt="11" wght="-0.82047373987734318" />
        <Con id="34" src="10" tgt="12" wght="-0.31770179141312838" />
      </Connections>
    </Network>
    <Network id="17" birthGen="0" fitness="0">
      <Nodes>
        <Node type="bias" id="0" />
        <Node type="in" id="1" />
        <Node type="in" id="2" />
        <Node type="in" id="3" />
        <Node type="in" id="4" />
        <Node type="in" id="5" />
        <Node type="in" id="6" />
        <Node type="in" id="7" />
        <Node type="in" id="8" />
        <Node type="in" id="9" />
        <Node type="in" id="10" />
        <Node type="out" id="11" />
        <Node type="out" id="12" />
      </Nodes>
      <Connections>
        <Con id="13" src="0" tgt="11" wght="0.43772644735872746" />
        <Con id="14" src="0" tgt="12" wght="0.0091517167165875435" />
        <Con id="15" src="1" tgt="11" wght="-0.14437596593052149" />
        <Con id="16" src="1" tgt="12" wght="-0.78206630609929562" />
        <Con id="17" src="2" tgt="11" wght="0.19633152242749929" />
        <Con id="18" src="2" tgt="12" wght="0.80838160309940577" />
        <Con id="19" src="3" tgt="11" wght="-0.55196536332368851" />
        <Con id="20" src="3" tgt="12" wght="0.72917663864791393" />
        <Con id="21" src="4" tgt="11" wght="0.98645298089832067" />
        <Con id="22" src="4" tgt="12" wght="-0.36674616020172834" />
        <Con id="23" src="5" tgt="11" wght="0.77576641645282507" />
        <Con id="24" src="5" tgt="12" wght="-0.40882627572864294" />
        <Con id="25" src="6" tgt="11" wght="-0.75360397808253765" />
        <Con id="26" src="6" tgt="12" wght="-0.24545330926775932" />
        <Con id="27" src="7" tgt="11" wght="-0.21639511082321405" />
        <Con id="28" src="7" tgt="12" wght="0.36031585186719894" />
        <Con id="29" src="8" tgt="11" wght="0.45830323453992605" />
        <Con id="30" src="8" tgt="12" wght="0.21613286342471838" />
        <Con id="31" src="9" tgt="11" wght="-0.12434191536158323" />
        <Con id="32" src="9" tgt="12" wght="0.13197404239326715" />
        <Con id="33" src="10" tgt="11" wght="0.36427258886396885" />
        <Con id="34" src="10" tgt="12" wght="-0.790888762101531" />
      </Connections>
    </Network>
    <Network id="18" birthGen="0" fitness="0">
      <Nodes>
        <Node type="bias" id="0" />
        <Node type="in" id="1" />
        <Node type="in" id="2" />
        <Node type="in" id="3" />
        <Node type="in" id="4" />
        <Node type="in" id="5" />
        <Node type="in" id="6" />
        <Node type="in" id="7" />
        <Node type="in" id="8" />
        <Node type="in" id="9" />
        <Node type="in" id="10" />
        <Node type="out" id="11" />
        <Node type="out" id="12" />
      </Nodes>
      <Connections>
        <Con id="13" src="0" tgt="11" wght="-0.050175204873085022" />
        <Con id="14" src="0" tgt="12" wght="-0.96675422880798578" />
        <Con id="15" src="1" tgt="11" wght="0.46893816906958818" />
        <Con id="16" src="1" tgt="12" wght="0.22302882093936205" />
        <Con id="17" src="2" tgt="11" wght="0.82075555808842182" />
        <Con id="18" src="2" tgt="12" wght="-0.59281120076775551" />
        <Con id="19" src="3" tgt="11" wght="0.60996783990412951" />
        <Con id="20" src="3" tgt="12" wght="-0.69526830781251192" />
        <Con id="21" src="4" tgt="11" wght="0.77279496751725674" />
        <Con id="22" src="4" tgt="12" wght="-0.27622323017567396" />
        <Con id="23" src="5" tgt="11" wght="0.04512691218405962" />
        <Con id="24" src="5" tgt="12" wght="-0.067822101525962353" />
        <Con id="25" src="6" tgt="11" wght="-0.65047616325318813" />
        <Con id="26" src="6" tgt="12" wght="0.94159739091992378" />
        <Con id="27" src="7" tgt="11" wght="0.11270610801875591" />
        <Con id="28" src="7" tgt="12" wght="-0.88482557330280542" />
        <Con id="29" src="8" tgt="11" wght="-0.78768054395914078" />
        <Con id="30" src="8" tgt="12" wght="0.051628688350319862" />
        <Con id="31" src="9" tgt="11" wght="0.41078285221010447" />
        <Con id="32" src="9" tgt="12" wght="-0.43507732264697552" />
        <Con id="33" src="10" tgt="11" wght="-0.21221450064331293" />
        <Con id="34" src="10" tgt="12" wght="0.2396193565800786" />
      </Connections>
    </Network>
    <Network id="19" birthGen="0" fitness="0">
      <Nodes>
        <Node type="bias" id="0" />
        <Node type="in" id="1" />
        <Node type="in" id="2" />
        <Node type="in" id="3" />
        <Node type="in" id="4" />
        <Node type="in" id="5" />
        <Node type="in" id="6" />
        <Node type="in" id="7" />
        <Node type="in" id="8" />
        <Node type="in" id="9" />
        <Node type="in" id="10" />
        <Node type="out" id="11" />
        <Node type="out" id="12" />
      </Nodes>
      <Connections>
        <Con id="13" src="0" tgt="11" wght="-0.33467767853289843" />
        <Con id="14" src="0" tgt="12" wght="0.014923575334250927" />
        <Con id="15" src="1" tgt="11" wght="-0.887932425364852" />
        <Con id="16" src="1" tgt="12" wght="-0.92342914640903473" />
        <Con id="17" src="2" tgt="11" wght="-0.689808870665729" />
        <Con id="18" src="2" tgt="12" wght="0.51409326959401369" />
        <Con id="19" src="3" tgt="11" wght="0.84848306607455015" />
        <Con id="20" src="3" tgt="12" wght="0.26242604944854975" />
        <Con id="21" src="4" tgt="11" wght="-0.16897745244204998" />
        <Con id="22" src="4" tgt="12" wght="-0.81451887078583241" />
        <Con id="23" src="5" tgt="11" wght="-0.5227266876026988" />
        <Con id="24" src="5" tgt="12" wght="0.73593262210488319" />
        <Con id="25" src="6" tgt="11" wght="-0.87356050312519073" />
        <Con id="26" src="6" tgt="12" wght="-0.13805568404495716" />
        <Con id="27" src="7" tgt="11" wght="-0.27209020685404539" />
        <Con id="28" src="7" tgt="12" wght="0.4743849178776145" />
        <Con id="29" src="8" tgt="11" wght="-0.36384900938719511" />
        <Con id="30" src="8" tgt="12" wght="0.89236572105437517" />
        <Con id="31" src="9" tgt="11" wght="-0.06795906089246273" />
        <Con id="32" src="9" tgt="12" wght="0.55316915735602379" />
        <Con id="33" src="10" tgt="11" wght="0.81995467189699411" />
        <Con id="34" src="10" tgt="12" wght="-0.48239014483988285" />
      </Connections>
    </Network>
    <Network id="20" birthGen="0" fitness="0">
      <Nodes>
        <Node type="bias" id="0" />
        <Node type="in" id="1" />
        <Node type="in" id="2" />
        <Node type="in" id="3" />
        <Node type="in" id="4" />
        <Node type="in" id="5" />
        <Node type="in" id="6" />
        <Node type="in" id="7" />
        <Node type="in" id="8" />
        <Node type="in" id="9" />
        <Node type="in" id="10" />
        <Node type="out" id="11" />
        <Node type="out" id="12" />
      </Nodes>
      <Connections>
        <Con id="13" src="0" tgt="11" wght="-0.77948921266943216" />
        <Con id="14" src="0" tgt="12" wght="-0.13620022684335709" />
        <Con id="15" src="1" tgt="11" wght="0.82187099196016788" />
        <Con id="16" src="1" tgt="12" wght="-0.64137119892984629" />
        <Con id="17" src="2" tgt="11" wght="0.49159993883222342" />
        <Con id="18" src="2" tgt="12" wght="-0.12158418726176023" />
        <Con id="19" src="3" tgt="11" wght="-0.5627643158659339" />
        <Con id="20" src="3" tgt="12" wght="0.76339184306561947" />
        <Con id="21" src="4" tgt="11" wght="0.94141871389001608" />
        <Con id="22" src="4" tgt="12" wght="0.87508045509457588" />
        <Con id="23" src="5" tgt="11" wght="0.71417125035077333" />
        <Con id="24" src="5" tgt="12" wght="0.21436832472682" />
        <Con id="25" src="6" tgt="11" wght="-0.900976943783462" />
        <Con id="26" src="6" tgt="12" wght="0.65937250107526779" />
        <Con id="27" src="7" tgt="11" wght="-0.44356346130371094" />
        <Con id="28" src="7" tgt="12" wght="0.67209169082343578" />
        <Con id="29" src="8" tgt="11" wght="-0.95118277985602617" />
        <Con id="30" src="8" tgt="12" wght="0.89152902737259865" />
        <Con id="31" src="9" tgt="11" wght="-0.23306232783943415" />
        <Con id="32" src="9" tgt="12" wght="-0.59381329547613859" />
        <Con id="33" src="10" tgt="11" wght="-0.82088346872478724" />
        <Con id="34" src="10" tgt="12" wght="-0.88891028519719839" />
      </Connections>
    </Network>
    <Network id="21" birthGen="0" fitness="0">
      <Nodes>
        <Node type="bias" id="0" />
        <Node type="in" id="1" />
        <Node type="in" id="2" />
        <Node type="in" id="3" />
        <Node type="in" id="4" />
        <Node type="in" id="5" />
        <Node type="in" id="6" />
        <Node type="in" id="7" />
        <Node type="in" id="8" />
        <Node type="in" id="9" />
        <Node type="in" id="10" />
        <Node type="out" id="11" />
        <Node type="out" id="12" />
      </Nodes>
      <Connections>
        <Con id="13" src="0" tgt="11" wght="-0.678764408454299" />
        <Con id="14" src="0" tgt="12" wght="0.65929120033979416" />
        <Con id="15" src="1" tgt="11" wght="-0.0082297120243310928" />
        <Con id="16" src="1" tgt="12" wght="0.85491361282765865" />
        <Con id="17" src="2" tgt="11" wght="-0.43764003645628691" />
        <Con id="18" src="2" tgt="12" wght="0.65669181291013956" />
        <Con id="19" src="3" tgt="11" wght="0.049886364489793777" />
        <Con id="20" src="3" tgt="12" wght="0.19434345234185457" />
        <Con id="21" src="4" tgt="11" wght="-0.37760942149907351" />
        <Con id="22" src="4" tgt="12" wght="-0.96323727257549763" />
        <Con id="23" src="5" tgt="11" wght="0.55297444202005863" />
        <Con id="24" src="5" tgt="12" wght="-0.16539447754621506" />
        <Con id="25" src="6" tgt="11" wght="-0.29120036773383617" />
        <Con id="26" src="6" tgt="12" wght="0.63050604518502951" />
        <Con id="27" src="7" tgt="11" wght="-0.96247429959475994" />
        <Con id="28" src="7" tgt="12" wght="-0.56439360976219177" />
        <Con id="29" src="8" tgt="11" wght="-0.90335380006581545" />
        <Con id="30" src="8" tgt="12" wght="0.36916003935039043" />
        <Con id="31" src="9" tgt="11" wght="0.047948759980499744" />
        <Con id="32" src="9" tgt="12" wght="-0.958330050110817" />
        <Con id="33" src="10" tgt="11" wght="0.60439630318433046" />
        <Con id="34" src="10" tgt="12" wght="0.14262678008526564" />
      </Connections>
    </Network>
    <Network id="22" birthGen="0" fitness="0">
      <Nodes>
        <Node type="bias" id="0" />
        <Node type="in" id="1" />
        <Node type="in" id="2" />
        <Node type="in" id="3" />
        <Node type="in" id="4" />
        <Node type="in" id="5" />
        <Node type="in" id="6" />
        <Node type="in" id="7" />
        <Node type="in" id="8" />
        <Node type="in" id="9" />
        <Node type="in" id="10" />
        <Node type="out" id="11" />
        <Node type="out" id="12" />
      </Nodes>
      <Connections>
        <Con id="13" src="0" tgt="11" wght="0.39202296547591686" />
        <Con id="14" src="0" tgt="12" wght="-0.85943233594298363" />
        <Con id="15" src="1" tgt="11" wght="-0.34611714910715818" />
        <Con id="16" src="1" tgt="12" wght="-0.96156214643269777" />
        <Con id="17" src="2" tgt="11" wght="-0.92852839455008507" />
        <Con id="18" src="2" tgt="12" wght="-0.54075188841670752" />
        <Con id="19" src="3" tgt="11" wght="0.81093384232372046" />
        <Con id="20" src="3" tgt="12" wght="-0.76594726089388132" />
        <Con id="21" src="4" tgt="11" wght="0.46494423877447844" />
        <Con id="22" src="4" tgt="12" wght="-0.77289543207734823" />
        <Con id="23" src="5" tgt="11" wght="-0.9247426763176918" />
        <Con id="24" src="5" tgt="12" wght="0.081208473071455956" />
        <Con id="25" src="6" tgt="11" wght="0.93488512467592955" />
        <Con id="26" src="6" tgt="12" wght="-0.48225798457860947" />
        <Con id="27" src="7" tgt="11" wght="0.52988086733967066" />
        <Con id="28" src="7" tgt="12" wght="0.1795139005407691" />
        <Con id="29" src="8" tgt="11" wght="-0.29382266849279404" />
        <Con id="30" src="8" tgt="12" wght="-0.65508786216378212" />
        <Con id="31" src="9" tgt="11" wght="0.49015331920236349" />
        <Con id="32" src="9" tgt="12" wght="-0.4189185407012701" />
        <Con id="33" src="10" tgt="11" wght="-0.34188780654221773" />
        <Con id="34" src="10" tgt="12" wght="0.79928110912442207" />
      </Connections>
    </Network>
    <Network id="23" birthGen="0" fitness="0">
      <Nodes>
        <Node type="bias" id="0" />
        <Node type="in" id="1" />
        <Node type="in" id="2" />
        <Node type="in" id="3" />
        <Node type="in" id="4" />
        <Node type="in" id="5" />
        <Node type="in" id="6" />
        <Node type="in" id="7" />
        <Node type="in" id="8" />
        <Node type="in" id="9" />
        <Node type="in" id="10" />
        <Node type="out" id="11" />
        <Node type="out" id="12" />
      </Nodes>
      <Connections>
        <Con id="13" src="0" tgt="11" wght="0.80768403690308332" />
        <Con id="14" src="0" tgt="12" wght="-0.040136047638952732" />
        <Con id="15" src="1" tgt="11" wght="-0.79495050944387913" />
        <Con id="16" src="1" tgt="12" wght="-0.7980487085878849" />
        <Con id="17" src="2" tgt="11" wght="0.82096325140446424" />
        <Con id="18" src="2" tgt="12" wght="-0.81571528315544128" />
        <Con id="19" src="3" tgt="11" wght="-0.48797888588160276" />
        <Con id="20" src="3" tgt="12" wght="0.42661219742149115" />
        <Con id="21" src="4" tgt="11" wght="-0.83607488870620728" />
        <Con id="22" src="4" tgt="12" wght="0.91683629900217056" />
        <Con id="23" src="5" tgt="11" wght="-0.877003587782383" />
        <Con id="24" src="5" tgt="12" wght="-0.62515983451157808" />
        <Con id="25" src="6" tgt="11" wght="-0.078210299834609032" />
        <Con id="26" src="6" tgt="12" wght="-0.30057461094111204" />
        <Con id="27" src="7" tgt="11" wght="0.79589055944234133" />
        <Con id="28" src="7" tgt="12" wght="0.93471789360046387" />
        <Con id="29" src="8" tgt="11" wght="0.18398548755794764" />
        <Con id="30" src="8" tgt="12" wght="0.50220040697604418" />
        <Con id="31" src="9" tgt="11" wght="-0.7419698229059577" />
        <Con id="32" src="9" tgt="12" wght="0.81392944138497114" />
        <Con id="33" src="10" tgt="11" wght="-0.44308018498122692" />
        <Con id="34" src="10" tgt="12" wght="0.45945900864899158" />
      </Connections>
    </Network>
    <Network id="24" birthGen="0" fitness="0">
      <Nodes>
        <Node type="bias" id="0" />
        <Node type="in" id="1" />
        <Node type="in" id="2" />
        <Node type="in" id="3" />
        <Node type="in" id="4" />
        <Node type="in" id="5" />
        <Node type="in" id="6" />
        <Node type="in" id="7" />
        <Node type="in" id="8" />
        <Node type="in" id="9" />
        <Node type="in" id="10" />
        <Node type="out" id="11" />
        <Node type="out" id="12" />
      </Nodes>
      <Connections>
        <Con id="13" src="0" tgt="11" wght="0.8668833514675498" />
        <Con id="14" src="0" tgt="12" wght="-0.74775872752070427" />
        <Con id="15" src="1" tgt="11" wght="-0.14909116551280022" />
        <Con id="16" src="1" tgt="12" wght="-0.73432261403650045" />
        <Con id="17" src="2" tgt="11" wght="0.39553297124803066" />
        <Con id="18" src="2" tgt="12" wght="-0.68359321635216475" />
        <Con id="19" src="3" tgt="11" wght="0.098580613732337952" />
        <Con id="20" src="3" tgt="12" wght="-0.15799611900001764" />
        <Con id="21" src="4" tgt="11" wght="0.53857344016432762" />
        <Con id="22" src="4" tgt="12" wght="-0.58461914304643869" />
        <Con id="23" src="5" tgt="11" wght="-0.80276758130639791" />
        <Con id="24" src="5" tgt="12" wght="0.20966438949108124" />
        <Con id="25" src="6" tgt="11" wght="-0.079098864458501339" />
        <Con id="26" src="6" tgt="12" wght="-0.091042553074657917" />
        <Con id="27" src="7" tgt="11" wght="0.28970827721059322" />
        <Con id="28" src="7" tgt="12" wght="-0.84174238704144955" />
        <Con id="29" src="8" tgt="11" wght="-0.56192206777632236" />
        <Con id="30" src="8" tgt="12" wght="0.30278939008712769" />
        <Con id="31" src="9" tgt="11" wght="-0.98885425459593534" />
        <Con id="32" src="9" tgt="12" wght="-0.99639212433248758" />
        <Con id="33" src="10" tgt="11" wght="-0.76881859917193651" />
        <Con id="34" src="10" tgt="12" wght="-0.47280214074999094" />
      </Connections>
    </Network>
    <Network id="25" birthGen="0" fitness="0">
      <Nodes>
        <Node type="bias" id="0" />
        <Node type="in" id="1" />
        <Node type="in" id="2" />
        <Node type="in" id="3" />
        <Node type="in" id="4" />
        <Node type="in" id="5" />
        <Node type="in" id="6" />
        <Node type="in" id="7" />
        <Node type="in" id="8" />
        <Node type="in" id="9" />
        <Node type="in" id="10" />
        <Node type="out" id="11" />
        <Node type="out" id="12" />
      </Nodes>
      <Connections>
        <Con id="13" src="0" tgt="11" wght="-0.6491181617602706" />
        <Con id="14" src="0" tgt="12" wght="-0.67375026270747185" />
        <Con id="15" src="1" tgt="11" wght="-0.022489034570753574" />
        <Con id="16" src="1" tgt="12" wght="0.246248465962708" />
        <Con id="17" src="2" tgt="11" wght="0.85003477148711681" />
        <Con id="18" src="2" tgt="12" wght="0.72571054473519325" />
        <Con id="19" src="3" tgt="11" wght="-0.14777128212153912" />
        <Con id="20" src="3" tgt="12" wght="0.25397180672734976" />
        <Con id="21" src="4" tgt="11" wght="-0.59594399202615023" />
        <Con id="22" src="4" tgt="12" wght="-0.17781741824001074" />
        <Con id="23" src="5" tgt="11" wght="0.38523590099066496" />
        <Con id="24" src="5" tgt="12" wght="-0.27486761100590229" />
        <Con id="25" src="6" tgt="11" wght="-0.86328232660889626" />
        <Con id="26" src="6" tgt="12" wght="-0.17175906896591187" />
        <Con id="27" src="7" tgt="11" wght="0.94505681842565536" />
        <Con id="28" src="7" tgt="12" wght="0.3846831563860178" />
        <Con id="29" src="8" tgt="11" wght="-0.037265985272824764" />
        <Con id="30" src="8" tgt="12" wght="-0.772145233117044" />
        <Con id="31" src="9" tgt="11" wght="0.906414907425642" />
        <Con id="32" src="9" tgt="12" wght="0.82169159222394228" />
        <Con id="33" src="10" tgt="11" wght="0.16492270398885012" />
        <Con id="34" src="10" tgt="12" wght="0.4286445053294301" />
      </Connections>
    </Network>
    <Network id="26" birthGen="0" fitness="0">
      <Nodes>
        <Node type="bias" id="0" />
        <Node type="in" id="1" />
        <Node type="in" id="2" />
        <Node type="in" id="3" />
        <Node type="in" id="4" />
        <Node type="in" id="5" />
        <Node type="in" id="6" />
        <Node type="in" id="7" />
        <Node type="in" id="8" />
        <Node type="in" id="9" />
        <Node type="in" id="10" />
        <Node type="out" id="11" />
        <Node type="out" id="12" />
      </Nodes>
      <Connections>
        <Con id="13" src="0" tgt="11" wght="-0.23068190272897482" />
        <Con id="14" src="0" tgt="12" wght="0.99558316636830568" />
        <Con id="15" src="1" tgt="11" wght="-0.51382159069180489" />
        <Con id="16" src="1" tgt="12" wght="-0.77498712297528982" />
        <Con id="17" src="2" tgt="11" wght="-0.92310512438416481" />
        <Con id="18" src="2" tgt="12" wght="-0.57404230069369078" />
        <Con id="19" src="3" tgt="11" wght="0.042120053432881832" />
        <Con id="20" src="3" tgt="12" wght="0.0722827622666955" />
        <Con id="21" src="4" tgt="11" wght="0.53664624318480492" />
        <Con id="22" src="4" tgt="12" wght="-0.46082376316189766" />
        <Con id="23" src="5" tgt="11" wght="0.34202122036367655" />
        <Con id="24" src="5" tgt="12" wght="0.50631121080368757" />
        <Con id="25" src="6" tgt="11" wght="-0.41762214247137308" />
        <Con id="26" src="6" tgt="12" wght="-0.057894617319107056" />
        <Con id="27" src="7" tgt="11" wght="-0.53461699560284615" />
        <Con id="28" src="7" tgt="12" wght="-0.45878301933407784" />
        <Con id="29" src="8" tgt="11" wght="-0.44158247392624617" />
        <Con id="30" src="8" tgt="12" wght="0.86762436758726835" />
        <Con id="31" src="9" tgt="11" wght="0.87351828813552856" />
        <Con id="32" src="9" tgt="12" wght="-0.96695759799331427" />
        <Con id="33" src="10" tgt="11" wght="0.57927363179624081" />
        <Con id="34" src="10" tgt="12" wght="0.62919747550040483" />
      </Connections>
    </Network>
    <Network id="27" birthGen="0" fitness="0">
      <Nodes>
        <Node type="bias" id="0" />
        <Node type="in" id="1" />
        <Node type="in" id="2" />
        <Node type="in" id="3" />
        <Node type="in" id="4" />
        <Node type="in" id="5" />
        <Node type="in" id="6" />
        <Node type="in" id="7" />
        <Node type="in" id="8" />
        <Node type="in" id="9" />
        <Node type="in" id="10" />
        <Node type="out" id="11" />
        <Node type="out" id="12" />
      </Nodes>
      <Connections>
        <Con id="13" src="0" tgt="11" wght="-0.73895293939858675" />
        <Con id="14" src="0" tgt="12" wght="0.624921141192317" />
        <Con id="15" src="1" tgt="11" wght="-0.00035423971712589264" />
        <Con id="16" src="1" tgt="12" wght="0.43208835832774639" />
        <Con id="17" src="2" tgt="11" wght="-0.36669308319687843" />
        <Con id="18" src="2" tgt="12" wght="0.31081178225576878" />
        <Con id="19" src="3" tgt="11" wght="-0.77334624342620373" />
        <Con id="20" src="3" tgt="12" wght="0.52895308006554842" />
        <Con id="21" src="4" tgt="11" wght="0.039465390145778656" />
        <Con id="22" src="4" tgt="12" wght="-0.71171181928366423" />
        <Con id="23" src="5" tgt="11" wght="-0.75605742447078228" />
        <Con id="24" src="5" tgt="12" wght="-0.733498390763998" />
        <Con id="25" src="6" tgt="11" wght="-0.9027544753625989" />
        <Con id="26" src="6" tgt="12" wght="-0.4315761923789978" />
        <Con id="27" src="7" tgt="11" wght="-0.62547283247113228" />
        <Con id="28" src="7" tgt="12" wght="0.52497317362576723" />
        <Con id="29" src="8" tgt="11" wght="0.69043548684567213" />
        <Con id="30" src="8" tgt="12" wght="-0.3910981360822916" />
        <Con id="31" src="9" tgt="11" wght="-0.1404004292562604" />
        <Con id="32" src="9" tgt="12" wght="-0.41636350098997355" />
        <Con id="33" src="10" tgt="11" wght="-0.94071278162300587" />
        <Con id="34" src="10" tgt="12" wght="-0.95594632066786289" />
      </Connections>
    </Network>
    <Network id="28" birthGen="0" fitness="0">
      <Nodes>
        <Node type="bias" id="0" />
        <Node type="in" id="1" />
        <Node type="in" id="2" />
        <Node type="in" id="3" />
        <Node type="in" id="4" />
        <Node type="in" id="5" />
        <Node type="in" id="6" />
        <Node type="in" id="7" />
        <Node type="in" id="8" />
        <Node type="in" id="9" />
        <Node type="in" id="10" />
        <Node type="out" id="11" />
        <Node type="out" id="12" />
      </Nodes>
      <Connections>
        <Con id="13" src="0" tgt="11" wght="0.31818787008523941" />
        <Con id="14" src="0" tgt="12" wght="-0.915598951280117" />
        <Con id="15" src="1" tgt="11" wght="0.91148370411247015" />
        <Con id="16" src="1" tgt="12" wght="0.30578000470995903" />
        <Con id="17" src="2" tgt="11" wght="-0.33463363070040941" />
        <Con id="18" src="2" tgt="12" wght="0.54081697296351194" />
        <Con id="19" src="3" tgt="11" wght="-0.41935501433908939" />
        <Con id="20" src="3" tgt="12" wght="-0.450998755171895" />
        <Con id="21" src="4" tgt="11" wght="0.74978981073945761" />
        <Con id="22" src="4" tgt="12" wght="0.89962651394307613" />
        <Con id="23" src="5" tgt="11" wght="0.16962300799787045" />
        <Con id="24" src="5" tgt="12" wght="0.97649575117975473" />
        <Con id="25" src="6" tgt="11" wght="0.85806186031550169" />
        <Con id="26" src="6" tgt="12" wght="0.016315193846821785" />
        <Con id="27" src="7" tgt="11" wght="-0.549158382229507" />
        <Con id="28" src="7" tgt="12" wght="0.64993555191904306" />
        <Con id="29" src="8" tgt="11" wght="-0.82622216269373894" />
        <Con id="30" src="8" tgt="12" wght="0.038361484184861183" />
        <Con id="31" src="9" tgt="11" wght="-0.377435521222651" />
        <Con id="32" src="9" tgt="12" wght="0.80175895243883133" />
        <Con id="33" src="10" tgt="11" wght="-0.11697855591773987" />
        <Con id="34" src="10" tgt="12" wght="-0.97912633884698153" />
      </Connections>
    </Network>
    <Network id="29" birthGen="0" fitness="0">
      <Nodes>
        <Node type="bias" id="0" />
        <Node type="in" id="1" />
        <Node type="in" id="2" />
        <Node type="in" id="3" />
        <Node type="in" id="4" />
        <Node type="in" id="5" />
        <Node type="in" id="6" />
        <Node type="in" id="7" />
        <Node type="in" id="8" />
        <Node type="in" id="9" />
        <Node type="in" id="10" />
        <Node type="out" id="11" />
        <Node type="out" id="12" />
      </Nodes>
      <Connections>
        <Con id="13" src="0" tgt="11" wght="0.68123686034232378" />
        <Con id="14" src="0" tgt="12" wght="-0.522083199582994" />
        <Con id="15" src="1" tgt="11" wght="0.10823494009673595" />
        <Con id="16" src="1" tgt="12" wght="-0.23676271364092827" />
        <Con id="17" src="2" tgt="11" wght="-0.15377745777368546" />
        <Con id="18" src="2" tgt="12" wght="-0.989382229745388" />
        <Con id="19" src="3" tgt="11" wght="-0.88382073491811752" />
        <Con id="20" src="3" tgt="12" wght="0.064606591127812862" />
        <Con id="21" src="4" tgt="11" wght="0.87150747608393431" />
        <Con id="22" src="4" tgt="12" wght="0.4473207863047719" />
        <Con id="23" src="5" tgt="11" wght="0.024298395961523056" />
        <Con id="24" src="5" tgt="12" wght="0.86749095190316439" />
        <Con id="25" src="6" tgt="11" wght="-0.32423654850572348" />
        <Con id="26" src="6" tgt="12" wght="-0.9926655450835824" />
        <Con id="27" src="7" tgt="11" wght="-0.71344074513763189" />
        <Con id="28" src="7" tgt="12" wght="0.92463354300707579" />
        <Con id="29" src="8" tgt="11" wght="0.49483117368072271" />
        <Con id="30" src="8" tgt="12" wght="-0.32902137842029333" />
        <Con id="31" src="9" tgt="11" wght="-0.21842828206717968" />
        <Con id="32" src="9" tgt="12" wght="-0.65609630011022091" />
        <Con id="33" src="10" tgt="11" wght="-0.90951325092464685" />
        <Con id="34" src="10" tgt="12" wght="0.3552112840116024" />
      </Connections>
    </Network>
    <Network id="30" birthGen="0" fitness="0">
      <Nodes>
        <Node type="bias" id="0" />
        <Node type="in" id="1" />
        <Node type="in" id="2" />
        <Node type="in" id="3" />
        <Node type="in" id="4" />
        <Node type="in" id="5" />
        <Node type="in" id="6" />
        <Node type="in" id="7" />
        <Node type="in" id="8" />
        <Node type="in" id="9" />
        <Node type="in" id="10" />
        <Node type="out" id="11" />
        <Node type="out" id="12" />
      </Nodes>
      <Connections>
        <Con id="13" src="0" tgt="11" wght="0.96461418364197016" />
        <Con id="14" src="0" tgt="12" wght="-0.77698406204581261" />
        <Con id="15" src="1" tgt="11" wght="0.83777133002877235" />
        <Con id="16" src="1" tgt="12" wght="-0.46006540860980749" />
        <Con id="17" src="2" tgt="11" wght="0.91789705213159323" />
        <Con id="18" src="2" tgt="12" wght="-0.0031242314726114273" />
        <Con id="19" src="3" tgt="11" wght="0.19493068009614944" />
        <Con id="20" src="3" tgt="12" wght="0.46883372031152248" />
        <Con id="21" src="4" tgt="11" wght="-0.64998659398406744" />
        <Con id="22" src="4" tgt="12" wght="-0.4271472841501236" />
        <Con id="23" src="5" tgt="11" wght="-0.20654081180691719" />
        <Con id="24" src="5" tgt="12" wght="-0.35700878780335188" />
        <Con id="25" src="6" tgt="11" wght="-0.94043496251106262" />
        <Con id="26" src="6" tgt="12" wght="0.9404453793540597" />
        <Con id="27" src="7" tgt="11" wght="-0.98943795915693045" />
        <Con id="28" src="7" tgt="12" wght="0.34147469699382782" />
        <Con id="29" src="8" tgt="11" wght="0.90178554784506559" />
        <Con id="30" src="8" tgt="12" wght="-0.71017325669527054" />
        <Con id="31" src="9" tgt="11" wght="0.25172675028443336" />
        <Con id="32" src="9" tgt="12" wght="0.75812093541026115" />
        <Con id="33" src="10" tgt="11" wght="-0.98912526294589043" />
        <Con id="34" src="10" tgt="12" wght="-0.5126835722476244" />
      </Connections>
    </Network>
    <Network id="31" birthGen="0" fitness="0">
      <Nodes>
        <Node type="bias" id="0" />
        <Node type="in" id="1" />
        <Node type="in" id="2" />
        <Node type="in" id="3" />
        <Node type="in" id="4" />
        <Node type="in" id="5" />
        <Node type="in" id="6" />
        <Node type="in" id="7" />
        <Node type="in" id="8" />
        <Node type="in" id="9" />
        <Node type="in" id="10" />
        <Node type="out" id="11" />
        <Node type="out" id="12" />
      </Nodes>
      <Connections>
        <Con id="13" src="0" tgt="11" wght="0.85522807482630014" />
        <Con id="14" src="0" tgt="12" wght="0.66715261433273554" />
        <Con id="15" src="1" tgt="11" wght="0.63818729761987925" />
        <Con id="16" src="1" tgt="12" wght="0.48575455974787474" />
        <Con id="17" src="2" tgt="11" wght="0.11946037318557501" />
        <Con id="18" src="2" tgt="12" wght="0.29196773190051317" />
        <Con id="19" src="3" tgt="11" wght="-0.44170901458710432" />
        <Con id="20" src="3" tgt="12" wght="-0.57774695288389921" />
        <Con id="21" src="4" tgt="11" wght="-0.57968217507004738" />
        <Con id="22" src="4" tgt="12" wght="-0.35206207539886236" />
        <Con id="23" src="5" tgt="11" wght="0.36818564403802156" />
        <Con id="24" src="5" tgt="12" wght="-0.39857206679880619" />
        <Con id="25" src="6" tgt="11" wght="0.99592421483248472" />
        <Con id="26" src="6" tgt="12" wght="0.069404116831719875" />
        <Con id="27" src="7" tgt="11" wght="-0.86074340250343084" />
        <Con id="28" src="7" tgt="12" wght="-0.10152987763285637" />
        <Con id="29" src="8" tgt="11" wght="-0.42719820234924555" />
        <Con id="30" src="8" tgt="12" wght="0.52285149600356817" />
        <Con id="31" src="9" tgt="11" wght="0.11452420521527529" />
        <Con id="32" src="9" tgt="12" wght="0.15592050459235907" />
        <Con id="33" src="10" tgt="11" wght="0.94378134049475193" />
        <Con id="34" src="10" tgt="12" wght="-0.95038486458361149" />
      </Connections>
    </Network>
    <Network id="32" birthGen="0" fitness="0">
      <Nodes>
        <Node type="bias" id="0" />
        <Node type="in" id="1" />
        <Node type="in" id="2" />
        <Node type="in" id="3" />
        <Node type="in" id="4" />
        <Node type="in" id="5" />
        <Node type="in" id="6" />
        <Node type="in" id="7" />
        <Node type="in" id="8" />
        <Node type="in" id="9" />
        <Node type="in" id="10" />
        <Node type="out" id="11" />
        <Node type="out" id="12" />
      </Nodes>
      <Connections>
        <Con id="13" src="0" tgt="11" wght="0.35847367811948061" />
        <Con id="14" src="0" tgt="12" wght="-0.3717082217335701" />
        <Con id="15" src="1" tgt="11" wght="-0.059441572986543179" />
        <Con id="16" src="1" tgt="12" wght="-0.2987308157607913" />
        <Con id="17" src="2" tgt="11" wght="-0.84255526214838028" />
        <Con id="18" src="2" tgt="12" wght="0.46450982615351677" />
        <Con id="19" src="3" tgt="11" wght="0.847463421523571" />
        <Con id="20" src="3" tgt="12" wght="-0.75306770112365484" />
        <Con id="21" src="4" tgt="11" wght="-0.7976258397102356" />
        <Con id="22" src="4" tgt="12" wght="0.031731557101011276" />
        <Con id="23" src="5" tgt="11" wght="0.0827276324853301" />
        <Con id="24" src="5" tgt="12" wght="0.7612238097935915" />
        <Con id="25" src="6" tgt="11" wght="0.77317605260759592" />
        <Con id="26" src="6" tgt="12" wght="0.57974536344408989" />
        <Con id="27" src="7" tgt="11" wght="-0.5939652556553483" />
        <Con id="28" src="7" tgt="12" wght="0.20009509567171335" />
        <Con id="29" src="8" tgt="11" wght="0.90231622662395239" />
        <Con id="30" src="8" tgt="12" wght="0.10246656835079193" />
        <Con id="31" src="9" tgt="11" wght="0.45091250445693731" />
        <Con id="32" src="9" tgt="12" wght="0.44654592219740152" />
        <Con id="33" src="10" tgt="11" wght="0.60243694856762886" />
        <Con id="34" src="10" tgt="12" wght="0.11832118220627308" />
      </Connections>
    </Network>
    <Network id="33" birthGen="0" fitness="0">
      <Nodes>
        <Node type="bias" id="0" />
        <Node type="in" id="1" />
        <Node type="in" id="2" />
        <Node type="in" id="3" />
        <Node type="in" id="4" />
        <Node type="in" id="5" />
        <Node type="in" id="6" />
        <Node type="in" id="7" />
        <Node type="in" id="8" />
        <Node type="in" id="9" />
        <Node type="in" id="10" />
        <Node type="out" id="11" />
        <Node type="out" id="12" />
      </Nodes>
      <Connections>
        <Con id="13" src="0" tgt="11" wght="-0.58382961992174387" />
        <Con id="14" src="0" tgt="12" wght="-0.016620870679616928" />
        <Con id="15" src="1" tgt="11" wght="0.80562960356473923" />
        <Con id="16" src="1" tgt="12" wght="0.475631283596158" />
        <Con id="17" src="2" tgt="11" wght="-0.45911247748881578" />
        <Con id="18" src="2" tgt="12" wght="0.77238995023071766" />
        <Con id="19" src="3" tgt="11" wght="0.9663036223500967" />
        <Con id="20" src="3" tgt="12" wght="-0.82816842757165432" />
        <Con id="21" src="4" tgt="11" wght="-0.32610644120723009" />
        <Con id="22" src="4" tgt="12" wght="-0.71296678949147463" />
        <Con id="23" src="5" tgt="11" wght="-0.46434200927615166" />
        <Con id="24" src="5" tgt="12" wght="-0.31475269608199596" />
        <Con id="25" src="6" tgt="11" wght="0.7449939101934433" />
        <Con id="26" src="6" tgt="12" wght="-0.53945904318243265" />
        <Con id="27" src="7" tgt="11" wght="0.42774565890431404" />
        <Con id="28" src="7" tgt="12" wght="-0.29729228653013706" />
        <Con id="29" src="8" tgt="11" wght="-0.50758835766464472" />
        <Con id="30" src="8" tgt="12" wght="-0.99453558027744293" />
        <Con id="31" src="9" tgt="11" wght="-0.33916142769157887" />
        <Con id="32" src="9" tgt="12" wght="0.10371314361691475" />
        <Con id="33" src="10" tgt="11" wght="0.1359323188662529" />
        <Con id="34" src="10" tgt="12" wght="0.055513272061944008" />
      </Connections>
    </Network>
    <Network id="34" birthGen="0" fitness="0">
      <Nodes>
        <Node type="bias" id="0" />
        <Node type="in" id="1" />
        <Node type="in" id="2" />
        <Node type="in" id="3" />
        <Node type="in" id="4" />
        <Node type="in" id="5" />
        <Node type="in" id="6" />
        <Node type="in" id="7" />
        <Node type="in" id="8" />
        <Node type="in" id="9" />
        <Node type="in" id="10" />
        <Node type="out" id="11" />
        <Node type="out" id="12" />
      </Nodes>
      <Connections>
        <Con id="13" src="0" tgt="11" wght="-0.51662921532988548" />
        <Con id="14" src="0" tgt="12" wght="-0.76957160234451294" />
        <Con id="15" src="1" tgt="11" wght="0.060178511776030064" />
        <Con id="16" src="1" tgt="12" wght="-0.65784908458590508" />
        <Con id="17" src="2" tgt="11" wght="0.15806580521166325" />
        <Con id="18" src="2" tgt="12" wght="-0.38524763472378254" />
        <Con id="19" src="3" tgt="11" wght="0.86617481149733067" />
        <Con id="20" src="3" tgt="12" wght="-0.1000901972874999" />
        <Con id="21" src="4" tgt="11" wght="-0.2822176069021225" />
        <Con id="22" src="4" tgt="12" wght="-0.089670971967279911" />
        <Con id="23" src="5" tgt="11" wght="-0.042854570783674717" />
        <Con id="24" src="5" tgt="12" wght="0.0913986163213849" />
        <Con id="25" src="6" tgt="11" wght="-0.22439001128077507" />
        <Con id="26" src="6" tgt="12" wght="0.88867571391165257" />
        <Con id="27" src="7" tgt="11" wght="-0.20106388162821531" />
        <Con id="28" src="7" tgt="12" wght="0.097495446912944317" />
        <Con id="29" src="8" tgt="11" wght="-0.22937049716711044" />
        <Con id="30" src="8" tgt="12" wght="-0.75591645762324333" />
        <Con id="31" src="9" tgt="11" wght="-0.31288084574043751" />
        <Con id="32" src="9" tgt="12" wght="-0.98995529115200043" />
        <Con id="33" src="10" tgt="11" wght="-0.54482997301965952" />
        <Con id="34" src="10" tgt="12" wght="-0.53266509436070919" />
      </Connections>
    </Network>
    <Network id="35" birthGen="0" fitness="0">
      <Nodes>
        <Node type="bias" id="0" />
        <Node type="in" id="1" />
        <Node type="in" id="2" />
        <Node type="in" id="3" />
        <Node type="in" id="4" />
        <Node type="in" id="5" />
        <Node type="in" id="6" />
        <Node type="in" id="7" />
        <Node type="in" id="8" />
        <Node type="in" id="9" />
        <Node type="in" id="10" />
        <Node type="out" id="11" />
        <Node type="out" id="12" />
      </Nodes>
      <Connections>
        <Con id="13" src="0" tgt="11" wght="0.38699307572096586" />
        <Con id="14" src="0" tgt="12" wght="0.96165284421294928" />
        <Con id="15" src="1" tgt="11" wght="0.49343851301819086" />
        <Con id="16" src="1" tgt="12" wght="-0.74245783127844334" />
        <Con id="17" src="2" tgt="11" wght="-0.95192248933017254" />
        <Con id="18" src="2" tgt="12" wght="0.12718492932617664" />
        <Con id="19" src="3" tgt="11" wght="-0.92935077287256718" />
        <Con id="20" src="3" tgt="12" wght="-0.81494702398777008" />
        <Con id="21" src="4" tgt="11" wght="-0.64098400436341763" />
        <Con id="22" src="4" tgt="12" wght="-0.31859572045505047" />
        <Con id="23" src="5" tgt="11" wght="0.035665969364345074" />
        <Con id="24" src="5" tgt="12" wght="-0.95189542137086391" />
        <Con id="25" src="6" tgt="11" wght="-0.201226145029068" />
        <Con id="26" src="6" tgt="12" wght="0.79966833349317312" />
        <Con id="27" src="7" tgt="11" wght="-0.31647489499300718" />
        <Con id="28" src="7" tgt="12" wght="0.36230449751019478" />
        <Con id="29" src="8" tgt="11" wght="-0.90926812868565321" />
        <Con id="30" src="8" tgt="12" wght="-0.92733184807002544" />
        <Con id="31" src="9" tgt="11" wght="0.062116183340549469" />
        <Con id="32" src="9" tgt="12" wght="0.023733438923954964" />
        <Con id="33" src="10" tgt="11" wght="-0.24179784022271633" />
        <Con id="34" src="10" tgt="12" wght="0.7614128366112709" />
      </Connections>
    </Network>
    <Network id="36" birthGen="0" fitness="0">
      <Nodes>
        <Node type="bias" id="0" />
        <Node type="in" id="1" />
        <Node type="in" id="2" />
        <Node type="in" id="3" />
        <Node type="in" id="4" />
        <Node type="in" id="5" />
        <Node type="in" id="6" />
        <Node type="in" id="7" />
        <Node type="in" id="8" />
        <Node type="in" id="9" />
        <Node type="in" id="10" />
        <Node type="out" id="11" />
        <Node type="out" id="12" />
      </Nodes>
      <Connections>
        <Con id="13" src="0" tgt="11" wght="0.56131949555128813" />
        <Con id="14" src="0" tgt="12" wght="-0.9285091245546937" />
        <Con id="15" src="1" tgt="11" wght="-0.061090609990060329" />
        <Con id="16" src="1" tgt="12" wght="-0.9384105633944273" />
        <Con id="17" src="2" tgt="11" wght="0.83838602621108294" />
        <Con id="18" src="2" tgt="12" wght="0.64237579330801964" />
        <Con id="19" src="3" tgt="11" wght="-0.8773214528337121" />
        <Con id="20" src="3" tgt="12" wght="-0.4311223030090332" />
        <Con id="21" src="4" tgt="11" wght="0.69147052615880966" />
        <Con id="22" src="4" tgt="12" wght="0.45132915303111076" />
        <Con id="23" src="5" tgt="11" wght="-0.20835438184440136" />
        <Con id="24" src="5" tgt="12" wght="0.83612104505300522" />
        <Con id="25" src="6" tgt="11" wght="0.544932322576642" />
        <Con id="26" src="6" tgt="12" wght="-0.5798775888979435" />
        <Con id="27" src="7" tgt="11" wght="0.0411021588370204" />
        <Con id="28" src="7" tgt="12" wght="-0.81967876013368368" />
        <Con id="29" src="8" tgt="11" wght="-0.25459436047822237" />
        <Con id="30" src="8" tgt="12" wght="0.49670922942459583" />
        <Con id="31" src="9" tgt="11" wght="-0.025161656551063061" />
        <Con id="32" src="9" tgt="12" wght="-0.74408280476927757" />
        <Con id="33" src="10" tgt="11" wght="0.50553564075380564" />
        <Con id="34" src="10" tgt="12" wght="-0.80319424439221621" />
      </Connections>
    </Network>
    <Network id="37" birthGen="0" fitness="0">
      <Nodes>
        <Node type="bias" id="0" />
        <Node type="in" id="1" />
        <Node type="in" id="2" />
        <Node type="in" id="3" />
        <Node type="in" id="4" />
        <Node type="in" id="5" />
        <Node type="in" id="6" />
        <Node type="in" id="7" />
        <Node type="in" id="8" />
        <Node type="in" id="9" />
        <Node type="in" id="10" />
        <Node type="out" id="11" />
        <Node type="out" id="12" />
      </Nodes>
      <Connections>
        <Con id="13" src="0" tgt="11" wght="-0.76460024435073137" />
        <Con id="14" src="0" tgt="12" wght="-0.46189545001834631" />
        <Con id="15" src="1" tgt="11" wght="0.98791793268173933" />
        <Con id="16" src="1" tgt="12" wght="0.77544585708528757" />
        <Con id="17" src="2" tgt="11" wght="-0.54367321729660034" />
        <Con id="18" src="2" tgt="12" wght="0.0936416732147336" />
        <Con id="19" src="3" tgt="11" wght="-0.5980371031910181" />
        <Con id="20" src="3" tgt="12" wght="0.98367175180464983" />
        <Con id="21" src="4" tgt="11" wght="0.88947782758623362" />
        <Con id="22" src="4" tgt="12" wght="-0.86872012540698051" />
        <Con id="23" src="5" tgt="11" wght="-0.646097345277667" />
        <Con id="24" src="5" tgt="12" wght="0.66123618744313717" />
        <Con id="25" src="6" tgt="11" wght="-0.29893656354397535" />
        <Con id="26" src="6" tgt="12" wght="0.16886234004050493" />
        <Con id="27" src="7" tgt="11" wght="-0.19402365293353796" />
        <Con id="28" src="7" tgt="12" wght="0.12697446532547474" />
        <Con id="29" src="8" tgt="11" wght="-0.59766168706119061" />
        <Con id="30" src="8" tgt="12" wght="0.012976037338376045" />
        <Con id="31" src="9" tgt="11" wght="-0.66626360453665257" />
        <Con id="32" src="9" tgt="12" wght="0.47391589358448982" />
        <Con id="33" src="10" tgt="11" wght="0.089263448491692543" />
        <Con id="34" src="10" tgt="12" wght="0.48184417933225632" />
      </Connections>
    </Network>
    <Network id="38" birthGen="0" fitness="0">
      <Nodes>
        <Node type="bias" id="0" />
        <Node type="in" id="1" />
        <Node type="in" id="2" />
        <Node type="in" id="3" />
        <Node type="in" id="4" />
        <Node type="in" id="5" />
        <Node type="in" id="6" />
        <Node type="in" id="7" />
        <Node type="in" id="8" />
        <Node type="in" id="9" />
        <Node type="in" id="10" />
        <Node type="out" id="11" />
        <Node type="out" id="12" />
      </Nodes>
      <Connections>
        <Con id="13" src="0" tgt="11" wght="0.67932785954326391" />
        <Con id="14" src="0" tgt="12" wght="0.83853379357606173" />
        <Con id="15" src="1" tgt="11" wght="-0.39419033098965883" />
        <Con id="16" src="1" tgt="12" wght="0.24620779510587454" />
        <Con id="17" src="2" tgt="11" wght="-0.45007237326353788" />
        <Con id="18" src="2" tgt="12" wght="0.023345248773694038" />
        <Con id="19" src="3" tgt="11" wght="0.44148070365190506" />
        <Con id="20" src="3" tgt="12" wght="0.57674120180308819" />
        <Con id="21" src="4" tgt="11" wght="-0.65448468178510666" />
        <Con id="22" src="4" tgt="12" wght="-0.34668726660311222" />
        <Con id="23" src="5" tgt="11" wght="-0.02069677971303463" />
        <Con id="24" src="5" tgt="12" wght="-0.17774557881057262" />
        <Con id="25" src="6" tgt="11" wght="0.1180984815582633" />
        <Con id="26" src="6" tgt="12" wght="0.23652181960642338" />
        <Con id="27" src="7" tgt="11" wght="-0.21096951607614756" />
        <Con id="28" src="7" tgt="12" wght="-0.63106923270970583" />
        <Con id="29" src="8" tgt="11" wght="0.082249615341424942" />
        <Con id="30" src="8" tgt="12" wght="0.52499827928841114" />
        <Con id="31" src="9" tgt="11" wght="-0.88258287403732538" />
        <Con id="32" src="9" tgt="12" wght="-0.90266468562185764" />
        <Con id="33" src="10" tgt="11" wght="-0.044464187696576118" />
        <Con id="34" src="10" tgt="12" wght="0.54656124953180552" />
      </Connections>
    </Network>
    <Network id="39" birthGen="0" fitness="0">
      <Nodes>
        <Node type="bias" id="0" />
        <Node type="in" id="1" />
        <Node type="in" id="2" />
        <Node type="in" id="3" />
        <Node type="in" id="4" />
        <Node type="in" id="5" />
        <Node type="in" id="6" />
        <Node type="in" id="7" />
        <Node type="in" id="8" />
        <Node type="in" id="9" />
        <Node type="in" id="10" />
        <Node type="out" id="11" />
        <Node type="out" id="12" />
      </Nodes>
      <Connections>
        <Con id="13" src="0" tgt="11" wght="-0.916358514688909" />
        <Con id="14" src="0" tgt="12" wght="0.21534594800323248" />
        <Con id="15" src="1" tgt="11" wght="-0.093487130478024483" />
        <Con id="16" src="1" tgt="12" wght="0.50223980564624071" />
        <Con id="17" src="2" tgt="11" wght="0.77754465211182833" />
        <Con id="18" src="2" tgt="12" wght="-0.76845598127692938" />
        <Con id="19" src="3" tgt="11" wght="-0.15453025605529547" />
        <Con id="20" src="3" tgt="12" wght="-0.11474655847996473" />
        <Con id="21" src="4" tgt="11" wght="-0.87809011153876781" />
        <Con id="22" src="4" tgt="12" wght="0.61726075690239668" />
        <Con id="23" src="5" tgt="11" wght="0.97012886684387922" />
        <Con id="24" src="5" tgt="12" wght="0.81265487894415855" />
        <Con id="25" src="6" tgt="11" wght="-0.879941875115037" />
        <Con id="26" src="6" tgt="12" wght="0.27305150870233774" />
        <Con id="27" src="7" tgt="11" wght="0.35772173758596182" />
        <Con id="28" src="7" tgt="12" wght="-0.10146043077111244" />
        <Con id="29" src="8" tgt="11" wght="-0.22634308505803347" />
        <Con id="30" src="8" tgt="12" wght="-0.51336254645138979" />
        <Con id="31" src="9" tgt="11" wght="-0.99037965200841427" />
        <Con id="32" src="9" tgt="12" wght="0.59652863536030054" />
        <Con id="33" src="10" tgt="11" wght="0.96615886688232422" />
        <Con id="34" src="10" tgt="12" wght="-0.22559483349323273" />
      </Connections>
    </Network>
    <Network id="40" birthGen="0" fitness="0">
      <Nodes>
        <Node type="bias" id="0" />
        <Node type="in" id="1" />
        <Node type="in" id="2" />
        <Node type="in" id="3" />
        <Node type="in" id="4" />
        <Node type="in" id="5" />
        <Node type="in" id="6" />
        <Node type="in" id="7" />
        <Node type="in" id="8" />
        <Node type="in" id="9" />
        <Node type="in" id="10" />
        <Node type="out" id="11" />
        <Node type="out" id="12" />
      </Nodes>
      <Connections>
        <Con id="13" src="0" tgt="11" wght="0.29966191947460175" />
        <Con id="14" src="0" tgt="12" wght="-0.25115456059575081" />
        <Con id="15" src="1" tgt="11" wght="0.37695326469838619" />
        <Con id="16" src="1" tgt="12" wght="0.74329096172004938" />
        <Con id="17" src="2" tgt="11" wght="0.67702983971685171" />
        <Con id="18" src="2" tgt="12" wght="-0.79398662131279707" />
        <Con id="19" src="3" tgt="11" wght="0.67956350278109312" />
        <Con id="20" src="3" tgt="12" wght="-0.089382555335760117" />
        <Con id="21" src="4" tgt="11" wght="0.453350224532187" />
        <Con id="22" src="4" tgt="12" wght="-0.053000138141214848" />
        <Con id="23" src="5" tgt="11" wght="-0.60822847858071327" />
        <Con id="24" src="5" tgt="12" wght="-0.86484983563423157" />
        <Con id="25" src="6" tgt="11" wght="0.64999977312982082" />
        <Con id="26" src="6" tgt="12" wght="-0.62346793431788683" />
        <Con id="27" src="7" tgt="11" wght="-0.84097144939005375" />
        <Con id="28" src="7" tgt="12" wght="0.93101746682077646" />
        <Con id="29" src="8" tgt="11" wght="0.03017040342092514" />
        <Con id="30" src="8" tgt="12" wght="0.16284012980759144" />
        <Con id="31" src="9" tgt="11" wght="-0.89453597739338875" />
        <Con id="32" src="9" tgt="12" wght="0.47777940984815359" />
        <Con id="33" src="10" tgt="11" wght="0.62244574446231127" />
        <Con id="34" src="10" tgt="12" wght="-0.170107401907444" />
      </Connections>
    </Network>
    <Network id="41" birthGen="0" fitness="0">
      <Nodes>
        <Node type="bias" id="0" />
        <Node type="in" id="1" />
        <Node type="in" id="2" />
        <Node type="in" id="3" />
        <Node type="in" id="4" />
        <Node type="in" id="5" />
        <Node type="in" id="6" />
        <Node type="in" id="7" />
        <Node type="in" id="8" />
        <Node type="in" id="9" />
        <Node type="in" id="10" />
        <Node type="out" id="11" />
        <Node type="out" id="12" />
      </Nodes>
      <Connections>
        <Con id="13" src="0" tgt="11" wght="0.67313825432211161" />
        <Con id="14" src="0" tgt="12" wght="0.50563858635723591" />
        <Con id="15" src="1" tgt="11" wght="0.83588403277099133" />
        <Con id="16" src="1" tgt="12" wght="-0.30026670824736357" />
        <Con id="17" src="2" tgt="11" wght="0.84823700040578842" />
        <Con id="18" src="2" tgt="12" wght="-0.72544325236231089" />
        <Con id="19" src="3" tgt="11" wght="-0.60395811218768358" />
        <Con id="20" src="3" tgt="12" wght="-0.44984253961592913" />
        <Con id="21" src="4" tgt="11" wght="0.24042018689215183" />
        <Con id="22" src="4" tgt="12" wght="-0.80223048105835915" />
        <Con id="23" src="5" tgt="11" wght="0.595906444825232" />
        <Con id="24" src="5" tgt="12" wght="0.603257174603641" />
        <Con id="25" src="6" tgt="11" wght="-0.18629853427410126" />
        <Con id="26" src="6" tgt="12" wght="-0.093431504443287849" />
        <Con id="27" src="7" tgt="11" wght="0.49597917776554823" />
        <Con id="28" src="7" tgt="12" wght="-0.0097638024017214775" />
        <Con id="29" src="8" tgt="11" wght="0.692029413767159" />
        <Con id="30" src="8" tgt="12" wght="-0.10800583846867085" />
        <Con id="31" src="9" tgt="11" wght="0.67906660307198763" />
        <Con id="32" src="9" tgt="12" wght="-0.76498045027256012" />
        <Con id="33" src="10" tgt="11" wght="-0.97394408658146858" />
        <Con id="34" src="10" tgt="12" wght="0.71751835849136114" />
      </Connections>
    </Network>
    <Network id="42" birthGen="0" fitness="0">
      <Nodes>
        <Node type="bias" id="0" />
        <Node type="in" id="1" />
        <Node type="in" id="2" />
        <Node type="in" id="3" />
        <Node type="in" id="4" />
        <Node type="in" id="5" />
        <Node type="in" id="6" />
        <Node type="in" id="7" />
        <Node type="in" id="8" />
        <Node type="in" id="9" />
        <Node type="in" id="10" />
        <Node type="out" id="11" />
        <Node type="out" id="12" />
      </Nodes>
      <Connections>
        <Con id="13" src="0" tgt="11" wght="-0.26997458189725876" />
        <Con id="14" src="0" tgt="12" wght="0.58198866061866283" />
        <Con id="15" src="1" tgt="11" wght="0.78493538871407509" />
        <Con id="16" src="1" tgt="12" wght="0.00030882656574249268" />
        <Con id="17" src="2" tgt="11" wght="-0.976932761259377" />
        <Con id="18" src="2" tgt="12" wght="0.044400623068213463" />
        <Con id="19" src="3" tgt="11" wght="0.062177564948797226" />
        <Con id="20" src="3" tgt="12" wght="0.42465817369520664" />
        <Con id="21" src="4" tgt="11" wght="-0.67450969759374857" />
        <Con id="22" src="4" tgt="12" wght="-0.55878101848065853" />
        <Con id="23" src="5" tgt="11" wght="-0.38258871249854565" />
        <Con id="24" src="5" tgt="12" wght="0.049718181602656841" />
        <Con id="25" src="6" tgt="11" wght="-0.72482083644717932" />
        <Con id="26" src="6" tgt="12" wght="0.645363487303257" />
        <Con id="27" src="7" tgt="11" wght="0.42194656562060118" />
        <Con id="28" src="7" tgt="12" wght="0.12415876891463995" />
        <Con id="29" src="8" tgt="11" wght="-0.31364005990326405" />
        <Con id="30" src="8" tgt="12" wght="0.44825911521911621" />
        <Con id="31" src="9" tgt="11" wght="-0.65925556514412165" />
        <Con id="32" src="9" tgt="12" wght="0.59755725972354412" />
        <Con id="33" src="10" tgt="11" wght="0.75674385018646717" />
        <Con id="34" src="10" tgt="12" wght="-0.95349061209708452" />
      </Connections>
    </Network>
    <Network id="43" birthGen="0" fitness="0">
      <Nodes>
        <Node type="bias" id="0" />
        <Node type="in" id="1" />
        <Node type="in" id="2" />
        <Node type="in" id="3" />
        <Node type="in" id="4" />
        <Node type="in" id="5" />
        <Node type="in" id="6" />
        <Node type="in" id="7" />
        <Node type="in" id="8" />
        <Node type="in" id="9" />
        <Node type="in" id="10" />
        <Node type="out" id="11" />
        <Node type="out" id="12" />
      </Nodes>
      <Connections>
        <Con id="13" src="0" tgt="11" wght="0.068187633529305458" />
        <Con id="14" src="0" tgt="12" wght="-0.63035663869231939" />
        <Con id="15" src="1" tgt="11" wght="-0.57394384779036045" />
        <Con id="16" src="1" tgt="12" wght="-0.289699618704617" />
        <Con id="17" src="2" tgt="11" wght="0.097008246928453445" />
        <Con id="18" src="2" tgt="12" wght="-0.3418719507753849" />
        <Con id="19" src="3" tgt="11" wght="0.514225285500288" />
        <Con id="20" src="3" tgt="12" wght="-0.821393882855773" />
        <Con id="21" src="4" tgt="11" wght="0.011091070249676704" />
        <Con id="22" src="4" tgt="12" wght="0.97967199329286814" />
        <Con id="23" src="5" tgt="11" wght="-9.9884346127510071E-05" />
        <Con id="24" src="5" tgt="12" wght="0.24834130331873894" />
        <Con id="25" src="6" tgt="11" wght="0.46913342736661434" />
        <Con id="26" src="6" tgt="12" wght="0.77195822447538376" />
        <Con id="27" src="7" tgt="11" wght="0.68641041312366724" />
        <Con id="28" src="7" tgt="12" wght="0.001445721834897995" />
        <Con id="29" src="8" tgt="11" wght="0.996479737572372" />
        <Con id="30" src="8" tgt="12" wght="-0.65546689182519913" />
        <Con id="31" src="9" tgt="11" wght="0.980845371261239" />
        <Con id="32" src="9" tgt="12" wght="-0.88943110965192318" />
        <Con id="33" src="10" tgt="11" wght="-0.694411363452673" />
        <Con id="34" src="10" tgt="12" wght="0.32131463754922152" />
      </Connections>
    </Network>
    <Network id="44" birthGen="0" fitness="0">
      <Nodes>
        <Node type="bias" id="0" />
        <Node type="in" id="1" />
        <Node type="in" id="2" />
        <Node type="in" id="3" />
        <Node type="in" id="4" />
        <Node type="in" id="5" />
        <Node type="in" id="6" />
        <Node type="in" id="7" />
        <Node type="in" id="8" />
        <Node type="in" id="9" />
        <Node type="in" id="10" />
        <Node type="out" id="11" />
        <Node type="out" id="12" />
      </Nodes>
      <Connections>
        <Con id="13" src="0" tgt="11" wght="-0.51868992205709219" />
        <Con id="14" src="0" tgt="12" wght="0.047096171416342258" />
        <Con id="15" src="1" tgt="11" wght="0.4379197433590889" />
        <Con id="16" src="1" tgt="12" wght="0.57469645701348782" />
        <Con id="17" src="2" tgt="11" wght="0.33175312634557486" />
        <Con id="18" src="2" tgt="12" wght="0.09368215873837471" />
        <Con id="19" src="3" tgt="11" wght="0.9125665295869112" />
        <Con id="20" src="3" tgt="12" wght="0.75853001419454813" />
        <Con id="21" src="4" tgt="11" wght="0.031368683092296124" />
        <Con id="22" src="4" tgt="12" wght="0.022272491827607155" />
        <Con id="23" src="5" tgt="11" wght="-0.11790084931999445" />
        <Con id="24" src="5" tgt="12" wght="0.61601970251649618" />
        <Con id="25" src="6" tgt="11" wght="-0.68379104975610971" />
        <Con id="26" src="6" tgt="12" wght="0.30565963871777058" />
        <Con id="27" src="7" tgt="11" wght="-0.605038357898593" />
        <Con id="28" src="7" tgt="12" wght="0.20690910518169403" />
        <Con id="29" src="8" tgt="11" wght="0.82685126923024654" />
        <Con id="30" src="8" tgt="12" wght="-0.27468721754848957" />
        <Con id="31" src="9" tgt="11" wght="0.9232119070366025" />
        <Con id="32" src="9" tgt="12" wght="-0.08053168561309576" />
        <Con id="33" src="10" tgt="11" wght="0.55556348338723183" />
        <Con id="34" src="10" tgt="12" wght="0.043079939670860767" />
      </Connections>
    </Network>
    <Network id="45" birthGen="0" fitness="0">
      <Nodes>
        <Node type="bias" id="0" />
        <Node type="in" id="1" />
        <Node type="in" id="2" />
        <Node type="in" id="3" />
        <Node type="in" id="4" />
        <Node type="in" id="5" />
        <Node type="in" id="6" />
        <Node type="in" id="7" />
        <Node type="in" id="8" />
        <Node type="in" id="9" />
        <Node type="in" id="10" />
        <Node type="out" id="11" />
        <Node type="out" id="12" />
      </Nodes>
      <Connections>
        <Con id="13" src="0" tgt="11" wght="-0.45554912742227316" />
        <Con id="14" src="0" tgt="12" wght="-0.39744935836642981" />
        <Con id="15" src="1" tgt="11" wght="0.68335200101137161" />
        <Con id="16" src="1" tgt="12" wght="-0.22461593337357044" />
        <Con id="17" src="2" tgt="11" wght="0.32654179167002439" />
        <Con id="18" src="2" tgt="12" wght="0.626454085111618" />
        <Con id="19" src="3" tgt="11" wght="-0.98422693833708763" />
        <Con id="20" src="3" tgt="12" wght="0.50831360276788473" />
        <Con id="21" src="4" tgt="11" wght="-0.65579788759350777" />
        <Con id="22" src="4" tgt="12" wght="-0.40444956347346306" />
        <Con id="23" src="5" tgt="11" wght="0.14165879040956497" />
        <Con id="24" src="5" tgt="12" wght="0.52303572185337543" />
        <Con id="25" src="6" tgt="11" wght="0.88586833141744137" />
        <Con id="26" src="6" tgt="12" wght="0.39000008068978786" />
        <Con id="27" src="7" tgt="11" wght="0.79590530693531036" />
        <Con id="28" src="7" tgt="12" wght="-0.021950766444206238" />
        <Con id="29" src="8" tgt="11" wght="-0.0632063802331686" />
        <Con id="30" src="8" tgt="12" wght="0.80210715346038342" />
        <Con id="31" src="9" tgt="11" wght="0.21682466752827168" />
        <Con id="32" src="9" tgt="12" wght="0.76211469899863" />
        <Con id="33" src="10" tgt="11" wght="-0.64022577926516533" />
        <Con id="34" src="10" tgt="12" wght="0.38146579172462225" />
      </Connections>
    </Network>
    <Network id="46" birthGen="0" fitness="0">
      <Nodes>
        <Node type="bias" id="0" />
        <Node type="in" id="1" />
        <Node type="in" id="2" />
        <Node type="in" id="3" />
        <Node type="in" id="4" />
        <Node type="in" id="5" />
        <Node type="in" id="6" />
        <Node type="in" id="7" />
        <Node type="in" id="8" />
        <Node type="in" id="9" />
        <Node type="in" id="10" />
        <Node type="out" id="11" />
        <Node type="out" id="12" />
      </Nodes>
      <Connections>
        <Con id="13" src="0" tgt="11" wght="-0.042275724001228809" />
        <Con id="14" src="0" tgt="12" wght="-0.88899102155119181" />
        <Con id="15" src="1" tgt="11" wght="0.68878024071455" />
        <Con id="16" src="1" tgt="12" wght="0.02126114908605814" />
        <Con id="17" src="2" tgt="11" wght="0.65828386414796114" />
        <Con id="18" src="2" tgt="12" wght="0.16042030323296785" />
        <Con id="19" src="3" tgt="11" wght="-0.81358439195901155" />
        <Con id="20" src="3" tgt="12" wght="0.50407228898257017" />
        <Con id="21" src="4" tgt="11" wght="0.23521081637591124" />
        <Con id="22" src="4" tgt="12" wght="0.93342968355864286" />
        <Con id="23" src="5" tgt="11" wght="0.27617369964718819" />
        <Con id="24" src="5" tgt="12" wght="0.47460461221635342" />
        <Con id="25" src="6" tgt="11" wght="0.044973720796406269" />
        <Con id="26" src="6" tgt="12" wght="-0.55349585134536028" />
        <Con id="27" src="7" tgt="11" wght="-0.46557142212986946" />
        <Con id="28" src="7" tgt="12" wght="-0.022553292103111744" />
        <Con id="29" src="8" tgt="11" wght="-0.97726066689938307" />
        <Con id="30" src="8" tgt="12" wght="0.17031632363796234" />
        <Con id="31" src="9" tgt="11" wght="-0.69446484558284283" />
        <Con id="32" src="9" tgt="12" wght="0.054048311896622181" />
        <Con id="33" src="10" tgt="11" wght="-0.35564546193927526" />
        <Con id="34" src="10" tgt="12" wght="0.7958192965015769" />
      </Connections>
    </Network>
    <Network id="47" birthGen="0" fitness="0">
      <Nodes>
        <Node type="bias" id="0" />
        <Node type="in" id="1" />
        <Node type="in" id="2" />
        <Node type="in" id="3" />
        <Node type="in" id="4" />
        <Node type="in" id="5" />
        <Node type="in" id="6" />
        <Node type="in" id="7" />
        <Node type="in" id="8" />
        <Node type="in" id="9" />
        <Node type="in" id="10" />
        <Node type="out" id="11" />
        <Node type="out" id="12" />
      </Nodes>
      <Connections>
        <Con id="13" src="0" tgt="11" wght="0.53435471281409264" />
        <Con id="14" src="0" tgt="12" wght="-0.46211566682904959" />
        <Con id="15" src="1" tgt="11" wght="0.711020645685494" />
        <Con id="16" src="1" tgt="12" wght="-0.48600420728325844" />
        <Con id="17" src="2" tgt="11" wght="0.15044027660042048" />
        <Con id="18" src="2" tgt="12" wght="0.20489369612187147" />
        <Con id="19" src="3" tgt="11" wght="-0.24821912031620741" />
        <Con id="20" src="3" tgt="12" wght="0.59821534156799316" />
        <Con id="21" src="4" tgt="11" wght="-0.40821291692554951" />
        <Con id="22" src="4" tgt="12" wght="-0.23041838221251965" />
        <Con id="23" src="5" tgt="11" wght="0.73557209130376577" />
        <Con id="24" src="5" tgt="12" wght="0.93387075606733561" />
        <Con id="25" src="6" tgt="11" wght="-0.12779834307730198" />
        <Con id="26" src="6" tgt="12" wght="0.63537126313894987" />
        <Con id="27" src="7" tgt="11" wght="-0.56634793244302273" />
        <Con id="28" src="7" tgt="12" wght="0.74043143261224031" />
        <Con id="29" src="8" tgt="11" wght="0.056332868523895741" />
