<?xml version="1.0" encoding="utf-8"?>
<Root>
  <ActivationFunctions>
    <Fn id="0" name="SteepenedSigmoid" prob="1" />
  </ActivationFunctions>
  <Networks>
    <Network id="0" birthGen="0" fitness="0">
      <Nodes>
        <Node type="bias" id="0" />
        <Node type="in" id="1" />
        <Node type="in" id="2" />
        <Node type="in" id="3" />
        <Node type="in" id="4" />
        <Node type="in" id="5" />
        <Node type="in" id="6" />
        <Node type="in" id="7" />
        <Node type="in" id="8" />
        <Node type="in" id="9" />
        <Node type="in" id="10" />
        <Node type="out" id="11" />
        <Node type="out" id="12" />
      </Nodes>
      <Connections>
        <Con id="13" src="0" tgt="11" wght="-0.85664395801723" />
        <Con id="14" src="0" tgt="12" wght="0.20419013686478138" />
        <Con id="15" src="1" tgt="11" wght="0.41029487829655409" />
        <Con id="16" src="1" tgt="12" wght="0.95031128823757172" />
        <Con id="17" src="2" tgt="11" wght="0.36206127237528563" />
        <Con id="18" src="2" tgt="12" wght="0.8423657612875104" />
        <Con id="19" src="3" tgt="11" wght="0.19641420897096395" />
        <Con id="20" src="3" tgt="12" wght="-0.75127073284238577" />
        <Con id="21" src="4" tgt="11" wght="-0.41395997069776058" />
        <Con id="22" src="4" tgt="12" wght="0.49025569949299097" />
        <Con id="23" src="5" tgt="11" wght="0.97523063980042934" />
        <Con id="24" src="5" tgt="12" wght="-0.32478838320821524" />
        <Con id="25" src="6" tgt="11" wght="-0.51319303922355175" />
        <Con id="26" src="6" tgt="12" wght="-0.40347137115895748" />
        <Con id="27" src="7" tgt="11" wght="-0.020519101060926914" />
        <Con id="28" src="7" tgt="12" wght="0.57940032985061407" />
        <Con id="29" src="8" tgt="11" wght="0.56999540980905294" />
        <Con id="30" src="8" tgt="12" wght="0.55922617204487324" />
        <Con id="31" src="9" tgt="11" wght="0.089843304827809334" />
        <Con id="32" src="9" tgt="12" wght="-0.78151120338588953" />
        <Con id="33" src="10" tgt="11" wght="0.91432273015379906" />
        <Con id="34" src="10" tgt="12" wght="-0.47415082715451717" />
      </Connections>
    </Network>
    <Network id="1" birthGen="0" fitness="0">
      <Nodes>
        <Node type="bias" id="0" />
        <Node type="in" id="1" />
        <Node type="in" id="2" />
        <Node type="in" id="3" />
        <Node type="in" id="4" />
        <Node type="in" id="5" />
        <Node type="in" id="6" />
        <Node type="in" id="7" />
        <Node type="in" id="8" />
        <Node type="in" id="9" />
        <Node type="in" id="10" />
        <Node type="out" id="11" />
        <Node type="out" id="12" />
      </Nodes>
      <Connections>
        <Con id="13" src="0" tgt="11" wght="-0.0088481288403272629" />
        <Con id="14" src="0" tgt="12" wght="-0.72370101884007454" />
        <Con id="15" src="1" tgt="11" wght="0.81000054720789194" />
        <Con id="16" src="1" tgt="12" wght="-0.56563538871705532" />
        <Con id="17" src="2" tgt="11" wght="-0.37548334058374166" />
        <Con id="18" src="2" tgt="12" wght="0.27456220705062151" />
        <Con id="19" src="3" tgt="11" wght="-0.93119761440902948" />
        <Con id="20" src="3" tgt="12" wght="-0.26083326153457165" />
        <Con id="21" src="4" tgt="11" wght="-0.42004209663718939" />
        <Con id="22" src="4" tgt="12" wght="-0.763383093290031" />
        <Con id="23" src="5" tgt="11" wght="-0.11077658459544182" />
        <Con id="24" src="5" tgt="12" wght="-0.019882331602275372" />
        <Con id="25" src="6" tgt="11" wght="0.39307857491075993" />
        <Con id="26" src="6" tgt="12" wght="-0.22769368067383766" />
        <Con id="27" src="7" tgt="11" wght="0.047698769718408585" />
        <Con id="28" src="7" tgt="12" wght="0.42417696956545115" />
        <Con id="29" src="8" tgt="11" wght="-0.37320913560688496" />
        <Con id="30" src="8" tgt="12" wght="-0.6808157954365015" />
        <Con id="31" src="9" tgt="11" wght="0.74623182509094477" />
        <Con id="32" src="9" tgt="12" wght="0.37156803719699383" />
        <Con id="33" src="10" tgt="11" wght="-0.96563457231968641" />
        <Con id="34" src="10" tgt="12" wght="0.56582100037485361" />
      </Connections>
    </Network>
    <Network id="2" birthGen="0" fitness="0">
      <Nodes>
        <Node type="bias" id="0" />
        <Node type="in" id="1" />
        <Node type="in" id="2" />
        <Node type="in" id="3" />
        <Node type="in" id="4" />
        <Node type="in" id="5" />
        <Node type="in" id="6" />
        <Node type="in" id="7" />
        <Node type="in" id="8" />
        <Node type="in" id="9" />
        <Node type="in" id="10" />
        <Node type="out" id="11" />
        <Node type="out" id="12" />
      </Nodes>
      <Connections>
        <Con id="13" src="0" tgt="11" wght="-0.85192696936428547" />
        <Con id="14" src="0" tgt="12" wght="0.87220256961882114" />
        <Con id="15" src="1" tgt="11" wght="-0.54136041644960642" />
        <Con id="16" src="1" tgt="12" wght="0.50180167239159346" />
        <Con id="17" src="2" tgt="11" wght="0.78551357053220272" />
        <Con id="18" src="2" tgt="12" wght="-0.047409839928150177" />
        <Con id="19" src="3" tgt="11" wght="-0.26129815261811018" />
        <Con id="20" src="3" tgt="12" wght="0.53070093225687742" />
        <Con id="21" src="4" tgt="11" wght="0.880977719090879" />
        <Con id="22" src="4" tgt="12" wght="0.29692883230745792" />
        <Con id="23" src="5" tgt="11" wght="0.1720948638394475" />
        <Con id="24" src="5" tgt="12" wght="0.89119821321219206" />
        <Con id="25" src="6" tgt="11" wght="0.11322978138923645" />
        <Con id="26" src="6" tgt="12" wght="-0.19777790177613497" />
        <Con id="27" src="7" tgt="11" wght="0.99872154463082552" />
        <Con id="28" src="7" tgt="12" wght="0.7070756945759058" />
        <Con id="29" src="8" tgt="11" wght="-0.95712408516556025" />
        <Con id="30" src="8" tgt="12" wght="0.87604219187051058" />
        <Con id="31" src="9" tgt="11" wght="0.06661376915872097" />
        <Con id="32" src="9" tgt="12" wght="0.33147734124213457" />
        <Con id="33" src="10" tgt="11" wght="0.33955787774175406" />
        <Con id="34" src="10" tgt="12" wght="0.75646117329597473" />
      </Connections>
    </Network>
    <Network id="3" birthGen="0" fitness="0">
      <Nodes>
        <Node type="bias" id="0" />
        <Node type="in" id="1" />
        <Node type="in" id="2" />
        <Node type="in" id="3" />
        <Node type="in" id="4" />
        <Node type="in" id="5" />
        <Node type="in" id="6" />
        <Node type="in" id="7" />
        <Node type="in" id="8" />
        <Node type="in" id="9" />
        <Node type="in" id="10" />
        <Node type="out" id="11" />
        <Node type="out" id="12" />
      </Nodes>
      <Connections>
        <Con id="13" src="0" tgt="11" wght="-0.74209960456937551" />
        <Con id="14" src="0" tgt="12" wght="0.58872696571052074" />
        <Con id="15" src="1" tgt="11" wght="0.89665726944804192" />
        <Con id="16" src="1" tgt="12" wght="0.49031952675431967" />
        <Con id="17" src="2" tgt="11" wght="0.29298578202724457" />
        <Con id="18" src="2" tgt="12" wght="0.5930023780092597" />
        <Con id="19" src="3" tgt="11" wght="0.9010032070800662" />
        <Con id="20" src="3" tgt="12" wght="-0.7989716837182641" />
        <Con id="21" src="4" tgt="11" wght="0.37590481527149677" />
        <Con id="22" src="4" tgt="12" wght="-0.45291462354362011" />
        <Con id="23" src="5" tgt="11" wght="-0.15863795019686222" />
        <Con id="24" src="5" tgt="12" wght="-0.71722932253032923" />
        <Con id="25" src="6" tgt="11" wght="-0.46769000682979822" />
        <Con id="26" src="6" tgt="12" wght="-0.42062354926019907" />
        <Con id="27" src="7" tgt="11" wght="0.726143785752356" />
        <Con id="28" src="7" tgt="12" wght="0.77109804190695286" />
        <Con id="29" src="8" tgt="11" wght="0.040151715278625488" />
        <Con id="30" src="8" tgt="12" wght="-0.20254301279783249" />
        <Con id="31" src="9" tgt="11" wght="0.7505048019811511" />
        <Con id="32" src="9" tgt="12" wght="-0.966565034352243" />
        <Con id="33" src="10" tgt="11" wght="-0.90061503555625677" />
        <Con id="34" src="10" tgt="12" wght="-0.97086700890213251" />
      </Connections>
    </Network>
    <Network id="4" birthGen="0" fitness="0">
      <Nodes>
        <Node type="bias" id="0" />
        <Node type="in" id="1" />
        <Node type="in" id="2" />
        <Node type="in" id="3" />
        <Node type="in" id="4" />
        <Node type="in" id="5" />
        <Node type="in" id="6" />
        <Node type="in" id="7" />
        <Node type="in" id="8" />
        <Node type="in" id="9" />
        <Node type="in" id="10" />
        <Node type="out" id="11" />
        <Node type="out" id="12" />
      </Nodes>
      <Connections>
        <Con id="13" src="0" tgt="11" wght="-0.761327339336276" />
        <Con id="14" src="0" tgt="12" wght="0.82477667462080717" />
        <Con id="15" src="1" tgt="11" wght="-0.76115859765559435" />
        <Con id="16" src="1" tgt="12" wght="-0.5989654716104269" />
        <Con id="17" src="2" tgt="11" wght="-0.20915251318365335" />
        <Con id="18" src="2" tgt="12" wght="-0.49181618075817823" />
        <Con id="19" src="3" tgt="11" wght="-0.98657047562301159" />
        <Con id="20" src="3" tgt="12" wght="-0.14938371069729328" />
        <Con id="21" src="4" tgt="11" wght="0.047432511113584042" />
        <Con id="22" src="4" tgt="12" wght="-0.777155770920217" />
        <Con id="23" src="5" tgt="11" wght="0.91522403154522181" />
        <Con id="24" src="5" tgt="12" wght="0.71150827780365944" />
        <Con id="25" src="6" tgt="11" wght="-0.62010765634477139" />
        <Con id="26" src="6" tgt="12" wght="0.98198962863534689" />
        <Con id="27" src="7" tgt="11" wght="0.11617701407521963" />
        <Con id="28" src="7" tgt="12" wght="0.00068088527768850327" />
        <Con id="29" src="8" tgt="11" wght="0.26244634389877319" />
        <Con id="30" src="8" tgt="12" wght="-0.86050630453974009" />
        <Con id="31" src="9" tgt="11" wght="-0.49146549124270678" />
        <Con id="32" src="9" tgt="12" wght="-0.04181191697716713" />
        <Con id="33" src="10" tgt="11" wght="0.925196822732687" />
        <Con id="34" src="10" tgt="12" wght="0.089274337515234947" />
      </Connections>
    </Network>
    <Network id="5" birthGen="0" fitness="0">
      <Nodes>
        <Node type="bias" id="0" />
        <Node type="in" id="1" />
        <Node type="in" id="2" />
        <Node type="in" id="3" />
        <Node type="in" id="4" />
        <Node type="in" id="5" />
        <Node type="in" id="6" />
        <Node type="in" id="7" />
        <Node type="in" id="8" />
        <Node type="in" id="9" />
        <Node type="in" id="10" />
        <Node type="out" id="11" />
        <Node type="out" id="12" />
      </Nodes>
      <Connections>
        <Con id="13" src="0" tgt="11" wght="0.91271454375237226" />
        <Con id="14" src="0" tgt="12" wght="-0.86223320942372084" />
        <Con id="15" src="1" tgt="11" wght="0.53007683996111155" />
        <Con id="16" src="1" tgt="12" wght="-0.79028984438627958" />
        <Con id="17" src="2" tgt="11" wght="0.48833816219121218" />
        <Con id="18" src="2" tgt="12" wght="-0.98100811988115311" />
        <Con id="19" src="3" tgt="11" wght="-0.39958275482058525" />
        <Con id="20" src="3" tgt="12" wght="-0.51128692273050547" />
        <Con id="21" src="4" tgt="11" wght="0.086364454589784145" />
        <Con id="22" src="4" tgt="12" wght="0.25036904122680426" />
        <Con id="23" src="5" tgt="11" wght="-0.050543003715574741" />
        <Con id="24" src="5" tgt="12" wght="-0.7836661571636796" />
        <Con id="25" src="6" tgt="11" wght="0.32629463542252779" />
        <Con id="26" src="6" tgt="12" wght="-0.31963817868381739" />
        <Con id="27" src="7" tgt="11" wght="0.089741445146501064" />
        <Con id="28" src="7" tgt="12" wght="0.64174187649041414" />
        <Con id="29" src="8" tgt="11" wght="-0.34262083098292351" />
        <Con id="30" src="8" tgt="12" wght="-0.52674572076648474" />
        <Con id="31" src="9" tgt="11" wght="0.708210620097816" />
        <Con id="32" src="9" tgt="12" wght="0.036540607921779156" />
        <Con id="33" src="10" tgt="11" wght="-0.58228711877018213" />
        <Con id="34" src="10" tgt="12" wght="-0.21212534885853529" />
      </Connections>
    </Network>
    <Network id="6" birthGen="0" fitness="0">
      <Nodes>
        <Node type="bias" id="0" />
        <Node type="in" id="1" />
        <Node type="in" id="2" />
        <Node type="in" id="3" />
        <Node type="in" id="4" />
        <Node type="in" id="5" />
        <Node type="in" id="6" />
        <Node type="in" id="7" />
        <Node type="in" id="8" />
        <Node type="in" id="9" />
        <Node type="in" id="10" />
        <Node type="out" id="11" />
        <Node type="out" id="12" />
      </Nodes>
      <Connections>
        <Con id="13" src="0" tgt="11" wght="0.79316277615725994" />
        <Con id="14" src="0" tgt="12" wght="-0.70203873608261347" />
        <Con id="15" src="1" tgt="11" wght="-0.90161821246147156" />
        <Con id="16" src="1" tgt="12" wght="-0.9204785730689764" />
        <Con id="17" src="2" tgt="11" wght="0.82324239704757929" />
        <Con id="18" src="2" tgt="12" wght="0.35583581496030092" />
        <Con id="19" src="3" tgt="11" wght="0.081631787121295929" />
        <Con id="20" src="3" tgt="12" wght="-0.97793805599212646" />
        <Con id="21" src="4" tgt="11" wght="-0.38485439494252205" />
        <Con id="22" src="4" tgt="12" wght="-0.57570137176662683" />
        <Con id="23" src="5" tgt="11" wght="0.39059043675661087" />
        <Con id="24" src="5" tgt="12" wght="0.59249935112893581" />
        <Con id="25" src="6" tgt="11" wght="0.15236329659819603" />
        <Con id="26" src="6" tgt="12" wght="-0.46400191076099873" />
        <Con id="27" src="7" tgt="11" wght="0.71173178590834141" />
        <Con id="28" src="7" tgt="12" wght="0.7551425863057375" />
        <Con id="29" src="8" tgt="11" wght="0.98175947833806276" />
        <Con id="30" src="8" tgt="12" wght="-0.66869391035288572" />
        <Con id="31" src="9" tgt="11" wght="-0.0772861260920763" />
        <Con id="32" src="9" tgt="12" wght="-0.94775695912539959" />
        <Con id="33" src="10" tgt="11" wght="0.561544525437057" />
        <Con id="34" src="10" tgt="12" wght="-0.22687594778835773" />
      </Connections>
    </Network>
    <Network id="7" birthGen="0" fitness="0">
      <Nodes>
        <Node type="bias" id="0" />
        <Node type="in" id="1" />
        <Node type="in" id="2" />
        <Node type="in" id="3" />
        <Node type="in" id="4" />
        <Node type="in" id="5" />
        <Node type="in" id="6" />
        <Node type="in" id="7" />
        <Node type="in" id="8" />
        <Node type="in" id="9" />
        <Node type="in" id="10" />
        <Node type="out" id="11" />
        <Node type="out" id="12" />
      </Nodes>
      <Connections>
        <Con id="13" src="0" tgt="11" wght="-0.037271087989211082" />
        <Con id="14" src="0" tgt="12" wght="0.025500436313450336" />
        <Con id="15" src="1" tgt="11" wght="-0.93810821976512671" />
        <Con id="16" src="1" tgt="12" wght="-0.40677910298109055" />
        <Con id="17" src="2" tgt="11" wght="-0.71801384724676609" />
        <Con id="18" src="2" tgt="12" wght="-0.59610529150813818" />
        <Con id="19" src="3" tgt="11" wght="0.90250124596059322" />
        <Con id="20" src="3" tgt="12" wght="0.64566857926547527" />
        <Con id="21" src="4" tgt="11" wght="0.52831808105111122" />
        <Con id="22" src="4" tgt="12" wght="-0.61718882713466883" />
        <Con id="23" src="5" tgt="11" wght="-0.77187692280858755" />
        <Con id="24" src="5" tgt="12" wght="0.29381082579493523" />
        <Con id="25" src="6" tgt="11" wght="0.162205271422863" />
        <Con id="26" src="6" tgt="12" wght="-0.58422606159001589" />
        <Con id="27" src="7" tgt="11" wght="0.48103595711290836" />
        <Con id="28" src="7" tgt="12" wght="-0.14417658746242523" />
        <Con id="29" src="8" tgt="11" wght="-0.069091849029064178" />
        <Con id="30" src="8" tgt="12" wght="-0.47553471848368645" />
        <Con id="31" src="9" tgt="11" wght="0.5607663756236434" />
        <Con id="32" src="9" tgt="12" wght="-0.76019424013793468" />
        <Con id="33" src="10" tgt="11" wght="-0.27701887767761946" />
        <Con id="34" src="10" tgt="12" wght="-0.011317485012114048" />
      </Connections>
    </Network>
    <Network id="8" birthGen="0" fitness="0">
      <Nodes>
        <Node type="bias" id="0" />
        <Node type="in" id="1" />
        <Node type="in" id="2" />
        <Node type="in" id="3" />
        <Node type="in" id="4" />
        <Node type="in" id="5" />
        <Node type="in" id="6" />
        <Node type="in" id="7" />
        <Node type="in" id="8" />
        <Node type="in" id="9" />
        <Node type="in" id="10" />
        <Node type="out" id="11" />
        <Node type="out" id="12" />
      </Nodes>
      <Connections>
        <Con id="13" src="0" tgt="11" wght="0.42135665379464626" />
        <Con id="14" src="0" tgt="12" wght="0.3493468826636672" />
        <Con id="15" src="1" tgt="11" wght="-0.20191871281713247" />
        <Con id="16" src="1" tgt="12" wght="0.40748265013098717" />
        <Con id="17" src="2" tgt="11" wght="-0.071711691096425056" />
        <Con id="18" src="2" tgt="12" wght="-0.50297232158482075" />
        <Con id="19" src="3" tgt="11" wght="-0.0024607283994555473" />
        <Con id="20" src="3" tgt="12" wght="-0.42127792350947857" />
        <Con id="21" src="4" tgt="11" wght="-0.1047547459602356" />
        <Con id="22" src="4" tgt="12" wght="0.48735710140317678" />
        <Con id="23" src="5" tgt="11" wght="-0.42708153463900089" />
        <Con id="24" src="5" tgt="12" wght="-0.75216109212487936" />
        <Con id="25" src="6" tgt="11" wght="0.31851045973598957" />
        <Con id="26" src="6" tgt="12" wght="-0.17609318532049656" />
        <Con id="27" src="7" tgt="11" wght="0.3619780819863081" />
        <Con id="28" src="7" tgt="12" wght="0.94599313475191593" />
        <Con id="29" src="8" tgt="11" wght="-0.61959685944020748" />
        <Con id="30" src="8" tgt="12" wght="0.36464983131736517" />
        <Con id="31" src="9" tgt="11" wght="0.10112080257385969" />
        <Con id="32" src="9" tgt="12" wght="0.03448180016130209" />
        <Con id="33" src="10" tgt="11" wght="-0.3895566537976265" />
        <Con id="34" src="10" tgt="12" wght="-0.58108757436275482" />
      </Connections>
    </Network>
    <Network id="9" birthGen="0" fitness="0">
      <Nodes>
        <Node type="bias" id="0" />
        <Node type="in" id="1" />
        <Node type="in" id="2" />
        <Node type="in" id="3" />
        <Node type="in" id="4" />
        <Node type="in" id="5" />
        <Node type="in" id="6" />
        <Node type="in" id="7" />
        <Node type="in" id="8" />
        <Node type="in" id="9" />
        <Node type="in" id="10" />
        <Node type="out" id="11" />
        <Node type="out" id="12" />
      </Nodes>
      <Connections>
        <Con id="13" src="0" tgt="11" wght="0.23885760083794594" />
        <Con id="14" src="0" tgt="12" wght="-0.91213858593255281" />
        <Con id="15" src="1" tgt="11" wght="0.69267488177865744" />
        <Con id="16" src="1" tgt="12" wght="0.7005595788359642" />
        <Con id="17" src="2" tgt="11" wght="0.40804167091846466" />
        <Con id="18" src="2" tgt="12" wght="-0.5983206070959568" />
        <Con id="19" src="3" tgt="11" wght="0.66069315001368523" />
        <Con id="20" src="3" tgt="12" wght="0.71518237330019474" />
        <Con id="21" src="4" tgt="11" wght="0.85842146072536707" />
        <Con id="22" src="4" tgt="12" wght="-0.37152034137398005" />
        <Con id="23" src="5" tgt="11" wght="-0.034145379438996315" />
        <Con id="24" src="5" tgt="12" wght="0.57658158708363771" />
        <Con id="25" src="6" tgt="11" wght="-0.26389997266232967" />
        <Con id="26" src="6" tgt="12" wght="0.328681786544621" />
        <Con id="27" src="7" tgt="11" wght="0.94985529128462076" />
        <Con id="28" src="7" tgt="12" wght="0.59289619419723749" />
        <Con id="29" src="8" tgt="11" wght="0.40597410686314106" />
        <Con id="30" src="8" tgt="12" wght="-0.29373125359416008" />
        <Con id="31" src="9" tgt="11" wght="-0.92709429934620857" />
        <Con id="32" src="9" tgt="12" wght="-0.19915930833667517" />
        <Con id="33" src="10" tgt="11" wght="0.67664675507694483" />
        <Con id="34" src="10" tgt="12" wght="0.777008967474103" />
      </Connections>
    </Network>
    <Network id="10" birthGen="0" fitness="0">
      <Nodes>
        <Node type="bias" id="0" />
        <Node type="in" id="1" />
        <Node type="in" id="2" />
        <Node type="in" id="3" />
        <Node type="in" id="4" />
        <Node type="in" id="5" />
        <Node type="in" id="6" />
        <Node type="in" id="7" />
        <Node type="in" id="8" />
        <Node type="in" id="9" />
        <Node type="in" id="10" />
        <Node type="out" id="11" />
        <Node type="out" id="12" />
      </Nodes>
      <Connections>
        <Con id="13" src="0" tgt="11" wght="0.77756263874471188" />
        <Con id="14" src="0" tgt="12" wght="0.74928771890699863" />
        <Con id="15" src="1" tgt="11" wght="0.35225265007466078" />
        <Con id="16" src="1" tgt="12" wght="-0.95348545629531145" />
        <Con id="17" src="2" tgt="11" wght="-0.93163565266877413" />
        <Con id="18" src="2" tgt="12" wght="0.40053492039442062" />
        <Con id="19" src="3" tgt="11" wght="0.80237613152712584" />
        <Con id="20" src="3" tgt="12" wght="-0.22308886889368296" />
        <Con id="21" src="4" tgt="11" wght="-0.626369290985167" />
        <Con id="22" src="4" tgt="12" wght="0.35018930956721306" />
        <Con id="23" src="5" tgt="11" wght="0.29354058671742678" />
        <Con id="24" src="5" tgt="12" wght="-0.3183998903259635" />
        <Con id="25" src="6" tgt="11" wght="-0.17574940901249647" />
        <Con id="26" src="6" tgt="12" wght="-0.79534628242254257" />
        <Con id="27" src="7" tgt="11" wght="-0.881381674669683" />
        <Con id="28" src="7" tgt="12" wght="-0.49951012805104256" />
        <Con id="29" src="8" tgt="11" wght="0.14812270645052195" />
        <Con id="30" src="8" tgt="12" wght="-0.8785274550318718" />
        <Con id="31" src="9" tgt="11" wght="-0.41575290355831385" />
        <Con id="32" src="9" tgt="12" wght="-0.18383330479264259" />
        <Con id="33" src="10" tgt="11" wght="0.77920696511864662" />
        <Con id="34" src="10" tgt="12" wght="-0.15303005743771791" />
      </Connections>
    </Network>
    <Network id="11" birthGen="0" fitness="0">
      <Nodes>
        <Node type="bias" id="0" />
        <Node type="in" id="1" />
        <Node type="in" id="2" />
        <Node type="in" id="3" />
        <Node type="in" id="4" />
        <Node type="in" id="5" />
        <Node type="in" id="6" />
        <Node type="in" id="7" />
        <Node type="in" id="8" />
        <Node type="in" id="9" />
        <Node type="in" id="10" />
        <Node type="out" id="11" />
        <Node type="out" id="12" />
      </Nodes>
      <Connections>
        <Con id="13" src="0" tgt="11" wght="-0.85328616388142109" />
        <Con id="14" src="0" tgt="12" wght="-0.12500486522912979" />
        <Con id="15" src="1" tgt="11" wght="-0.90127375163137913" />
        <Con id="16" src="1" tgt="12" wght="0.18838290870189667" />
        <Con id="17" src="2" tgt="11" wght="-0.31581738125532866" />
        <Con id="18" src="2" tgt="12" wght="0.1080760657787323" />
        <Con id="19" src="3" tgt="11" wght="-0.70368094183504581" />
        <Con id="20" src="3" tgt="12" wght="0.99219739902764559" />
        <Con id="21" src="4" tgt="11" wght="0.51655228529125452" />
        <Con id="22" src="4" tgt="12" wght="-0.60154679697006941" />
        <Con id="23" src="5" tgt="11" wght="-0.12566445861011744" />
        <Con id="24" src="5" tgt="12" wght="0.699473362416029" />
        <Con id="25" src="6" tgt="11" wght="0.75645153410732746" />
        <Con id="26" src="6" tgt="12" wght="0.4048326825723052" />
        <Con id="27" src="7" tgt="11" wght="-0.22282199002802372" />
        <Con id="28" src="7" tgt="12" wght="-0.63027184270322323" />
        <Con id="29" src="8" tgt="11" wght="0.047734411433339119" />
        <Con id="30" src="8" tgt="12" wght="-0.52657108847051859" />
        <Con id="31" src="9" tgt="11" wght="0.061584972776472569" />
        <Con id="32" src="9" tgt="12" wght="0.2984890965744853" />
        <Con id="33" src="10" tgt="11" wght="0.85015479847788811" />
        <Con id="34" src="10" tgt="12" wght="0.043571922928094864" />
      </Connections>
    </Network>
    <Network id="12" birthGen="0" fitness="0">
      <Nodes>
        <Node type="bias" id="0" />
        <Node type="in" id="1" />
        <Node type="in" id="2" />
        <Node type="in" id="3" />
        <Node type="in" id="4" />
        <Node type="in" id="5" />
        <Node type="in" id="6" />
        <Node type="in" id="7" />
        <Node type="in" id="8" />
        <Node type="in" id="9" />
        <Node type="in" id="10" />
        <Node type="out" id="11" />
        <Node type="out" id="12" />
      </Nodes>
      <Connections>
        <Con id="13" src="0" tgt="11" wght="0.55298569146543741" />
        <Con id="14" src="0" tgt="12" wght="0.25407158490270376" />
        <Con id="15" src="1" tgt="11" wght="-0.16617304645478725" />
        <Con id="16" src="1" tgt="12" wght="0.10410745441913605" />
        <Con id="17" src="2" tgt="11" wght="-0.18382926844060421" />
        <Con id="18" src="2" tgt="12" wght="-0.51844674348831177" />
        <Con id="19" src="3" tgt="11" wght="0.906153135932982" />
        <Con id="20" src="3" tgt="12" wght="0.65761080011725426" />
        <Con id="21" src="4" tgt="11" wght="-0.86788890976458788" />
        <Con id="22" src="4" tgt="12" wght="0.42951664328575134" />
        <Con id="23" src="5" tgt="11" wght="0.85218611732125282" />
        <Con id="24" src="5" tgt="12" wght="0.88872433919459581" />
        <Con id="25" src="6" tgt="11" wght="-0.2722222413867712" />
        <Con id="26" src="6" tgt="12" wght="0.84977336041629314" />
        <Con id="27" src="7" tgt="11" wght="0.66226808354258537" />
        <Con id="28" src="7" tgt="12" wght="0.25935440417379141" />
        <Con id="29" src="8" tgt="11" wght="-0.009495011530816555" />
        <Con id="30" src="8" tgt="12" wght="-0.91340336948633194" />
        <Con id="31" src="9" tgt="11" wght="0.21754071954637766" />
        <Con id="32" src="9" tgt="12" wght="0.3677718136459589" />
        <Con id="33" src="10" tgt="11" wght="-0.69262148812413216" />
        <Con id="34" src="10" tgt="12" wght="0.18013370968401432" />
      </Connections>
    </Network>
    <Network id="13" birthGen="0" fitness="0">
      <Nodes>
        <Node type="bias" id="0" />
        <Node type="in" id="1" />
        <Node type="in" id="2" />
        <Node type="in" id="3" />
        <Node type="in" id="4" />
        <Node type="in" id="5" />
        <Node type="in" id="6" />
        <Node type="in" id="7" />
        <Node type="in" id="8" />
        <Node type="in" id="9" />
        <Node type="in" id="10" />
        <Node type="out" id="11" />
        <Node type="out" id="12" />
      </Nodes>
      <Connections>
        <Con id="13" src="0" tgt="11" wght="-0.88861944433301687" />
        <Con id="14" src="0" tgt="12" wght="-0.71316002309322357" />
        <Con id="15" src="1" tgt="11" wght="-0.42048268485814333" />
        <Con id="16" src="1" tgt="12" wght="-0.704730998724699" />
        <Con id="17" src="2" tgt="11" wght="0.85614583175629377" />
        <Con id="18" src="2" tgt="12" wght="0.51457449421286583" />
        <Con id="19" src="3" tgt="11" wght="0.59113629814237356" />
        <Con id="20" src="3" tgt="12" wght="0.47012685611844063" />
        <Con id="21" src="4" tgt="11" wght="-0.635972217656672" />
        <Con id="22" src="4" tgt="12" wght="0.14989462122321129" />
        <Con id="23" src="5" tgt="11" wght="0.44490740820765495" />
        <Con id="24" src="5" tgt="12" wght="-0.5648966645821929" />
        <Con id="25" src="6" tgt="11" wght="0.11653551459312439" />
        <Con id="26" src="6" tgt="12" wght="-0.32720941957086325" />
        <Con id="27" src="7" tgt="11" wght="0.82362722512334585" />
        <Con id="28" src="7" tgt="12" wght="-0.92303097993135452" />
        <Con id="29" src="8" tgt="11" wght="0.61411601491272449" />
        <Con id="30" src="8" tgt="12" wght="-0.88236104510724545" />
        <Con id="31" src="9" tgt="11" wght="0.57295554131269455" />
        <Con id="32" src="9" tgt="12" wght="0.88774383161216974" />
        <Con id="33" src="10" tgt="11" wght="0.58855637721717358" />
        <Con id="34" src="10" tgt="12" wght="-0.8033026522025466" />
      </Connections>
    </Network>
    <Network id="14" birthGen="0" fitness="0">
      <Nodes>
        <Node type="bias" id="0" />
        <Node type="in" id="1" />
        <Node type="in" id="2" />
        <Node type="in" id="3" />
        <Node type="in" id="4" />
        <Node type="in" id="5" />
        <Node type="in" id="6" />
        <Node type="in" id="7" />
        <Node type="in" id="8" />
        <Node type="in" id="9" />
        <Node type="in" id="10" />
        <Node type="out" id="11" />
        <Node type="out" id="12" />
      </Nodes>
      <Connections>
        <Con id="13" src="0" tgt="11" wght="0.53937587328255177" />
        <Con id="14" src="0" tgt="12" wght="0.21127806790173054" />
        <Con id="15" src="1" tgt="11" wght="0.50785413663834333" />
        <Con id="16" src="1" tgt="12" wght="-0.54389396216720343" />
        <Con id="17" src="2" tgt="11" wght="0.40724095050245523" />
        <Con id="18" src="2" tgt="12" wght="0.52621954586356878" />
        <Con id="19" src="3" tgt="11" wght="0.75052180234342813" />
        <Con id="20" src="3" tgt="12" wght="0.11646716482937336" />
        <Con id="21" src="4" tgt="11" wght="-0.41693096607923508" />
        <Con id="22" src="4" tgt="12" wght="-0.67641508392989635" />
        <Con id="23" src="5" tgt="11" wght="-0.64475493878126144" />
        <Con id="24" src="5" tgt="12" wght="0.7144979415461421" />
        <Con id="25" src="6" tgt="11" wght="0.78395619615912437" />
        <Con id="26" src="6" tgt="12" wght="-0.31826681923121214" />
        <Con id="27" src="7" tgt="11" wght="-0.88801019452512264" />
        <Con id="28" src="7" tgt="12" wght="0.67127974424511194" />
        <Con id="29" src="8" tgt="11" wght="0.79956150986254215" />
        <Con id="30" src="8" tgt="12" wght="-0.70169438421726227" />
        <Con id="31" src="9" tgt="11" wght="-0.98000407498329878" />
        <Con id="32" src="9" tgt="12" wght="0.899748308584094" />
        <Con id="33" src="10" tgt="11" wght="0.82129375543445349" />
        <Con id="34" src="10" tgt="12" wght="0.51291043031960726" />
      </Connections>
    </Network>
    <Network id="15" birthGen="0" fitness="0">
      <Nodes>
        <Node type="bias" id="0" />
        <Node type="in" id="1" />
        <Node type="in" id="2" />
        <Node type="in" id="3" />
        <Node type="in" id="4" />
        <Node type="in" id="5" />
        <Node type="in" id="6" />
        <Node type="in" id="7" />
        <Node type="in" id="8" />
        <Node type="in" id="9" />
        <Node type="in" id="10" />
        <Node type="out" id="11" />
        <Node type="out" id="12" />
      </Nodes>
      <Connections>
        <Con id="13" src="0" tgt="11" wght="0.36152157001197338" />
        <Con id="14" src="0" tgt="12" wght="0.43051839806139469" />
        <Con id="15" src="1" tgt="11" wght="0.439237829297781" />
        <Con id="16" src="1" tgt="12" wght="0.82364276796579361" />
        <Con id="17" src="2" tgt="11" wght="0.2389577254652977" />
        <Con id="18" src="2" tgt="12" wght="-0.17774391826242208" />
        <Con id="19" src="3" tgt="11" wght="0.37353071011602879" />
        <Con id="20" src="3" tgt="12" wght="0.013002344407141209" />
        <Con id="21" src="4" tgt="11" wght="0.072561945766210556" />
        <Con id="22" src="4" tgt="12" wght="-0.087918443605303764" />
        <Con id="23" src="5" tgt="11" wght="0.78578174579888582" />
        <Con id="24" src="5" tgt="12" wght="-0.92715711891651154" />
        <Con id="25" src="6" tgt="11" wght="-0.1567604523152113" />
        <Con id="26" src="6" tgt="12" wght="-0.91822064202278852" />
        <Con id="27" src="7" tgt="11" wght="0.91750182211399078" />
        <Con id="28" src="7" tgt="12" wght="0.80410636868327856" />
        <Con id="29" src="8" tgt="11" wght="0.908719046972692" />
        <Con id="30" src="8" tgt="12" wght="-0.71635324694216251" />
        <Con id="31" src="9" tgt="11" wght="-0.25330149941146374" />
        <Con id="32" src="9" tgt="12" wght="-0.64030285645276308" />
        <Con id="33" src="10" tgt="11" wght="-0.37996630929410458" />
        <Con id="34" src="10" tgt="12" wght="-0.24468182493001223" />
      </Connections>
    </Network>
    <Network id="16" birthGen="0" fitness="0">
      <Nodes>
        <Node type="bias" id="0" />
        <Node type="in" id="1" />
        <Node type="in" id="2" />
        <Node type="in" id="3" />
        <Node type="in" id="4" />
        <Node type="in" id="5" />
        <Node type="in" id="6" />
        <Node type="in" id="7" />
        <Node type="in" id="8" />
        <Node type="in" id="9" />
        <Node type="in" id="10" />
        <Node type="out" id="11" />
        <Node type="out" id="12" />
      </Nodes>
      <Connections>
        <Con id="13" src="0" tgt="11" wght="-0.37862575799226761" />
        <Con id="14" src="0" tgt="12" wght="-0.63578513078391552" />
        <Con id="15" src="1" tgt="11" wght="0.33631985541433096" />
        <Con id="16" src="1" tgt="12" wght="-0.23115619551390409" />
        <Con id="17" src="2" tgt="11" wght="0.70761909894645214" />
        <Con id="18" src="2" tgt="12" wght="0.66048035025596619" />
        <Con id="19" src="3" tgt="11" wght="0.23147673532366753" />
        <Con id="20" src="3" tgt="12" wght="-0.25097077153623104" />
        <Con id="21" src="4" tgt="11" wght="0.91315903887152672" />
        <Con id="22" src="4" tgt="12" wght="-0.19520301278680563" />
        <Con id="23" src="5" tgt="11" wght="-0.34115085285156965" />
        <Con id="24" src="5" tgt="12" wght="-0.32039573136717081" />
        <Con id="25" src="6" tgt="11" wght="0.10180573258548975" />
        <Con id="26" src="6" tgt="12" wght="-0.41343396436423063" />
        <Con id="27" src="7" tgt="11" wght="-0.19541185162961483" />
        <Con id="28" src="7" tgt="12" wght="0.72983523551374674" />
        <Con id="29" src="8" tgt="11" wght="-0.84046540781855583" />
        <Con id="30" src="8" tgt="12" wght="0.84091065358370543" />
        <Con id="31" src="9" tgt="11" wght="-0.68292089272290468" />
        <Con id="32" src="9" tgt="12" wght="0.74307170044630766" />
        <Con id="33" src="10" tgt="11" wght="-0.3810955872759223" />
        <Con id="34" src="10" tgt="12" wght="0.32535834424197674" />
      </Connections>
    </Network>
    <Network id="17" birthGen="0" fitness="0">
      <Nodes>
        <Node type="bias" id="0" />
        <Node type="in" id="1" />
        <Node type="in" id="2" />
        <Node type="in" id="3" />
        <Node type="in" id="4" />
        <Node type="in" id="5" />
        <Node type="in" id="6" />
        <Node type="in" id="7" />
        <Node type="in" id="8" />
        <Node type="in" id="9" />
        <Node type="in" id="10" />
        <Node type="out" id="11" />
        <Node type="out" id="12" />
      </Nodes>
      <Connections>
        <Con id="13" src="0" tgt="11" wght="0.46975335013121367" />
        <Con id="14" src="0" tgt="12" wght="0.0478355111554265" />
        <Con id="15" src="1" tgt="11" wght="0.57780099008232355" />
        <Con id="16" src="1" tgt="12" wght="0.8660464147105813" />
        <Con id="17" src="2" tgt="11" wght="-0.86246876232326031" />
        <Con id="18" src="2" tgt="12" wght="-0.286035243421793" />
        <Con id="19" src="3" tgt="11" wght="-0.27112510148435831" />
        <Con id="20" src="3" tgt="12" wght="-0.90512651856988668" />
        <Con id="21" src="4" tgt="11" wght="-0.16343582607805729" />
        <Con id="22" src="4" tgt="12" wght="-0.29627891723066568" />
        <Con id="23" src="5" tgt="11" wght="-0.74017318524420261" />
        <Con id="24" src="5" tgt="12" wght="-0.208540927618742" />
        <Con id="25" src="6" tgt="11" wght="0.81120834592729807" />
        <Con id="26" src="6" tgt="12" wght="-0.30451089981943369" />
        <Con id="27" src="7" tgt="11" wght="0.77272442262619734" />
        <Con id="28" src="7" tgt="12" wght="0.56560779176652431" />
        <Con id="29" src="8" tgt="11" wght="0.77711821254342794" />
        <Con id="30" src="8" tgt="12" wght="0.26502458471804857" />
        <Con id="31" src="9" tgt="11" wght="0.34284448623657227" />
        <Con id="32" src="9" tgt="12" wght="-0.74305503629148006" />
        <Con id="33" src="10" tgt="11" wght="-0.40351926442235708" />
        <Con id="34" src="10" tgt="12" wght="-0.64928491227328777" />
      </Connections>
    </Network>
    <Network id="18" birthGen="0" fitness="0">
      <Nodes>
        <Node type="bias" id="0" />
        <Node type="in" id="1" />
        <Node type="in" id="2" />
        <Node type="in" id="3" />
        <Node type="in" id="4" />
        <Node type="in" id="5" />
        <Node type="in" id="6" />
        <Node type="in" id="7" />
        <Node type="in" id="8" />
        <Node type="in" id="9" />
        <Node type="in" id="10" />
        <Node type="out" id="11" />
        <Node type="out" id="12" />
      </Nodes>
      <Connections>
        <Con id="13" src="0" tgt="11" wght="-0.70785190723836422" />
        <Con id="14" src="0" tgt="12" wght="-0.84872894454747438" />
        <Con id="15" src="1" tgt="11" wght="0.30229980032891035" />
        <Con id="16" src="1" tgt="12" wght="-0.034961418248713017" />
        <Con id="17" src="2" tgt="11" wght="0.538950165733695" />
        <Con id="18" src="2" tgt="12" wght="-0.66872106958180666" />
        <Con id="19" src="3" tgt="11" wght="0.4193101804703474" />
        <Con id="20" src="3" tgt="12" wght="0.43188357818871737" />
        <Con id="21" src="4" tgt="11" wght="-0.58918847609311342" />
        <Con id="22" src="4" tgt="12" wght="-0.35122366528958082" />
        <Con id="23" src="5" tgt="11" wght="-0.90477791149169207" />
        <Con id="24" src="5" tgt="12" wght="-0.44181559700518847" />
        <Con id="25" src="6" tgt="11" wght="-0.03274435643106699" />
        <Con id="26" src="6" tgt="12" wght="-0.19985488709062338" />
        <Con id="27" src="7" tgt="11" wght="0.12413148395717144" />
        <Con id="28" src="7" tgt="12" wght="-0.05384829081594944" />
        <Con id="29" src="8" tgt="11" wght="-0.82092133816331625" />
        <Con id="30" src="8" tgt="12" wght="0.77838985528796911" />
        <Con id="31" src="9" tgt="11" wght="-0.15060118399560452" />
        <Con id="32" src="9" tgt="12" wght="0.13412830140441656" />
        <Con id="33" src="10" tgt="11" wght="-0.62223453912884" />
        <Con id="34" src="10" tgt="12" wght="0.86781249288469553" />
      </Connections>
    </Network>
    <Network id="19" birthGen="0" fitness="0">
      <Nodes>
        <Node type="bias" id="0" />
        <Node type="in" id="1" />
        <Node type="in" id="2" />
        <Node type="in" id="3" />
        <Node type="in" id="4" />
        <Node type="in" id="5" />
        <Node type="in" id="6" />
        <Node type="in" id="7" />
        <Node type="in" id="8" />
        <Node type="in" id="9" />
        <Node type="in" id="10" />
        <Node type="out" id="11" />
        <Node type="out" id="12" />
      </Nodes>
      <Connections>
        <Con id="13" src="0" tgt="11" wght="-0.1754946606233716" />
        <Con id="14" src="0" tgt="12" wght="-0.028905712068080902" />
        <Con id="15" src="1" tgt="11" wght="0.77609239518642426" />
        <Con id="16" src="1" tgt="12" wght="-0.85212000645697117" />
        <Con id="17" src="2" tgt="11" wght="0.42464593704789877" />
        <Con id="18" src="2" tgt="12" wght="-0.61405124422162771" />
        <Con id="19" src="3" tgt="11" wght="0.59861854184418917" />
        <Con id="20" src="3" tgt="12" wght="0.37688430771231651" />
        <Con id="21" src="4" tgt="11" wght="-0.96136892586946487" />
        <Con id="22" src="4" tgt="12" wght="-0.81633644923567772" />
        <Con id="23" src="5" tgt="11" wght="-0.55299188662320375" />
        <Con id="24" src="5" tgt="12" wght="-0.4507623128592968" />
        <Con id="25" src="6" tgt="11" wght="-0.59286500513553619" />
        <Con id="26" src="6" tgt="12" wght="-0.42460451554507017" />
        <Con id="27" src="7" tgt="11" wght="-0.46728480234742165" />
        <Con id="28" src="7" tgt="12" wght="0.60482608806341887" />
        <Con id="29" src="8" tgt="11" wght="-0.86897277925163507" />
        <Con id="30" src="8" tgt="12" wght="-0.17350290436297655" />
        <Con id="31" src="9" tgt="11" wght="0.34528513625264168" />
        <Con id="32" src="9" tgt="12" wght="0.14214758668094873" />
        <Con id="33" src="10" tgt="11" wght="-0.058373242616653442" />
        <Con id="34" src="10" tgt="12" wght="-0.32103771809488535" />
      </Connections>
    </Network>
    <Network id="20" birthGen="0" fitness="0">
      <Nodes>
        <Node type="bias" id="0" />
        <Node type="in" id="1" />
        <Node type="in" id="2" />
        <Node type="in" id="3" />
        <Node type="in" id="4" />
        <Node type="in" id="5" />
        <Node type="in" id="6" />
        <Node type="in" id="7" />
        <Node type="in" id="8" />
        <Node type="in" id="9" />
        <Node type="in" id="10" />
        <Node type="out" id="11" />
        <Node type="out" id="12" />
      </Nodes>
      <Connections>
        <Con id="13" src="0" tgt="11" wght="-0.97131905891001225" />
        <Con id="14" src="0" tgt="12" wght="0.53675146587193012" />
        <Con id="15" src="1" tgt="11" wght="0.28072780556976795" />
        <Con id="16" src="1" tgt="12" wght="-0.38220550958067179" />
        <Con id="17" src="2" tgt="11" wght="-0.72829835955053568" />
        <Con id="18" src="2" tgt="12" wght="0.52836382575333118" />
        <Con id="19" src="3" tgt="11" wght="-0.67247841414064169" />
        <Con id="20" src="3" tgt="12" wght="-0.67986179608851671" />
        <Con id="21" src="4" tgt="11" wght="-0.85577702056616545" />
        <Con id="22" src="4" tgt="12" wght="0.40905841533094645" />
        <Con id="23" src="5" tgt="11" wght="-0.73750218655914068" />
        <Con id="24" src="5" tgt="12" wght="-0.68280658219009638" />
        <Con id="25" src="6" tgt="11" wght="0.092709392309188843" />
        <Con id="26" src="6" tgt="12" wght="-0.28654650785028934" />
        <Con id="27" src="7" tgt="11" wght="0.52857591304928064" />
        <Con id="28" src="7" tgt="12" wght="-0.08672067616134882" />
        <Con id="29" src="8" tgt="11" wght="-0.061773934401571751" />
        <Con id="30" src="8" tgt="12" wght="0.76549633592367172" />
        <Con id="31" src="9" tgt="11" wght="0.676204695366323" />
        <Con id="32" src="9" tgt="12" wght="-0.80851175077259541" />
        <Con id="33" src="10" tgt="11" wght="-0.76495310477912426" />
        <Con id="34" src="10" tgt="12" wght="-0.45092065632343292" />
      </Connections>
    </Network>
    <Network id="21" birthGen="0" fitness="0">
      <Nodes>
        <Node type="bias" id="0" />
        <Node type="in" id="1" />
        <Node type="in" id="2" />
        <Node type="in" id="3" />
        <Node type="in" id="4" />
        <Node type="in" id="5" />
        <Node type="in" id="6" />
        <Node type="in" id="7" />
        <Node type="in" id="8" />
        <Node type="in" id="9" />
        <Node type="in" id="10" />
        <Node type="out" id="11" />
        <Node type="out" id="12" />
      </Nodes>
      <Connections>
        <Con id="13" src="0" tgt="11" wght="-0.10024286061525345" />
        <Con id="14" src="0" tgt="12" wght="0.74485539458692074" />
        <Con id="15" src="1" tgt="11" wght="-0.096367496065795422" />
        <Con id="16" src="1" tgt="12" wght="0.748067774809897" />
        <Con id="17" src="2" tgt="11" wght="-0.5283554857596755" />
        <Con id="18" src="2" tgt="12" wght="-0.627921218983829" />
        <Con id="19" src="3" tgt="11" wght="-0.940241607837379" />
        <Con id="20" src="3" tgt="12" wght="-0.65998891089111567" />
        <Con id="21" src="4" tgt="11" wght="0.716018601320684" />
        <Con id="22" src="4" tgt="12" wght="0.88743331003934145" />
        <Con id="23" src="5" tgt="11" wght="0.12535499129444361" />
        <Con id="24" src="5" tgt="12" wght="0.981388402171433" />
        <Con id="25" src="6" tgt="11" wght="-0.99672990944236517" />
        <Con id="26" src="6" tgt="12" wght="-0.25684789475053549" />
        <Con id="27" src="7" tgt="11" wght="-0.05665967520326376" />
        <Con id="28" src="7" tgt="12" wght="0.94077238719910383" />
        <Con id="29" src="8" tgt="11" wght="-0.93914600554853678" />
        <Con id="30" src="8" tgt="12" wght="0.16638969350606203" />
        <Con id="31" src="9" tgt="11" wght="-0.00252390094101429" />
        <Con id="32" src="9" tgt="12" wght="0.322622025385499" />
        <Con id="33" src="10" tgt="11" wght="0.30342572648078203" />
        <Con id="34" src="10" tgt="12" wght="-0.25781386345624924" />
      </Connections>
    </Network>
    <Network id="22" birthGen="0" fitness="0">
      <Nodes>
        <Node type="bias" id="0" />
        <Node type="in" id="1" />
        <Node type="in" id="2" />
        <Node type="in" id="3" />
        <Node type="in" id="4" />
        <Node type="in" id="5" />
        <Node type="in" id="6" />
        <Node type="in" id="7" />
        <Node type="in" id="8" />
        <Node type="in" id="9" />
        <Node type="in" id="10" />
        <Node type="out" id="11" />
        <Node type="out" id="12" />
      </Nodes>
      <Connections>
        <Con id="13" src="0" tgt="11" wght="-0.20449043065309525" />
        <Con id="14" src="0" tgt="12" wght="-0.73738348577171564" />
        <Con id="15" src="1" tgt="11" wght="-0.99572938308119774" />
        <Con id="16" src="1" tgt="12" wght="-0.7740787286311388" />
        <Con id="17" src="2" tgt="11" wght="-0.47725331876426935" />
        <Con id="18" src="2" tgt="12" wght="-0.23177255596965551" />
        <Con id="19" src="3" tgt="11" wght="0.77178926207125187" />
        <Con id="20" src="3" tgt="12" wght="0.12346430122852325" />
        <Con id="21" src="4" tgt="11" wght="0.65056310780346394" />
        <Con id="22" src="4" tgt="12" wght="0.094391310587525368" />
        <Con id="23" src="5" tgt="11" wght="-0.72270973958075047" />
        <Con id="24" src="5" tgt="12" wght="0.39669498056173325" />
        <Con id="25" src="6" tgt="11" wght="-0.00513582956045866" />
        <Con id="26" src="6" tgt="12" wght="-0.66819459944963455" />
        <Con id="27" src="7" tgt="11" wght="-0.23779154103249311" />
        <Con id="28" src="7" tgt="12" wght="-0.15869037806987762" />
        <Con id="29" src="8" tgt="11" wght="-0.81138362269848585" />
        <Con id="30" src="8" tgt="12" wght="0.71560107264667749" />
        <Con id="31" src="9" tgt="11" wght="0.6745499474927783" />
        <Con id="32" src="9" tgt="12" wght="-0.67244951333850622" />
        <Con id="33" src="10" tgt="11" wght="0.76287753693759441" />
        <Con id="34" src="10" tgt="12" wght="0.752170224674046" />
      </Connections>
    </Network>
    <Network id="23" birthGen="0" fitness="0">
      <Nodes>
        <Node type="bias" id="0" />
        <Node type="in" id="1" />
        <Node type="in" id="2" />
        <Node type="in" id="3" />
        <Node type="in" id="4" />
        <Node type="in" id="5" />
        <Node type="in" id="6" />
        <Node type="in" id="7" />
        <Node type="in" id="8" />
        <Node type="in" id="9" />
        <Node type="in" id="10" />
        <Node type="out" id="11" />
        <Node type="out" id="12" />
      </Nodes>
      <Connections>
        <Con id="13" src="0" tgt="11" wght="0.11400285083800554" />
        <Con id="14" src="0" tgt="12" wght="-0.32918274588882923" />
        <Con id="15" src="1" tgt="11" wght="-0.75159826874732971" />
        <Con id="16" src="1" tgt="12" wght="0.72601966373622417" />
        <Con id="17" src="2" tgt="11" wght="0.67185792326927185" />
        <Con id="18" src="2" tgt="12" wght="0.15863145049661398" />
        <Con id="19" src="3" tgt="11" wght="-0.46949291229248047" />
        <Con id="20" src="3" tgt="12" wght="-0.12967367190867662" />
        <Con id="21" src="4" tgt="11" wght="0.95627781748771667" />
        <Con id="22" src="4" tgt="12" wght="0.73407466057688" />
        <Con id="23" src="5" tgt="11" wght="-0.62297336664050817" />
        <Con id="24" src="5" tgt="12" wght="0.31066783890128136" />
        <Con id="25" src="6" tgt="11" wght="0.54107816237956285" />
        <Con id="26" src="6" tgt="12" wght="0.39413484092801809" />
        <Con id="27" src="7" tgt="11" wght="-0.62386500090360641" />
        <Con id="28" src="7" tgt="12" wght="0.044875996187329292" />
        <Con id="29" src="8" tgt="11" wght="0.9544030362740159" />
        <Con id="30" src="8" tgt="12" wght="-0.90475037228316069" />
        <Con id="31" src="9" tgt="11" wght="-0.73126077838242054" />
        <Con id="32" src="9" tgt="12" wght="0.42511801235377789" />
        <Con id="33" src="10" tgt="11" wght="0.42114473227411509" />
        <Con id="34" src="10" tgt="12" wght="-0.1041762288659811" />
      </Connections>
    </Network>
    <Network id="24" birthGen="0" fitness="0">
      <Nodes>
        <Node type="bias" id="0" />
        <Node type="in" id="1" />
        <Node type="in" id="2" />
        <Node type="in" id="3" />
        <Node type="in" id="4" />
        <Node type="in" id="5" />
        <Node type="in" id="6" />
        <Node type="in" id="7" />
        <Node type="in" id="8" />
        <Node type="in" id="9" />
        <Node type="in" id="10" />
        <Node type="out" id="11" />
        <Node type="out" id="12" />
      </Nodes>
      <Connections>
        <Con id="13" src="0" tgt="11" wght="0.20094017777591944" />
        <Con id="14" src="0" tgt="12" wght="0.9520295262336731" />
        <Con id="15" src="1" tgt="11" wght="-0.52583353221416473" />
        <Con id="16" src="1" tgt="12" wght="0.76485780626535416" />
        <Con id="17" src="2" tgt="11" wght="-0.30891839321702719" />
        <Con id="18" src="2" tgt="12" wght="-0.63234240747988224" />
        <Con id="19" src="3" tgt="11" wght="0.39679838065057993" />
        <Con id="20" src="3" tgt="12" wght="-0.044411776587367058" />
        <Con id="21" src="4" tgt="11" wght="-0.28333703801035881" />
        <Con id="22" src="4" tgt="12" wght="-0.57709546759724617" />
        <Con id="23" src="5" tgt="11" wght="-0.72863203193992376" />
        <Con id="24" src="5" tgt="12" wght="-0.29094417672604322" />
        <Con id="25" src="6" tgt="11" wght="-0.34884467720985413" />
        <Con id="26" src="6" tgt="12" wght="0.6287080142647028" />
        <Con id="27" src="7" tgt="11" wght="0.064049266278743744" />
        <Con id="28" src="7" tgt="12" wght="0.72398132272064686" />
        <Con id="29" src="8" tgt="11" wght="0.72495221998542547" />
        <Con id="30" src="8" tgt="12" wght="-0.63002162799239159" />
        <Con id="31" src="9" tgt="11" wght="0.41977883316576481" />
        <Con id="32" src="9" tgt="12" wght="-0.22456241119652987" />
        <Con id="33" src="10" tgt="11" wght="0.9730091504752636" />
        <Con id="34" src="10" tgt="12" wght="0.33430973719805479" />
      </Connections>
    </Network>
    <Network id="25" birthGen="0" fitness="0">
      <Nodes>
        <Node type="bias" id="0" />
        <Node type="in" id="1" />
        <Node type="in" id="2" />
        <Node type="in" id="3" />
        <Node type="in" id="4" />
        <Node type="in" id="5" />
        <Node type="in" id="6" />
        <Node type="in" id="7" />
        <Node type="in" id="8" />
        <Node type="in" id="9" />
        <Node type="in" id="10" />
        <Node type="out" id="11" />
        <Node type="out" id="12" />
      </Nodes>
      <Connections>
        <Con id="13" src="0" tgt="11" wght="-0.244472810998559" />
        <Con id="14" src="0" tgt="12" wght="-0.34270566701889038" />
        <Con id="15" src="1" tgt="11" wght="0.32195334136486053" />
        <Con id="16" src="1" tgt="12" wght="0.34243434853851795" />
        <Con id="17" src="2" tgt="11" wght="0.016189727000892162" />
        <Con id="18" src="2" tgt="12" wght="0.14054734911769629" />
        <Con id="19" src="3" tgt="11" wght="0.920255864970386" />
        <Con id="20" src="3" tgt="12" wght="-0.71805384662002325" />
        <Con id="21" src="4" tgt="11" wght="0.78127771615982056" />
        <Con id="22" src="4" tgt="12" wght="0.086572672240436077" />
        <Con id="23" src="5" tgt="11" wght="0.093908675946295261" />
        <Con id="24" src="5" tgt="12" wght="-0.22582123056054115" />
        <Con id="25" src="6" tgt="11" wght="0.26452707033604383" />
        <Con id="26" src="6" tgt="12" wght="0.054319108836352825" />
        <Con id="27" src="7" tgt="11" wght="0.33939959947019815" />
        <Con id="28" src="7" tgt="12" wght="-0.30922631174325943" />
        <Con id="29" src="8" tgt="11" wght="0.59038849174976349" />
        <Con id="30" src="8" tgt="12" wght="0.67128181364387274" />
        <Con id="31" src="9" tgt="11" wght="-0.72917168959975243" />
        <Con id="32" src="9" tgt="12" wght="0.64129677042365074" />
        <Con id="33" src="10" tgt="11" wght="0.86257197149097919" />
        <Con id="34" src="10" tgt="12" wght="0.94067017547786236" />
      </Connections>
    </Network>
    <Network id="26" birthGen="0" fitness="0">
      <Nodes>
        <Node type="bias" id="0" />
        <Node type="in" id="1" />
        <Node type="in" id="2" />
        <Node type="in" id="3" />
        <Node type="in" id="4" />
        <Node type="in" id="5" />
        <Node type="in" id="6" />
        <Node type="in" id="7" />
        <Node type="in" id="8" />
        <Node type="in" id="9" />
        <Node type="in" id="10" />
        <Node type="out" id="11" />
        <Node type="out" id="12" />
      </Nodes>
      <Connections>
        <Con id="13" src="0" tgt="11" wght="-0.24985120352357626" />
        <Con id="14" src="0" tgt="12" wght="-0.55213605146855116" />
        <Con id="15" src="1" tgt="11" wght="0.91931834444403648" />
        <Con id="16" src="1" tgt="12" wght="-0.41685069818049669" />
        <Con id="17" src="2" tgt="11" wght="0.19286242220550776" />
        <Con id="18" src="2" tgt="12" wght="-0.36319257505238056" />
        <Con id="19" src="3" tgt="11" wght="0.66314649023115635" />
        <Con id="20" src="3" tgt="12" wght="-0.60864868387579918" />
        <Con id="21" src="4" tgt="11" wght="0.3332700002938509" />
        <Con id="22" src="4" tgt="12" wght="-0.90823781210929155" />
        <Con id="23" src="5" tgt="11" wght="0.86176855303347111" />
        <Con id="24" src="5" tgt="12" wght="0.16568394843488932" />
        <Con id="25" src="6" tgt="11" wght="-0.0300374673679471" />
        <Con id="26" src="6" tgt="12" wght="-0.74434812739491463" />
        <Con id="27" src="7" tgt="11" wght="0.55302463844418526" />
        <Con id="28" src="7" tgt="12" wght="-0.84388441033661366" />
        <Con id="29" src="8" tgt="11" wght="0.17773861717432737" />
        <Con id="30" src="8" tgt="12" wght="0.74478428903967142" />
        <Con id="31" src="9" tgt="11" wght="0.56764330621808767" />
        <Con id="32" src="9" tgt="12" wght="0.51701379008591175" />
        <Con id="33" src="10" tgt="11" wght="-0.64208943583071232" />
        <Con id="34" src="10" tgt="12" wght="-0.80636597517877817" />
      </Connections>
    </Network>
    <Network id="27" birthGen="0" fitness="0">
      <Nodes>
        <Node type="bias" id="0" />
        <Node type="in" id="1" />
        <Node type="in" id="2" />
        <Node type="in" id="3" />
        <Node type="in" id="4" />
        <Node type="in" id="5" />
        <Node type="in" id="6" />
        <Node type="in" id="7" />
        <Node type="in" id="8" />
        <Node type="in" id="9" />
        <Node type="in" id="10" />
        <Node type="out" id="11" />
        <Node type="out" id="12" />
      </Nodes>
      <Connections>
        <Con id="13" src="0" tgt="11" wght="-0.18523362278938293" />
        <Con id="14" src="0" tgt="12" wght="-0.17530250363051891" />
        <Con id="15" src="1" tgt="11" wght="0.33770912140607834" />
        <Con id="16" src="1" tgt="12" wght="-0.43534495308995247" />
        <Con id="17" src="2" tgt="11" wght="-0.22322762291878462" />
        <Con id="18" src="2" tgt="12" wght="0.92771023046225309" />
        <Con id="19" src="3" tgt="11" wght="-0.78469178359955549" />
        <Con id="20" src="3" tgt="12" wght="-0.78153972420841455" />
        <Con id="21" src="4" tgt="11" wght="-0.20031943265348673" />
        <Con id="22" src="4" tgt="12" wght="0.36733360588550568" />
        <Con id="23" src="5" tgt="11" wght="0.79745613969862461" />
        <Con id="24" src="5" tgt="12" wght="-0.11186844762414694" />
        <Con id="25" src="6" tgt="11" wght="-0.20538391824811697" />
        <Con id="26" src="6" tgt="12" wght="-0.20062265079468489" />
        <Con id="27" src="7" tgt="11" wght="-0.20563356019556522" />
        <Con id="28" src="7" tgt="12" wght="-0.0801715524867177" />
        <Con id="29" src="8" tgt="11" wght="-0.91258187405765057" />
        <Con id="30" src="8" tgt="12" wght="0.59498531464487314" />
        <Con id="31" src="9" tgt="11" wght="0.83889155369251966" />
        <Con id="32" src="9" tgt="12" wght="-0.84651773609220982" />
        <Con id="33" src="10" tgt="11" wght="-0.0039144828915596008" />
        <Con id="34" src="10" tgt="12" wght="-0.048454541712999344" />
      </Connections>
    </Network>
    <Network id="28" birthGen="0" fitness="0">
      <Nodes>
        <Node type="bias" id="0" />
        <Node type="in" id="1" />
        <Node type="in" id="2" />
        <Node type="in" id="3" />
        <Node type="in" id="4" />
        <Node type="in" id="5" />
        <Node type="in" id="6" />
        <Node type="in" id="7" />
        <Node type="in" id="8" />
        <Node type="in" id="9" />
        <Node type="in" id="10" />
        <Node type="out" id="11" />
        <Node type="out" id="12" />
      </Nodes>
      <Connections>
        <Con id="13" src="0" tgt="11" wght="0.2569312397390604" />
        <Con id="14" src="0" tgt="12" wght="0.27678442932665348" />
        <Con id="15" src="1" tgt="11" wght="-0.43997715879231691" />
        <Con id="16" src="1" tgt="12" wght="0.99262764863669872" />
        <Con id="17" src="2" tgt="11" wght="-0.47097545396536589" />
        <Con id="18" src="2" tgt="12" wght="-0.072438995353877544" />
        <Con id="19" src="3" tgt="11" wght="0.55736595299094915" />
        <Con id="20" src="3" tgt="12" wght="0.61977884918451309" />
        <Con id="21" src="4" tgt="11" wght="-0.3528866833075881" />
        <Con id="22" src="4" tgt="12" wght="0.0840472411364317" />
        <Con id="23" src="5" tgt="11" wght="-0.37519497144967318" />
        <Con id="24" src="5" tgt="12" wght="0.40612988267093897" />
        <Con id="25" src="6" tgt="11" wght="-0.69104251358658075" />
        <Con id="26" src="6" tgt="12" wght="-0.097398572601377964" />
        <Con id="27" src="7" tgt="11" wght="-0.16577313747256994" />
        <Con id="28" src="7" tgt="12" wght="0.50702545419335365" />
        <Con id="29" src="8" tgt="11" wght="0.55334541667252779" />
        <Con id="30" src="8" tgt="12" wght="-0.46090616099536419" />
        <Con id="31" src="9" tgt="11" wght="0.89695719536393881" />
        <Con id="32" src="9" tgt="12" wght="0.85620828438550234" />
        <Con id="33" src="10" tgt="11" wght="-0.333800895139575" />
        <Con id="34" src="10" tgt="12" wght="-0.58373799733817577" />
      </Connections>
    </Network>
    <Network id="29" birthGen="0" fitness="0">
      <Nodes>
        <Node type="bias" id="0" />
        <Node type="in" id="1" />
        <Node type="in" id="2" />
        <Node type="in" id="3" />
        <Node type="in" id="4" />
        <Node type="in" id="5" />
        <Node type="in" id="6" />
        <Node type="in" id="7" />
        <Node type="in" id="8" />
        <Node type="in" id="9" />
        <Node type="in" id="10" />
        <Node type="out" id="11" />
        <Node type="out" id="12" />
      </Nodes>
      <Connections>
        <Con id="13" src="0" tgt="11" wght="-0.047037023119628429" />
        <Con id="14" src="0" tgt="12" wght="-0.33152409829199314" />
        <Con id="15" src="1" tgt="11" wght="-0.088847744278609753" />
        <Con id="16" src="1" tgt="12" wght="0.04156801849603653" />
        <Con id="17" src="2" tgt="11" wght="-0.87615831475704908" />
        <Con id="18" src="2" tgt="12" wght="-0.75546224601566792" />
        <Con id="19" src="3" tgt="11" wght="0.31694878451526165" />
        <Con id="20" src="3" tgt="12" wght="-0.350123917683959" />
        <Con id="21" src="4" tgt="11" wght="0.94419205468147993" />
        <Con id="22" src="4" tgt="12" wght="0.85825086385011673" />
        <Con id="23" src="5" tgt="11" wght="-0.98897168692201376" />
        <Con id="24" src="5" tgt="12" wght="-0.33559046871960163" />
        <Con id="25" src="6" tgt="11" wght="-0.061452309601008892" />
        <Con id="26" src="6" tgt="12" wght="-0.0072057507932186127" />
        <Con id="27" src="7" tgt="11" wght="-0.91588887013494968" />
        <Con id="28" src="7" tgt="12" wght="-0.41776202898472548" />
        <Con id="29" src="8" tgt="11" wght="0.030399605631828308" />
        <Con id="30" src="8" tgt="12" wght="-0.69909124262630939" />
        <Con id="31" src="9" tgt="11" wght="0.82971787732094526" />
        <Con id="32" src="9" tgt="12" wght="0.79691913444548845" />
        <Con id="33" src="10" tgt="11" wght="0.55058540590107441" />
        <Con id="34" src="10" tgt="12" wght="0.574394378811121" />
      </Connections>
    </Network>
    <Network id="30" birthGen="0" fitness="0">
      <Nodes>
        <Node type="bias" id="0" />
        <Node type="in" id="1" />
        <Node type="in" id="2" />
        <Node type="in" id="3" />
        <Node type="in" id="4" />
        <Node type="in" id="5" />
        <Node type="in" id="6" />
        <Node type="in" id="7" />
        <Node type="in" id="8" />
        <Node type="in" id="9" />
        <Node type="in" id="10" />
        <Node type="out" id="11" />
        <Node type="out" id="12" />
      </Nodes>
      <Connections>
        <Con id="13" src="0" tgt="11" wght="0.27039677370339632" />
        <Con id="14" src="0" tgt="12" wght="0.41718618851155043" />
        <Con id="15" src="1" tgt="11" wght="-0.8055938882753253" />
        <Con id="16" src="1" tgt="12" wght="-0.44458648841828108" />
        <Con id="17" src="2" tgt="11" wght="0.65602220967412" />
        <Con id="18" src="2" tgt="12" wght="0.57355854474008083" />
        <Con id="19" src="3" tgt="11" wght="0.94842007104307413" />
        <Con id="20" src="3" tgt="12" wght="0.76816284190863371" />
        <Con id="21" src="4" tgt="11" wght="-0.32267129793763161" />
        <Con id="22" src="4" tgt="12" wght="-0.90503791626542807" />
        <Con id="23" src="5" tgt="11" wght="-0.29474601522088051" />
        <Con id="24" src="5" tgt="12" wght="0.72263130266219378" />
        <Con id="25" src="6" tgt="11" wght="0.60967274196445942" />
        <Con id="26" src="6" tgt="12" wght="-0.54352917242795229" />
        <Con id="27" src="7" tgt="11" wght="0.59903429355472326" />
        <Con id="28" src="7" tgt="12" wght="0.31304386164993048" />
        <Con id="29" src="8" tgt="11" wght="0.692859711125493" />
        <Con id="30" src="8" tgt="12" wght="-0.99332713708281517" />
        <Con id="31" src="9" tgt="11" wght="0.6245708167552948" />
        <Con id="32" src="9" tgt="12" wght="0.23651596903800964" />
        <Con id="33" src="10" tgt="11" wght="-0.84486526437103748" />
        <Con id="34" src="10" tgt="12" wght="0.91693702805787325" />
      </Connections>
    </Network>
    <Network id="31" birthGen="0" fitness="0">
      <Nodes>
        <Node type="bias" id="0" />
        <Node type="in" id="1" />
        <Node type="in" id="2" />
        <Node type="in" id="3" />
        <Node type="in" id="4" />
        <Node type="in" id="5" />
        <Node type="in" id="6" />
        <Node type="in" id="7" />
        <Node type="in" id="8" />
        <Node type="in" id="9" />
        <Node type="in" id="10" />
        <Node type="out" id="11" />
        <Node type="out" id="12" />
      </Nodes>
      <Connections>
        <Con id="13" src="0" tgt="11" wght="0.2564616147428751" />
        <Con id="14" src="0" tgt="12" wght="-0.98002919461578131" />
        <Con id="15" src="1" tgt="11" wght="-0.68445436842739582" />
        <Con id="16" src="1" tgt="12" wght="0.43236837722361088" />
        <Con id="17" src="2" tgt="11" wght="0.15110470075160265" />
        <Con id="18" src="2" tgt="12" wght="-0.99083744548261166" />
        <Con id="19" src="3" tgt="11" wght="-0.66979953646659851" />
        <Con id="20" src="3" tgt="12" wght="-0.98522372730076313" />
        <Con id="21" src="4" tgt="11" wght="0.18660025205463171" />
        <Con id="22" src="4" tgt="12" wght="0.012809616513550282" />
        <Con id="23" src="5" tgt="11" wght="-0.21922442968934774" />
        <Con id="24" src="5" tgt="12" wght="-0.42495032772421837" />
        <Con id="25" src="6" tgt="11" wght="0.47322380542755127" />
        <Con id="26" src="6" tgt="12" wght="0.50366144720464945" />
        <Con id="27" src="7" tgt="11" wght="-0.29962031356990337" />
        <Con id="28" src="7" tgt="12" wght="0.99586286209523678" />
        <Con id="29" src="8" tgt="11" wght="-0.97716672718524933" />
        <Con id="30" src="8" tgt="12" wght="0.23550516739487648" />
        <Con id="31" src="9" tgt="11" wght="0.65745372138917446" />
        <Con id="32" src="9" tgt="12" wght="-0.93108519166707993" />
        <Con id="33" src="10" tgt="11" wght="-0.50143114104866982" />
        <Con id="34" src="10" tgt="12" wght="0.6776058254763484" />
      </Connections>
    </Network>
    <Network id="32" birthGen="0" fitness="0">
      <Nodes>
        <Node type="bias" id="0" />
        <Node type="in" id="1" />
        <Node type="in" id="2" />
        <Node type="in" id="3" />
        <Node type="in" id="4" />
        <Node type="in" id="5" />
        <Node type="in" id="6" />
        <Node type="in" id="7" />
        <Node type="in" id="8" />
        <Node type="in" id="9" />
        <Node type="in" id="10" />
        <Node type="out" id="11" />
        <Node type="out" id="12" />
      </Nodes>
      <Connections>
        <Con id="13" src="0" tgt="11" wght="0.663923523388803" />
        <Con id="14" src="0" tgt="12" wght="-0.85770064126700163" />
        <Con id="15" src="1" tgt="11" wght="0.56504813116043806" />
        <Con id="16" src="1" tgt="12" wght="-0.45084902457892895" />
        <Con id="17" src="2" tgt="11" wght="-0.0016492968425154686" />
        <Con id="18" src="2" tgt="12" wght="-0.071045181713998318" />
        <Con id="19" src="3" tgt="11" wght="0.47893431223928928" />
        <Con id="20" src="3" tgt="12" wght="0.71654275618493557" />
        <Con id="21" src="4" tgt="11" wght="0.65336120128631592" />
        <Con id="22" src="4" tgt="12" wght="0.64982592966407537" />
        <Con id="23" src="5" tgt="11" wght="0.76299068052321672" />
        <Con id="24" src="5" tgt="12" wght="-0.52103775087744" />
        <Con id="25" src="6" tgt="11" wght="-0.30627598520368338" />
        <Con id="26" src="6" tgt="12" wght="-0.42035968415439129" />
        <Con id="27" src="7" tgt="11" wght="-0.80795830488204956" />
        <Con id="28" src="7" tgt="12" wght="-0.28913156408816576" />
        <Con id="29" src="8" tgt="11" wght="0.67049778532236814" />
        <Con id="30" src="8" tgt="12" wght="0.21426393277943134" />
        <Con id="31" src="9" tgt="11" wght="0.50983235705643892" />
        <Con id="32" src="9" tgt="12" wght="-0.897867682389915" />
        <Con id="33" src="10" tgt="11" wght="-9.3174166977405548E-05" />
        <Con id="34" src="10" tgt="12" wght="0.002011188305914402" />
      </Connections>
    </Network>
    <Network id="33" birthGen="0" fitness="0">
      <Nodes>
        <Node type="bias" id="0" />
        <Node type="in" id="1" />
        <Node type="in" id="2" />
        <Node type="in" id="3" />
        <Node type="in" id="4" />
        <Node type="in" id="5" />
        <Node type="in" id="6" />
        <Node type="in" id="7" />
        <Node type="in" id="8" />
        <Node type="in" id="9" />
        <Node type="in" id="10" />
        <Node type="out" id="11" />
        <Node type="out" id="12" />
      </Nodes>
      <Connections>
        <Con id="13" src="0" tgt="11" wght="0.595448206178844" />
        <Con id="14" src="0" tgt="12" wght="0.68313647527247667" />
        <Con id="15" src="1" tgt="11" wght="0.46978098060935736" />
        <Con id="16" src="1" tgt="12" wght="-0.211339152418077" />
        <Con id="17" src="2" tgt="11" wght="0.30402058362960815" />
        <Con id="18" src="2" tgt="12" wght="-0.082093640230596066" />
        <Con id="19" src="3" tgt="11" wght="0.25195079855620861" />
        <Con id="20" src="3" tgt="12" wght="0.10689643211662769" />
        <Con id="21" src="4" tgt="11" wght="-0.64599580410867929" />
        <Con id="22" src="4" tgt="12" wght="-0.66053774859756231" />
        <Con id="23" src="5" tgt="11" wght="-0.48091744445264339" />
        <Con id="24" src="5" tgt="12" wght="0.927345004864037" />
        <Con id="25" src="6" tgt="11" wght="-0.042015751823782921" />
        <Con id="26" src="6" tgt="12" wght="-0.17924099136143923" />
        <Con id="27" src="7" tgt="11" wght="0.40455083828419447" />
        <Con id="28" src="7" tgt="12" wght="-0.90124219562858343" />
        <Con id="29" src="8" tgt="11" wght="0.61842764168977737" />
        <Con id="30" src="8" tgt="12" wght="-0.94338391441851854" />
        <Con id="31" src="9" tgt="11" wght="0.98257368709892035" />
        <Con id="32" src="9" tgt="12" wght="-0.526436448097229" />
        <Con id="33" src="10" tgt="11" wght="-0.58362200949341059" />
        <Con id="34" src="10" tgt="12" wght="0.89296161383390427" />
      </Connections>
    </Network>
    <Network id="34" birthGen="0" fitness="0">
      <Nodes>
        <Node type="bias" id="0" />
        <Node type="in" id="1" />
        <Node type="in" id="2" />
        <Node type="in" id="3" />
        <Node type="in" id="4" />
        <Node type="in" id="5" />
        <Node type="in" id="6" />
        <Node type="in" id="7" />
        <Node type="in" id="8" />
        <Node type="in" id="9" />
        <Node type="in" id="10" />
        <Node type="out" id="11" />
        <Node type="out" id="12" />
      </Nodes>
      <Connections>
        <Con id="13" src="0" tgt="11" wght="-0.095808313228189945" />
        <Con id="14" src="0" tgt="12" wght="-0.90632286854088306" />
        <Con id="15" src="1" tgt="11" wght="-0.3162572979927063" />
        <Con id="16" src="1" tgt="12" wght="0.85770427621901035" />
        <Con id="17" src="2" tgt="11" wght="-0.47246900387108326" />
        <Con id="18" src="2" tgt="12" wght="0.96042231190949678" />
        <Con id="19" src="3" tgt="11" wght="0.23224450647830963" />
        <Con id="20" src="3" tgt="12" wght="0.75209387019276619" />
        <Con id="21" src="4" tgt="11" wght="0.31423544231802225" />
        <Con id="22" src="4" tgt="12" wght="-0.5188594302162528" />
        <Con id="23" src="5" tgt="11" wght="0.98787324223667383" />
        <Con id="24" src="5" tgt="12" wght="-0.06318568903952837" />
        <Con id="25" src="6" tgt="11" wght="-0.96746730525046587" />
        <Con id="26" src="6" tgt="12" wght="0.68995326012372971" />
        <Con id="27" src="7" tgt="11" wght="-0.21985199023038149" />
        <Con id="28" src="7" tgt="12" wght="-0.30243000388145447" />
        <Con id="29" src="8" tgt="11" wght="-0.17455027345567942" />
        <Con id="30" src="8" tgt="12" wght="0.63175178971141577" />
        <Con id="31" src="9" tgt="11" wght="0.43634016625583172" />
        <Con id="32" src="9" tgt="12" wght="-0.95258311741054058" />
        <Con id="33" src="10" tgt="11" wght="0.79636193253099918" />
        <Con id="34" src="10" tgt="12" wght="0.61539110634475946" />
      </Connections>
    </Network>
    <Network id="35" birthGen="0" fitness="0">
      <Nodes>
        <Node type="bias" id="0" />
        <Node type="in" id="1" />
        <Node type="in" id="2" />
        <Node type="in" id="3" />
        <Node type="in" id="4" />
        <Node type="in" id="5" />
        <Node type="in" id="6" />
        <Node type="in" id="7" />
        <Node type="in" id="8" />
        <Node type="in" id="9" />
        <Node type="in" id="10" />
        <Node type="out" id="11" />
        <Node type="out" id="12" />
      </Nodes>
      <Connections>
        <Con id="13" src="0" tgt="11" wght="0.78077664505690336" />
        <Con id="14" src="0" tgt="12" wght="0.85715513490140438" />
        <Con id="15" src="1" tgt="11" wght="-0.13300459459424019" />
        <Con id="16" src="1" tgt="12" wght="-0.12830819934606552" />
        <Con id="17" src="2" tgt="11" wght="0.017417741008102894" />
        <Con id="18" src="2" tgt="12" wght="0.99703608732670546" />
        <Con id="19" src="3" tgt="11" wght="0.16006780602037907" />
        <Con id="20" src="3" tgt="12" wght="-0.263240865431726" />
        <Con id="21" src="4" tgt="11" wght="-0.18861446995288134" />
        <Con id="22" src="4" tgt="12" wght="0.24320875387638807" />
        <Con id="23" src="5" tgt="11" wght="-0.010071916505694389" />
        <Con id="24" src="5" tgt="12" wght="-0.56218840647488832" />
        <Con id="25" src="6" tgt="11" wght="0.12597270216792822" />
        <Con id="26" src="6" tgt="12" wght="-0.27958889026194811" />
        <Con id="27" src="7" tgt="11" wght="0.60348365176469088" />
        <Con id="28" src="7" tgt="12" wght="-0.39268398936837912" />
        <Con id="29" src="8" tgt="11" wght="0.98193475976586342" />
        <Con id="30" src="8" tgt="12" wght="-0.32261896878480911" />
        <Con id="31" src="9" tgt="11" wght="-0.53517122101038694" />
        <Con id="32" src="9" tgt="12" wght="0.770593942143023" />
        <Con id="33" src="10" tgt="11" wght="-0.52030829712748528" />
        <Con id="34" src="10" tgt="12" wght="-0.077005354687571526" />
      </Connections>
    </Network>
    <Network id="36" birthGen="0" fitness="0">
      <Nodes>
        <Node type="bias" id="0" />
        <Node type="in" id="1" />
        <Node type="in" id="2" />
        <Node type="in" id="3" />
        <Node type="in" id="4" />
        <Node type="in" id="5" />
        <Node type="in" id="6" />
        <Node type="in" id="7" />
        <Node type="in" id="8" />
        <Node type="in" id="9" />
        <Node type="in" id="10" />
        <Node type="out" id="11" />
        <Node type="out" id="12" />
      </Nodes>
      <Connections>
        <Con id="13" src="0" tgt="11" wght="-0.72869434673339128" />
        <Con id="14" src="0" tgt="12" wght="-0.69692300818860531" />
        <Con id="15" src="1" tgt="11" wght="-0.70023704506456852" />
        <Con id="16" src="1" tgt="12" wght="0.38499509263783693" />
        <Con id="17" src="2" tgt="11" wght="0.12152583617717028" />
        <Con id="18" src="2" tgt="12" wght="0.046527772210538387" />
        <Con id="19" src="3" tgt="11" wght="-0.2196857575327158" />
        <Con id="20" src="3" tgt="12" wght="0.37804608605802059" />
        <Con id="21" src="4" tgt="11" wght="-0.026633850298821926" />
        <Con id="22" src="4" tgt="12" wght="-0.26772559247910976" />
        <Con id="23" src="5" tgt="11" wght="0.042559217661619186" />
        <Con id="24" src="5" tgt="12" wght="0.96533224079757929" />
        <Con id="25" src="6" tgt="11" wght="-0.78824182972311974" />
        <Con id="26" src="6" tgt="12" wght="0.32930504623800516" />
        <Con id="27" src="7" tgt="11" wght="0.81019163876771927" />
        <Con id="28" src="7" tgt="12" wght="-0.74412961397320032" />
        <Con id="29" src="8" tgt="11" wght="0.66908364836126566" />
        <Con id="30" src="8" tgt="12" wght="0.26172447856515646" />
        <Con id="31" src="9" tgt="11" wght="0.80106309708207846" />
        <Con id="32" src="9" tgt="12" wght="-0.49821727722883224" />
        <Con id="33" src="10" tgt="11" wght="0.17762728780508041" />
        <Con id="34" src="10" tgt="12" wght="-0.9177551306784153" />
      </Connections>
    </Network>
    <Network id="37" birthGen="0" fitness="0">
      <Nodes>
        <Node type="bias" id="0" />
        <Node type="in" id="1" />
        <Node type="in" id="2" />
        <Node type="in" id="3" />
        <Node type="in" id="4" />
        <Node type="in" id="5" />
        <Node type="in" id="6" />
        <Node type="in" id="7" />
        <Node type="in" id="8" />
        <Node type="in" id="9" />
        <Node type="in" id="10" />
        <Node type="out" id="11" />
        <Node type="out" id="12" />
      </Nodes>
      <Connections>
        <Con id="13" src="0" tgt="11" wght="-0.14091710280627012" />
        <Con id="14" src="0" tgt="12" wght="0.31844360940158367" />
        <Con id="15" src="1" tgt="11" wght="0.45366934034973383" />
        <Con id="16" src="1" tgt="12" wght="0.27072841487824917" />
        <Con id="17" src="2" tgt="11" wght="-0.28142943512648344" />
        <Con id="18" src="2" tgt="12" wght="0.9180150805041194" />
        <Con id="19" src="3" tgt="11" wght="-0.98301859945058823" />
        <Con id="20" src="3" tgt="12" wght="0.41814049053937197" />
        <Con id="21" src="4" tgt="11" wght="0.4786588279530406" />
        <Con id="22" src="4" tgt="12" wght="-0.21617417503148317" />
        <Con id="23" src="5" tgt="11" wght="-0.028097843751311302" />
        <Con id="24" src="5" tgt="12" wght="0.44280179683119059" />
        <Con id="25" src="6" tgt="11" wght="-0.47846558410674334" />
        <Con id="26" src="6" tgt="12" wght="0.92310916259884834" />
        <Con id="27" src="7" tgt="11" wght="0.37097237817943096" />
        <Con id="28" src="7" tgt="12" wght="-0.60025425907224417" />
        <Con id="29" src="8" tgt="11" wght="-0.12947652488946915" />
        <Con id="30" src="8" tgt="12" wght="-0.793745051138103" />
        <Con id="31" src="9" tgt="11" wght="-0.80383992753922939" />
        <Con id="32" src="9" tgt="12" wght="0.0273128729313612" />
        <Con id="33" src="10" tgt="11" wght="0.82070209179073572" />
        <Con id="34" src="10" tgt="12" wght="-0.89952976815402508" />
      </Connections>
    </Network>
    <Network id="38" birthGen="0" fitness="0">
      <Nodes>
        <Node type="bias" id="0" />
        <Node type="in" id="1" />
        <Node type="in" id="2" />
        <Node type="in" id="3" />
        <Node type="in" id="4" />
        <Node type="in" id="5" />
        <Node type="in" id="6" />
        <Node type="in" id="7" />
        <Node type="in" id="8" />
        <Node type="in" id="9" />
        <Node type="in" id="10" />
        <Node type="out" id="11" />
        <Node type="out" id="12" />
      </Nodes>
      <Connections>
        <Con id="13" src="0" tgt="11" wght="0.82502380479127169" />
        <Con id="14" src="0" tgt="12" wght="-0.64750235248357058" />
        <Con id="15" src="1" tgt="11" wght="0.71635120268911123" />
        <Con id="16" src="1" tgt="12" wght="-0.762242216616869" />
        <Con id="17" src="2" tgt="11" wght="0.3989340728148818" />
        <Con id="18" src="2" tgt="12" wght="-0.067046761512756348" />
        <Con id="19" src="3" tgt="11" wght="-0.31775404047220945" />
        <Con id="20" src="3" tgt="12" wght="-0.579081978648901" />
        <Con id="21" src="4" tgt="11" wght="-0.92778405174613" />
        <Con id="22" src="4" tgt="12" wght="-0.14082417730242014" />
        <Con id="23" src="5" tgt="11" wght="0.15336681716144085" />
        <Con id="24" src="5" tgt="12" wght="0.48725290782749653" />
        <Con id="25" src="6" tgt="11" wght="0.23620670568197966" />
        <Con id="26" src="6" tgt="12" wght="0.20980685204267502" />
        <Con id="27" src="7" tgt="11" wght="-0.46676146611571312" />
        <Con id="28" src="7" tgt="12" wght="-0.024778568185865879" />
        <Con id="29" src="8" tgt="11" wght="-0.798569711856544" />
        <Con id="30" src="8" tgt="12" wght="-0.62132528144866228" />
        <Con id="31" src="9" tgt="11" wght="0.17765189427882433" />
        <Con id="32" src="9" tgt="12" wght="0.16473624855279922" />
        <Con id="33" src="10" tgt="11" wght="-0.98860927578061819" />
        <Con id="34" src="10" tgt="12" wght="-0.19818190671503544" />
      </Connections>
    </Network>
    <Network id="39" birthGen="0" fitness="0">
      <Nodes>
        <Node type="bias" id="0" />
        <Node type="in" id="1" />
        <Node type="in" id="2" />
        <Node type="in" id="3" />
        <Node type="in" id="4" />
        <Node type="in" id="5" />
        <Node type="in" id="6" />
        <Node type="in" id="7" />
        <Node type="in" id="8" />
        <Node type="in" id="9" />
        <Node type="in" id="10" />
        <Node type="out" id="11" />
        <Node type="out" id="12" />
      </Nodes>
      <Connections>
        <Con id="13" src="0" tgt="11" wght="0.86053681839257479" />
        <Con id="14" src="0" tgt="12" wght="-0.57673837430775166" />
        <Con id="15" src="1" tgt="11" wght="0.020849591121077538" />
        <Con id="16" src="1" tgt="12" wght="-0.55007021315395832" />
        <Con id="17" src="2" tgt="11" wght="0.95129723940044641" />
        <Con id="18" src="2" tgt="12" wght="0.64550694823265076" />
        <Con id="19" src="3" tgt="11" wght="-0.40782669652253389" />
        <Con id="20" src="3" tgt="12" wght="-0.28775835037231445" />
        <Con id="21" src="4" tgt="11" wght="-0.7586941858753562" />
        <Con id="22" src="4" tgt="12" wght="0.5540871974080801" />
        <Con id="23" src="5" tgt="11" wght="0.5637278500944376" />
        <Con id="24" src="5" tgt="12" wght="0.022785061970353127" />
        <Con id="25" src="6" tgt="11" wght="0.195210387930274" />
        <Con id="26" src="6" tgt="12" wght="0.64877192303538322" />
        <Con id="27" src="7" tgt="11" wght="-0.23918421100825071" />
        <Con id="28" src="7" tgt="12" wght="-0.33223346620798111" />
        <Con id="29" src="8" tgt="11" wght="0.21703314315527678" />
        <Con id="30" src="8" tgt="12" wght="0.66944887302815914" />
        <Con id="31" src="9" tgt="11" wght="-0.20042578224092722" />
        <Con id="32" src="9" tgt="12" wght="-0.92603650130331516" />
        <Con id="33" src="10" tgt="11" wght="-0.3978987243026495" />
        <Con id="34" src="10" tgt="12" wght="0.36053248401731253" />
      </Connections>
    </Network>
    <Network id="40" birthGen="0" fitness="0">
      <Nodes>
        <Node type="bias" id="0" />
        <Node type="in" id="1" />
        <Node type="in" id="2" />
        <Node type="in" id="3" />
        <Node type="in" id="4" />
        <Node type="in" id="5" />
        <Node type="in" id="6" />
        <Node type="in" id="7" />
        <Node type="in" id="8" />
        <Node type="in" id="9" />
        <Node type="in" id="10" />
        <Node type="out" id="11" />
        <Node type="out" id="12" />
      </Nodes>
      <Connections>
        <Con id="13" src="0" tgt="11" wght="0.10466398298740387" />
        <Con id="14" src="0" tgt="12" wght="-0.18473347183316946" />
        <Con id="15" src="1" tgt="11" wght="0.71238031424582" />
        <Con id="16" src="1" tgt="12" wght="0.6076612863689661" />
        <Con id="17" src="2" tgt="11" wght="0.67970481980592012" />
        <Con id="18" src="2" tgt="12" wght="-0.080973518081009388" />
        <Con id="19" src="3" tgt="11" wght="0.99643340054899454" />
        <Con id="20" src="3" tgt="12" wght="0.35698126256465912" />
        <Con id="21" src="4" tgt="11" wght="-0.341373085975647" />
        <Con id="22" src="4" tgt="12" wght="-0.82868700008839369" />
        <Con id="23" src="5" tgt="11" wght="0.11963824182748795" />
        <Con id="24" src="5" tgt="12" wght="0.4035637304186821" />
        <Con id="25" src="6" tgt="11" wght="0.97562375292181969" />
        <Con id="26" src="6" tgt="12" wght="-0.90153091587126255" />
        <Con id="27" src="7" tgt="11" wght="-0.90242720488458872" />
        <Con id="28" src="7" tgt="12" wght="-0.25595152098685503" />
        <Con id="29" src="8" tgt="11" wght="-0.82471877615898848" />
        <Con id="30" src="8" tgt="12" wght="0.40458734519779682" />
        <Con id="31" src="9" tgt="11" wght="-0.51204163022339344" />
        <Con id="32" src="9" tgt="12" wght="0.5581343537196517" />
        <Con id="33" src="10" tgt="11" wght="0.79488322883844376" />
        <Con id="34" src="10" tgt="12" wght="-0.041578949429094791" />
      </Connections>
    </Network>
    <Network id="41" birthGen="0" fitness="0">
      <Nodes>
        <Node type="bias" id="0" />
        <Node type="in" id="1" />
        <Node type="in" id="2" />
        <Node type="in" id="3" />
        <Node type="in" id="4" />
        <Node type="in" id="5" />
        <Node type="in" id="6" />
        <Node type="in" id="7" />
        <Node type="in" id="8" />
        <Node type="in" id="9" />
        <Node type="in" id="10" />
        <Node type="out" id="11" />
        <Node type="out" id="12" />
      </Nodes>
      <Connections>
        <Con id="13" src="0" tgt="11" wght="0.76386959105730057" />
        <Con id="14" src="0" tgt="12" wght="0.18001789692789316" />
        <Con id="15" src="1" tgt="11" wght="-0.981175247579813" />
        <Con id="16" src="1" tgt="12" wght="0.19797421246767044" />
        <Con id="17" src="2" tgt="11" wght="0.75511952210217714" />
        <Con id="18" src="2" tgt="12" wght="-0.12759041506797075" />
        <Con id="19" src="3" tgt="11" wght="0.42931821756064892" />
        <Con id="20" src="3" tgt="12" wght="0.86378488875925541" />
        <Con id="21" src="4" tgt="11" wght="-0.57351307198405266" />
        <Con id="22" src="4" tgt="12" wght="0.56622382719069719" />
        <Con id="23" src="5" tgt="11" wght="-0.879386586137116" />
        <Con id="24" src="5" tgt="12" wght="0.2775433361530304" />
        <Con id="25" src="6" tgt="11" wght="-0.53821096289902925" />
        <Con id="26" src="6" tgt="12" wght="-0.21347037423402071" />
        <Con id="27" src="7" tgt="11" wght="-0.98451867792755365" />
        <Con id="28" src="7" tgt="12" wght="0.72414223570376635" />
        <Con id="29" src="8" tgt="11" wght="0.45975006744265556" />
        <Con id="30" src="8" tgt="12" wght="0.089274649508297443" />
        <Con id="31" src="9" tgt="11" wght="-0.063333319500088692" />
        <Con id="32" src="9" tgt="12" wght="0.61839945241808891" />
        <Con id="33" src="10" tgt="11" wght="-0.23693224508315325" />
        <Con id="34" src="10" tgt="12" wght="-0.68735374137759209" />
      </Connections>
    </Network>
    <Network id="42" birthGen="0" fitness="0">
      <Nodes>
        <Node type="bias" id="0" />
        <Node type="in" id="1" />
        <Node type="in" id="2" />
        <Node type="in" id="3" />
        <Node type="in" id="4" />
        <Node type="in" id="5" />
        <Node type="in" id="6" />
        <Node type="in" id="7" />
        <Node type="in" id="8" />
        <Node type="in" id="9" />
        <Node type="in" id="10" />
        <Node type="out" id="11" />
        <Node type="out" id="12" />
      </Nodes>
      <Connections>
        <Con id="13" src="0" tgt="11" wght="-0.081178737804293633" />
        <Con id="14" src="0" tgt="12" wght="-0.28801463078707457" />
        <Con id="15" src="1" tgt="11" wght="0.66060901060700417" />
        <Con id="16" src="1" tgt="12" wght="0.25701818522065878" />
        <Con id="17" src="2" tgt="11" wght="0.42521172203123569" />
        <Con id="18" src="2" tgt="12" wght="-0.2991784205660224" />
        <Con id="19" src="3" tgt="11" wght="0.95474810898303986" />
        <Con id="20" src="3" tgt="12" wght="-0.042553725652396679" />
        <Con id="21" src="4" tgt="11" wght="-0.25564039126038551" />
        <Con id="22" src="4" tgt="12" wght="-0.70052925124764442" />
        <Con id="23" src="5" tgt="11" wght="-0.21729718893766403" />
        <Con id="24" src="5" tgt="12" wght="-0.23376346658915281" />
        <Con id="25" src="6" tgt="11" wght="-0.82855268381536007" />
        <Con id="26" src="6" tgt="12" wght="-0.27992594428360462" />
        <Con id="27" src="7" tgt="11" wght="-0.12956294231116772" />
        <Con id="28" src="7" tgt="12" wght="0.23010217491537333" />
        <Con id="29" src="8" tgt="11" wght="0.26020762417465448" />
        <Con id="30" src="8" tgt="12" wght="-0.2850229861214757" />
        <Con id="31" src="9" tgt="11" wght="0.95011265575885773" />
        <Con id="32" src="9" tgt="12" wght="-0.228151791729033" />
        <Con id="33" src="10" tgt="11" wght="-0.70607411116361618" />
        <Con id="34" src="10" tgt="12" wght="-0.9086948074400425" />
      </Connections>
    </Network>
    <Network id="43" birthGen="0" fitness="0">
      <Nodes>
        <Node type="bias" id="0" />
        <Node type="in" id="1" />
        <Node type="in" id="2" />
        <Node type="in" id="3" />
        <Node type="in" id="4" />
        <Node type="in" id="5" />
        <Node type="in" id="6" />
        <Node type="in" id="7" />
        <Node type="in" id="8" />
        <Node type="in" id="9" />
        <Node type="in" id="10" />
        <Node type="out" id="11" />
        <Node type="out" id="12" />
      </Nodes>
      <Connections>
        <Con id="13" src="0" tgt="11" wght="-0.23547511827200651" />
        <Con id="14" src="0" tgt="12" wght="0.65222345571964979" />
        <Con id="15" src="1" tgt="11" wght="0.81384144816547632" />
        <Con id="16" src="1" tgt="12" wght="-0.20724212843924761" />
        <Con id="17" src="2" tgt="11" wght="0.36653714254498482" />
        <Con id="18" src="2" tgt="12" wght="0.88828491233289242" />
        <Con id="19" src="3" tgt="11" wght="-0.51120637636631727" />
        <Con id="20" src="3" tgt="12" wght="-0.34461088106036186" />
        <Con id="21" src="4" tgt="11" wght="0.89317458681762218" />
        <Con id="22" src="4" tgt="12" wght="0.52372021321207285" />
        <Con id="23" src="5" tgt="11" wght="0.76722097210586071" />
        <Con id="24" src="5" tgt="12" wght="0.4975185189396143" />
        <Con id="25" src="6" tgt="11" wght="0.73483395949006081" />
        <Con id="26" src="6" tgt="12" wght="-0.009917545132339" />
        <Con id="27" src="7" tgt="11" wght="0.91267804522067308" />
        <Con id="28" src="7" tgt="12" wght="-0.21657056733965874" />
        <Con id="29" src="8" tgt="11" wght="-0.40104976296424866" />
        <Con id="30" src="8" tgt="12" wght="0.504300526343286" />
        <Con id="31" src="9" tgt="11" wght="0.24156596511602402" />
        <Con id="32" src="9" tgt="12" wght="-0.20360250119119883" />
        <Con id="33" src="10" tgt="11" wght="-0.061047475785017014" />
        <Con id="34" src="10" tgt="12" wght="-0.71334130689501762" />
      </Connections>
    </Network>
    <Network id="44" birthGen="0" fitness="0">
      <Nodes>
        <Node type="bias" id="0" />
        <Node type="in" id="1" />
        <Node type="in" id="2" />
        <Node type="in" id="3" />
        <Node type="in" id="4" />
        <Node type="in" id="5" />
        <Node type="in" id="6" />
        <Node type="in" id="7" />
        <Node type="in" id="8" />
        <Node type="in" id="9" />
        <Node type="in" id="10" />
        <Node type="out" id="11" />
        <Node type="out" id="12" />
      </Nodes>
      <Connections>
        <Con id="13" src="0" tgt="11" wght="0.6934057129547" />
        <Con id="14" src="0" tgt="12" wght="-0.77880525030195713" />
        <Con id="15" src="1" tgt="11" wght="0.40883313864469528" />
        <Con id="16" src="1" tgt="12" wght="-0.93318547774106264" />
        <Con id="17" src="2" tgt="11" wght="-0.55965518578886986" />
        <Con id="18" src="2" tgt="12" wght="-0.98009836301207542" />
        <Con id="19" src="3" tgt="11" wght="-0.8393107270821929" />
        <Con id="20" src="3" tgt="12" wght="-0.8668668856844306" />
        <Con id="21" src="4" tgt="11" wght="0.89094841480255127" />
        <Con id="22" src="4" tgt="12" wght="0.93843115121126175" />
        <Con id="23" src="5" tgt="11" wght="-0.81433851458132267" />
        <Con id="24" src="5" tgt="12" wght="-0.868478792719543" />
        <Con id="25" src="6" tgt="11" wght="-0.47474115900695324" />
        <Con id="26" src="6" tgt="12" wght="-0.10164347756654024" />
        <Con id="27" src="7" tgt="11" wght="-0.60180246643722057" />
        <Con id="28" src="7" tgt="12" wght="-0.010562394745647907" />
        <Con id="29" src="8" tgt="11" wght="0.68544882349669933" />
        <Con id="30" src="8" tgt="12" wght="-0.3488174406811595" />
        <Con id="31" src="9" tgt="11" wght="0.37368120718747377" />
        <Con id="32" src="9" tgt="12" wght="0.35390783473849297" />
        <Con id="33" src="10" tgt="11" wght="0.2599767604842782" />
        <Con id="34" src="10" tgt="12" wght="-0.99141260702162981" />
      </Connections>
    </Network>
    <Network id="45" birthGen="0" fitness="0">
      <Nodes>
        <Node type="bias" id="0" />
        <Node type="in" id="1" />
        <Node type="in" id="2" />
        <Node type="in" id="3" />
        <Node type="in" id="4" />
        <Node type="in" id="5" />
        <Node type="in" id="6" />
        <Node type="in" id="7" />
        <Node type="in" id="8" />
        <Node type="in" id="9" />
        <Node type="in" id="10" />
        <Node type="out" id="11" />
        <Node type="out" id="12" />
      </Nodes>
      <Connections>
        <Con id="13" src="0" tgt="11" wght="0.1136795450001955" />
        <Con id="14" src="0" tgt="12" wght="0.86409313324838877" />
        <Con id="15" src="1" tgt="11" wght="-0.262723951600492" />
        <Con id="16" src="1" tgt="12" wght="0.15094386599957943" />
        <Con id="17" src="2" tgt="11" wght="0.84972888510674238" />
        <Con id="18" src="2" tgt="12" wght="0.12502327281981707" />
        <Con id="19" src="3" tgt="11" wght="-0.3774228673428297" />
        <Con id="20" src="3" tgt="12" wght="-0.95418635848909616" />
        <Con id="21" src="4" tgt="11" wght="-0.10134457610547543" />
        <Con id="22" src="4" tgt="12" wght="-0.66080158296972513" />
        <Con id="23" src="5" tgt="11" wght="0.44036167301237583" />
        <Con id="24" src="5" tgt="12" wght="-0.2405317323282361" />
        <Con id="25" src="6" tgt="11" wght="-0.98041919060051441" />
        <Con id="26" src="6" tgt="12" wght="0.62323130667209625" />
        <Con id="27" src="7" tgt="11" wght="0.22147668339312077" />
        <Con id="28" src="7" tgt="12" wght="-0.10174225829541683" />
        <Con id="29" src="8" tgt="11" wght="0.23481359425932169" />
        <Con id="30" src="8" tgt="12" wght="0.10100951697677374" />
        <Con id="31" src="9" tgt="11" wght="0.30077223666012287" />
        <Con id="32" src="9" tgt="12" wght="-0.99334394652396441" />
        <Con id="33" src="10" tgt="11" wght="0.664381505921483" />
        <Con id="34" src="10" tgt="12" wght="-0.15676573943346739" />
      </Connections>
    </Network>
    <Network id="46" birthGen="0" fitness="0">
      <Nodes>
        <Node type="bias" id="0" />
        <Node type="in" id="1" />
        <Node type="in" id="2" />
        <Node type="in" id="3" />
        <Node type="in" id="4" />
        <Node type="in" id="5" />
        <Node type="in" id="6" />
        <Node type="in" id="7" />
        <Node type="in" id="8" />
        <Node type="in" id="9" />
        <Node type="in" id="10" />
        <Node type="out" id="11" />
        <Node type="out" id="12" />
      </Nodes>
      <Connections>
        <Con id="13" src="0" tgt="11" wght="0.44620329700410366" />
        <Con id="14" src="0" tgt="12" wght="0.72580454405397177" />
        <Con id="15" src="1" tgt="11" wght="0.35867850668728352" />
        <Con id="16" src="1" tgt="12" wght="0.42813645489513874" />
        <Con id="17" src="2" tgt="11" wght="0.75872066151350737" />
        <Con id="18" src="2" tgt="12" wght="0.74981745984405279" />
        <Con id="19" src="3" tgt="11" wght="-0.27418645191937685" />
        <Con id="20" src="3" tgt="12" wght="0.85190091282129288" />
        <Con id="21" src="4" tgt="11" wght="-0.99928674474358559" />
        <Con id="22" src="4" tgt="12" wght="-0.17920018546283245" />
        <Con id="23" src="5" tgt="11" wght="0.81015682499855757" />
        <Con id="24" src="5" tgt="12" wght="0.72680491302162409" />
        <Con id="25" src="6" tgt="11" wght="-0.10356809850782156" />
        <Con id="26" src="6" tgt="12" wght="0.30824603606015444" />
        <Con id="27" src="7" tgt="11" wght="0.10004091169685125" />
        <Con id="28" src="7" tgt="12" wght="0.65540457796305418" />
        <Con id="29" src="8" tgt="11" wght="-0.35364668909460306" />
        <Con id="30" src="8" tgt="12" wght="0.20958511345088482" />
        <Con id="31" src="9" tgt="11" wght="-0.62843398563563824" />
        <Con id="32" src="9" tgt="12" wght="0.5919094430282712" />
        <Con id="33" src="10" tgt="11" wght="-0.46002651285380125" />
        <Con id="34" src="10" tgt="12" wght="-0.54209325835108757" />
      </Connections>
    </Network>
    <Network id="47" birthGen="0" fitness="0">
      <Nodes>
        <Node type="bias" id="0" />
        <Node type="in" id="1" />
        <Node type="in" id="2" />
        <Node type="in" id="3" />
        <Node type="in" id="4" />
        <Node type="in" id="5" />
        <Node type="in" id="6" />
        <Node type="in" id="7" />
        <Node type="in" id="8" />
        <Node type="in" id="9" />
        <Node type="in" id="10" />
        <Node type="out" id="11" />
        <Node type="out" id="12" />
      </Nodes>
      <Connections>
        <Con id="13" src="0" tgt="11" wght="0.219660809263587" />
        <Con id="14" src="0" tgt="12" wght="-0.15322329662740231" />
        <Con id="15" src="1" tgt="11" wght="-0.96471051592379808" />
        <Con id="16" src="1" tgt="12" wght="-0.83093382231891155" />
        <Con id="17" src="2" tgt="11" wght="0.5278456648811698" />
        <Con id="18" src="2" tgt="12" wght="0.14169538579881191" />
        <Con id="19" src="3" tgt="11" wght="0.56117254961282015" />
        <Con id="20" src="3" tgt="12" wght="-0.47499396838247776" />
        <Con id="21" src="4" tgt="11" wght="0.99752565659582615" />
        <Con id="22" src="4" tgt="12" wght="-0.82373334839940071" />
        <Con id="23" src="5" tgt="11" wght="0.6237466111779213" />
        <Con id="24" src="5" tgt="12" wght="-0.59682925045490265" />
        <Con id="25" src="6" tgt="11" wght="0.60797882080078125" />
        <Con id="26" src="6" tgt="12" wght="0.087833389639854431" />
        <Con id="27" src="7" tgt="11" wght="-0.64502513036131859" />
        <Con id="28" src="7" tgt="12" wght="0.85425085108727217" />
        <Con id="29" src="8" tgt="11" wght="0.81719408929347992" />
