<?xml version="1.0" encoding="utf-8"?>
<Root>
  <ActivationFunctions>
    <Fn id="0" name="SteepenedSigmoid" prob="1" />
  </ActivationFunctions>
  <Networks>
    <Network id="0" birthGen="0" fitness="0">
      <Nodes>
        <Node type="bias" id="0" />
        <Node type="in" id="1" />
        <Node type="in" id="2" />
        <Node type="in" id="3" />
        <Node type="in" id="4" />
        <Node type="in" id="5" />
        <Node type="in" id="6" />
        <Node type="in" id="7" />
        <Node type="in" id="8" />
        <Node type="in" id="9" />
        <Node type="in" id="10" />
        <Node type="out" id="11" />
        <Node type="out" id="12" />
      </Nodes>
      <Connections>
        <Con id="13" src="0" tgt="11" wght="-0.10161717887967825" />
        <Con id="14" src="0" tgt="12" wght="-0.90370349958539009" />
        <Con id="15" src="1" tgt="11" wght="-0.3752435315400362" />
        <Con id="16" src="1" tgt="12" wght="-0.96266910247504711" />
        <Con id="17" src="2" tgt="11" wght="-0.19803830422461033" />
        <Con id="18" src="2" tgt="12" wght="-0.62827044725418091" />
        <Con id="19" src="3" tgt="11" wght="-0.90217577759176493" />
        <Con id="20" src="3" tgt="12" wght="0.95556525513529778" />
        <Con id="21" src="4" tgt="11" wght="-0.3691776879131794" />
        <Con id="22" src="4" tgt="12" wght="-0.29528804961591959" />
        <Con id="23" src="5" tgt="11" wght="-0.08135656826198101" />
        <Con id="24" src="5" tgt="12" wght="-0.11658909730613232" />
        <Con id="25" src="6" tgt="11" wght="-0.12590029556304216" />
        <Con id="26" src="6" tgt="12" wght="0.88228970393538475" />
        <Con id="27" src="7" tgt="11" wght="0.92388780135661364" />
        <Con id="28" src="7" tgt="12" wght="0.75577809289097786" />
        <Con id="29" src="8" tgt="11" wght="-0.71427021361887455" />
        <Con id="30" src="8" tgt="12" wght="0.50413295812904835" />
        <Con id="31" src="9" tgt="11" wght="-0.3519091634079814" />
        <Con id="32" src="9" tgt="12" wght="0.32431483268737793" />
        <Con id="33" src="10" tgt="11" wght="0.02935841865837574" />
        <Con id="34" src="10" tgt="12" wght="0.24787177424877882" />
      </Connections>
    </Network>
    <Network id="1" birthGen="0" fitness="0">
      <Nodes>
        <Node type="bias" id="0" />
        <Node type="in" id="1" />
        <Node type="in" id="2" />
        <Node type="in" id="3" />
        <Node type="in" id="4" />
        <Node type="in" id="5" />
        <Node type="in" id="6" />
        <Node type="in" id="7" />
        <Node type="in" id="8" />
        <Node type="in" id="9" />
        <Node type="in" id="10" />
        <Node type="out" id="11" />
        <Node type="out" id="12" />
      </Nodes>
      <Connections>
        <Con id="13" src="0" tgt="11" wght="-0.61063471622765064" />
        <Con id="14" src="0" tgt="12" wght="-0.18145117349922657" />
        <Con id="15" src="1" tgt="11" wght="-0.23798906896263361" />
        <Con id="16" src="1" tgt="12" wght="-0.65781132411211729" />
        <Con id="17" src="2" tgt="11" wght="-0.52593498397618532" />
        <Con id="18" src="2" tgt="12" wght="0.086268947459757328" />
        <Con id="19" src="3" tgt="11" wght="-0.79505701083689928" />
        <Con id="20" src="3" tgt="12" wght="0.35883771721273661" />
        <Con id="21" src="4" tgt="11" wght="0.644473004154861" />
        <Con id="22" src="4" tgt="12" wght="0.4157901406288147" />
        <Con id="23" src="5" tgt="11" wght="0.54877307172864676" />
        <Con id="24" src="5" tgt="12" wght="-0.71820766478776932" />
        <Con id="25" src="6" tgt="11" wght="0.72861305717378855" />
        <Con id="26" src="6" tgt="12" wght="-0.24646154977381229" />
        <Con id="27" src="7" tgt="11" wght="0.5018767649307847" />
        <Con id="28" src="7" tgt="12" wght="0.94647216517478228" />
        <Con id="29" src="8" tgt="11" wght="0.86528056859970093" />
        <Con id="30" src="8" tgt="12" wght="-0.18586165923625231" />
        <Con id="31" src="9" tgt="11" wght="0.17868949193507433" />
        <Con id="32" src="9" tgt="12" wght="-0.85518877301365137" />
        <Con id="33" src="10" tgt="11" wght="0.84871972631663084" />
        <Con id="34" src="10" tgt="12" wght="0.19567760545760393" />
      </Connections>
    </Network>
    <Network id="2" birthGen="0" fitness="0">
      <Nodes>
        <Node type="bias" id="0" />
        <Node type="in" id="1" />
        <Node type="in" id="2" />
        <Node type="in" id="3" />
        <Node type="in" id="4" />
        <Node type="in" id="5" />
        <Node type="in" id="6" />
        <Node type="in" id="7" />
        <Node type="in" id="8" />
        <Node type="in" id="9" />
        <Node type="in" id="10" />
        <Node type="out" id="11" />
        <Node type="out" id="12" />
      </Nodes>
      <Connections>
        <Con id="13" src="0" tgt="11" wght="0.32148525677621365" />
        <Con id="14" src="0" tgt="12" wght="0.41915360186249018" />
        <Con id="15" src="1" tgt="11" wght="-0.76636209804564714" />
        <Con id="16" src="1" tgt="12" wght="0.44422829989343882" />
        <Con id="17" src="2" tgt="11" wght="0.96682000067085028" />
        <Con id="18" src="2" tgt="12" wght="-0.49614729266613722" />
        <Con id="19" src="3" tgt="11" wght="0.51584154833108187" />
        <Con id="20" src="3" tgt="12" wght="0.072828724980354309" />
        <Con id="21" src="4" tgt="11" wght="-0.65646679699420929" />
        <Con id="22" src="4" tgt="12" wght="0.86630377918481827" />
        <Con id="23" src="5" tgt="11" wght="-0.23363627400249243" />
        <Con id="24" src="5" tgt="12" wght="0.32248494401574135" />
        <Con id="25" src="6" tgt="11" wght="0.40588085353374481" />
        <Con id="26" src="6" tgt="12" wght="-0.3857591962441802" />
        <Con id="27" src="7" tgt="11" wght="0.14651194121688604" />
        <Con id="28" src="7" tgt="12" wght="0.77644885424524546" />
        <Con id="29" src="8" tgt="11" wght="-0.80373396165668964" />
        <Con id="30" src="8" tgt="12" wght="0.93325311318039894" />
        <Con id="31" src="9" tgt="11" wght="-0.12299309484660625" />
        <Con id="32" src="9" tgt="12" wght="-0.3059877110645175" />
        <Con id="33" src="10" tgt="11" wght="0.2356865294277668" />
        <Con id="34" src="10" tgt="12" wght="-0.44018390402197838" />
      </Connections>
    </Network>
    <Network id="3" birthGen="0" fitness="0">
      <Nodes>
        <Node type="bias" id="0" />
        <Node type="in" id="1" />
        <Node type="in" id="2" />
        <Node type="in" id="3" />
        <Node type="in" id="4" />
        <Node type="in" id="5" />
        <Node type="in" id="6" />
        <Node type="in" id="7" />
        <Node type="in" id="8" />
        <Node type="in" id="9" />
        <Node type="in" id="10" />
        <Node type="out" id="11" />
        <Node type="out" id="12" />
      </Nodes>
      <Connections>
        <Con id="13" src="0" tgt="11" wght="0.63728736806660891" />
        <Con id="14" src="0" tgt="12" wght="0.45309286471456289" />
        <Con id="15" src="1" tgt="11" wght="-0.93327202368527651" />
        <Con id="16" src="1" tgt="12" wght="-0.20399639941751957" />
        <Con id="17" src="2" tgt="11" wght="0.69373795669525862" />
        <Con id="18" src="2" tgt="12" wght="-0.070465370081365108" />
        <Con id="19" src="3" tgt="11" wght="-0.65930808242410421" />
        <Con id="20" src="3" tgt="12" wght="-0.64709478057920933" />
        <Con id="21" src="4" tgt="11" wght="-0.56770516000688076" />
        <Con id="22" src="4" tgt="12" wght="0.074591231532394886" />
        <Con id="23" src="5" tgt="11" wght="-0.82833776902407408" />
        <Con id="24" src="5" tgt="12" wght="0.63033438194543123" />
        <Con id="25" src="6" tgt="11" wght="-0.97877983376383781" />
        <Con id="26" src="6" tgt="12" wght="0.27379423007369041" />
        <Con id="27" src="7" tgt="11" wght="-0.1119662132114172" />
        <Con id="28" src="7" tgt="12" wght="-0.51843958906829357" />
        <Con id="29" src="8" tgt="11" wght="0.22721010353416204" />
        <Con id="30" src="8" tgt="12" wght="0.659277374856174" />
        <Con id="31" src="9" tgt="11" wght="0.21544801536947489" />
        <Con id="32" src="9" tgt="12" wght="0.68806225061416626" />
        <Con id="33" src="10" tgt="11" wght="-0.2782627958804369" />
        <Con id="34" src="10" tgt="12" wght="0.087494848296046257" />
      </Connections>
    </Network>
    <Network id="4" birthGen="0" fitness="0">
      <Nodes>
        <Node type="bias" id="0" />
        <Node type="in" id="1" />
        <Node type="in" id="2" />
        <Node type="in" id="3" />
        <Node type="in" id="4" />
        <Node type="in" id="5" />
        <Node type="in" id="6" />
        <Node type="in" id="7" />
        <Node type="in" id="8" />
        <Node type="in" id="9" />
        <Node type="in" id="10" />
        <Node type="out" id="11" />
        <Node type="out" id="12" />
      </Nodes>
      <Connections>
        <Con id="13" src="0" tgt="11" wght="0.74382307752966881" />
        <Con id="14" src="0" tgt="12" wght="0.10475520137697458" />
        <Con id="15" src="1" tgt="11" wght="0.986780934035778" />
        <Con id="16" src="1" tgt="12" wght="0.40130581986159086" />
        <Con id="17" src="2" tgt="11" wght="-0.87017273716628551" />
        <Con id="18" src="2" tgt="12" wght="0.49938590172678232" />
        <Con id="19" src="3" tgt="11" wght="-0.61508037522435188" />
        <Con id="20" src="3" tgt="12" wght="0.52569937985390425" />
        <Con id="21" src="4" tgt="11" wght="-0.7636402016505599" />
        <Con id="22" src="4" tgt="12" wght="-0.39781334903091192" />
        <Con id="23" src="5" tgt="11" wght="0.13596573192626238" />
        <Con id="24" src="5" tgt="12" wght="-0.92490015737712383" />
        <Con id="25" src="6" tgt="11" wght="-0.6577915707603097" />
        <Con id="26" src="6" tgt="12" wght="0.078676237724721432" />
        <Con id="27" src="7" tgt="11" wght="-0.20730865187942982" />
        <Con id="28" src="7" tgt="12" wght="0.10194605775177479" />
        <Con id="29" src="8" tgt="11" wght="-0.23061974160373211" />
        <Con id="30" src="8" tgt="12" wght="-0.86729012709110975" />
        <Con id="31" src="9" tgt="11" wght="-0.42226150259375572" />
        <Con id="32" src="9" tgt="12" wght="0.77850961871445179" />
        <Con id="33" src="10" tgt="11" wght="-0.8690091734752059" />
        <Con id="34" src="10" tgt="12" wght="-0.57329222187399864" />
      </Connections>
    </Network>
    <Network id="5" birthGen="0" fitness="0">
      <Nodes>
        <Node type="bias" id="0" />
        <Node type="in" id="1" />
        <Node type="in" id="2" />
        <Node type="in" id="3" />
        <Node type="in" id="4" />
        <Node type="in" id="5" />
        <Node type="in" id="6" />
        <Node type="in" id="7" />
        <Node type="in" id="8" />
        <Node type="in" id="9" />
        <Node type="in" id="10" />
        <Node type="out" id="11" />
        <Node type="out" id="12" />
      </Nodes>
      <Connections>
        <Con id="13" src="0" tgt="11" wght="0.091442749835550785" />
        <Con id="14" src="0" tgt="12" wght="-0.42929775267839432" />
        <Con id="15" src="1" tgt="11" wght="0.13814712688326836" />
        <Con id="16" src="1" tgt="12" wght="0.78445115219801664" />
        <Con id="17" src="2" tgt="11" wght="-0.18745333887636662" />
        <Con id="18" src="2" tgt="12" wght="-0.72875969670712948" />
        <Con id="19" src="3" tgt="11" wght="0.19849266018718481" />
        <Con id="20" src="3" tgt="12" wght="-0.35003678780049086" />
        <Con id="21" src="4" tgt="11" wght="0.37810580525547266" />
        <Con id="22" src="4" tgt="12" wght="0.95801092404872179" />
        <Con id="23" src="5" tgt="11" wght="-0.89305413234978914" />
        <Con id="24" src="5" tgt="12" wght="0.92983510531485081" />
        <Con id="25" src="6" tgt="11" wght="0.84681682661175728" />
        <Con id="26" src="6" tgt="12" wght="-0.73150802589952946" />
        <Con id="27" src="7" tgt="11" wght="0.15139734279364347" />
        <Con id="28" src="7" tgt="12" wght="-0.18034883867949247" />
        <Con id="29" src="8" tgt="11" wght="-0.54519721306860447" />
        <Con id="30" src="8" tgt="12" wght="0.80612453725188971" />
        <Con id="31" src="9" tgt="11" wght="0.97042740229517221" />
        <Con id="32" src="9" tgt="12" wght="-0.96297774277627468" />
        <Con id="33" src="10" tgt="11" wght="-0.67039762157946825" />
        <Con id="34" src="10" tgt="12" wght="-0.259131352417171" />
      </Connections>
    </Network>
    <Network id="6" birthGen="0" fitness="0">
      <Nodes>
        <Node type="bias" id="0" />
        <Node type="in" id="1" />
        <Node type="in" id="2" />
        <Node type="in" id="3" />
        <Node type="in" id="4" />
        <Node type="in" id="5" />
        <Node type="in" id="6" />
        <Node type="in" id="7" />
        <Node type="in" id="8" />
        <Node type="in" id="9" />
        <Node type="in" id="10" />
        <Node type="out" id="11" />
        <Node type="out" id="12" />
      </Nodes>
      <Connections>
        <Con id="13" src="0" tgt="11" wght="-0.31946845725178719" />
        <Con id="14" src="0" tgt="12" wght="0.14696462918072939" />
        <Con id="15" src="1" tgt="11" wght="-0.69985412247478962" />
        <Con id="16" src="1" tgt="12" wght="0.45680469181388617" />
        <Con id="17" src="2" tgt="11" wght="-0.22318918164819479" />
        <Con id="18" src="2" tgt="12" wght="0.54019269067794085" />
        <Con id="19" src="3" tgt="11" wght="0.64914470352232456" />
        <Con id="20" src="3" tgt="12" wght="0.7542679682374" />
        <Con id="21" src="4" tgt="11" wght="-0.0039519080892205238" />
        <Con id="22" src="4" tgt="12" wght="-0.53108283784240484" />
        <Con id="23" src="5" tgt="11" wght="-0.99919572379440069" />
        <Con id="24" src="5" tgt="12" wght="-0.34060223773121834" />
        <Con id="25" src="6" tgt="11" wght="-0.37357847485691309" />
        <Con id="26" src="6" tgt="12" wght="-0.15195922367274761" />
        <Con id="27" src="7" tgt="11" wght="-0.92713512666523457" />
        <Con id="28" src="7" tgt="12" wght="0.46551600471138954" />
        <Con id="29" src="8" tgt="11" wght="0.38963106740266085" />
        <Con id="30" src="8" tgt="12" wght="-0.96529712714254856" />
        <Con id="31" src="9" tgt="11" wght="0.10678903385996819" />
        <Con id="32" src="9" tgt="12" wght="0.088593071326613426" />
        <Con id="33" src="10" tgt="11" wght="-0.85103748366236687" />
        <Con id="34" src="10" tgt="12" wght="-0.61194741725921631" />
      </Connections>
    </Network>
    <Network id="7" birthGen="0" fitness="0">
      <Nodes>
        <Node type="bias" id="0" />
        <Node type="in" id="1" />
        <Node type="in" id="2" />
        <Node type="in" id="3" />
        <Node type="in" id="4" />
        <Node type="in" id="5" />
        <Node type="in" id="6" />
        <Node type="in" id="7" />
        <Node type="in" id="8" />
        <Node type="in" id="9" />
        <Node type="in" id="10" />
        <Node type="out" id="11" />
        <Node type="out" id="12" />
      </Nodes>
      <Connections>
        <Con id="13" src="0" tgt="11" wght="-0.36039147712290287" />
        <Con id="14" src="0" tgt="12" wght="0.1090049697086215" />
        <Con id="15" src="1" tgt="11" wght="0.78897903766483068" />
        <Con id="16" src="1" tgt="12" wght="-0.79069558903574944" />
        <Con id="17" src="2" tgt="11" wght="0.39807633683085442" />
        <Con id="18" src="2" tgt="12" wght="0.901607284322381" />
        <Con id="19" src="3" tgt="11" wght="0.23060446791350842" />
        <Con id="20" src="3" tgt="12" wght="0.77893683686852455" />
        <Con id="21" src="4" tgt="11" wght="0.9639651095494628" />
        <Con id="22" src="4" tgt="12" wght="0.71427350398153067" />
        <Con id="23" src="5" tgt="11" wght="-0.7067121546715498" />
        <Con id="24" src="5" tgt="12" wght="-0.34144485834985971" />
        <Con id="25" src="6" tgt="11" wght="-0.49173429794609547" />
        <Con id="26" src="6" tgt="12" wght="0.35324711445719004" />
        <Con id="27" src="7" tgt="11" wght="-0.45053819008171558" />
        <Con id="28" src="7" tgt="12" wght="0.92407818324863911" />
        <Con id="29" src="8" tgt="11" wght="-0.34436774998903275" />
        <Con id="30" src="8" tgt="12" wght="-0.82703067548573017" />
        <Con id="31" src="9" tgt="11" wght="-0.066072718240320683" />
        <Con id="32" src="9" tgt="12" wght="-0.027268728241324425" />
        <Con id="33" src="10" tgt="11" wght="0.9575813552364707" />
        <Con id="34" src="10" tgt="12" wght="-0.82550002261996269" />
      </Connections>
    </Network>
    <Network id="8" birthGen="0" fitness="0">
      <Nodes>
        <Node type="bias" id="0" />
        <Node type="in" id="1" />
        <Node type="in" id="2" />
        <Node type="in" id="3" />
        <Node type="in" id="4" />
        <Node type="in" id="5" />
        <Node type="in" id="6" />
        <Node type="in" id="7" />
        <Node type="in" id="8" />
        <Node type="in" id="9" />
        <Node type="in" id="10" />
        <Node type="out" id="11" />
        <Node type="out" id="12" />
      </Nodes>
      <Connections>
        <Con id="13" src="0" tgt="11" wght="0.57196005899459124" />
        <Con id="14" src="0" tgt="12" wght="-0.836036641150713" />
        <Con id="15" src="1" tgt="11" wght="0.78165845200419426" />
        <Con id="16" src="1" tgt="12" wght="-0.3160848468542099" />
        <Con id="17" src="2" tgt="11" wght="0.46768815629184246" />
        <Con id="18" src="2" tgt="12" wght="-0.866197413764894" />
        <Con id="19" src="3" tgt="11" wght="-0.86019362043589354" />
        <Con id="20" src="3" tgt="12" wght="0.48426228016614914" />
        <Con id="21" src="4" tgt="11" wght="-0.00080886203795671463" />
        <Con id="22" src="4" tgt="12" wght="0.52030136063694954" />
        <Con id="23" src="5" tgt="11" wght="0.662579552270472" />
        <Con id="24" src="5" tgt="12" wght="0.57051547896116972" />
        <Con id="25" src="6" tgt="11" wght="0.016915694810450077" />
        <Con id="26" src="6" tgt="12" wght="0.51921412441879511" />
        <Con id="27" src="7" tgt="11" wght="0.5013333261013031" />
        <Con id="28" src="7" tgt="12" wght="-0.052814047783613205" />
        <Con id="29" src="8" tgt="11" wght="0.59367447160184383" />
        <Con id="30" src="8" tgt="12" wght="0.0796378655359149" />
        <Con id="31" src="9" tgt="11" wght="0.68829522654414177" />
        <Con id="32" src="9" tgt="12" wght="0.79383981507271528" />
        <Con id="33" src="10" tgt="11" wght="0.53297821898013353" />
        <Con id="34" src="10" tgt="12" wght="0.5021370267495513" />
      </Connections>
    </Network>
    <Network id="9" birthGen="0" fitness="0">
      <Nodes>
        <Node type="bias" id="0" />
        <Node type="in" id="1" />
        <Node type="in" id="2" />
        <Node type="in" id="3" />
        <Node type="in" id="4" />
        <Node type="in" id="5" />
        <Node type="in" id="6" />
        <Node type="in" id="7" />
        <Node type="in" id="8" />
        <Node type="in" id="9" />
        <Node type="in" id="10" />
        <Node type="out" id="11" />
        <Node type="out" id="12" />
      </Nodes>
      <Connections>
        <Con id="13" src="0" tgt="11" wght="-0.16498273983597755" />
        <Con id="14" src="0" tgt="12" wght="-0.21734492294490337" />
        <Con id="15" src="1" tgt="11" wght="0.68323101662099361" />
        <Con id="16" src="1" tgt="12" wght="0.54501364193856716" />
        <Con id="17" src="2" tgt="11" wght="-0.45003435295075178" />
        <Con id="18" src="2" tgt="12" wght="-0.072505409829318523" />
        <Con id="19" src="3" tgt="11" wght="-0.37524085957556963" />
        <Con id="20" src="3" tgt="12" wght="0.3919057659804821" />
        <Con id="21" src="4" tgt="11" wght="-0.52725602500140667" />
        <Con id="22" src="4" tgt="12" wght="0.261875519528985" />
        <Con id="23" src="5" tgt="11" wght="-0.74549205042421818" />
        <Con id="24" src="5" tgt="12" wght="-0.72077786084264517" />
        <Con id="25" src="6" tgt="11" wght="-0.51679335627704859" />
        <Con id="26" src="6" tgt="12" wght="-0.84513569716364145" />
        <Con id="27" src="7" tgt="11" wght="0.34108053892850876" />
        <Con id="28" src="7" tgt="12" wght="0.090854505077004433" />
        <Con id="29" src="8" tgt="11" wght="0.26780442055314779" />
        <Con id="30" src="8" tgt="12" wght="-0.92737008724361658" />
        <Con id="31" src="9" tgt="11" wght="0.89814763516187668" />
        <Con id="32" src="9" tgt="12" wght="0.0845552971586585" />
        <Con id="33" src="10" tgt="11" wght="0.80938113294541836" />
        <Con id="34" src="10" tgt="12" wght="-0.9039433803409338" />
      </Connections>
    </Network>
    <Network id="10" birthGen="0" fitness="0">
      <Nodes>
        <Node type="bias" id="0" />
        <Node type="in" id="1" />
        <Node type="in" id="2" />
        <Node type="in" id="3" />
        <Node type="in" id="4" />
        <Node type="in" id="5" />
        <Node type="in" id="6" />
        <Node type="in" id="7" />
        <Node type="in" id="8" />
        <Node type="in" id="9" />
        <Node type="in" id="10" />
        <Node type="out" id="11" />
        <Node type="out" id="12" />
      </Nodes>
      <Connections>
        <Con id="13" src="0" tgt="11" wght="-0.9971552062779665" />
        <Con id="14" src="0" tgt="12" wght="-0.65806170552968979" />
        <Con id="15" src="1" tgt="11" wght="-0.80212861578911543" />
        <Con id="16" src="1" tgt="12" wght="0.24078595917671919" />
        <Con id="17" src="2" tgt="11" wght="-0.071526904590427876" />
        <Con id="18" src="2" tgt="12" wght="-0.20216430444270372" />
        <Con id="19" src="3" tgt="11" wght="-0.730575580149889" />
        <Con id="20" src="3" tgt="12" wght="-0.88870604988187551" />
        <Con id="21" src="4" tgt="11" wght="0.37834642548114061" />
        <Con id="22" src="4" tgt="12" wght="0.17343663517385721" />
        <Con id="23" src="5" tgt="11" wght="0.85126708727329969" />
        <Con id="24" src="5" tgt="12" wght="0.18966540321707726" />
        <Con id="25" src="6" tgt="11" wght="-0.94810730032622814" />
        <Con id="26" src="6" tgt="12" wght="0.48565593082457781" />
        <Con id="27" src="7" tgt="11" wght="0.15037098992615938" />
        <Con id="28" src="7" tgt="12" wght="0.042806509882211685" />
        <Con id="29" src="8" tgt="11" wght="-0.84645392931997776" />
        <Con id="30" src="8" tgt="12" wght="0.5728631317615509" />
        <Con id="31" src="9" tgt="11" wght="0.5576730752363801" />
        <Con id="32" src="9" tgt="12" wght="0.350436014123261" />
        <Con id="33" src="10" tgt="11" wght="0.19543945230543613" />
        <Con id="34" src="10" tgt="12" wght="0.77486324775964022" />
      </Connections>
    </Network>
    <Network id="11" birthGen="0" fitness="0">
      <Nodes>
        <Node type="bias" id="0" />
        <Node type="in" id="1" />
        <Node type="in" id="2" />
        <Node type="in" id="3" />
        <Node type="in" id="4" />
        <Node type="in" id="5" />
        <Node type="in" id="6" />
        <Node type="in" id="7" />
        <Node type="in" id="8" />
        <Node type="in" id="9" />
        <Node type="in" id="10" />
        <Node type="out" id="11" />
        <Node type="out" id="12" />
      </Nodes>
      <Connections>
        <Con id="13" src="0" tgt="11" wght="0.104090616106987" />
        <Con id="14" src="0" tgt="12" wght="-0.81159266829490662" />
        <Con id="15" src="1" tgt="11" wght="0.061268285848200321" />
        <Con id="16" src="1" tgt="12" wght="0.97303634695708752" />
        <Con id="17" src="2" tgt="11" wght="-0.12854653969407082" />
        <Con id="18" src="2" tgt="12" wght="-0.16153275035321712" />
        <Con id="19" src="3" tgt="11" wght="0.57221012003719807" />
        <Con id="20" src="3" tgt="12" wght="-0.76549001969397068" />
        <Con id="21" src="4" tgt="11" wght="-0.51943744067102671" />
        <Con id="22" src="4" tgt="12" wght="-0.076255341991782188" />
        <Con id="23" src="5" tgt="11" wght="-0.37003500107675791" />
        <Con id="24" src="5" tgt="12" wght="-0.35900168213993311" />
        <Con id="25" src="6" tgt="11" wght="0.23902576137334108" />
        <Con id="26" src="6" tgt="12" wght="-0.57237939722836018" />
        <Con id="27" src="7" tgt="11" wght="0.28566831350326538" />
        <Con id="28" src="7" tgt="12" wght="0.50656529329717159" />
        <Con id="29" src="8" tgt="11" wght="-0.11850665044039488" />
        <Con id="30" src="8" tgt="12" wght="0.88462822139263153" />
        <Con id="31" src="9" tgt="11" wght="-0.27023392915725708" />
        <Con id="32" src="9" tgt="12" wght="0.83351087756454945" />
        <Con id="33" src="10" tgt="11" wght="0.93051750026643276" />
        <Con id="34" src="10" tgt="12" wght="-0.69967509433627129" />
      </Connections>
    </Network>
    <Network id="12" birthGen="0" fitness="0">
      <Nodes>
        <Node type="bias" id="0" />
        <Node type="in" id="1" />
        <Node type="in" id="2" />
        <Node type="in" id="3" />
        <Node type="in" id="4" />
        <Node type="in" id="5" />
        <Node type="in" id="6" />
        <Node type="in" id="7" />
        <Node type="in" id="8" />
        <Node type="in" id="9" />
        <Node type="in" id="10" />
        <Node type="out" id="11" />
        <Node type="out" id="12" />
      </Nodes>
      <Connections>
        <Con id="13" src="0" tgt="11" wght="0.59109647758305073" />
        <Con id="14" src="0" tgt="12" wght="0.44179680570960045" />
        <Con id="15" src="1" tgt="11" wght="-0.06225933413952589" />
        <Con id="16" src="1" tgt="12" wght="0.85387548804283142" />
        <Con id="17" src="2" tgt="11" wght="-0.69469120725989342" />
        <Con id="18" src="2" tgt="12" wght="0.49936091061681509" />
        <Con id="19" src="3" tgt="11" wght="0.872299094684422" />
        <Con id="20" src="3" tgt="12" wght="-0.14915248844772577" />
        <Con id="21" src="4" tgt="11" wght="-0.77053205017000437" />
        <Con id="22" src="4" tgt="12" wght="-0.78012719843536615" />
        <Con id="23" src="5" tgt="11" wght="-0.0721867997199297" />
        <Con id="24" src="5" tgt="12" wght="0.32625613082200289" />
        <Con id="25" src="6" tgt="11" wght="-0.25331107154488564" />
        <Con id="26" src="6" tgt="12" wght="0.32767501007765532" />
        <Con id="27" src="7" tgt="11" wght="0.95425290800631046" />
        <Con id="28" src="7" tgt="12" wght="0.14442905317991972" />
        <Con id="29" src="8" tgt="11" wght="-0.934895858168602" />
        <Con id="30" src="8" tgt="12" wght="-0.17994203511625528" />
        <Con id="31" src="9" tgt="11" wght="0.094561271369457245" />
        <Con id="32" src="9" tgt="12" wght="-0.62408320233225822" />
        <Con id="33" src="10" tgt="11" wght="0.17004811856895685" />
        <Con id="34" src="10" tgt="12" wght="0.07891396339982748" />
      </Connections>
    </Network>
    <Network id="13" birthGen="0" fitness="0">
      <Nodes>
        <Node type="bias" id="0" />
        <Node type="in" id="1" />
        <Node type="in" id="2" />
        <Node type="in" id="3" />
        <Node type="in" id="4" />
        <Node type="in" id="5" />
        <Node type="in" id="6" />
        <Node type="in" id="7" />
        <Node type="in" id="8" />
        <Node type="in" id="9" />
        <Node type="in" id="10" />
        <Node type="out" id="11" />
        <Node type="out" id="12" />
      </Nodes>
      <Connections>
        <Con id="13" src="0" tgt="11" wght="0.37542404793202877" />
        <Con id="14" src="0" tgt="12" wght="-0.44499859400093555" />
        <Con id="15" src="1" tgt="11" wght="-0.25568951666355133" />
        <Con id="16" src="1" tgt="12" wght="0.672154089435935" />
        <Con id="17" src="2" tgt="11" wght="-0.099324226379394531" />
        <Con id="18" src="2" tgt="12" wght="-0.90029117930680513" />
        <Con id="19" src="3" tgt="11" wght="-0.264684222638607" />
        <Con id="20" src="3" tgt="12" wght="-0.44717986509203911" />
        <Con id="21" src="4" tgt="11" wght="0.222876220010221" />
        <Con id="22" src="4" tgt="12" wght="0.076718834228813648" />
        <Con id="23" src="5" tgt="11" wght="-0.0043313661590218544" />
        <Con id="24" src="5" tgt="12" wght="0.0398613391444087" />
        <Con id="25" src="6" tgt="11" wght="0.87964058388024569" />
        <Con id="26" src="6" tgt="12" wght="0.45292726624757051" />
        <Con id="27" src="7" tgt="11" wght="0.50765771698206663" />
        <Con id="28" src="7" tgt="12" wght="0.56739450246095657" />
        <Con id="29" src="8" tgt="11" wght="0.63866280484944582" />
        <Con id="30" src="8" tgt="12" wght="0.75698158610612154" />
        <Con id="31" src="9" tgt="11" wght="-0.79484049044549465" />
        <Con id="32" src="9" tgt="12" wght="0.28203001711517572" />
        <Con id="33" src="10" tgt="11" wght="-0.10538094956427813" />
        <Con id="34" src="10" tgt="12" wght="-0.43082117382436991" />
      </Connections>
    </Network>
    <Network id="14" birthGen="0" fitness="0">
      <Nodes>
        <Node type="bias" id="0" />
        <Node type="in" id="1" />
        <Node type="in" id="2" />
        <Node type="in" id="3" />
        <Node type="in" id="4" />
        <Node type="in" id="5" />
        <Node type="in" id="6" />
        <Node type="in" id="7" />
        <Node type="in" id="8" />
        <Node type="in" id="9" />
        <Node type="in" id="10" />
        <Node type="out" id="11" />
        <Node type="out" id="12" />
      </Nodes>
      <Connections>
        <Con id="13" src="0" tgt="11" wght="-0.85070141311734915" />
        <Con id="14" src="0" tgt="12" wght="-0.537065819837153" />
        <Con id="15" src="1" tgt="11" wght="-0.72654521837830544" />
        <Con id="16" src="1" tgt="12" wght="-0.0634415689855814" />
        <Con id="17" src="2" tgt="11" wght="-0.81752648111432791" />
        <Con id="18" src="2" tgt="12" wght="0.8462572954595089" />
        <Con id="19" src="3" tgt="11" wght="0.60126541461795568" />
        <Con id="20" src="3" tgt="12" wght="-0.30581729765981436" />
        <Con id="21" src="4" tgt="11" wght="-0.92736393772065639" />
        <Con id="22" src="4" tgt="12" wght="-0.42125423718243837" />
        <Con id="23" src="5" tgt="11" wght="-0.42140426952391863" />
        <Con id="24" src="5" tgt="12" wght="0.63045053370296955" />
        <Con id="25" src="6" tgt="11" wght="0.8035687543451786" />
        <Con id="26" src="6" tgt="12" wght="0.38758910447359085" />
        <Con id="27" src="7" tgt="11" wght="0.12860915157943964" />
        <Con id="28" src="7" tgt="12" wght="0.94044298306107521" />
        <Con id="29" src="8" tgt="11" wght="-0.74551825132220984" />
        <Con id="30" src="8" tgt="12" wght="-0.58798949792981148" />
        <Con id="31" src="9" tgt="11" wght="-0.671685004606843" />
        <Con id="32" src="9" tgt="12" wght="-0.35550833959132433" />
        <Con id="33" src="10" tgt="11" wght="-0.26883695740252733" />
        <Con id="34" src="10" tgt="12" wght="-0.03858079481869936" />
      </Connections>
    </Network>
    <Network id="15" birthGen="0" fitness="0">
      <Nodes>
        <Node type="bias" id="0" />
        <Node type="in" id="1" />
        <Node type="in" id="2" />
        <Node type="in" id="3" />
        <Node type="in" id="4" />
        <Node type="in" id="5" />
        <Node type="in" id="6" />
        <Node type="in" id="7" />
        <Node type="in" id="8" />
        <Node type="in" id="9" />
        <Node type="in" id="10" />
        <Node type="out" id="11" />
        <Node type="out" id="12" />
      </Nodes>
      <Connections>
        <Con id="13" src="0" tgt="11" wght="-0.51856771018356085" />
        <Con id="14" src="0" tgt="12" wght="-0.47733828518539667" />
        <Con id="15" src="1" tgt="11" wght="0.041428975760936737" />
        <Con id="16" src="1" tgt="12" wght="0.67396044079214334" />
        <Con id="17" src="2" tgt="11" wght="-0.86311765573918819" />
        <Con id="18" src="2" tgt="12" wght="0.35160659998655319" />
        <Con id="19" src="3" tgt="11" wght="-0.71657989360392094" />
        <Con id="20" src="3" tgt="12" wght="0.25357850175350904" />
        <Con id="21" src="4" tgt="11" wght="-0.58679426088929176" />
        <Con id="22" src="4" tgt="12" wght="0.26247929781675339" />
        <Con id="23" src="5" tgt="11" wght="0.92786535061895847" />
        <Con id="24" src="5" tgt="12" wght="-0.54666041489690542" />
        <Con id="25" src="6" tgt="11" wght="0.20911824703216553" />
        <Con id="26" src="6" tgt="12" wght="0.975945464335382" />
        <Con id="27" src="7" tgt="11" wght="0.48289672192186117" />
        <Con id="28" src="7" tgt="12" wght="-0.65842252410948277" />
        <Con id="29" src="8" tgt="11" wght="0.52278702519834042" />
        <Con id="30" src="8" tgt="12" wght="-0.56281952373683453" />
        <Con id="31" src="9" tgt="11" wght="0.22761737275868654" />
        <Con id="32" src="9" tgt="12" wght="0.25257719773799181" />
        <Con id="33" src="10" tgt="11" wght="-0.23739762231707573" />
        <Con id="34" src="10" tgt="12" wght="-0.43432966247200966" />
      </Connections>
    </Network>
    <Network id="16" birthGen="0" fitness="0">
      <Nodes>
        <Node type="bias" id="0" />
        <Node type="in" id="1" />
        <Node type="in" id="2" />
        <Node type="in" id="3" />
        <Node type="in" id="4" />
        <Node type="in" id="5" />
        <Node type="in" id="6" />
        <Node type="in" id="7" />
        <Node type="in" id="8" />
        <Node type="in" id="9" />
        <Node type="in" id="10" />
        <Node type="out" id="11" />
        <Node type="out" id="12" />
      </Nodes>
      <Connections>
        <Con id="13" src="0" tgt="11" wght="0.10404057148844004" />
        <Con id="14" src="0" tgt="12" wght="0.26204790826886892" />
        <Con id="15" src="1" tgt="11" wght="0.09850691631436348" />
        <Con id="16" src="1" tgt="12" wght="-0.90825050976127386" />
        <Con id="17" src="2" tgt="11" wght="-0.48576432559639215" />
        <Con id="18" src="2" tgt="12" wght="0.5490915747359395" />
        <Con id="19" src="3" tgt="11" wght="0.40154001303017139" />
        <Con id="20" src="3" tgt="12" wght="0.55012819170951843" />
        <Con id="21" src="4" tgt="11" wght="-0.84458917938172817" />
        <Con id="22" src="4" tgt="12" wght="0.25244819279760122" />
        <Con id="23" src="5" tgt="11" wght="-0.62210516911000013" />
        <Con id="24" src="5" tgt="12" wght="-0.86187546979635954" />
        <Con id="25" src="6" tgt="11" wght="-0.87948309071362019" />
        <Con id="26" src="6" tgt="12" wght="0.0018356507644057274" />
        <Con id="27" src="7" tgt="11" wght="-0.20265320222824812" />
        <Con id="28" src="7" tgt="12" wght="0.14007648080587387" />
        <Con id="29" src="8" tgt="11" wght="-0.4982253136113286" />
        <Con id="30" src="8" tgt="12" wght="0.30480813607573509" />
        <Con id="31" src="9" tgt="11" wght="0.14799565728753805" />
        <Con id="32" src="9" tgt="12" wght="0.28226737584918737" />
        <Con id="33" src="10" tgt="11" wght="0.257085376419127" />
        <Con id="34" src="10" tgt="12" wght="0.3953527333214879" />
      </Connections>
    </Network>
    <Network id="17" birthGen="0" fitness="0">
      <Nodes>
        <Node type="bias" id="0" />
        <Node type="in" id="1" />
        <Node type="in" id="2" />
        <Node type="in" id="3" />
        <Node type="in" id="4" />
        <Node type="in" id="5" />
        <Node type="in" id="6" />
        <Node type="in" id="7" />
        <Node type="in" id="8" />
        <Node type="in" id="9" />
        <Node type="in" id="10" />
        <Node type="out" id="11" />
        <Node type="out" id="12" />
      </Nodes>
      <Connections>
        <Con id="13" src="0" tgt="11" wght="0.843160386197269" />
        <Con id="14" src="0" tgt="12" wght="0.42407357785850763" />
        <Con id="15" src="1" tgt="11" wght="-0.3030624482780695" />
        <Con id="16" src="1" tgt="12" wght="-0.59306484274566174" />
        <Con id="17" src="2" tgt="11" wght="-0.8439212990924716" />
        <Con id="18" src="2" tgt="12" wght="0.36749171558767557" />
        <Con id="19" src="3" tgt="11" wght="-0.8956488249823451" />
        <Con id="20" src="3" tgt="12" wght="0.77150973957031965" />
        <Con id="21" src="4" tgt="11" wght="0.91595201659947634" />
        <Con id="22" src="4" tgt="12" wght="-0.16453404538333416" />
        <Con id="23" src="5" tgt="11" wght="-0.84047777112573385" />
        <Con id="24" src="5" tgt="12" wght="0.4801437109708786" />
        <Con id="25" src="6" tgt="11" wght="-0.77931428235024214" />
        <Con id="26" src="6" tgt="12" wght="-0.8347545238211751" />
        <Con id="27" src="7" tgt="11" wght="0.4630929846316576" />
        <Con id="28" src="7" tgt="12" wght="0.79678723961114883" />
        <Con id="29" src="8" tgt="11" wght="0.30474010854959488" />
        <Con id="30" src="8" tgt="12" wght="-0.3440174525603652" />
        <Con id="31" src="9" tgt="11" wght="0.92778920941054821" />
        <Con id="32" src="9" tgt="12" wght="-0.38583934027701616" />
        <Con id="33" src="10" tgt="11" wght="-0.67956030182540417" />
        <Con id="34" src="10" tgt="12" wght="0.014500792138278484" />
      </Connections>
    </Network>
    <Network id="18" birthGen="0" fitness="0">
      <Nodes>
        <Node type="bias" id="0" />
        <Node type="in" id="1" />
        <Node type="in" id="2" />
        <Node type="in" id="3" />
        <Node type="in" id="4" />
        <Node type="in" id="5" />
        <Node type="in" id="6" />
        <Node type="in" id="7" />
        <Node type="in" id="8" />
        <Node type="in" id="9" />
        <Node type="in" id="10" />
        <Node type="out" id="11" />
        <Node type="out" id="12" />
      </Nodes>
      <Connections>
        <Con id="13" src="0" tgt="11" wght="0.020822298713028431" />
        <Con id="14" src="0" tgt="12" wght="0.58381388057023287" />
        <Con id="15" src="1" tgt="11" wght="-0.9278417844325304" />
        <Con id="16" src="1" tgt="12" wght="0.97359552420675755" />
        <Con id="17" src="2" tgt="11" wght="0.684876112267375" />
        <Con id="18" src="2" tgt="12" wght="0.14611721225082874" />
        <Con id="19" src="3" tgt="11" wght="-0.025487284176051617" />
        <Con id="20" src="3" tgt="12" wght="0.35328841116279364" />
        <Con id="21" src="4" tgt="11" wght="-0.07760289590805769" />
        <Con id="22" src="4" tgt="12" wght="0.85648126807063818" />
        <Con id="23" src="5" tgt="11" wght="-0.84013546444475651" />
        <Con id="24" src="5" tgt="12" wght="-0.628318683244288" />
        <Con id="25" src="6" tgt="11" wght="-0.093407610431313515" />
        <Con id="26" src="6" tgt="12" wght="0.41276045609265566" />
        <Con id="27" src="7" tgt="11" wght="-0.66220685839653015" />
        <Con id="28" src="7" tgt="12" wght="0.76464014872908592" />
        <Con id="29" src="8" tgt="11" wght="-0.54326469171792269" />
        <Con id="30" src="8" tgt="12" wght="-0.1522842776030302" />
        <Con id="31" src="9" tgt="11" wght="0.6513013020157814" />
        <Con id="32" src="9" tgt="12" wght="-0.94042190350592136" />
        <Con id="33" src="10" tgt="11" wght="-0.9720211336389184" />
        <Con id="34" src="10" tgt="12" wght="-0.36440172418951988" />
      </Connections>
    </Network>
    <Network id="19" birthGen="0" fitness="0">
      <Nodes>
        <Node type="bias" id="0" />
        <Node type="in" id="1" />
        <Node type="in" id="2" />
        <Node type="in" id="3" />
        <Node type="in" id="4" />
        <Node type="in" id="5" />
        <Node type="in" id="6" />
        <Node type="in" id="7" />
        <Node type="in" id="8" />
        <Node type="in" id="9" />
        <Node type="in" id="10" />
        <Node type="out" id="11" />
        <Node type="out" id="12" />
      </Nodes>
      <Connections>
        <Con id="13" src="0" tgt="11" wght="0.35403357073664665" />
        <Con id="14" src="0" tgt="12" wght="0.23734336905181408" />
        <Con id="15" src="1" tgt="11" wght="0.54372782539576292" />
        <Con id="16" src="1" tgt="12" wght="-0.056565516628324986" />
        <Con id="17" src="2" tgt="11" wght="0.25481867697089911" />
        <Con id="18" src="2" tgt="12" wght="-0.92079105041921139" />
        <Con id="19" src="3" tgt="11" wght="-0.47062662616372108" />
        <Con id="20" src="3" tgt="12" wght="0.91772637981921434" />
        <Con id="21" src="4" tgt="11" wght="0.92203892208635807" />
        <Con id="22" src="4" tgt="12" wght="-0.78517766296863556" />
        <Con id="23" src="5" tgt="11" wght="-0.7078348295763135" />
        <Con id="24" src="5" tgt="12" wght="0.91011813189834356" />
        <Con id="25" src="6" tgt="11" wght="-0.9004582604393363" />
        <Con id="26" src="6" tgt="12" wght="0.62978557962924242" />
        <Con id="27" src="7" tgt="11" wght="-0.98871896881610155" />
        <Con id="28" src="7" tgt="12" wght="0.36799631267786026" />
        <Con id="29" src="8" tgt="11" wght="-0.55059514194726944" />
        <Con id="30" src="8" tgt="12" wght="-0.32954276259988546" />
        <Con id="31" src="9" tgt="11" wght="0.94267941266298294" />
        <Con id="32" src="9" tgt="12" wght="-0.983687924221158" />
        <Con id="33" src="10" tgt="11" wght="0.67320582922548056" />
        <Con id="34" src="10" tgt="12" wght="-0.12290691770613194" />
      </Connections>
    </Network>
    <Network id="20" birthGen="0" fitness="0">
      <Nodes>
        <Node type="bias" id="0" />
        <Node type="in" id="1" />
        <Node type="in" id="2" />
        <Node type="in" id="3" />
        <Node type="in" id="4" />
        <Node type="in" id="5" />
        <Node type="in" id="6" />
        <Node type="in" id="7" />
        <Node type="in" id="8" />
        <Node type="in" id="9" />
        <Node type="in" id="10" />
        <Node type="out" id="11" />
        <Node type="out" id="12" />
      </Nodes>
      <Connections>
        <Con id="13" src="0" tgt="11" wght="-0.45623207557946444" />
        <Con id="14" src="0" tgt="12" wght="0.90983985923230648" />
        <Con id="15" src="1" tgt="11" wght="0.75968735851347446" />
        <Con id="16" src="1" tgt="12" wght="-0.7107768040150404" />
        <Con id="17" src="2" tgt="11" wght="0.45542968064546585" />
        <Con id="18" src="2" tgt="12" wght="0.45132899284362793" />
        <Con id="19" src="3" tgt="11" wght="-0.88711291924119" />
        <Con id="20" src="3" tgt="12" wght="0.21592782996594906" />
        <Con id="21" src="4" tgt="11" wght="-0.98945738840848207" />
        <Con id="22" src="4" tgt="12" wght="-0.4261418217793107" />
        <Con id="23" src="5" tgt="11" wght="0.39482408855110407" />
        <Con id="24" src="5" tgt="12" wght="0.87104775197803974" />
        <Con id="25" src="6" tgt="11" wght="-0.23377389367669821" />
        <Con id="26" src="6" tgt="12" wght="0.718913558870554" />
        <Con id="27" src="7" tgt="11" wght="0.15696175303310156" />
        <Con id="28" src="7" tgt="12" wght="-0.60986471641808748" />
        <Con id="29" src="8" tgt="11" wght="-0.76358592417091131" />
        <Con id="30" src="8" tgt="12" wght="0.9740755083039403" />
        <Con id="31" src="9" tgt="11" wght="0.52006514929234982" />
        <Con id="32" src="9" tgt="12" wght="-0.21043631248176098" />
        <Con id="33" src="10" tgt="11" wght="-0.022252971306443214" />
        <Con id="34" src="10" tgt="12" wght="0.60023507010191679" />
      </Connections>
    </Network>
    <Network id="21" birthGen="0" fitness="0">
      <Nodes>
        <Node type="bias" id="0" />
        <Node type="in" id="1" />
        <Node type="in" id="2" />
        <Node type="in" id="3" />
        <Node type="in" id="4" />
        <Node type="in" id="5" />
        <Node type="in" id="6" />
        <Node type="in" id="7" />
        <Node type="in" id="8" />
        <Node type="in" id="9" />
        <Node type="in" id="10" />
        <Node type="out" id="11" />
        <Node type="out" id="12" />
      </Nodes>
      <Connections>
        <Con id="13" src="0" tgt="11" wght="0.4419264979660511" />
        <Con id="14" src="0" tgt="12" wght="0.515224332921207" />
        <Con id="15" src="1" tgt="11" wght="0.88988931104540825" />
        <Con id="16" src="1" tgt="12" wght="-0.76092579402029514" />
        <Con id="17" src="2" tgt="11" wght="-0.36562615260481834" />
        <Con id="18" src="2" tgt="12" wght="-0.50587425101548433" />
        <Con id="19" src="3" tgt="11" wght="-0.98138759285211563" />
        <Con id="20" src="3" tgt="12" wght="0.11670460179448128" />
        <Con id="21" src="4" tgt="11" wght="0.55160449165850878" />
        <Con id="22" src="4" tgt="12" wght="0.42263961676508188" />
        <Con id="23" src="5" tgt="11" wght="0.47498278878629208" />
        <Con id="24" src="5" tgt="12" wght="-0.95703358203172684" />
        <Con id="25" src="6" tgt="11" wght="-0.61202042363584042" />
        <Con id="26" src="6" tgt="12" wght="0.59913548734039068" />
        <Con id="27" src="7" tgt="11" wght="-0.64054080750793219" />
        <Con id="28" src="7" tgt="12" wght="-0.76531999185681343" />
        <Con id="29" src="8" tgt="11" wght="0.884349187836051" />
        <Con id="30" src="8" tgt="12" wght="0.005672297440469265" />
        <Con id="31" src="9" tgt="11" wght="0.62203992065042257" />
        <Con id="32" src="9" tgt="12" wght="0.80242364201694727" />
        <Con id="33" src="10" tgt="11" wght="-0.19545779004693031" />
        <Con id="34" src="10" tgt="12" wght="0.51770868524909019" />
      </Connections>
    </Network>
    <Network id="22" birthGen="0" fitness="0">
      <Nodes>
        <Node type="bias" id="0" />
        <Node type="in" id="1" />
        <Node type="in" id="2" />
        <Node type="in" id="3" />
        <Node type="in" id="4" />
        <Node type="in" id="5" />
        <Node type="in" id="6" />
        <Node type="in" id="7" />
        <Node type="in" id="8" />
        <Node type="in" id="9" />
        <Node type="in" id="10" />
        <Node type="out" id="11" />
        <Node type="out" id="12" />
      </Nodes>
      <Connections>
        <Con id="13" src="0" tgt="11" wght="-0.38109438866376877" />
        <Con id="14" src="0" tgt="12" wght="-0.15869637485593557" />
        <Con id="15" src="1" tgt="11" wght="-0.54033652693033218" />
        <Con id="16" src="1" tgt="12" wght="-0.63384646270424128" />
        <Con id="17" src="2" tgt="11" wght="-0.50222955644130707" />
        <Con id="18" src="2" tgt="12" wght="0.40702928975224495" />
        <Con id="19" src="3" tgt="11" wght="-0.47482776828110218" />
        <Con id="20" src="3" tgt="12" wght="0.080149156041443348" />
        <Con id="21" src="4" tgt="11" wght="0.834635591134429" />
        <Con id="22" src="4" tgt="12" wght="-0.18995952233672142" />
        <Con id="23" src="5" tgt="11" wght="-0.69617770984768867" />
        <Con id="24" src="5" tgt="12" wght="-0.079560359939932823" />
        <Con id="25" src="6" tgt="11" wght="-0.960326474159956" />
        <Con id="26" src="6" tgt="12" wght="-0.039392225444316864" />
        <Con id="27" src="7" tgt="11" wght="-0.25161038152873516" />
        <Con id="28" src="7" tgt="12" wght="-0.87966643646359444" />
        <Con id="29" src="8" tgt="11" wght="0.77884698938578367" />
        <Con id="30" src="8" tgt="12" wght="-0.43614431843161583" />
        <Con id="31" src="9" tgt="11" wght="-0.52140451222658157" />
        <Con id="32" src="9" tgt="12" wght="0.39378053415566683" />
        <Con id="33" src="10" tgt="11" wght="0.60299176257103682" />
        <Con id="34" src="10" tgt="12" wght="0.18756325636059046" />
      </Connections>
    </Network>
    <Network id="23" birthGen="0" fitness="0">
      <Nodes>
        <Node type="bias" id="0" />
        <Node type="in" id="1" />
        <Node type="in" id="2" />
        <Node type="in" id="3" />
        <Node type="in" id="4" />
        <Node type="in" id="5" />
        <Node type="in" id="6" />
        <Node type="in" id="7" />
        <Node type="in" id="8" />
        <Node type="in" id="9" />
        <Node type="in" id="10" />
        <Node type="out" id="11" />
        <Node type="out" id="12" />
      </Nodes>
      <Connections>
        <Con id="13" src="0" tgt="11" wght="-0.96058506052941084" />
        <Con id="14" src="0" tgt="12" wght="-0.85361845139414072" />
        <Con id="15" src="1" tgt="11" wght="-0.80971335619688034" />
        <Con id="16" src="1" tgt="12" wght="0.23314389679580927" />
        <Con id="17" src="2" tgt="11" wght="0.13242978602647781" />
        <Con id="18" src="2" tgt="12" wght="-0.13985743187367916" />
        <Con id="19" src="3" tgt="11" wght="-0.28824616596102715" />
        <Con id="20" src="3" tgt="12" wght="-0.19880550727248192" />
        <Con id="21" src="4" tgt="11" wght="-0.33258108235895634" />
        <Con id="22" src="4" tgt="12" wght="-0.25198718812316656" />
        <Con id="23" src="5" tgt="11" wght="-0.2085723765194416" />
        <Con id="24" src="5" tgt="12" wght="0.979250330477953" />
        <Con id="25" src="6" tgt="11" wght="0.864471048116684" />
        <Con id="26" src="6" tgt="12" wght="-0.54714664909988642" />
        <Con id="27" src="7" tgt="11" wght="0.49865516647696495" />
        <Con id="28" src="7" tgt="12" wght="-0.91998755931854248" />
        <Con id="29" src="8" tgt="11" wght="-0.68731451313942671" />
        <Con id="30" src="8" tgt="12" wght="-0.45127306785434484" />
        <Con id="31" src="9" tgt="11" wght="0.38661972898989916" />
        <Con id="32" src="9" tgt="12" wght="0.33963916078209877" />
        <Con id="33" src="10" tgt="11" wght="-0.30741317570209503" />
        <Con id="34" src="10" tgt="12" wght="0.42651238385587931" />
      </Connections>
    </Network>
    <Network id="24" birthGen="0" fitness="0">
      <Nodes>
        <Node type="bias" id="0" />
        <Node type="in" id="1" />
        <Node type="in" id="2" />
        <Node type="in" id="3" />
        <Node type="in" id="4" />
        <Node type="in" id="5" />
        <Node type="in" id="6" />
        <Node type="in" id="7" />
        <Node type="in" id="8" />
        <Node type="in" id="9" />
        <Node type="in" id="10" />
        <Node type="out" id="11" />
        <Node type="out" id="12" />
      </Nodes>
      <Connections>
        <Con id="13" src="0" tgt="11" wght="0.24381352961063385" />
        <Con id="14" src="0" tgt="12" wght="0.63343136664479971" />
        <Con id="15" src="1" tgt="11" wght="0.98013252485543489" />
        <Con id="16" src="1" tgt="12" wght="0.83130061440169811" />
        <Con id="17" src="2" tgt="11" wght="-0.61890341993421316" />
        <Con id="18" src="2" tgt="12" wght="-0.47180676832795143" />
        <Con id="19" src="3" tgt="11" wght="-0.81825009640306234" />
        <Con id="20" src="3" tgt="12" wght="0.50673175696283579" />
        <Con id="21" src="4" tgt="11" wght="0.61182303540408611" />
        <Con id="22" src="4" tgt="12" wght="0.5641478169709444" />
        <Con id="23" src="5" tgt="11" wght="0.32948409579694271" />
        <Con id="24" src="5" tgt="12" wght="0.0707641588523984" />
        <Con id="25" src="6" tgt="11" wght="0.41761257685720921" />
        <Con id="26" src="6" tgt="12" wght="0.64701680280268192" />
        <Con id="27" src="7" tgt="11" wght="-0.56623268872499466" />
        <Con id="28" src="7" tgt="12" wght="0.87128850538283587" />
        <Con id="29" src="8" tgt="11" wght="0.51619909703731537" />
        <Con id="30" src="8" tgt="12" wght="0.28744902368634939" />
        <Con id="31" src="9" tgt="11" wght="0.87917785998433828" />
        <Con id="32" src="9" tgt="12" wght="0.24062683153897524" />
        <Con id="33" src="10" tgt="11" wght="0.92654878739267588" />
        <Con id="34" src="10" tgt="12" wght="-0.50642830412834883" />
      </Connections>
    </Network>
    <Network id="25" birthGen="0" fitness="0">
      <Nodes>
        <Node type="bias" id="0" />
        <Node type="in" id="1" />
        <Node type="in" id="2" />
        <Node type="in" id="3" />
        <Node type="in" id="4" />
        <Node type="in" id="5" />
        <Node type="in" id="6" />
        <Node type="in" id="7" />
        <Node type="in" id="8" />
        <Node type="in" id="9" />
        <Node type="in" id="10" />
        <Node type="out" id="11" />
        <Node type="out" id="12" />
      </Nodes>
      <Connections>
        <Con id="13" src="0" tgt="11" wght="0.50546742882579565" />
        <Con id="14" src="0" tgt="12" wght="-0.86335883848369122" />
        <Con id="15" src="1" tgt="11" wght="0.06785258837044239" />
        <Con id="16" src="1" tgt="12" wght="-0.579024969600141" />
        <Con id="17" src="2" tgt="11" wght="0.95167925022542477" />
        <Con id="18" src="2" tgt="12" wght="0.68774404935538769" />
        <Con id="19" src="3" tgt="11" wght="-0.500996652059257" />
        <Con id="20" src="3" tgt="12" wght="-0.014814333990216255" />
        <Con id="21" src="4" tgt="11" wght="-0.47166338097304106" />
        <Con id="22" src="4" tgt="12" wght="-0.25159607455134392" />
        <Con id="23" src="5" tgt="11" wght="-0.01418486051261425" />
        <Con id="24" src="5" tgt="12" wght="-0.30942386202514172" />
        <Con id="25" src="6" tgt="11" wght="0.79438356310129166" />
        <Con id="26" src="6" tgt="12" wght="0.65477336104959249" />
        <Con id="27" src="7" tgt="11" wght="-0.85797611158341169" />
        <Con id="28" src="7" tgt="12" wght="0.032837112434208393" />
        <Con id="29" src="8" tgt="11" wght="0.81996885966509581" />
        <Con id="30" src="8" tgt="12" wght="0.20637454651296139" />
        <Con id="31" src="9" tgt="11" wght="-0.69124737102538347" />
        <Con id="32" src="9" tgt="12" wght="-0.16790865175426006" />
        <Con id="33" src="10" tgt="11" wght="0.35697688069194555" />
        <Con id="34" src="10" tgt="12" wght="0.18760666064918041" />
      </Connections>
    </Network>
    <Network id="26" birthGen="0" fitness="0">
      <Nodes>
        <Node type="bias" id="0" />
        <Node type="in" id="1" />
        <Node type="in" id="2" />
        <Node type="in" id="3" />
        <Node type="in" id="4" />
        <Node type="in" id="5" />
        <Node type="in" id="6" />
        <Node type="in" id="7" />
        <Node type="in" id="8" />
        <Node type="in" id="9" />
        <Node type="in" id="10" />
        <Node type="out" id="11" />
        <Node type="out" id="12" />
      </Nodes>
      <Connections>
        <Con id="13" src="0" tgt="11" wght="0.47948376648128033" />
        <Con id="14" src="0" tgt="12" wght="-0.38120523281395435" />
        <Con id="15" src="1" tgt="11" wght="-0.10383472219109535" />
        <Con id="16" src="1" tgt="12" wght="0.88202653639018536" />
        <Con id="17" src="2" tgt="11" wght="-0.98102498240768909" />
        <Con id="18" src="2" tgt="12" wght="0.53761492110788822" />
        <Con id="19" src="3" tgt="11" wght="0.12304007541388273" />
        <Con id="20" src="3" tgt="12" wght="-0.80654787365347147" />
        <Con id="21" src="4" tgt="11" wght="0.98980898596346378" />
        <Con id="22" src="4" tgt="12" wght="-0.6531941331923008" />
        <Con id="23" src="5" tgt="11" wght="-0.77277322672307491" />
        <Con id="24" src="5" tgt="12" wght="0.00097088422626256943" />
        <Con id="25" src="6" tgt="11" wght="-0.649928355589509" />
        <Con id="26" src="6" tgt="12" wght="-0.99695024266839027" />
        <Con id="27" src="7" tgt="11" wght="-0.97661819029599428" />
        <Con id="28" src="7" tgt="12" wght="-0.29817869514226913" />
        <Con id="29" src="8" tgt="11" wght="-0.695280633866787" />
        <Con id="30" src="8" tgt="12" wght="0.57550785876810551" />
        <Con id="31" src="9" tgt="11" wght="-0.48575425334274769" />
        <Con id="32" src="9" tgt="12" wght="-0.98385776579380035" />
        <Con id="33" src="10" tgt="11" wght="-0.026902102865278721" />
        <Con id="34" src="10" tgt="12" wght="0.89326864760369062" />
      </Connections>
    </Network>
    <Network id="27" birthGen="0" fitness="0">
      <Nodes>
        <Node type="bias" id="0" />
        <Node type="in" id="1" />
        <Node type="in" id="2" />
        <Node type="in" id="3" />
        <Node type="in" id="4" />
        <Node type="in" id="5" />
        <Node type="in" id="6" />
        <Node type="in" id="7" />
        <Node type="in" id="8" />
        <Node type="in" id="9" />
        <Node type="in" id="10" />
        <Node type="out" id="11" />
        <Node type="out" id="12" />
      </Nodes>
      <Connections>
        <Con id="13" src="0" tgt="11" wght="0.77100708894431591" />
        <Con id="14" src="0" tgt="12" wght="0.094529923051595688" />
        <Con id="15" src="1" tgt="11" wght="0.086300239898264408" />
        <Con id="16" src="1" tgt="12" wght="0.1014085179194808" />
        <Con id="17" src="2" tgt="11" wght="0.58633941411972046" />
        <Con id="18" src="2" tgt="12" wght="0.73233178816735744" />
        <Con id="19" src="3" tgt="11" wght="0.2311768289655447" />
        <Con id="20" src="3" tgt="12" wght="0.17041189875453711" />
        <Con id="21" src="4" tgt="11" wght="0.28526920173317194" />
        <Con id="22" src="4" tgt="12" wght="-0.13756400626152754" />
        <Con id="23" src="5" tgt="11" wght="0.818362770602107" />
        <Con id="24" src="5" tgt="12" wght="-0.064092219807207584" />
        <Con id="25" src="6" tgt="11" wght="0.83773553650826216" />
        <Con id="26" src="6" tgt="12" wght="-0.32045122794806957" />
        <Con id="27" src="7" tgt="11" wght="0.99925634264945984" />
        <Con id="28" src="7" tgt="12" wght="0.26396484766155481" />
        <Con id="29" src="8" tgt="11" wght="0.71712930593639612" />
        <Con id="30" src="8" tgt="12" wght="-0.57704318314790726" />
        <Con id="31" src="9" tgt="11" wght="-0.31715094204992056" />
        <Con id="32" src="9" tgt="12" wght="0.077694029547274113" />
        <Con id="33" src="10" tgt="11" wght="0.92191226594150066" />
        <Con id="34" src="10" tgt="12" wght="0.70777580700814724" />
      </Connections>
    </Network>
    <Network id="28" birthGen="0" fitness="0">
      <Nodes>
        <Node type="bias" id="0" />
        <Node type="in" id="1" />
        <Node type="in" id="2" />
        <Node type="in" id="3" />
        <Node type="in" id="4" />
        <Node type="in" id="5" />
        <Node type="in" id="6" />
        <Node type="in" id="7" />
        <Node type="in" id="8" />
        <Node type="in" id="9" />
        <Node type="in" id="10" />
        <Node type="out" id="11" />
        <Node type="out" id="12" />
      </Nodes>
      <Connections>
        <Con id="13" src="0" tgt="11" wght="-0.30645401310175657" />
        <Con id="14" src="0" tgt="12" wght="0.89709977991878986" />
        <Con id="15" src="1" tgt="11" wght="0.30156521499156952" />
        <Con id="16" src="1" tgt="12" wght="0.012586927972733974" />
        <Con id="17" src="2" tgt="11" wght="-0.91349469311535358" />
        <Con id="18" src="2" tgt="12" wght="-0.7908890824764967" />
        <Con id="19" src="3" tgt="11" wght="-0.75946192722767591" />
        <Con id="20" src="3" tgt="12" wght="-0.24697295669466257" />
        <Con id="21" src="4" tgt="11" wght="-0.71309635229408741" />
        <Con id="22" src="4" tgt="12" wght="-0.68108308129012585" />
        <Con id="23" src="5" tgt="11" wght="-0.20048634149134159" />
        <Con id="24" src="5" tgt="12" wght="-0.3576908502727747" />
        <Con id="25" src="6" tgt="11" wght="-0.39670928567647934" />
        <Con id="26" src="6" tgt="12" wght="-0.95975773315876722" />
        <Con id="27" src="7" tgt="11" wght="0.82694051507860422" />
        <Con id="28" src="7" tgt="12" wght="0.9969881484284997" />
        <Con id="29" src="8" tgt="11" wght="0.8161484906449914" />
        <Con id="30" src="8" tgt="12" wght="-0.43892263900488615" />
        <Con id="31" src="9" tgt="11" wght="-0.64671933371573687" />
        <Con id="32" src="9" tgt="12" wght="-0.85151161067187786" />
        <Con id="33" src="10" tgt="11" wght="0.55802695639431477" />
        <Con id="34" src="10" tgt="12" wght="0.92381088901311159" />
      </Connections>
    </Network>
    <Network id="29" birthGen="0" fitness="0">
      <Nodes>
        <Node type="bias" id="0" />
        <Node type="in" id="1" />
        <Node type="in" id="2" />
        <Node type="in" id="3" />
        <Node type="in" id="4" />
        <Node type="in" id="5" />
        <Node type="in" id="6" />
        <Node type="in" id="7" />
        <Node type="in" id="8" />
        <Node type="in" id="9" />
        <Node type="in" id="10" />
        <Node type="out" id="11" />
        <Node type="out" id="12" />
      </Nodes>
      <Connections>
        <Con id="13" src="0" tgt="11" wght="0.4458798561245203" />
        <Con id="14" src="0" tgt="12" wght="-0.83606040291488171" />
        <Con id="15" src="1" tgt="11" wght="0.49373564310371876" />
        <Con id="16" src="1" tgt="12" wght="0.9672689288854599" />
        <Con id="17" src="2" tgt="11" wght="-0.79788888618350029" />
        <Con id="18" src="2" tgt="12" wght="0.48868852201849222" />
        <Con id="19" src="3" tgt="11" wght="-0.72116625960916281" />
        <Con id="20" src="3" tgt="12" wght="0.70720525551587343" />
        <Con id="21" src="4" tgt="11" wght="-0.5667418772354722" />
        <Con id="22" src="4" tgt="12" wght="-0.50968805514276028" />
        <Con id="23" src="5" tgt="11" wght="0.44329467508941889" />
        <Con id="24" src="5" tgt="12" wght="-0.90525200217962265" />
        <Con id="25" src="6" tgt="11" wght="-0.15209498442709446" />
        <Con id="26" src="6" tgt="12" wght="0.14415518287569284" />
        <Con id="27" src="7" tgt="11" wght="0.95641627628356218" />
        <Con id="28" src="7" tgt="12" wght="0.38652398157864809" />
        <Con id="29" src="8" tgt="11" wght="0.45709752105176449" />
        <Con id="30" src="8" tgt="12" wght="0.71545241121202707" />
        <Con id="31" src="9" tgt="11" wght="-0.36294207908213139" />
        <Con id="32" src="9" tgt="12" wght="0.921881627291441" />
        <Con id="33" src="10" tgt="11" wght="0.48321366775780916" />
        <Con id="34" src="10" tgt="12" wght="0.30031603574752808" />
      </Connections>
    </Network>
    <Network id="30" birthGen="0" fitness="0">
      <Nodes>
        <Node type="bias" id="0" />
        <Node type="in" id="1" />
        <Node type="in" id="2" />
        <Node type="in" id="3" />
        <Node type="in" id="4" />
        <Node type="in" id="5" />
        <Node type="in" id="6" />
        <Node type="in" id="7" />
        <Node type="in" id="8" />
        <Node type="in" id="9" />
        <Node type="in" id="10" />
        <Node type="out" id="11" />
        <Node type="out" id="12" />
      </Nodes>
      <Connections>
        <Con id="13" src="0" tgt="11" wght="-0.0080732023343443871" />
        <Con id="14" src="0" tgt="12" wght="-0.28463237266987562" />
        <Con id="15" src="1" tgt="11" wght="-0.527166835963726" />
        <Con id="16" src="1" tgt="12" wght="-0.28866781573742628" />
        <Con id="17" src="2" tgt="11" wght="-0.99153993278741837" />
        <Con id="18" src="2" tgt="12" wght="0.80599188338965178" />
        <Con id="19" src="3" tgt="11" wght="-0.34880542661994696" />
        <Con id="20" src="3" tgt="12" wght="0.74799440614879131" />
        <Con id="21" src="4" tgt="11" wght="0.17168261390179396" />
        <Con id="22" src="4" tgt="12" wght="0.018435030244290829" />
        <Con id="23" src="5" tgt="11" wght="0.91299918945878744" />
        <Con id="24" src="5" tgt="12" wght="-0.43532703351229429" />
        <Con id="25" src="6" tgt="11" wght="-0.15148369502276182" />
        <Con id="26" src="6" tgt="12" wght="0.39113299082964659" />
        <Con id="27" src="7" tgt="11" wght="0.3606548709794879" />
        <Con id="28" src="7" tgt="12" wght="0.64430497400462627" />
        <Con id="29" src="8" tgt="11" wght="0.48517615348100662" />
        <Con id="30" src="8" tgt="12" wght="0.17389476951211691" />
        <Con id="31" src="9" tgt="11" wght="0.517079490236938" />
        <Con id="32" src="9" tgt="12" wght="-0.32989571057260036" />
        <Con id="33" src="10" tgt="11" wght="0.95461697410792112" />
        <Con id="34" src="10" tgt="12" wght="0.29541614837944508" />
      </Connections>
    </Network>
    <Network id="31" birthGen="0" fitness="0">
      <Nodes>
        <Node type="bias" id="0" />
        <Node type="in" id="1" />
        <Node type="in" id="2" />
        <Node type="in" id="3" />
        <Node type="in" id="4" />
        <Node type="in" id="5" />
        <Node type="in" id="6" />
        <Node type="in" id="7" />
        <Node type="in" id="8" />
        <Node type="in" id="9" />
        <Node type="in" id="10" />
        <Node type="out" id="11" />
        <Node type="out" id="12" />
      </Nodes>
      <Connections>
        <Con id="13" src="0" tgt="11" wght="0.87086771428585052" />
        <Con id="14" src="0" tgt="12" wght="0.59679181780666113" />
        <Con id="15" src="1" tgt="11" wght="0.29352655168622732" />
        <Con id="16" src="1" tgt="12" wght="0.12027664110064507" />
        <Con id="17" src="2" tgt="11" wght="0.48761505447328091" />
        <Con id="18" src="2" tgt="12" wght="-0.81587426830083132" />
        <Con id="19" src="3" tgt="11" wght="-0.74356754403561354" />
        <Con id="20" src="3" tgt="12" wght="-0.36772217974066734" />
        <Con id="21" src="4" tgt="11" wght="0.90232500061392784" />
        <Con id="22" src="4" tgt="12" wght="0.50482862815260887" />
        <Con id="23" src="5" tgt="11" wght="0.83942656219005585" />
        <Con id="24" src="5" tgt="12" wght="-0.78608768340200186" />
        <Con id="25" src="6" tgt="11" wght="-0.51078388560563326" />
        <Con id="26" src="6" tgt="12" wght="-0.54186523426324129" />
        <Con id="27" src="7" tgt="11" wght="-0.98025108780711889" />
        <Con id="28" src="7" tgt="12" wght="-0.58509091567248106" />
        <Con id="29" src="8" tgt="11" wght="0.84663029666990042" />
        <Con id="30" src="8" tgt="12" wght="0.50540681648999453" />
        <Con id="31" src="9" tgt="11" wght="-0.10151466447860003" />
        <Con id="32" src="9" tgt="12" wght="-0.55286002811044455" />
        <Con id="33" src="10" tgt="11" wght="0.24024475179612637" />
        <Con id="34" src="10" tgt="12" wght="0.72054560855031013" />
      </Connections>
    </Network>
    <Network id="32" birthGen="0" fitness="0">
      <Nodes>
        <Node type="bias" id="0" />
        <Node type="in" id="1" />
        <Node type="in" id="2" />
        <Node type="in" id="3" />
        <Node type="in" id="4" />
        <Node type="in" id="5" />
        <Node type="in" id="6" />
        <Node type="in" id="7" />
        <Node type="in" id="8" />
        <Node type="in" id="9" />
        <Node type="in" id="10" />
        <Node type="out" id="11" />
        <Node type="out" id="12" />
      </Nodes>
      <Connections>
        <Con id="13" src="0" tgt="11" wght="0.3982556639239192" />
        <Con id="14" src="0" tgt="12" wght="-0.60187264904379845" />
        <Con id="15" src="1" tgt="11" wght="-0.44334455672651529" />
        <Con id="16" src="1" tgt="12" wght="-0.59791681822389364" />
        <Con id="17" src="2" tgt="11" wght="0.58846130594611168" />
        <Con id="18" src="2" tgt="12" wght="-0.59588932432234287" />
        <Con id="19" src="3" tgt="11" wght="0.74560890346765518" />
        <Con id="20" src="3" tgt="12" wght="0.65407339576631784" />
        <Con id="21" src="4" tgt="11" wght="-0.95899438019841909" />
        <Con id="22" src="4" tgt="12" wght="0.89037276897579432" />
        <Con id="23" src="5" tgt="11" wght="0.76389164663851261" />
        <Con id="24" src="5" tgt="12" wght="0.96917887590825558" />
        <Con id="25" src="6" tgt="11" wght="-0.35451599862426519" />
        <Con id="26" src="6" tgt="12" wght="-0.522190498188138" />
        <Con id="27" src="7" tgt="11" wght="-0.7071173433214426" />
        <Con id="28" src="7" tgt="12" wght="-0.81004163529723883" />
        <Con id="29" src="8" tgt="11" wght="0.36236782558262348" />
        <Con id="30" src="8" tgt="12" wght="-0.440526875667274" />
        <Con id="31" src="9" tgt="11" wght="-0.71442017238587141" />
        <Con id="32" src="9" tgt="12" wght="0.37334972620010376" />
        <Con id="33" src="10" tgt="11" wght="-0.28153527155518532" />
        <Con id="34" src="10" tgt="12" wght="-0.27569060493260622" />
      </Connections>
    </Network>
    <Network id="33" birthGen="0" fitness="0">
      <Nodes>
        <Node type="bias" id="0" />
        <Node type="in" id="1" />
        <Node type="in" id="2" />
        <Node type="in" id="3" />
        <Node type="in" id="4" />
        <Node type="in" id="5" />
        <Node type="in" id="6" />
        <Node type="in" id="7" />
        <Node type="in" id="8" />
        <Node type="in" id="9" />
        <Node type="in" id="10" />
        <Node type="out" id="11" />
        <Node type="out" id="12" />
      </Nodes>
      <Connections>
        <Con id="13" src="0" tgt="11" wght="0.24395247176289558" />
        <Con id="14" src="0" tgt="12" wght="0.152891518548131" />
        <Con id="15" src="1" tgt="11" wght="0.58863496780395508" />
        <Con id="16" src="1" tgt="12" wght="0.84722148906439543" />
        <Con id="17" src="2" tgt="11" wght="-0.49336993787437677" />
        <Con id="18" src="2" tgt="12" wght="-0.4335439233109355" />
        <Con id="19" src="3" tgt="11" wght="-0.91659601870924234" />
        <Con id="20" src="3" tgt="12" wght="-0.58866525068879128" />
        <Con id="21" src="4" tgt="11" wght="0.95485497545450926" />
        <Con id="22" src="4" tgt="12" wght="0.35947110783308744" />
        <Con id="23" src="5" tgt="11" wght="0.64814441557973623" />
        <Con id="24" src="5" tgt="12" wght="0.15520679485052824" />
        <Con id="25" src="6" tgt="11" wght="-0.47541320975869894" />
        <Con id="26" src="6" tgt="12" wght="-0.86945530585944653" />
        <Con id="27" src="7" tgt="11" wght="-0.14272333774715662" />
        <Con id="28" src="7" tgt="12" wght="-0.392666220664978" />
        <Con id="29" src="8" tgt="11" wght="0.65427536703646183" />
        <Con id="30" src="8" tgt="12" wght="-0.72890208195894957" />
        <Con id="31" src="9" tgt="11" wght="0.99823603499680758" />
        <Con id="32" src="9" tgt="12" wght="-0.0021393932402133942" />
        <Con id="33" src="10" tgt="11" wght="0.21783400885760784" />
        <Con id="34" src="10" tgt="12" wght="-0.82247533835470676" />
      </Connections>
    </Network>
    <Network id="34" birthGen="0" fitness="0">
      <Nodes>
        <Node type="bias" id="0" />
        <Node type="in" id="1" />
        <Node type="in" id="2" />
        <Node type="in" id="3" />
        <Node type="in" id="4" />
        <Node type="in" id="5" />
        <Node type="in" id="6" />
        <Node type="in" id="7" />
        <Node type="in" id="8" />
        <Node type="in" id="9" />
        <Node type="in" id="10" />
        <Node type="out" id="11" />
        <Node type="out" id="12" />
      </Nodes>
      <Connections>
        <Con id="13" src="0" tgt="11" wght="-0.64657998364418745" />
        <Con id="14" src="0" tgt="12" wght="-0.5281996401026845" />
        <Con id="15" src="1" tgt="11" wght="0.60433692950755358" />
        <Con id="16" src="1" tgt="12" wght="0.23497152049094439" />
        <Con id="17" src="2" tgt="11" wght="0.54040004126727581" />
        <Con id="18" src="2" tgt="12" wght="0.89776427578181028" />
        <Con id="19" src="3" tgt="11" wght="-0.45745930820703506" />
        <Con id="20" src="3" tgt="12" wght="0.30039368662983179" />
        <Con id="21" src="4" tgt="11" wght="-0.47765822894871235" />
        <Con id="22" src="4" tgt="12" wght="-0.50641584303230047" />
        <Con id="23" src="5" tgt="11" wght="-0.86547209229320288" />
        <Con id="24" src="5" tgt="12" wght="-0.39079603366553783" />
        <Con id="25" src="6" tgt="11" wght="0.050693324767053127" />
        <Con id="26" src="6" tgt="12" wght="-0.50777751952409744" />
        <Con id="27" src="7" tgt="11" wght="0.053792408667504787" />
        <Con id="28" src="7" tgt="12" wght="0.80707172770053148" />
        <Con id="29" src="8" tgt="11" wght="-0.53377873171120882" />
        <Con id="30" src="8" tgt="12" wght="0.48044866975396872" />
        <Con id="31" src="9" tgt="11" wght="0.615280382335186" />
        <Con id="32" src="9" tgt="12" wght="0.844836468808353" />
        <Con id="33" src="10" tgt="11" wght="0.869340225122869" />
        <Con id="34" src="10" tgt="12" wght="0.40958146844059229" />
      </Connections>
    </Network>
    <Network id="35" birthGen="0" fitness="0">
      <Nodes>
        <Node type="bias" id="0" />
        <Node type="in" id="1" />
        <Node type="in" id="2" />
        <Node type="in" id="3" />
        <Node type="in" id="4" />
        <Node type="in" id="5" />
        <Node type="in" id="6" />
        <Node type="in" id="7" />
        <Node type="in" id="8" />
        <Node type="in" id="9" />
        <Node type="in" id="10" />
        <Node type="out" id="11" />
        <Node type="out" id="12" />
      </Nodes>
      <Connections>
        <Con id="13" src="0" tgt="11" wght="0.634307075291872" />
        <Con id="14" src="0" tgt="12" wght="0.12037718761712313" />
        <Con id="15" src="1" tgt="11" wght="-0.71678849589079618" />
        <Con id="16" src="1" tgt="12" wght="0.67356108874082565" />
        <Con id="17" src="2" tgt="11" wght="-0.50084753893315792" />
        <Con id="18" src="2" tgt="12" wght="0.7947574146091938" />
        <Con id="19" src="3" tgt="11" wght="0.55756747722625732" />
        <Con id="20" src="3" tgt="12" wght="0.468610187061131" />
        <Con id="21" src="4" tgt="11" wght="-0.76768379285931587" />
        <Con id="22" src="4" tgt="12" wght="-0.36436187010258436" />
        <Con id="23" src="5" tgt="11" wght="0.33604276925325394" />
        <Con id="24" src="5" tgt="12" wght="-0.65241912193596363" />
        <Con id="25" src="6" tgt="11" wght="-0.86960547231137753" />
        <Con id="26" src="6" tgt="12" wght="-0.027401086874306202" />
        <Con id="27" src="7" tgt="11" wght="-0.79930186830461025" />
        <Con id="28" src="7" tgt="12" wght="-0.53732016962021589" />
        <Con id="29" src="8" tgt="11" wght="0.32259892392903566" />
        <Con id="30" src="8" tgt="12" wght="0.3944911751896143" />
        <Con id="31" src="9" tgt="11" wght="-0.3729430353268981" />
        <Con id="32" src="9" tgt="12" wght="-0.743396376259625" />
        <Con id="33" src="10" tgt="11" wght="0.058583117090165615" />
        <Con id="34" src="10" tgt="12" wght="0.13241765554994345" />
      </Connections>
    </Network>
    <Network id="36" birthGen="0" fitness="0">
      <Nodes>
        <Node type="bias" id="0" />
        <Node type="in" id="1" />
        <Node type="in" id="2" />
        <Node type="in" id="3" />
        <Node type="in" id="4" />
        <Node type="in" id="5" />
        <Node type="in" id="6" />
        <Node type="in" id="7" />
        <Node type="in" id="8" />
        <Node type="in" id="9" />
        <Node type="in" id="10" />
        <Node type="out" id="11" />
        <Node type="out" id="12" />
      </Nodes>
      <Connections>
        <Con id="13" src="0" tgt="11" wght="0.6736770486459136" />
        <Con id="14" src="0" tgt="12" wght="-0.003396918997168541" />
        <Con id="15" src="1" tgt="11" wght="-0.64732317999005318" />
        <Con id="16" src="1" tgt="12" wght="0.6575087821111083" />
        <Con id="17" src="2" tgt="11" wght="-0.97784201242029667" />
        <Con id="18" src="2" tgt="12" wght="-0.321417722851038" />
        <Con id="19" src="3" tgt="11" wght="-0.02665595430880785" />
        <Con id="20" src="3" tgt="12" wght="-0.22351447865366936" />
        <Con id="21" src="4" tgt="11" wght="-0.62603325769305229" />
        <Con id="22" src="4" tgt="12" wght="0.72218726668506861" />
        <Con id="23" src="5" tgt="11" wght="0.2405006280168891" />
        <Con id="24" src="5" tgt="12" wght="-0.85833722911775112" />
        <Con id="25" src="6" tgt="11" wght="-0.76995467767119408" />
        <Con id="26" src="6" tgt="12" wght="-0.18871829472482204" />
        <Con id="27" src="7" tgt="11" wght="0.825845493003726" />
        <Con id="28" src="7" tgt="12" wght="0.08400395791977644" />
        <Con id="29" src="8" tgt="11" wght="0.695751634426415" />
        <Con id="30" src="8" tgt="12" wght="0.73469325248152018" />
        <Con id="31" src="9" tgt="11" wght="0.71209145057946444" />
        <Con id="32" src="9" tgt="12" wght="-0.85658744815737009" />
        <Con id="33" src="10" tgt="11" wght="-0.36528775654733181" />
        <Con id="34" src="10" tgt="12" wght="0.11809767689555883" />
      </Connections>
    </Network>
    <Network id="37" birthGen="0" fitness="0">
      <Nodes>
        <Node type="bias" id="0" />
        <Node type="in" id="1" />
        <Node type="in" id="2" />
        <Node type="in" id="3" />
        <Node type="in" id="4" />
        <Node type="in" id="5" />
        <Node type="in" id="6" />
        <Node type="in" id="7" />
        <Node type="in" id="8" />
        <Node type="in" id="9" />
        <Node type="in" id="10" />
        <Node type="out" id="11" />
        <Node type="out" id="12" />
      </Nodes>
      <Connections>
        <Con id="13" src="0" tgt="11" wght="-0.57176788616925478" />
        <Con id="14" src="0" tgt="12" wght="0.17418976966291666" />
        <Con id="15" src="1" tgt="11" wght="-0.49962258152663708" />
        <Con id="16" src="1" tgt="12" wght="0.16559859924018383" />
        <Con id="17" src="2" tgt="11" wght="0.98921280633658171" />
        <Con id="18" src="2" tgt="12" wght="-0.915024945512414" />
        <Con id="19" src="3" tgt="11" wght="-0.55651869717985392" />
        <Con id="20" src="3" tgt="12" wght="-0.71353182662278414" />
        <Con id="21" src="4" tgt="11" wght="0.54020705819129944" />
        <Con id="22" src="4" tgt="12" wght="-0.15187593922019005" />
        <Con id="23" src="5" tgt="11" wght="0.23491466511040926" />
        <Con id="24" src="5" tgt="12" wght="-0.49056828487664461" />
        <Con id="25" src="6" tgt="11" wght="0.01591471116989851" />
        <Con id="26" src="6" tgt="12" wght="0.475070346146822" />
        <Con id="27" src="7" tgt="11" wght="0.53961073514074087" />
        <Con id="28" src="7" tgt="12" wght="0.34085106663405895" />
        <Con id="29" src="8" tgt="11" wght="0.69193207565695047" />
        <Con id="30" src="8" tgt="12" wght="0.38064979109913111" />
        <Con id="31" src="9" tgt="11" wght="0.76143308449536562" />
        <Con id="32" src="9" tgt="12" wght="0.20989071670919657" />
        <Con id="33" src="10" tgt="11" wght="0.63599308300763369" />
        <Con id="34" src="10" tgt="12" wght="-0.20187728479504585" />
      </Connections>
    </Network>
    <Network id="38" birthGen="0" fitness="0">
      <Nodes>
        <Node type="bias" id="0" />
        <Node type="in" id="1" />
        <Node type="in" id="2" />
        <Node type="in" id="3" />
        <Node type="in" id="4" />
        <Node type="in" id="5" />
        <Node type="in" id="6" />
        <Node type="in" id="7" />
        <Node type="in" id="8" />
        <Node type="in" id="9" />
        <Node type="in" id="10" />
        <Node type="out" id="11" />
        <Node type="out" id="12" />
      </Nodes>
      <Connections>
        <Con id="13" src="0" tgt="11" wght="-0.0132525023072958" />
        <Con id="14" src="0" tgt="12" wght="-0.587508337572217" />
        <Con id="15" src="1" tgt="11" wght="-0.61850658804178238" />
        <Con id="16" src="1" tgt="12" wght="0.4498787522315979" />
        <Con id="17" src="2" tgt="11" wght="0.086512750945985317" />
        <Con id="18" src="2" tgt="12" wght="0.26918584946542978" />
        <Con id="19" src="3" tgt="11" wght="0.1669645719230175" />
        <Con id="20" src="3" tgt="12" wght="-0.97987437807023525" />
        <Con id="21" src="4" tgt="11" wght="0.30969571880996227" />
        <Con id="22" src="4" tgt="12" wght="0.48998431954532862" />
        <Con id="23" src="5" tgt="11" wght="0.43361786287277937" />
        <Con id="24" src="5" tgt="12" wght="0.52569959033280611" />
        <Con id="25" src="6" tgt="11" wght="-0.47564276400953531" />
        <Con id="26" src="6" tgt="12" wght="0.63457523845136166" />
        <Con id="27" src="7" tgt="11" wght="-0.90704036690294743" />
        <Con id="28" src="7" tgt="12" wght="-0.42198383901268244" />
        <Con id="29" src="8" tgt="11" wght="-0.84605126548558474" />
        <Con id="30" src="8" tgt="12" wght="0.27872719150036573" />
        <Con id="31" src="9" tgt="11" wght="0.35175754595547915" />
        <Con id="32" src="9" tgt="12" wght="-0.778158294968307" />
        <Con id="33" src="10" tgt="11" wght="-0.84319018386304379" />
        <Con id="34" src="10" tgt="12" wght="0.42310529295355082" />
      </Connections>
    </Network>
    <Network id="39" birthGen="0" fitness="0">
      <Nodes>
        <Node type="bias" id="0" />
        <Node type="in" id="1" />
        <Node type="in" id="2" />
        <Node type="in" id="3" />
        <Node type="in" id="4" />
        <Node type="in" id="5" />
        <Node type="in" id="6" />
        <Node type="in" id="7" />
        <Node type="in" id="8" />
        <Node type="in" id="9" />
        <Node type="in" id="10" />
        <Node type="out" id="11" />
        <Node type="out" id="12" />
      </Nodes>
      <Connections>
        <Con id="13" src="0" tgt="11" wght="0.98230992443859577" />
        <Con id="14" src="0" tgt="12" wght="0.81264301855117083" />
        <Con id="15" src="1" tgt="11" wght="0.54505177866667509" />
        <Con id="16" src="1" tgt="12" wght="-0.67543747927993536" />
        <Con id="17" src="2" tgt="11" wght="0.46062983013689518" />
        <Con id="18" src="2" tgt="12" wght="-0.67230616416782141" />
        <Con id="19" src="3" tgt="11" wght="0.0065329745411872864" />
        <Con id="20" src="3" tgt="12" wght="0.1167421005666256" />
        <Con id="21" src="4" tgt="11" wght="0.81339482311159372" />
        <Con id="22" src="4" tgt="12" wght="0.057989653199911118" />
        <Con id="23" src="5" tgt="11" wght="-0.28287547919899225" />
        <Con id="24" src="5" tgt="12" wght="-0.0066488077864050865" />
        <Con id="25" src="6" tgt="11" wght="-0.01047634519636631" />
        <Con id="26" src="6" tgt="12" wght="0.68772254884243011" />
        <Con id="27" src="7" tgt="11" wght="0.29932819493114948" />
        <Con id="28" src="7" tgt="12" wght="-0.24908752087503672" />
        <Con id="29" src="8" tgt="11" wght="0.62401945795863867" />
        <Con id="30" src="8" tgt="12" wght="0.0134877385571599" />
        <Con id="31" src="9" tgt="11" wght="-0.30249087978154421" />
        <Con id="32" src="9" tgt="12" wght="0.19577520247548819" />
        <Con id="33" src="10" tgt="11" wght="0.84307700488716364" />
        <Con id="34" src="10" tgt="12" wght="0.21399396937340498" />
      </Connections>
    </Network>
    <Network id="40" birthGen="0" fitness="0">
      <Nodes>
        <Node type="bias" id="0" />
        <Node type="in" id="1" />
        <Node type="in" id="2" />
        <Node type="in" id="3" />
        <Node type="in" id="4" />
        <Node type="in" id="5" />
        <Node type="in" id="6" />
        <Node type="in" id="7" />
        <Node type="in" id="8" />
        <Node type="in" id="9" />
        <Node type="in" id="10" />
        <Node type="out" id="11" />
        <Node type="out" id="12" />
      </Nodes>
      <Connections>
        <Con id="13" src="0" tgt="11" wght="-0.55313888192176819" />
        <Con id="14" src="0" tgt="12" wght="-0.62496898602694273" />
        <Con id="15" src="1" tgt="11" wght="0.97873531095683575" />
        <Con id="16" src="1" tgt="12" wght="0.41561700217425823" />
        <Con id="17" src="2" tgt="11" wght="0.5334699135273695" />
        <Con id="18" src="2" tgt="12" wght="-0.48251478001475334" />
        <Con id="19" src="3" tgt="11" wght="-0.20625581499189138" />
        <Con id="20" src="3" tgt="12" wght="-0.98933333437889814" />
        <Con id="21" src="4" tgt="11" wght="0.92579901218414307" />
        <Con id="22" src="4" tgt="12" wght="-0.073047464713454247" />
        <Con id="23" src="5" tgt="11" wght="-0.78895330615341663" />
        <Con id="24" src="5" tgt="12" wght="0.24560748692601919" />
        <Con id="25" src="6" tgt="11" wght="-0.45282287336885929" />
        <Con id="26" src="6" tgt="12" wght="0.95694095641374588" />
        <Con id="27" src="7" tgt="11" wght="0.72743898164480925" />
        <Con id="28" src="7" tgt="12" wght="-0.55681405309587717" />
        <Con id="29" src="8" tgt="11" wght="0.22700750548392534" />
        <Con id="30" src="8" tgt="12" wght="0.022649863734841347" />
        <Con id="31" src="9" tgt="11" wght="-0.49647182412445545" />
        <Con id="32" src="9" tgt="12" wght="0.88948471192270517" />
        <Con id="33" src="10" tgt="11" wght="-0.44603405240923166" />
        <Con id="34" src="10" tgt="12" wght="0.6831975020468235" />
      </Connections>
    </Network>
    <Network id="41" birthGen="0" fitness="0">
      <Nodes>
        <Node type="bias" id="0" />
        <Node type="in" id="1" />
        <Node type="in" id="2" />
        <Node type="in" id="3" />
        <Node type="in" id="4" />
        <Node type="in" id="5" />
        <Node type="in" id="6" />
        <Node type="in" id="7" />
        <Node type="in" id="8" />
        <Node type="in" id="9" />
        <Node type="in" id="10" />
        <Node type="out" id="11" />
        <Node type="out" id="12" />
      </Nodes>
      <Connections>
        <Con id="13" src="0" tgt="11" wght="-0.58773380052298307" />
        <Con id="14" src="0" tgt="12" wght="-0.076634841971099377" />
        <Con id="15" src="1" tgt="11" wght="-0.0020144283771514893" />
        <Con id="16" src="1" tgt="12" wght="-0.10860261600464582" />
        <Con id="17" src="2" tgt="11" wght="0.47945364005863667" />
        <Con id="18" src="2" tgt="12" wght="0.4033043272793293" />
        <Con id="19" src="3" tgt="11" wght="0.79996524844318628" />
        <Con id="20" src="3" tgt="12" wght="0.5608385382220149" />
        <Con id="21" src="4" tgt="11" wght="-0.083055454306304455" />
        <Con id="22" src="4" tgt="12" wght="-0.1570649454370141" />
        <Con id="23" src="5" tgt="11" wght="0.28926385473459959" />
        <Con id="24" src="5" tgt="12" wght="-0.9105154974386096" />
        <Con id="25" src="6" tgt="11" wght="0.75923453830182552" />
        <Con id="26" src="6" tgt="12" wght="-0.47244010772556067" />
        <Con id="27" src="7" tgt="11" wght="-0.89027525950223207" />
        <Con id="28" src="7" tgt="12" wght="0.94672815501689911" />
        <Con id="29" src="8" tgt="11" wght="-0.16441912762820721" />
        <Con id="30" src="8" tgt="12" wght="-0.11814740393310785" />
        <Con id="31" src="9" tgt="11" wght="-0.23827472515404224" />
        <Con id="32" src="9" tgt="12" wght="0.80807680264115334" />
        <Con id="33" src="10" tgt="11" wght="0.30164971388876438" />
        <Con id="34" src="10" tgt="12" wght="0.57203221600502729" />
      </Connections>
    </Network>
    <Network id="42" birthGen="0" fitness="0">
      <Nodes>
        <Node type="bias" id="0" />
        <Node type="in" id="1" />
        <Node type="in" id="2" />
        <Node type="in" id="3" />
        <Node type="in" id="4" />
        <Node type="in" id="5" />
        <Node type="in" id="6" />
        <Node type="in" id="7" />
        <Node type="in" id="8" />
        <Node type="in" id="9" />
        <Node type="in" id="10" />
        <Node type="out" id="11" />
        <Node type="out" id="12" />
      </Nodes>
      <Connections>
        <Con id="13" src="0" tgt="11" wght="0.64854053314775229" />
        <Con id="14" src="0" tgt="12" wght="0.262180850841105" />
        <Con id="15" src="1" tgt="11" wght="0.30161093268543482" />
        <Con id="16" src="1" tgt="12" wght="-0.45285345613956451" />
        <Con id="17" src="2" tgt="11" wght="-0.177551144734025" />
        <Con id="18" src="2" tgt="12" wght="0.71567081473767757" />
        <Con id="19" src="3" tgt="11" wght="-0.54664786253124475" />
        <Con id="20" src="3" tgt="12" wght="-0.95967918075621128" />
        <Con id="21" src="4" tgt="11" wght="0.54684615321457386" />
        <Con id="22" src="4" tgt="12" wght="-0.4639737531542778" />
        <Con id="23" src="5" tgt="11" wght="-0.67100121546536684" />
        <Con id="24" src="5" tgt="12" wght="-0.40460570808500051" />
        <Con id="25" src="6" tgt="11" wght="0.044016699306666851" />
        <Con id="26" src="6" tgt="12" wght="-0.77698720432817936" />
        <Con id="27" src="7" tgt="11" wght="0.44556018896400928" />
        <Con id="28" src="7" tgt="12" wght="-0.93976316414773464" />
        <Con id="29" src="8" tgt="11" wght="0.016121825203299522" />
        <Con id="30" src="8" tgt="12" wght="0.64130045752972364" />
        <Con id="31" src="9" tgt="11" wght="-0.29039707500487566" />
        <Con id="32" src="9" tgt="12" wght="-0.99571423791348934" />
        <Con id="33" src="10" tgt="11" wght="-0.40549440775066614" />
        <Con id="34" src="10" tgt="12" wght="0.6353902742266655" />
      </Connections>
    </Network>
    <Network id="43" birthGen="0" fitness="0">
      <Nodes>
        <Node type="bias" id="0" />
        <Node type="in" id="1" />
        <Node type="in" id="2" />
        <Node type="in" id="3" />
        <Node type="in" id="4" />
        <Node type="in" id="5" />
        <Node type="in" id="6" />
        <Node type="in" id="7" />
        <Node type="in" id="8" />
        <Node type="in" id="9" />
        <Node type="in" id="10" />
        <Node type="out" id="11" />
        <Node type="out" id="12" />
      </Nodes>
      <Connections>
        <Con id="13" src="0" tgt="11" wght="0.79676154721528292" />
        <Con id="14" src="0" tgt="12" wght="0.9518517442047596" />
        <Con id="15" src="1" tgt="11" wght="-0.91519696358591318" />
        <Con id="16" src="1" tgt="12" wght="0.58099284209311008" />
        <Con id="17" src="2" tgt="11" wght="-0.60529059264808893" />
        <Con id="18" src="2" tgt="12" wght="-0.72681340482085943" />
        <Con id="19" src="3" tgt="11" wght="-0.71636136714369059" />
        <Con id="20" src="3" tgt="12" wght="0.61073320731520653" />
        <Con id="21" src="4" tgt="11" wght="-0.34033186547458172" />
        <Con id="22" src="4" tgt="12" wght="-0.17715427000075579" />
        <Con id="23" src="5" tgt="11" wght="-0.76276442687958479" />
        <Con id="24" src="5" tgt="12" wght="-0.31149971671402454" />
        <Con id="25" src="6" tgt="11" wght="0.988624363206327" />
        <Con id="26" src="6" tgt="12" wght="-0.4915563864633441" />
        <Con id="27" src="7" tgt="11" wght="0.86792598757892847" />
        <Con id="28" src="7" tgt="12" wght="-0.77075584698468447" />
        <Con id="29" src="8" tgt="11" wght="-0.0097906962037086487" />
        <Con id="30" src="8" tgt="12" wght="0.97543046064674854" />
        <Con id="31" src="9" tgt="11" wght="-0.992201249115169" />
        <Con id="32" src="9" tgt="12" wght="0.877437561750412" />
        <Con id="33" src="10" tgt="11" wght="0.73796688206493855" />
        <Con id="34" src="10" tgt="12" wght="0.99210522416979074" />
      </Connections>
    </Network>
    <Network id="44" birthGen="0" fitness="0">
      <Nodes>
        <Node type="bias" id="0" />
        <Node type="in" id="1" />
        <Node type="in" id="2" />
        <Node type="in" id="3" />
        <Node type="in" id="4" />
        <Node type="in" id="5" />
        <Node type="in" id="6" />
        <Node type="in" id="7" />
        <Node type="in" id="8" />
        <Node type="in" id="9" />
        <Node type="in" id="10" />
        <Node type="out" id="11" />
        <Node type="out" id="12" />
      </Nodes>
      <Connections>
        <Con id="13" src="0" tgt="11" wght="-0.97293975297361612" />
        <Con id="14" src="0" tgt="12" wght="-0.59890102036297321" />
        <Con id="15" src="1" tgt="11" wght="-0.37355751637369394" />
        <Con id="16" src="1" tgt="12" wght="-0.46730372682213783" />
        <Con id="17" src="2" tgt="11" wght="0.51412201765924692" />
        <Con id="18" src="2" tgt="12" wght="0.89884912874549627" />
        <Con id="19" src="3" tgt="11" wght="0.90661388821899891" />
        <Con id="20" src="3" tgt="12" wght="-0.77985152788460255" />
        <Con id="21" src="4" tgt="11" wght="0.07398504763841629" />
        <Con id="22" src="4" tgt="12" wght="0.93376865424215794" />
        <Con id="23" src="5" tgt="11" wght="-0.58422965276986361" />
        <Con id="24" src="5" tgt="12" wght="0.76406237296760082" />
        <Con id="25" src="6" tgt="11" wght="-0.913864815607667" />
        <Con id="26" src="6" tgt="12" wght="0.33019419852644205" />
        <Con id="27" src="7" tgt="11" wght="-0.76155863702297211" />
        <Con id="28" src="7" tgt="12" wght="-0.051744064316153526" />
        <Con id="29" src="8" tgt="11" wght="-0.97448656521737576" />
        <Con id="30" src="8" tgt="12" wght="0.060953740961849689" />
        <Con id="31" src="9" tgt="11" wght="0.38734923675656319" />
        <Con id="32" src="9" tgt="12" wght="-0.67722597811371088" />
        <Con id="33" src="10" tgt="11" wght="0.90875696763396263" />
        <Con id="34" src="10" tgt="12" wght="0.40825019776821136" />
      </Connections>
    </Network>
    <Network id="45" birthGen="0" fitness="0">
      <Nodes>
        <Node type="bias" id="0" />
        <Node type="in" id="1" />
        <Node type="in" id="2" />
        <Node type="in" id="3" />
        <Node type="in" id="4" />
        <Node type="in" id="5" />
        <Node type="in" id="6" />
        <Node type="in" id="7" />
        <Node type="in" id="8" />
        <Node type="in" id="9" />
        <Node type="in" id="10" />
        <Node type="out" id="11" />
        <Node type="out" id="12" />
      </Nodes>
      <Connections>
        <Con id="13" src="0" tgt="11" wght="0.40626445412635803" />
        <Con id="14" src="0" tgt="12" wght="-0.30600247252732515" />
        <Con id="15" src="1" tgt="11" wght="0.04348553903400898" />
        <Con id="16" src="1" tgt="12" wght="-0.74733916670084" />
        <Con id="17" src="2" tgt="11" wght="-0.4402545103803277" />
        <Con id="18" src="2" tgt="12" wght="0.5166208865121007" />
        <Con id="19" src="3" tgt="11" wght="-0.2396139670163393" />
        <Con id="20" src="3" tgt="12" wght="-0.81920660473406315" />
        <Con id="21" src="4" tgt="11" wght="-0.85557200666517019" />
        <Con id="22" src="4" tgt="12" wght="-0.10169677156955004" />
        <Con id="23" src="5" tgt="11" wght="0.61653457768261433" />
        <Con id="24" src="5" tgt="12" wght="0.42150864936411381" />
        <Con id="25" src="6" tgt="11" wght="0.86454103607684374" />
        <Con id="26" src="6" tgt="12" wght="0.73548146616667509" />
        <Con id="27" src="7" tgt="11" wght="-0.48735938873142004" />
        <Con id="28" src="7" tgt="12" wght="0.725078197196126" />
        <Con id="29" src="8" tgt="11" wght="0.63926653563976288" />
        <Con id="30" src="8" tgt="12" wght="-0.44992216397076845" />
        <Con id="31" src="9" tgt="11" wght="0.94626169931143522" />
        <Con id="32" src="9" tgt="12" wght="-0.34629091899842024" />
        <Con id="33" src="10" tgt="11" wght="0.727897978387773" />
        <Con id="34" src="10" tgt="12" wght="-0.65205335430800915" />
      </Connections>
    </Network>
    <Network id="46" birthGen="0" fitness="0">
      <Nodes>
        <Node type="bias" id="0" />
        <Node type="in" id="1" />
        <Node type="in" id="2" />
        <Node type="in" id="3" />
        <Node type="in" id="4" />
        <Node type="in" id="5" />
        <Node type="in" id="6" />
        <Node type="in" id="7" />
        <Node type="in" id="8" />
        <Node type="in" id="9" />
        <Node type="in" id="10" />
        <Node type="out" id="11" />
        <Node type="out" id="12" />
      </Nodes>
      <Connections>
        <Con id="13" src="0" tgt="11" wght="0.8386175874620676" />
        <Con id="14" src="0" tgt="12" wght="0.8342939093708992" />
        <Con id="15" src="1" tgt="11" wght="0.34146614838391542" />
        <Con id="16" src="1" tgt="12" wght="0.75117222778499126" />
        <Con id="17" src="2" tgt="11" wght="0.52674558386206627" />
        <Con id="18" src="2" tgt="12" wght="-0.49677651282399893" />
        <Con id="19" src="3" tgt="11" wght="0.087994126603007317" />
        <Con id="20" src="3" tgt="12" wght="0.17114047892391682" />
        <Con id="21" src="4" tgt="11" wght="0.05940729845315218" />
        <Con id="22" src="4" tgt="12" wght="-0.61650855839252472" />
        <Con id="23" src="5" tgt="11" wght="0.68646871671080589" />
        <Con id="24" src="5" tgt="12" wght="0.98555095214396715" />
        <Con id="25" src="6" tgt="11" wght="-0.37290594633668661" />
        <Con id="26" src="6" tgt="12" wght="-0.57373463176190853" />
        <Con id="27" src="7" tgt="11" wght="0.15498247556388378" />
        <Con id="28" src="7" tgt="12" wght="-0.23987684678286314" />
        <Con id="29" src="8" tgt="11" wght="0.60612735338509083" />
        <Con id="30" src="8" tgt="12" wght="0.30338678602129221" />
        <Con id="31" src="9" tgt="11" wght="0.27018884662538767" />
        <Con id="32" src="9" tgt="12" wght="0.64166154805570841" />
        <Con id="33" src="10" tgt="11" wght="0.36793030146509409" />
        <Con id="34" src="10" tgt="12" wght="0.88846774585545063" />
      </Connections>
    </Network>
    <Network id="47" birthGen="0" fitness="0">
      <Nodes>
        <Node type="bias" id="0" />
        <Node type="in" id="1" />
        <Node type="in" id="2" />
        <Node type="in" id="3" />
        <Node type="in" id="4" />
        <Node type="in" id="5" />
        <Node type="in" id="6" />
        <Node type="in" id="7" />
        <Node type="in" id="8" />
        <Node type="in" id="9" />
        <Node type="in" id="10" />
        <Node type="out" id="11" />
        <Node type="out" id="12" />
      </Nodes>
      <Connections>
        <Con id="13" src="0" tgt="11" wght="-0.19427954778075218" />
        <Con id="14" src="0" tgt="12" wght="0.10171677079051733" />
        <Con id="15" src="1" tgt="11" wght="0.71124625485390425" />
        <Con id="16" src="1" tgt="12" wght="0.570274249650538" />
        <Con id="17" src="2" tgt="11" wght="-0.27858384512364864" />
        <Con id="18" src="2" tgt="12" wght="0.84582220111042261" />
        <Con id="19" src="3" tgt="11" wght="0.63651517033576965" />
        <Con id="20" src="3" tgt="12" wght="-0.8691122168675065" />
        <Con id="21" src="4" tgt="11" wght="0.27499855123460293" />
        <Con id="22" src="4" tgt="12" wght="-0.44848706852644682" />
        <Con id="23" src="5" tgt="11" wght="0.41456449590623379" />
        <Con id="24" src="5" tgt="12" wght="0.92342789750546217" />
        <Con id="25" src="6" tgt="11" wght="0.93443834688514471" />
        <Con id="26" src="6" tgt="12" wght="-0.88881272915750742" />
        <Con id="27" src="7" tgt="11" wght="-0.55841532815247774" />
        <Con id="28" src="7" tgt="12" wght="-0.67764400877058506" />
        <Con id="29" src="8" tgt="11" wght="0.59385873842984438" />
        <Con id="30" src="8" tgt="12" wght="0.912021093070507" />
