<?xml version="1.0" encoding="utf-8"?>
<Root>
  <ActivationFunctions>
    <Fn id="0" name="SteepenedSigmoid" prob="1" />
  </ActivationFunctions>
  <Networks>
    <Network id="0" birthGen="0" fitness="0">
      <Nodes>
        <Node type="bias" id="0" />
        <Node type="in" id="1" />
        <Node type="in" id="2" />
        <Node type="in" id="3" />
        <Node type="in" id="4" />
        <Node type="in" id="5" />
        <Node type="in" id="6" />
        <Node type="in" id="7" />
        <Node type="in" id="8" />
        <Node type="in" id="9" />
        <Node type="in" id="10" />
        <Node type="out" id="11" />
        <Node type="out" id="12" />
      </Nodes>
      <Connections>
        <Con id="13" src="0" tgt="11" wght="-0.12923773471266031" />
        <Con id="14" src="0" tgt="12" wght="-0.32641809061169624" />
        <Con id="15" src="1" tgt="11" wght="-0.22602445539087057" />
        <Con id="16" src="1" tgt="12" wght="0.60729851387441158" />
        <Con id="17" src="2" tgt="11" wght="-0.032304358668625355" />
        <Con id="18" src="2" tgt="12" wght="-0.6859172061085701" />
        <Con id="19" src="3" tgt="11" wght="0.8399940449744463" />
        <Con id="20" src="3" tgt="12" wght="0.76277966052293777" />
        <Con id="21" src="4" tgt="11" wght="0.50920671410858631" />
        <Con id="22" src="4" tgt="12" wght="0.37407668028026819" />
        <Con id="23" src="5" tgt="11" wght="0.66224929224699736" />
        <Con id="24" src="5" tgt="12" wght="0.5537666529417038" />
        <Con id="25" src="6" tgt="11" wght="-0.40090185403823853" />
        <Con id="26" src="6" tgt="12" wght="-0.16230406146496534" />
        <Con id="27" src="7" tgt="11" wght="-0.496423683129251" />
        <Con id="28" src="7" tgt="12" wght="-0.13240163493901491" />
        <Con id="29" src="8" tgt="11" wght="-0.012694919481873512" />
        <Con id="30" src="8" tgt="12" wght="0.27621467784047127" />
        <Con id="31" src="9" tgt="11" wght="-0.18528560269623995" />
        <Con id="32" src="9" tgt="12" wght="0.57121610268950462" />
        <Con id="33" src="10" tgt="11" wght="-0.17291332595050335" />
        <Con id="34" src="10" tgt="12" wght="0.23889444954693317" />
      </Connections>
    </Network>
    <Network id="1" birthGen="0" fitness="0">
      <Nodes>
        <Node type="bias" id="0" />
        <Node type="in" id="1" />
        <Node type="in" id="2" />
        <Node type="in" id="3" />
        <Node type="in" id="4" />
        <Node type="in" id="5" />
        <Node type="in" id="6" />
        <Node type="in" id="7" />
        <Node type="in" id="8" />
        <Node type="in" id="9" />
        <Node type="in" id="10" />
        <Node type="out" id="11" />
        <Node type="out" id="12" />
      </Nodes>
      <Connections>
        <Con id="13" src="0" tgt="11" wght="0.2424621619284153" />
        <Con id="14" src="0" tgt="12" wght="-0.4219959769397974" />
        <Con id="15" src="1" tgt="11" wght="0.0060260416939854622" />
        <Con id="16" src="1" tgt="12" wght="-0.040109333582222462" />
        <Con id="17" src="2" tgt="11" wght="-0.67177848052233458" />
        <Con id="18" src="2" tgt="12" wght="-0.6707462053745985" />
        <Con id="19" src="3" tgt="11" wght="-0.68235377874225378" />
        <Con id="20" src="3" tgt="12" wght="-0.90511487983167171" />
        <Con id="21" src="4" tgt="11" wght="-0.081353292800486088" />
        <Con id="22" src="4" tgt="12" wght="0.8734752107411623" />
        <Con id="23" src="5" tgt="11" wght="0.890313015319407" />
        <Con id="24" src="5" tgt="12" wght="-0.2554398886859417" />
        <Con id="25" src="6" tgt="11" wght="0.024410909041762352" />
        <Con id="26" src="6" tgt="12" wght="0.71522231679409742" />
        <Con id="27" src="7" tgt="11" wght="0.79508063942193985" />
        <Con id="28" src="7" tgt="12" wght="0.81262572854757309" />
        <Con id="29" src="8" tgt="11" wght="-0.39591314550489187" />
        <Con id="30" src="8" tgt="12" wght="-0.68160400912165642" />
        <Con id="31" src="9" tgt="11" wght="-0.7825446855276823" />
        <Con id="32" src="9" tgt="12" wght="-0.73208870645612478" />
        <Con id="33" src="10" tgt="11" wght="-0.33669695723801851" />
        <Con id="34" src="10" tgt="12" wght="-0.081108943559229374" />
      </Connections>
    </Network>
    <Network id="2" birthGen="0" fitness="0">
      <Nodes>
        <Node type="bias" id="0" />
        <Node type="in" id="1" />
        <Node type="in" id="2" />
        <Node type="in" id="3" />
        <Node type="in" id="4" />
        <Node type="in" id="5" />
        <Node type="in" id="6" />
        <Node type="in" id="7" />
        <Node type="in" id="8" />
        <Node type="in" id="9" />
        <Node type="in" id="10" />
        <Node type="out" id="11" />
        <Node type="out" id="12" />
      </Nodes>
      <Connections>
        <Con id="13" src="0" tgt="11" wght="-0.3643613588064909" />
        <Con id="14" src="0" tgt="12" wght="0.98016849905252457" />
        <Con id="15" src="1" tgt="11" wght="-0.64571329206228256" />
        <Con id="16" src="1" tgt="12" wght="0.96178433671593666" />
        <Con id="17" src="2" tgt="11" wght="0.8065032884478569" />
        <Con id="18" src="2" tgt="12" wght="-0.19156341534107924" />
        <Con id="19" src="3" tgt="11" wght="-0.044160916469991207" />
        <Con id="20" src="3" tgt="12" wght="-0.99232867266982794" />
        <Con id="21" src="4" tgt="11" wght="-0.1434161365032196" />
        <Con id="22" src="4" tgt="12" wght="0.25414021499454975" />
        <Con id="23" src="5" tgt="11" wght="0.36152221914380789" />
        <Con id="24" src="5" tgt="12" wght="-0.97074656561017036" />
        <Con id="25" src="6" tgt="11" wght="-0.84495129808783531" />
        <Con id="26" src="6" tgt="12" wght="-0.90804259944707155" />
        <Con id="27" src="7" tgt="11" wght="-0.60128190740942955" />
        <Con id="28" src="7" tgt="12" wght="0.41239202115684748" />
        <Con id="29" src="8" tgt="11" wght="0.88029000069946051" />
        <Con id="30" src="8" tgt="12" wght="0.93109332583844662" />
        <Con id="31" src="9" tgt="11" wght="-0.77712585963308811" />
        <Con id="32" src="9" tgt="12" wght="-0.26049078814685345" />
        <Con id="33" src="10" tgt="11" wght="0.46688800863921642" />
        <Con id="34" src="10" tgt="12" wght="0.9551217332482338" />
      </Connections>
    </Network>
    <Network id="3" birthGen="0" fitness="0">
      <Nodes>
        <Node type="bias" id="0" />
        <Node type="in" id="1" />
        <Node type="in" id="2" />
        <Node type="in" id="3" />
        <Node type="in" id="4" />
        <Node type="in" id="5" />
        <Node type="in" id="6" />
        <Node type="in" id="7" />
        <Node type="in" id="8" />
        <Node type="in" id="9" />
        <Node type="in" id="10" />
        <Node type="out" id="11" />
        <Node type="out" id="12" />
      </Nodes>
      <Connections>
        <Con id="13" src="0" tgt="11" wght="0.14322107378393412" />
        <Con id="14" src="0" tgt="12" wght="-0.68081147968769073" />
        <Con id="15" src="1" tgt="11" wght="-0.11557358503341675" />
        <Con id="16" src="1" tgt="12" wght="0.12091977428644896" />
        <Con id="17" src="2" tgt="11" wght="-0.90501474030315876" />
        <Con id="18" src="2" tgt="12" wght="0.21614242251962423" />
        <Con id="19" src="3" tgt="11" wght="0.8397187227383256" />
        <Con id="20" src="3" tgt="12" wght="-0.16904978454113007" />
        <Con id="21" src="4" tgt="11" wght="-0.014392204582691193" />
        <Con id="22" src="4" tgt="12" wght="-0.73286185599863529" />
        <Con id="23" src="5" tgt="11" wght="-0.41298883967101574" />
        <Con id="24" src="5" tgt="12" wght="-0.75854215770959854" />
        <Con id="25" src="6" tgt="11" wght="0.54651094600558281" />
        <Con id="26" src="6" tgt="12" wght="-0.8712660102173686" />
        <Con id="27" src="7" tgt="11" wght="0.2034084890037775" />
        <Con id="28" src="7" tgt="12" wght="-0.71056233439594507" />
        <Con id="29" src="8" tgt="11" wght="0.45564420986920595" />
        <Con id="30" src="8" tgt="12" wght="-0.16594474390149117" />
        <Con id="31" src="9" tgt="11" wght="0.301406417042017" />
        <Con id="32" src="9" tgt="12" wght="0.47035687975585461" />
        <Con id="33" src="10" tgt="11" wght="0.087994590401649475" />
        <Con id="34" src="10" tgt="12" wght="0.49321956373751163" />
      </Connections>
    </Network>
    <Network id="4" birthGen="0" fitness="0">
      <Nodes>
        <Node type="bias" id="0" />
        <Node type="in" id="1" />
        <Node type="in" id="2" />
        <Node type="in" id="3" />
        <Node type="in" id="4" />
        <Node type="in" id="5" />
        <Node type="in" id="6" />
        <Node type="in" id="7" />
        <Node type="in" id="8" />
        <Node type="in" id="9" />
        <Node type="in" id="10" />
        <Node type="out" id="11" />
        <Node type="out" id="12" />
      </Nodes>
      <Connections>
        <Con id="13" src="0" tgt="11" wght="-0.13059554062783718" />
        <Con id="14" src="0" tgt="12" wght="0.43129373993724585" />
        <Con id="15" src="1" tgt="11" wght="-0.55894413590431213" />
        <Con id="16" src="1" tgt="12" wght="-0.7248965771868825" />
        <Con id="17" src="2" tgt="11" wght="-0.545837459154427" />
        <Con id="18" src="2" tgt="12" wght="0.873701267875731" />
        <Con id="19" src="3" tgt="11" wght="-0.3075360981747508" />
        <Con id="20" src="3" tgt="12" wght="-0.4219259824603796" />
        <Con id="21" src="4" tgt="11" wght="0.76648012828081846" />
        <Con id="22" src="4" tgt="12" wght="0.28081612102687359" />
        <Con id="23" src="5" tgt="11" wght="-0.95746027678251266" />
        <Con id="24" src="5" tgt="12" wght="-0.69851099886000156" />
        <Con id="25" src="6" tgt="11" wght="0.13053957838565111" />
        <Con id="26" src="6" tgt="12" wght="-0.885495682246983" />
        <Con id="27" src="7" tgt="11" wght="-0.893655595369637" />
        <Con id="28" src="7" tgt="12" wght="0.2011476019397378" />
        <Con id="29" src="8" tgt="11" wght="0.66940694861114025" />
        <Con id="30" src="8" tgt="12" wght="0.52575206570327282" />
        <Con id="31" src="9" tgt="11" wght="0.84794243797659874" />
        <Con id="32" src="9" tgt="12" wght="0.51995520479977131" />
        <Con id="33" src="10" tgt="11" wght="-0.89170974213629961" />
        <Con id="34" src="10" tgt="12" wght="0.090556309558451176" />
      </Connections>
    </Network>
    <Network id="5" birthGen="0" fitness="0">
      <Nodes>
        <Node type="bias" id="0" />
        <Node type="in" id="1" />
        <Node type="in" id="2" />
        <Node type="in" id="3" />
        <Node type="in" id="4" />
        <Node type="in" id="5" />
        <Node type="in" id="6" />
        <Node type="in" id="7" />
        <Node type="in" id="8" />
        <Node type="in" id="9" />
        <Node type="in" id="10" />
        <Node type="out" id="11" />
        <Node type="out" id="12" />
      </Nodes>
      <Connections>
        <Con id="13" src="0" tgt="11" wght="-0.69511455111205578" />
        <Con id="14" src="0" tgt="12" wght="-0.533882905729115" />
        <Con id="15" src="1" tgt="11" wght="0.34197875484824181" />
        <Con id="16" src="1" tgt="12" wght="0.40238024294376373" />
        <Con id="17" src="2" tgt="11" wght="-0.28487296774983406" />
        <Con id="18" src="2" tgt="12" wght="-0.74164524395018816" />
        <Con id="19" src="3" tgt="11" wght="0.015711086802184582" />
        <Con id="20" src="3" tgt="12" wght="0.30052882805466652" />
        <Con id="21" src="4" tgt="11" wght="0.29342360235750675" />
        <Con id="22" src="4" tgt="12" wght="0.72890406847000122" />
        <Con id="23" src="5" tgt="11" wght="-0.7784538371488452" />
        <Con id="24" src="5" tgt="12" wght="0.065332131460309029" />
        <Con id="25" src="6" tgt="11" wght="0.58450501225888729" />
        <Con id="26" src="6" tgt="12" wght="-0.084448176436126232" />
        <Con id="27" src="7" tgt="11" wght="0.20886105392128229" />
        <Con id="28" src="7" tgt="12" wght="-0.72180321346968412" />
        <Con id="29" src="8" tgt="11" wght="-0.21159360744059086" />
        <Con id="30" src="8" tgt="12" wght="0.70909229852259159" />
        <Con id="31" src="9" tgt="11" wght="-0.65155013464391232" />
        <Con id="32" src="9" tgt="12" wght="0.54931933153420687" />
        <Con id="33" src="10" tgt="11" wght="-0.924698150716722" />
        <Con id="34" src="10" tgt="12" wght="-0.55882818251848221" />
      </Connections>
    </Network>
    <Network id="6" birthGen="0" fitness="0">
      <Nodes>
        <Node type="bias" id="0" />
        <Node type="in" id="1" />
        <Node type="in" id="2" />
        <Node type="in" id="3" />
        <Node type="in" id="4" />
        <Node type="in" id="5" />
        <Node type="in" id="6" />
        <Node type="in" id="7" />
        <Node type="in" id="8" />
        <Node type="in" id="9" />
        <Node type="in" id="10" />
        <Node type="out" id="11" />
        <Node type="out" id="12" />
      </Nodes>
      <Connections>
        <Con id="13" src="0" tgt="11" wght="0.77055735234171152" />
        <Con id="14" src="0" tgt="12" wght="-0.22178414463996887" />
        <Con id="15" src="1" tgt="11" wght="-0.78395822457969189" />
        <Con id="16" src="1" tgt="12" wght="0.52834299672394991" />
        <Con id="17" src="2" tgt="11" wght="0.733107190579176" />
        <Con id="18" src="2" tgt="12" wght="-0.364284704439342" />
        <Con id="19" src="3" tgt="11" wght="-0.11059988848865032" />
        <Con id="20" src="3" tgt="12" wght="-0.068964163772761822" />
        <Con id="21" src="4" tgt="11" wght="-0.4306872421875596" />
        <Con id="22" src="4" tgt="12" wght="0.35459371376782656" />
        <Con id="23" src="5" tgt="11" wght="0.727943504229188" />
        <Con id="24" src="5" tgt="12" wght="-0.79120544157922268" />
        <Con id="25" src="6" tgt="11" wght="0.90175655484199524" />
        <Con id="26" src="6" tgt="12" wght="0.86018918268382549" />
        <Con id="27" src="7" tgt="11" wght="-0.883169749751687" />
        <Con id="28" src="7" tgt="12" wght="0.58280667196959257" />
        <Con id="29" src="8" tgt="11" wght="0.51945905853062868" />
        <Con id="30" src="8" tgt="12" wght="-0.075865048915147781" />
        <Con id="31" src="9" tgt="11" wght="-0.46761424280703068" />
        <Con id="32" src="9" tgt="12" wght="-0.33403640147298574" />
        <Con id="33" src="10" tgt="11" wght="0.30799817945808172" />
        <Con id="34" src="10" tgt="12" wght="0.0033763526007533073" />
      </Connections>
    </Network>
    <Network id="7" birthGen="0" fitness="0">
      <Nodes>
        <Node type="bias" id="0" />
        <Node type="in" id="1" />
        <Node type="in" id="2" />
        <Node type="in" id="3" />
        <Node type="in" id="4" />
        <Node type="in" id="5" />
        <Node type="in" id="6" />
        <Node type="in" id="7" />
        <Node type="in" id="8" />
        <Node type="in" id="9" />
        <Node type="in" id="10" />
        <Node type="out" id="11" />
        <Node type="out" id="12" />
      </Nodes>
      <Connections>
        <Con id="13" src="0" tgt="11" wght="-0.316619960591197" />
        <Con id="14" src="0" tgt="12" wght="0.021021973341703415" />
        <Con id="15" src="1" tgt="11" wght="-0.1155822305008769" />
        <Con id="16" src="1" tgt="12" wght="0.18477700650691986" />
        <Con id="17" src="2" tgt="11" wght="0.37927947659045458" />
        <Con id="18" src="2" tgt="12" wght="0.67207827046513557" />
        <Con id="19" src="3" tgt="11" wght="-0.25834292639046907" />
        <Con id="20" src="3" tgt="12" wght="-0.17945534363389015" />
        <Con id="21" src="4" tgt="11" wght="0.47857897449284792" />
        <Con id="22" src="4" tgt="12" wght="-0.64490148797631264" />
        <Con id="23" src="5" tgt="11" wght="0.573677065782249" />
        <Con id="24" src="5" tgt="12" wght="-0.351418892852962" />
        <Con id="25" src="6" tgt="11" wght="0.42839533276855946" />
        <Con id="26" src="6" tgt="12" wght="0.12990215793251991" />
        <Con id="27" src="7" tgt="11" wght="0.095121156424283981" />
        <Con id="28" src="7" tgt="12" wght="0.13797752372920513" />
        <Con id="29" src="8" tgt="11" wght="-0.7219026917591691" />
        <Con id="30" src="8" tgt="12" wght="-0.61121702287346125" />
        <Con id="31" src="9" tgt="11" wght="-0.27526118699461222" />
        <Con id="32" src="9" tgt="12" wght="0.44789811596274376" />
        <Con id="33" src="10" tgt="11" wght="-0.94100643321871758" />
        <Con id="34" src="10" tgt="12" wght="-0.45248622354120016" />
      </Connections>
    </Network>
    <Network id="8" birthGen="0" fitness="0">
      <Nodes>
        <Node type="bias" id="0" />
        <Node type="in" id="1" />
        <Node type="in" id="2" />
        <Node type="in" id="3" />
        <Node type="in" id="4" />
        <Node type="in" id="5" />
        <Node type="in" id="6" />
        <Node type="in" id="7" />
        <Node type="in" id="8" />
        <Node type="in" id="9" />
        <Node type="in" id="10" />
        <Node type="out" id="11" />
        <Node type="out" id="12" />
      </Nodes>
      <Connections>
        <Con id="13" src="0" tgt="11" wght="-0.23336135502904654" />
        <Con id="14" src="0" tgt="12" wght="0.8594536492601037" />
        <Con id="15" src="1" tgt="11" wght="-0.0082108071073889732" />
        <Con id="16" src="1" tgt="12" wght="0.28679944016039371" />
        <Con id="17" src="2" tgt="11" wght="-0.776479690335691" />
        <Con id="18" src="2" tgt="12" wght="0.049069711938500404" />
        <Con id="19" src="3" tgt="11" wght="-0.612966419197619" />
        <Con id="20" src="3" tgt="12" wght="-0.942759333178401" />
        <Con id="21" src="4" tgt="11" wght="-0.58949031215161085" />
        <Con id="22" src="4" tgt="12" wght="-0.8411544943228364" />
        <Con id="23" src="5" tgt="11" wght="-0.46386811975389719" />
        <Con id="24" src="5" tgt="12" wght="-0.46964599285274744" />
        <Con id="25" src="6" tgt="11" wght="0.33933074120432138" />
        <Con id="26" src="6" tgt="12" wght="0.84930154215544462" />
        <Con id="27" src="7" tgt="11" wght="0.23873618151992559" />
        <Con id="28" src="7" tgt="12" wght="0.46883650124073029" />
        <Con id="29" src="8" tgt="11" wght="0.38355374429374933" />
        <Con id="30" src="8" tgt="12" wght="-0.7825488168746233" />
        <Con id="31" src="9" tgt="11" wght="-0.072158594615757465" />
        <Con id="32" src="9" tgt="12" wght="-0.81336990185081959" />
        <Con id="33" src="10" tgt="11" wght="0.97820012364536524" />
        <Con id="34" src="10" tgt="12" wght="-0.94420324079692364" />
      </Connections>
    </Network>
    <Network id="9" birthGen="0" fitness="0">
      <Nodes>
        <Node type="bias" id="0" />
        <Node type="in" id="1" />
        <Node type="in" id="2" />
        <Node type="in" id="3" />
        <Node type="in" id="4" />
        <Node type="in" id="5" />
        <Node type="in" id="6" />
        <Node type="in" id="7" />
        <Node type="in" id="8" />
        <Node type="in" id="9" />
        <Node type="in" id="10" />
        <Node type="out" id="11" />
        <Node type="out" id="12" />
      </Nodes>
      <Connections>
        <Con id="13" src="0" tgt="11" wght="-0.098966040648519993" />
        <Con id="14" src="0" tgt="12" wght="-0.34104416612535715" />
        <Con id="15" src="1" tgt="11" wght="0.30587339773774147" />
        <Con id="16" src="1" tgt="12" wght="-0.82256379723548889" />
        <Con id="17" src="2" tgt="11" wght="0.38185098674148321" />
        <Con id="18" src="2" tgt="12" wght="-0.738508952781558" />
        <Con id="19" src="3" tgt="11" wght="-0.5475422153249383" />
        <Con id="20" src="3" tgt="12" wght="0.12070327159017324" />
        <Con id="21" src="4" tgt="11" wght="-0.12556933611631393" />
        <Con id="22" src="4" tgt="12" wght="-0.54265304189175367" />
        <Con id="23" src="5" tgt="11" wght="-0.68169630039483309" />
        <Con id="24" src="5" tgt="12" wght="-0.40550097823143005" />
        <Con id="25" src="6" tgt="11" wght="0.23818215914070606" />
        <Con id="26" src="6" tgt="12" wght="0.72118882648646832" />
        <Con id="27" src="7" tgt="11" wght="-0.79327844548970461" />
        <Con id="28" src="7" tgt="12" wght="-0.52530478965491056" />
        <Con id="29" src="8" tgt="11" wght="0.33072716649621725" />
        <Con id="30" src="8" tgt="12" wght="0.88121360447257757" />
        <Con id="31" src="9" tgt="11" wght="0.080077064223587513" />
        <Con id="32" src="9" tgt="12" wght="-0.53604376502335072" />
        <Con id="33" src="10" tgt="11" wght="-0.34247147291898727" />
        <Con id="34" src="10" tgt="12" wght="-0.94600686151534319" />
      </Connections>
    </Network>
    <Network id="10" birthGen="0" fitness="0">
      <Nodes>
        <Node type="bias" id="0" />
        <Node type="in" id="1" />
        <Node type="in" id="2" />
        <Node type="in" id="3" />
        <Node type="in" id="4" />
        <Node type="in" id="5" />
        <Node type="in" id="6" />
        <Node type="in" id="7" />
        <Node type="in" id="8" />
        <Node type="in" id="9" />
        <Node type="in" id="10" />
        <Node type="out" id="11" />
        <Node type="out" id="12" />
      </Nodes>
      <Connections>
        <Con id="13" src="0" tgt="11" wght="0.95462390407919884" />
        <Con id="14" src="0" tgt="12" wght="0.22787899244576693" />
        <Con id="15" src="1" tgt="11" wght="0.0058259163051843643" />
        <Con id="16" src="1" tgt="12" wght="-0.41234255954623222" />
        <Con id="17" src="2" tgt="11" wght="0.91550343111157417" />
        <Con id="18" src="2" tgt="12" wght="-0.94115524645894766" />
        <Con id="19" src="3" tgt="11" wght="0.37164217233657837" />
        <Con id="20" src="3" tgt="12" wght="-0.0993719631806016" />
        <Con id="21" src="4" tgt="11" wght="0.31144444458186626" />
        <Con id="22" src="4" tgt="12" wght="0.34095517266541719" />
        <Con id="23" src="5" tgt="11" wght="-0.43241354823112488" />
        <Con id="24" src="5" tgt="12" wght="-0.15680959448218346" />
        <Con id="25" src="6" tgt="11" wght="0.962295850738883" />
        <Con id="26" src="6" tgt="12" wght="0.53803153242915869" />
        <Con id="27" src="7" tgt="11" wght="0.39202643465250731" />
        <Con id="28" src="7" tgt="12" wght="-0.55872644111514091" />
        <Con id="29" src="8" tgt="11" wght="-0.40754312183707952" />
        <Con id="30" src="8" tgt="12" wght="-0.076524799689650536" />
        <Con id="31" src="9" tgt="11" wght="0.24181721173226833" />
        <Con id="32" src="9" tgt="12" wght="-0.99080428387969732" />
        <Con id="33" src="10" tgt="11" wght="0.3653887128457427" />
        <Con id="34" src="10" tgt="12" wght="-0.93837669491767883" />
      </Connections>
    </Network>
    <Network id="11" birthGen="0" fitness="0">
      <Nodes>
        <Node type="bias" id="0" />
        <Node type="in" id="1" />
        <Node type="in" id="2" />
        <Node type="in" id="3" />
        <Node type="in" id="4" />
        <Node type="in" id="5" />
        <Node type="in" id="6" />
        <Node type="in" id="7" />
        <Node type="in" id="8" />
        <Node type="in" id="9" />
        <Node type="in" id="10" />
        <Node type="out" id="11" />
        <Node type="out" id="12" />
      </Nodes>
      <Connections>
        <Con id="13" src="0" tgt="11" wght="0.575635377317667" />
        <Con id="14" src="0" tgt="12" wght="-0.93321086186915636" />
        <Con id="15" src="1" tgt="11" wght="-0.73511914536356926" />
        <Con id="16" src="1" tgt="12" wght="0.802264810539782" />
        <Con id="17" src="2" tgt="11" wght="-0.89666756615042686" />
        <Con id="18" src="2" tgt="12" wght="0.66280211415141821" />
        <Con id="19" src="3" tgt="11" wght="0.84908142127096653" />
        <Con id="20" src="3" tgt="12" wght="0.68495782185345888" />
        <Con id="21" src="4" tgt="11" wght="-0.024508137255907059" />
        <Con id="22" src="4" tgt="12" wght="-0.50791215896606445" />
        <Con id="23" src="5" tgt="11" wght="-0.77282067108899355" />
        <Con id="24" src="5" tgt="12" wght="-0.87425557430833578" />
        <Con id="25" src="6" tgt="11" wght="0.40443269349634647" />
        <Con id="26" src="6" tgt="12" wght="0.32426451146602631" />
        <Con id="27" src="7" tgt="11" wght="-0.86415092274546623" />
        <Con id="28" src="7" tgt="12" wght="0.41084642894566059" />
        <Con id="29" src="8" tgt="11" wght="-0.630788623355329" />
        <Con id="30" src="8" tgt="12" wght="0.84580051712691784" />
        <Con id="31" src="9" tgt="11" wght="0.31660784315317869" />
        <Con id="32" src="9" tgt="12" wght="-0.60476330388337374" />
        <Con id="33" src="10" tgt="11" wght="0.4290867205709219" />
        <Con id="34" src="10" tgt="12" wght="0.84430799074471" />
      </Connections>
    </Network>
    <Network id="12" birthGen="0" fitness="0">
      <Nodes>
        <Node type="bias" id="0" />
        <Node type="in" id="1" />
        <Node type="in" id="2" />
        <Node type="in" id="3" />
        <Node type="in" id="4" />
        <Node type="in" id="5" />
        <Node type="in" id="6" />
        <Node type="in" id="7" />
        <Node type="in" id="8" />
        <Node type="in" id="9" />
        <Node type="in" id="10" />
        <Node type="out" id="11" />
        <Node type="out" id="12" />
      </Nodes>
      <Connections>
        <Con id="13" src="0" tgt="11" wght="-0.32940627448260784" />
        <Con id="14" src="0" tgt="12" wght="-0.12395144626498222" />
        <Con id="15" src="1" tgt="11" wght="-0.7077225586399436" />
        <Con id="16" src="1" tgt="12" wght="0.76238391362130642" />
        <Con id="17" src="2" tgt="11" wght="0.47204135823994875" />
        <Con id="18" src="2" tgt="12" wght="0.30335589591413736" />
        <Con id="19" src="3" tgt="11" wght="0.48657084442675114" />
        <Con id="20" src="3" tgt="12" wght="-0.9114827923476696" />
        <Con id="21" src="4" tgt="11" wght="-0.35947245359420776" />
        <Con id="22" src="4" tgt="12" wght="-0.971936303190887" />
        <Con id="23" src="5" tgt="11" wght="-0.93398915510624647" />
        <Con id="24" src="5" tgt="12" wght="0.42048794683068991" />
        <Con id="25" src="6" tgt="11" wght="0.084585707634687424" />
        <Con id="26" src="6" tgt="12" wght="-0.78654850646853447" />
        <Con id="27" src="7" tgt="11" wght="0.94889977388083935" />
        <Con id="28" src="7" tgt="12" wght="0.62971019651740789" />
        <Con id="29" src="8" tgt="11" wght="-0.87905171420425177" />
        <Con id="30" src="8" tgt="12" wght="-0.17512273415923119" />
        <Con id="31" src="9" tgt="11" wght="-0.31033037416636944" />
        <Con id="32" src="9" tgt="12" wght="-0.563279022462666" />
        <Con id="33" src="10" tgt="11" wght="-0.2872807402163744" />
        <Con id="34" src="10" tgt="12" wght="0.79418981354683638" />
      </Connections>
    </Network>
    <Network id="13" birthGen="0" fitness="0">
      <Nodes>
        <Node type="bias" id="0" />
        <Node type="in" id="1" />
        <Node type="in" id="2" />
        <Node type="in" id="3" />
        <Node type="in" id="4" />
        <Node type="in" id="5" />
        <Node type="in" id="6" />
        <Node type="in" id="7" />
        <Node type="in" id="8" />
        <Node type="in" id="9" />
        <Node type="in" id="10" />
        <Node type="out" id="11" />
        <Node type="out" id="12" />
      </Nodes>
      <Connections>
        <Con id="13" src="0" tgt="11" wght="0.37767961341887712" />
        <Con id="14" src="0" tgt="12" wght="-0.80786409042775631" />
        <Con id="15" src="1" tgt="11" wght="0.059521250426769257" />
        <Con id="16" src="1" tgt="12" wght="0.536088852211833" />
        <Con id="17" src="2" tgt="11" wght="0.79941059648990631" />
        <Con id="18" src="2" tgt="12" wght="0.94901108555495739" />
        <Con id="19" src="3" tgt="11" wght="0.76630992442369461" />
        <Con id="20" src="3" tgt="12" wght="-0.390682159923017" />
        <Con id="21" src="4" tgt="11" wght="0.085577758960425854" />
        <Con id="22" src="4" tgt="12" wght="-0.91385321877896786" />
        <Con id="23" src="5" tgt="11" wght="-0.905496459454298" />
        <Con id="24" src="5" tgt="12" wght="-0.019513420760631561" />
        <Con id="25" src="6" tgt="11" wght="-0.83336501941084862" />
        <Con id="26" src="6" tgt="12" wght="-0.75380856730043888" />
        <Con id="27" src="7" tgt="11" wght="-0.46579736471176147" />
        <Con id="28" src="7" tgt="12" wght="0.6619183449074626" />
        <Con id="29" src="8" tgt="11" wght="-0.87620482221245766" />
        <Con id="30" src="8" tgt="12" wght="-0.52960222866386175" />
        <Con id="31" src="9" tgt="11" wght="0.23079227097332478" />
        <Con id="32" src="9" tgt="12" wght="0.27166297193616629" />
        <Con id="33" src="10" tgt="11" wght="-0.61616623401641846" />
        <Con id="34" src="10" tgt="12" wght="-0.77962465770542622" />
      </Connections>
    </Network>
    <Network id="14" birthGen="0" fitness="0">
      <Nodes>
        <Node type="bias" id="0" />
        <Node type="in" id="1" />
        <Node type="in" id="2" />
        <Node type="in" id="3" />
        <Node type="in" id="4" />
        <Node type="in" id="5" />
        <Node type="in" id="6" />
        <Node type="in" id="7" />
        <Node type="in" id="8" />
        <Node type="in" id="9" />
        <Node type="in" id="10" />
        <Node type="out" id="11" />
        <Node type="out" id="12" />
      </Nodes>
      <Connections>
        <Con id="13" src="0" tgt="11" wght="-0.30904969200491905" />
        <Con id="14" src="0" tgt="12" wght="0.89302851352840662" />
        <Con id="15" src="1" tgt="11" wght="-0.79480154626071453" />
        <Con id="16" src="1" tgt="12" wght="-0.046988891437649727" />
        <Con id="17" src="2" tgt="11" wght="-0.21614015847444534" />
        <Con id="18" src="2" tgt="12" wght="-0.17927547451108694" />
        <Con id="19" src="3" tgt="11" wght="0.38569291960448027" />
        <Con id="20" src="3" tgt="12" wght="-0.22703183349221945" />
        <Con id="21" src="4" tgt="11" wght="-0.18707778677344322" />
        <Con id="22" src="4" tgt="12" wght="0.24683759920299053" />
        <Con id="23" src="5" tgt="11" wght="0.026760296896100044" />
        <Con id="24" src="5" tgt="12" wght="0.059624729678034782" />
        <Con id="25" src="6" tgt="11" wght="0.72535799257457256" />
        <Con id="26" src="6" tgt="12" wght="0.21540301106870174" />
        <Con id="27" src="7" tgt="11" wght="-0.44340754859149456" />
        <Con id="28" src="7" tgt="12" wght="-0.0690178144723177" />
        <Con id="29" src="8" tgt="11" wght="0.70782493520528078" />
        <Con id="30" src="8" tgt="12" wght="0.32150909211486578" />
        <Con id="31" src="9" tgt="11" wght="-0.23179232235997915" />
        <Con id="32" src="9" tgt="12" wght="-0.12006016541272402" />
        <Con id="33" src="10" tgt="11" wght="0.48877498228102922" />
        <Con id="34" src="10" tgt="12" wght="-0.785382597707212" />
      </Connections>
    </Network>
    <Network id="15" birthGen="0" fitness="0">
      <Nodes>
        <Node type="bias" id="0" />
        <Node type="in" id="1" />
        <Node type="in" id="2" />
        <Node type="in" id="3" />
        <Node type="in" id="4" />
        <Node type="in" id="5" />
        <Node type="in" id="6" />
        <Node type="in" id="7" />
        <Node type="in" id="8" />
        <Node type="in" id="9" />
        <Node type="in" id="10" />
        <Node type="out" id="11" />
        <Node type="out" id="12" />
      </Nodes>
      <Connections>
        <Con id="13" src="0" tgt="11" wght="0.12915663234889507" />
        <Con id="14" src="0" tgt="12" wght="-0.6754057053476572" />
        <Con id="15" src="1" tgt="11" wght="-0.19075543805956841" />
        <Con id="16" src="1" tgt="12" wght="0.16322510037571192" />
        <Con id="17" src="2" tgt="11" wght="0.3638529647141695" />
        <Con id="18" src="2" tgt="12" wght="0.49901651032269" />
        <Con id="19" src="3" tgt="11" wght="-0.33115230966359377" />
        <Con id="20" src="3" tgt="12" wght="0.947690000757575" />
        <Con id="21" src="4" tgt="11" wght="-0.61118140816688538" />
        <Con id="22" src="4" tgt="12" wght="-0.14718490932136774" />
        <Con id="23" src="5" tgt="11" wght="-0.48718001786619425" />
        <Con id="24" src="5" tgt="12" wght="0.38827715069055557" />
        <Con id="25" src="6" tgt="11" wght="0.23109794408082962" />
        <Con id="26" src="6" tgt="12" wght="-0.91844263300299644" />
        <Con id="27" src="7" tgt="11" wght="0.43920337222516537" />
        <Con id="28" src="7" tgt="12" wght="-0.6905250633135438" />
        <Con id="29" src="8" tgt="11" wght="0.19649069104343653" />
        <Con id="30" src="8" tgt="12" wght="-0.17405024450272322" />
        <Con id="31" src="9" tgt="11" wght="0.18603375181555748" />
        <Con id="32" src="9" tgt="12" wght="0.48299697879701853" />
        <Con id="33" src="10" tgt="11" wght="0.69212596863508224" />
        <Con id="34" src="10" tgt="12" wght="-0.12445609923452139" />
      </Connections>
    </Network>
    <Network id="16" birthGen="0" fitness="0">
      <Nodes>
        <Node type="bias" id="0" />
        <Node type="in" id="1" />
        <Node type="in" id="2" />
        <Node type="in" id="3" />
        <Node type="in" id="4" />
        <Node type="in" id="5" />
        <Node type="in" id="6" />
        <Node type="in" id="7" />
        <Node type="in" id="8" />
        <Node type="in" id="9" />
        <Node type="in" id="10" />
        <Node type="out" id="11" />
        <Node type="out" id="12" />
      </Nodes>
      <Connections>
        <Con id="13" src="0" tgt="11" wght="0.30842574033886194" />
        <Con id="14" src="0" tgt="12" wght="-0.84565323032438755" />
        <Con id="15" src="1" tgt="11" wght="0.52035513613373041" />
        <Con id="16" src="1" tgt="12" wght="-0.84232141450047493" />
        <Con id="17" src="2" tgt="11" wght="-0.11755904369056225" />
        <Con id="18" src="2" tgt="12" wght="0.13448625430464745" />
        <Con id="19" src="3" tgt="11" wght="0.40469065774232149" />
        <Con id="20" src="3" tgt="12" wght="0.043278714641928673" />
        <Con id="21" src="4" tgt="11" wght="-0.073433003388345242" />
        <Con id="22" src="4" tgt="12" wght="0.75677482225000858" />
        <Con id="23" src="5" tgt="11" wght="0.82836491148918867" />
        <Con id="24" src="5" tgt="12" wght="-0.0023978687822818756" />
        <Con id="25" src="6" tgt="11" wght="0.12493861466646194" />
        <Con id="26" src="6" tgt="12" wght="-0.9735604589805007" />
        <Con id="27" src="7" tgt="11" wght="-0.12351326737552881" />
        <Con id="28" src="7" tgt="12" wght="0.47572436556220055" />
        <Con id="29" src="8" tgt="11" wght="-0.36141807585954666" />
        <Con id="30" src="8" tgt="12" wght="-0.348937826231122" />
        <Con id="31" src="9" tgt="11" wght="0.33346498385071754" />
        <Con id="32" src="9" tgt="12" wght="0.005143066868185997" />
        <Con id="33" src="10" tgt="11" wght="0.34670324251055717" />
        <Con id="34" src="10" tgt="12" wght="-0.82248730584979057" />
      </Connections>
    </Network>
    <Network id="17" birthGen="0" fitness="0">
      <Nodes>
        <Node type="bias" id="0" />
        <Node type="in" id="1" />
        <Node type="in" id="2" />
        <Node type="in" id="3" />
        <Node type="in" id="4" />
        <Node type="in" id="5" />
        <Node type="in" id="6" />
        <Node type="in" id="7" />
        <Node type="in" id="8" />
        <Node type="in" id="9" />
        <Node type="in" id="10" />
        <Node type="out" id="11" />
        <Node type="out" id="12" />
      </Nodes>
      <Connections>
        <Con id="13" src="0" tgt="11" wght="0.30026067141443491" />
        <Con id="14" src="0" tgt="12" wght="-0.046928771771490574" />
        <Con id="15" src="1" tgt="11" wght="-0.30059215985238552" />
        <Con id="16" src="1" tgt="12" wght="-0.80434172600507736" />
        <Con id="17" src="2" tgt="11" wght="0.88398305606096983" />
        <Con id="18" src="2" tgt="12" wght="0.675265290774405" />
        <Con id="19" src="3" tgt="11" wght="-0.75769338011741638" />
        <Con id="20" src="3" tgt="12" wght="-0.063116857782006264" />
        <Con id="21" src="4" tgt="11" wght="-0.64890681579709053" />
        <Con id="22" src="4" tgt="12" wght="-0.38450118713080883" />
        <Con id="23" src="5" tgt="11" wght="-0.20218278933316469" />
        <Con id="24" src="5" tgt="12" wght="-0.48935308866202831" />
        <Con id="25" src="6" tgt="11" wght="-0.20193318091332912" />
        <Con id="26" src="6" tgt="12" wght="-0.39849906321614981" />
        <Con id="27" src="7" tgt="11" wght="-0.55175406578928232" />
        <Con id="28" src="7" tgt="12" wght="-0.831452795304358" />
        <Con id="29" src="8" tgt="11" wght="0.43019439466297626" />
        <Con id="30" src="8" tgt="12" wght="-0.1319339582696557" />
        <Con id="31" src="9" tgt="11" wght="0.18064449355006218" />
        <Con id="32" src="9" tgt="12" wght="0.98811376094818115" />
        <Con id="33" src="10" tgt="11" wght="0.074090245179831982" />
        <Con id="34" src="10" tgt="12" wght="0.79435431864112616" />
      </Connections>
    </Network>
    <Network id="18" birthGen="0" fitness="0">
      <Nodes>
        <Node type="bias" id="0" />
        <Node type="in" id="1" />
        <Node type="in" id="2" />
        <Node type="in" id="3" />
        <Node type="in" id="4" />
        <Node type="in" id="5" />
        <Node type="in" id="6" />
        <Node type="in" id="7" />
        <Node type="in" id="8" />
        <Node type="in" id="9" />
        <Node type="in" id="10" />
        <Node type="out" id="11" />
        <Node type="out" id="12" />
      </Nodes>
      <Connections>
        <Con id="13" src="0" tgt="11" wght="0.590117490850389" />
        <Con id="14" src="0" tgt="12" wght="-0.028678256087005138" />
        <Con id="15" src="1" tgt="11" wght="-0.86642832029610872" />
        <Con id="16" src="1" tgt="12" wght="0.2877876628190279" />
        <Con id="17" src="2" tgt="11" wght="-0.92858881782740355" />
        <Con id="18" src="2" tgt="12" wght="-0.21579217817634344" />
        <Con id="19" src="3" tgt="11" wght="0.38606848847121" />
        <Con id="20" src="3" tgt="12" wght="0.21945622377097607" />
        <Con id="21" src="4" tgt="11" wght="0.64872642233967781" />
        <Con id="22" src="4" tgt="12" wght="0.0394207751378417" />
        <Con id="23" src="5" tgt="11" wght="0.03817584365606308" />
        <Con id="24" src="5" tgt="12" wght="-0.79963323753327131" />
        <Con id="25" src="6" tgt="11" wght="0.43867739848792553" />
        <Con id="26" src="6" tgt="12" wght="-0.27241931203752756" />
        <Con id="27" src="7" tgt="11" wght="-0.64672998059540987" />
        <Con id="28" src="7" tgt="12" wght="0.64197072573006153" />
        <Con id="29" src="8" tgt="11" wght="0.968585635535419" />
        <Con id="30" src="8" tgt="12" wght="0.53167035430669785" />
        <Con id="31" src="9" tgt="11" wght="-0.49935994204133749" />
        <Con id="32" src="9" tgt="12" wght="-0.18668710719794035" />
        <Con id="33" src="10" tgt="11" wght="-0.24125121813267469" />
        <Con id="34" src="10" tgt="12" wght="-0.901073700748384" />
      </Connections>
    </Network>
    <Network id="19" birthGen="0" fitness="0">
      <Nodes>
        <Node type="bias" id="0" />
        <Node type="in" id="1" />
        <Node type="in" id="2" />
        <Node type="in" id="3" />
        <Node type="in" id="4" />
        <Node type="in" id="5" />
        <Node type="in" id="6" />
        <Node type="in" id="7" />
        <Node type="in" id="8" />
        <Node type="in" id="9" />
        <Node type="in" id="10" />
        <Node type="out" id="11" />
        <Node type="out" id="12" />
      </Nodes>
      <Connections>
        <Con id="13" src="0" tgt="11" wght="-0.26585925277322531" />
        <Con id="14" src="0" tgt="12" wght="0.11670141201466322" />
        <Con id="15" src="1" tgt="11" wght="0.401021764613688" />
        <Con id="16" src="1" tgt="12" wght="-0.38821611646562815" />
        <Con id="17" src="2" tgt="11" wght="-0.072172423824667931" />
        <Con id="18" src="2" tgt="12" wght="-0.20768690388649702" />
        <Con id="19" src="3" tgt="11" wght="-0.54800145234912634" />
        <Con id="20" src="3" tgt="12" wght="0.19340808782726526" />
        <Con id="21" src="4" tgt="11" wght="-0.66822426486760378" />
        <Con id="22" src="4" tgt="12" wght="0.58571785502135754" />
        <Con id="23" src="5" tgt="11" wght="0.062451808713376522" />
        <Con id="24" src="5" tgt="12" wght="0.73052108008414507" />
        <Con id="25" src="6" tgt="11" wght="-0.99348091706633568" />
        <Con id="26" src="6" tgt="12" wght="0.030818382278084755" />
        <Con id="27" src="7" tgt="11" wght="-0.67824537679553032" />
        <Con id="28" src="7" tgt="12" wght="0.49838349688798189" />
        <Con id="29" src="8" tgt="11" wght="-0.65124258771538734" />
        <Con id="30" src="8" tgt="12" wght="0.51993328798562288" />
        <Con id="31" src="9" tgt="11" wght="-0.69240250065922737" />
        <Con id="32" src="9" tgt="12" wght="-0.32738663256168365" />
        <Con id="33" src="10" tgt="11" wght="-0.0013668816536664963" />
        <Con id="34" src="10" tgt="12" wght="0.8904461245983839" />
      </Connections>
    </Network>
    <Network id="20" birthGen="0" fitness="0">
      <Nodes>
        <Node type="bias" id="0" />
        <Node type="in" id="1" />
        <Node type="in" id="2" />
        <Node type="in" id="3" />
        <Node type="in" id="4" />
        <Node type="in" id="5" />
        <Node type="in" id="6" />
        <Node type="in" id="7" />
        <Node type="in" id="8" />
        <Node type="in" id="9" />
        <Node type="in" id="10" />
        <Node type="out" id="11" />
        <Node type="out" id="12" />
      </Nodes>
      <Connections>
        <Con id="13" src="0" tgt="11" wght="-0.41982615273445845" />
        <Con id="14" src="0" tgt="12" wght="-0.44439928233623505" />
        <Con id="15" src="1" tgt="11" wght="-0.57720265164971352" />
        <Con id="16" src="1" tgt="12" wght="-0.7473783353343606" />
        <Con id="17" src="2" tgt="11" wght="0.67088591493666172" />
        <Con id="18" src="2" tgt="12" wght="0.17429545987397432" />
        <Con id="19" src="3" tgt="11" wght="0.49513415992259979" />
        <Con id="20" src="3" tgt="12" wght="0.4493449991568923" />
        <Con id="21" src="4" tgt="11" wght="-0.38513872120529413" />
        <Con id="22" src="4" tgt="12" wght="0.21085953433066607" />
        <Con id="23" src="5" tgt="11" wght="0.8599806847050786" />
        <Con id="24" src="5" tgt="12" wght="0.098966454155743122" />
        <Con id="25" src="6" tgt="11" wght="0.84690088219940662" />
        <Con id="26" src="6" tgt="12" wght="0.61539964843541384" />
        <Con id="27" src="7" tgt="11" wght="-0.23794368654489517" />
        <Con id="28" src="7" tgt="12" wght="0.59002348873764277" />
        <Con id="29" src="8" tgt="11" wght="0.74110506288707256" />
        <Con id="30" src="8" tgt="12" wght="0.57310901116579771" />
        <Con id="31" src="9" tgt="11" wght="-0.88831545505672693" />
        <Con id="32" src="9" tgt="12" wght="0.90071148239076138" />
        <Con id="33" src="10" tgt="11" wght="0.53242454398423433" />
        <Con id="34" src="10" tgt="12" wght="-0.6773109957575798" />
      </Connections>
    </Network>
    <Network id="21" birthGen="0" fitness="0">
      <Nodes>
        <Node type="bias" id="0" />
        <Node type="in" id="1" />
        <Node type="in" id="2" />
        <Node type="in" id="3" />
        <Node type="in" id="4" />
        <Node type="in" id="5" />
        <Node type="in" id="6" />
        <Node type="in" id="7" />
        <Node type="in" id="8" />
        <Node type="in" id="9" />
        <Node type="in" id="10" />
        <Node type="out" id="11" />
        <Node type="out" id="12" />
      </Nodes>
      <Connections>
        <Con id="13" src="0" tgt="11" wght="0.99677500128746033" />
        <Con id="14" src="0" tgt="12" wght="0.22238001879304647" />
        <Con id="15" src="1" tgt="11" wght="0.18544706981629133" />
        <Con id="16" src="1" tgt="12" wght="-0.44524236675351858" />
        <Con id="17" src="2" tgt="11" wght="0.86000415589660406" />
        <Con id="18" src="2" tgt="12" wght="0.50867013353854418" />
        <Con id="19" src="3" tgt="11" wght="-0.89775934349745512" />
        <Con id="20" src="3" tgt="12" wght="-0.13045558333396912" />
        <Con id="21" src="4" tgt="11" wght="0.7380768796429038" />
        <Con id="22" src="4" tgt="12" wght="0.3023014422506094" />
        <Con id="23" src="5" tgt="11" wght="-0.785882187075913" />
        <Con id="24" src="5" tgt="12" wght="0.096680534072220325" />
        <Con id="25" src="6" tgt="11" wght="-0.92594702634960413" />
        <Con id="26" src="6" tgt="12" wght="0.68952845130115747" />
        <Con id="27" src="7" tgt="11" wght="-0.40980544500052929" />
        <Con id="28" src="7" tgt="12" wght="0.08348353672772646" />
        <Con id="29" src="8" tgt="11" wght="0.82437277119606733" />
        <Con id="30" src="8" tgt="12" wght="0.69792184140533209" />
        <Con id="31" src="9" tgt="11" wght="0.39077142905443907" />
        <Con id="32" src="9" tgt="12" wght="0.29283778835088015" />
        <Con id="33" src="10" tgt="11" wght="-0.49721002858132124" />
        <Con id="34" src="10" tgt="12" wght="-0.81177664827555418" />
      </Connections>
    </Network>
    <Network id="22" birthGen="0" fitness="0">
      <Nodes>
        <Node type="bias" id="0" />
        <Node type="in" id="1" />
        <Node type="in" id="2" />
        <Node type="in" id="3" />
        <Node type="in" id="4" />
        <Node type="in" id="5" />
        <Node type="in" id="6" />
        <Node type="in" id="7" />
        <Node type="in" id="8" />
        <Node type="in" id="9" />
        <Node type="in" id="10" />
        <Node type="out" id="11" />
        <Node type="out" id="12" />
      </Nodes>
      <Connections>
        <Con id="13" src="0" tgt="11" wght="0.090434230864048" />
        <Con id="14" src="0" tgt="12" wght="-0.95055120624601841" />
        <Con id="15" src="1" tgt="11" wght="-0.97017326951026917" />
        <Con id="16" src="1" tgt="12" wght="0.14661632664501667" />
        <Con id="17" src="2" tgt="11" wght="0.5229307496920228" />
        <Con id="18" src="2" tgt="12" wght="-0.23155954387038946" />
        <Con id="19" src="3" tgt="11" wght="0.54762592259794474" />
        <Con id="20" src="3" tgt="12" wght="-0.82890573609620333" />
        <Con id="21" src="4" tgt="11" wght="0.3503543809056282" />
        <Con id="22" src="4" tgt="12" wght="-0.45628133229911327" />
        <Con id="23" src="5" tgt="11" wght="0.12152923829853535" />
        <Con id="24" src="5" tgt="12" wght="0.5413429606705904" />
        <Con id="25" src="6" tgt="11" wght="0.19370585400611162" />
        <Con id="26" src="6" tgt="12" wght="0.16692993976175785" />
        <Con id="27" src="7" tgt="11" wght="-0.857061761431396" />
        <Con id="28" src="7" tgt="12" wght="0.55887740291655064" />
        <Con id="29" src="8" tgt="11" wght="-0.55090050306171179" />
        <Con id="30" src="8" tgt="12" wght="0.39674545172601938" />
        <Con id="31" src="9" tgt="11" wght="-0.024476912803947926" />
        <Con id="32" src="9" tgt="12" wght="-0.3295868681743741" />
        <Con id="33" src="10" tgt="11" wght="-0.32399583421647549" />
        <Con id="34" src="10" tgt="12" wght="-0.15769971255213022" />
      </Connections>
    </Network>
    <Network id="23" birthGen="0" fitness="0">
      <Nodes>
        <Node type="bias" id="0" />
        <Node type="in" id="1" />
        <Node type="in" id="2" />
        <Node type="in" id="3" />
        <Node type="in" id="4" />
        <Node type="in" id="5" />
        <Node type="in" id="6" />
        <Node type="in" id="7" />
        <Node type="in" id="8" />
        <Node type="in" id="9" />
        <Node type="in" id="10" />
        <Node type="out" id="11" />
        <Node type="out" id="12" />
      </Nodes>
      <Connections>
        <Con id="13" src="0" tgt="11" wght="-0.17909996956586838" />
        <Con id="14" src="0" tgt="12" wght="-0.16643857769668102" />
        <Con id="15" src="1" tgt="11" wght="-0.42156080622226" />
        <Con id="16" src="1" tgt="12" wght="-0.71260583400726318" />
        <Con id="17" src="2" tgt="11" wght="0.36821915023028851" />
        <Con id="18" src="2" tgt="12" wght="-0.3337265606969595" />
        <Con id="19" src="3" tgt="11" wght="-0.91951921209692955" />
        <Con id="20" src="3" tgt="12" wght="0.43333767540752888" />
        <Con id="21" src="4" tgt="11" wght="0.564133457839489" />
        <Con id="22" src="4" tgt="12" wght="-0.40699111577123404" />
        <Con id="23" src="5" tgt="11" wght="0.36109946202486753" />
        <Con id="24" src="5" tgt="12" wght="-0.82830975856631994" />
        <Con id="25" src="6" tgt="11" wght="-0.0073598790913820267" />
        <Con id="26" src="6" tgt="12" wght="0.74995613843202591" />
        <Con id="27" src="7" tgt="11" wght="-0.90279371663928032" />
        <Con id="28" src="7" tgt="12" wght="0.30647358391433954" />
        <Con id="29" src="8" tgt="11" wght="0.63279737066477537" />
        <Con id="30" src="8" tgt="12" wght="-0.98492385540157557" />
        <Con id="31" src="9" tgt="11" wght="0.62762423325330019" />
        <Con id="32" src="9" tgt="12" wght="-0.44989210925996304" />
        <Con id="33" src="10" tgt="11" wght="-0.48223832901567221" />
        <Con id="34" src="10" tgt="12" wght="-0.94859038386493921" />
      </Connections>
    </Network>
    <Network id="24" birthGen="0" fitness="0">
      <Nodes>
        <Node type="bias" id="0" />
        <Node type="in" id="1" />
        <Node type="in" id="2" />
        <Node type="in" id="3" />
        <Node type="in" id="4" />
        <Node type="in" id="5" />
        <Node type="in" id="6" />
        <Node type="in" id="7" />
        <Node type="in" id="8" />
        <Node type="in" id="9" />
        <Node type="in" id="10" />
        <Node type="out" id="11" />
        <Node type="out" id="12" />
      </Nodes>
      <Connections>
        <Con id="13" src="0" tgt="11" wght="-0.035720446147024632" />
        <Con id="14" src="0" tgt="12" wght="-0.83568072598427534" />
        <Con id="15" src="1" tgt="11" wght="0.94504879228770733" />
        <Con id="16" src="1" tgt="12" wght="0.876707979477942" />
        <Con id="17" src="2" tgt="11" wght="-0.25607852358371019" />
        <Con id="18" src="2" tgt="12" wght="-0.48450283519923687" />
        <Con id="19" src="3" tgt="11" wght="-0.9362444868311286" />
        <Con id="20" src="3" tgt="12" wght="0.709262240678072" />
        <Con id="21" src="4" tgt="11" wght="0.47091032285243273" />
        <Con id="22" src="4" tgt="12" wght="0.21171524748206139" />
        <Con id="23" src="5" tgt="11" wght="-0.21381115447729826" />
        <Con id="24" src="5" tgt="12" wght="0.88583249971270561" />
        <Con id="25" src="6" tgt="11" wght="0.050910662859678268" />
        <Con id="26" src="6" tgt="12" wght="-0.55861449148505926" />
        <Con id="27" src="7" tgt="11" wght="-0.81936046853661537" />
        <Con id="28" src="7" tgt="12" wght="0.87172722164541483" />
        <Con id="29" src="8" tgt="11" wght="0.16448369808495045" />
        <Con id="30" src="8" tgt="12" wght="-0.97996640391647816" />
        <Con id="31" src="9" tgt="11" wght="0.45131358690559864" />
        <Con id="32" src="9" tgt="12" wght="0.44395132828503847" />
        <Con id="33" src="10" tgt="11" wght="-0.59914032369852066" />
        <Con id="34" src="10" tgt="12" wght="-0.4397139111533761" />
      </Connections>
    </Network>
    <Network id="25" birthGen="0" fitness="0">
      <Nodes>
        <Node type="bias" id="0" />
        <Node type="in" id="1" />
        <Node type="in" id="2" />
        <Node type="in" id="3" />
        <Node type="in" id="4" />
        <Node type="in" id="5" />
        <Node type="in" id="6" />
        <Node type="in" id="7" />
        <Node type="in" id="8" />
        <Node type="in" id="9" />
        <Node type="in" id="10" />
        <Node type="out" id="11" />
        <Node type="out" id="12" />
      </Nodes>
      <Connections>
        <Con id="13" src="0" tgt="11" wght="0.46490881498903036" />
        <Con id="14" src="0" tgt="12" wght="-0.8207648703828454" />
        <Con id="15" src="1" tgt="11" wght="-0.24664617609232664" />
        <Con id="16" src="1" tgt="12" wght="0.53772520832717419" />
        <Con id="17" src="2" tgt="11" wght="0.84792730398476124" />
        <Con id="18" src="2" tgt="12" wght="-0.063469806686043739" />
        <Con id="19" src="3" tgt="11" wght="-0.3024813961237669" />
        <Con id="20" src="3" tgt="12" wght="0.22655229922384024" />
        <Con id="21" src="4" tgt="11" wght="-0.92331557814031839" />
        <Con id="22" src="4" tgt="12" wght="-0.27449928410351276" />
        <Con id="23" src="5" tgt="11" wght="0.8951802933588624" />
        <Con id="24" src="5" tgt="12" wght="0.072953509166836739" />
        <Con id="25" src="6" tgt="11" wght="-0.58980923425406218" />
        <Con id="26" src="6" tgt="12" wght="0.11024204082787037" />
        <Con id="27" src="7" tgt="11" wght="-0.69202439952641726" />
        <Con id="28" src="7" tgt="12" wght="0.58823026530444622" />
        <Con id="29" src="8" tgt="11" wght="-0.32795051019638777" />
        <Con id="30" src="8" tgt="12" wght="-0.4786849357187748" />
        <Con id="31" src="9" tgt="11" wght="0.80733136553317308" />
        <Con id="32" src="9" tgt="12" wght="0.3322223387658596" />
        <Con id="33" src="10" tgt="11" wght="0.82492560800164938" />
        <Con id="34" src="10" tgt="12" wght="-0.0038199275732040405" />
      </Connections>
    </Network>
    <Network id="26" birthGen="0" fitness="0">
      <Nodes>
        <Node type="bias" id="0" />
        <Node type="in" id="1" />
        <Node type="in" id="2" />
        <Node type="in" id="3" />
        <Node type="in" id="4" />
        <Node type="in" id="5" />
        <Node type="in" id="6" />
        <Node type="in" id="7" />
        <Node type="in" id="8" />
        <Node type="in" id="9" />
        <Node type="in" id="10" />
        <Node type="out" id="11" />
        <Node type="out" id="12" />
      </Nodes>
      <Connections>
        <Con id="13" src="0" tgt="11" wght="-0.7205917090177536" />
        <Con id="14" src="0" tgt="12" wght="0.0071916310116648674" />
        <Con id="15" src="1" tgt="11" wght="0.070869232527911663" />
        <Con id="16" src="1" tgt="12" wght="0.99060000851750374" />
        <Con id="17" src="2" tgt="11" wght="0.56292608845978975" />
        <Con id="18" src="2" tgt="12" wght="-0.57213370874524117" />
        <Con id="19" src="3" tgt="11" wght="0.18334315903484821" />
        <Con id="20" src="3" tgt="12" wght="0.18801812920719385" />
        <Con id="21" src="4" tgt="11" wght="0.20956359710544348" />
        <Con id="22" src="4" tgt="12" wght="-0.93712946493178606" />
        <Con id="23" src="5" tgt="11" wght="0.91300549730658531" />
        <Con id="24" src="5" tgt="12" wght="0.53920748736709356" />
        <Con id="25" src="6" tgt="11" wght="-0.15661309938877821" />
        <Con id="26" src="6" tgt="12" wght="-0.52247484773397446" />
        <Con id="27" src="7" tgt="11" wght="0.56665934436023235" />
        <Con id="28" src="7" tgt="12" wght="-0.48332616593688726" />
        <Con id="29" src="8" tgt="11" wght="0.76249730587005615" />
        <Con id="30" src="8" tgt="12" wght="0.0025057457387447357" />
        <Con id="31" src="9" tgt="11" wght="0.69197406247258186" />
        <Con id="32" src="9" tgt="12" wght="-0.34377578645944595" />
        <Con id="33" src="10" tgt="11" wght="0.60877019539475441" />
        <Con id="34" src="10" tgt="12" wght="0.22346042841672897" />
      </Connections>
    </Network>
    <Network id="27" birthGen="0" fitness="0">
      <Nodes>
        <Node type="bias" id="0" />
        <Node type="in" id="1" />
        <Node type="in" id="2" />
        <Node type="in" id="3" />
        <Node type="in" id="4" />
        <Node type="in" id="5" />
        <Node type="in" id="6" />
        <Node type="in" id="7" />
        <Node type="in" id="8" />
        <Node type="in" id="9" />
        <Node type="in" id="10" />
        <Node type="out" id="11" />
        <Node type="out" id="12" />
      </Nodes>
      <Connections>
        <Con id="13" src="0" tgt="11" wght="-0.51274094264954329" />
        <Con id="14" src="0" tgt="12" wght="-0.37721451837569475" />
        <Con id="15" src="1" tgt="11" wght="-0.71611546911299229" />
        <Con id="16" src="1" tgt="12" wght="-0.40899461042135954" />
        <Con id="17" src="2" tgt="11" wght="-0.22182232234627008" />
        <Con id="18" src="2" tgt="12" wght="0.66600317042320967" />
        <Con id="19" src="3" tgt="11" wght="-0.7560469713062048" />
        <Con id="20" src="3" tgt="12" wght="-0.25734744686633348" />
        <Con id="21" src="4" tgt="11" wght="-0.54679103475064039" />
        <Con id="22" src="4" tgt="12" wght="0.66909486521035433" />
        <Con id="23" src="5" tgt="11" wght="0.081966719590127468" />
        <Con id="24" src="5" tgt="12" wght="-0.86631158739328384" />
        <Con id="25" src="6" tgt="11" wght="-0.54911224264651537" />
        <Con id="26" src="6" tgt="12" wght="-0.015365609899163246" />
        <Con id="27" src="7" tgt="11" wght="0.81677586957812309" />
        <Con id="28" src="7" tgt="12" wght="-0.789608720690012" />
        <Con id="29" src="8" tgt="11" wght="0.89623863808810711" />
        <Con id="30" src="8" tgt="12" wght="-0.47408824134618044" />
        <Con id="31" src="9" tgt="11" wght="-0.036398685537278652" />
        <Con id="32" src="9" tgt="12" wght="-0.94702047854661942" />
        <Con id="33" src="10" tgt="11" wght="0.80289021972566843" />
        <Con id="34" src="10" tgt="12" wght="-0.4741817032918334" />
      </Connections>
    </Network>
    <Network id="28" birthGen="0" fitness="0">
      <Nodes>
        <Node type="bias" id="0" />
        <Node type="in" id="1" />
        <Node type="in" id="2" />
        <Node type="in" id="3" />
        <Node type="in" id="4" />
        <Node type="in" id="5" />
        <Node type="in" id="6" />
        <Node type="in" id="7" />
        <Node type="in" id="8" />
        <Node type="in" id="9" />
        <Node type="in" id="10" />
        <Node type="out" id="11" />
        <Node type="out" id="12" />
      </Nodes>
      <Connections>
        <Con id="13" src="0" tgt="11" wght="0.042044163681566715" />
        <Con id="14" src="0" tgt="12" wght="0.15742477122694254" />
        <Con id="15" src="1" tgt="11" wght="0.38018939178436995" />
        <Con id="16" src="1" tgt="12" wght="0.73049898725003" />
        <Con id="17" src="2" tgt="11" wght="0.70849810633808374" />
        <Con id="18" src="2" tgt="12" wght="-0.72632032260298729" />
        <Con id="19" src="3" tgt="11" wght="-0.67541389539837837" />
        <Con id="20" src="3" tgt="12" wght="-0.70957297366112471" />
        <Con id="21" src="4" tgt="11" wght="-0.76151550933718681" />
        <Con id="22" src="4" tgt="12" wght="0.02187791932374239" />
        <Con id="23" src="5" tgt="11" wght="-0.454277865588665" />
        <Con id="24" src="5" tgt="12" wght="0.26383877079933882" />
        <Con id="25" src="6" tgt="11" wght="0.34399128332734108" />
        <Con id="26" src="6" tgt="12" wght="0.0425952048972249" />
        <Con id="27" src="7" tgt="11" wght="0.15655213128775358" />
        <Con id="28" src="7" tgt="12" wght="0.67233252990990877" />
        <Con id="29" src="8" tgt="11" wght="-0.33245656825602055" />
        <Con id="30" src="8" tgt="12" wght="0.061945194378495216" />
        <Con id="31" src="9" tgt="11" wght="-0.063276093453168869" />
        <Con id="32" src="9" tgt="12" wght="0.35404196288436651" />
        <Con id="33" src="10" tgt="11" wght="0.516205320134759" />
        <Con id="34" src="10" tgt="12" wght="-0.73162620142102242" />
      </Connections>
    </Network>
    <Network id="29" birthGen="0" fitness="0">
      <Nodes>
        <Node type="bias" id="0" />
        <Node type="in" id="1" />
        <Node type="in" id="2" />
        <Node type="in" id="3" />
        <Node type="in" id="4" />
        <Node type="in" id="5" />
        <Node type="in" id="6" />
        <Node type="in" id="7" />
        <Node type="in" id="8" />
        <Node type="in" id="9" />
        <Node type="in" id="10" />
        <Node type="out" id="11" />
        <Node type="out" id="12" />
      </Nodes>
      <Connections>
        <Con id="13" src="0" tgt="11" wght="-0.5462859719991684" />
        <Con id="14" src="0" tgt="12" wght="0.78159123659133911" />
        <Con id="15" src="1" tgt="11" wght="-0.0972356554120779" />
        <Con id="16" src="1" tgt="12" wght="-0.60261115431785583" />
        <Con id="17" src="2" tgt="11" wght="0.18708948325365782" />
        <Con id="18" src="2" tgt="12" wght="0.80316877271980047" />
        <Con id="19" src="3" tgt="11" wght="0.46204595174640417" />
        <Con id="20" src="3" tgt="12" wght="-0.55325350910425186" />
        <Con id="21" src="4" tgt="11" wght="-0.11365965195000172" />
        <Con id="22" src="4" tgt="12" wght="0.56296467408537865" />
        <Con id="23" src="5" tgt="11" wght="0.0931089585646987" />
        <Con id="24" src="5" tgt="12" wght="-0.032275901176035404" />
        <Con id="25" src="6" tgt="11" wght="0.50789172761142254" />
        <Con id="26" src="6" tgt="12" wght="0.18150087352842093" />
        <Con id="27" src="7" tgt="11" wght="0.050985740497708321" />
        <Con id="28" src="7" tgt="12" wght="-0.096310601569712162" />
        <Con id="29" src="8" tgt="11" wght="-0.36620855145156384" />
        <Con id="30" src="8" tgt="12" wght="-0.56907155923545361" />
        <Con id="31" src="9" tgt="11" wght="-0.60637739766389132" />
        <Con id="32" src="9" tgt="12" wght="-0.16223749425262213" />
        <Con id="33" src="10" tgt="11" wght="-0.74505190458148718" />
        <Con id="34" src="10" tgt="12" wght="-0.91705693211406469" />
      </Connections>
    </Network>
    <Network id="30" birthGen="0" fitness="0">
      <Nodes>
        <Node type="bias" id="0" />
        <Node type="in" id="1" />
        <Node type="in" id="2" />
        <Node type="in" id="3" />
        <Node type="in" id="4" />
        <Node type="in" id="5" />
        <Node type="in" id="6" />
        <Node type="in" id="7" />
        <Node type="in" id="8" />
        <Node type="in" id="9" />
        <Node type="in" id="10" />
        <Node type="out" id="11" />
        <Node type="out" id="12" />
      </Nodes>
      <Connections>
        <Con id="13" src="0" tgt="11" wght="-0.5885075107216835" />
        <Con id="14" src="0" tgt="12" wght="0.65690578985959291" />
        <Con id="15" src="1" tgt="11" wght="0.9524072203785181" />
        <Con id="16" src="1" tgt="12" wght="0.99913643021136522" />
        <Con id="17" src="2" tgt="11" wght="-0.5574391158297658" />
        <Con id="18" src="2" tgt="12" wght="-0.64681498799473047" />
        <Con id="19" src="3" tgt="11" wght="-0.9162904741242528" />
        <Con id="20" src="3" tgt="12" wght="-0.41509881336241961" />
        <Con id="21" src="4" tgt="11" wght="0.034097539260983467" />
        <Con id="22" src="4" tgt="12" wght="-0.68175413459539413" />
        <Con id="23" src="5" tgt="11" wght="0.33867731876671314" />
        <Con id="24" src="5" tgt="12" wght="-0.86825297772884369" />
        <Con id="25" src="6" tgt="11" wght="0.28292939905077219" />
        <Con id="26" src="6" tgt="12" wght="-0.66337103117257357" />
        <Con id="27" src="7" tgt="11" wght="-0.12247010692954063" />
        <Con id="28" src="7" tgt="12" wght="0.85196065623313189" />
        <Con id="29" src="8" tgt="11" wght="0.61900625750422478" />
        <Con id="30" src="8" tgt="12" wght="0.14357931166887283" />
        <Con id="31" src="9" tgt="11" wght="-0.27626151591539383" />
        <Con id="32" src="9" tgt="12" wght="-0.78541862871497869" />
        <Con id="33" src="10" tgt="11" wght="-0.32618477940559387" />
        <Con id="34" src="10" tgt="12" wght="0.23928808700293303" />
      </Connections>
    </Network>
    <Network id="31" birthGen="0" fitness="0">
      <Nodes>
        <Node type="bias" id="0" />
        <Node type="in" id="1" />
        <Node type="in" id="2" />
        <Node type="in" id="3" />
        <Node type="in" id="4" />
        <Node type="in" id="5" />
        <Node type="in" id="6" />
        <Node type="in" id="7" />
        <Node type="in" id="8" />
        <Node type="in" id="9" />
        <Node type="in" id="10" />
        <Node type="out" id="11" />
        <Node type="out" id="12" />
      </Nodes>
      <Connections>
        <Con id="13" src="0" tgt="11" wght="-0.76304946281015873" />
        <Con id="14" src="0" tgt="12" wght="-0.38352774828672409" />
        <Con id="15" src="1" tgt="11" wght="-0.620686735957861" />
        <Con id="16" src="1" tgt="12" wght="-0.8726519662886858" />
        <Con id="17" src="2" tgt="11" wght="0.26215580850839615" />
        <Con id="18" src="2" tgt="12" wght="-0.34003456123173237" />
        <Con id="19" src="3" tgt="11" wght="0.89187508635222912" />
        <Con id="20" src="3" tgt="12" wght="0.051673462614417076" />
        <Con id="21" src="4" tgt="11" wght="0.31712488550692797" />
        <Con id="22" src="4" tgt="12" wght="0.34314708411693573" />
        <Con id="23" src="5" tgt="11" wght="0.59123267605900764" />
        <Con id="24" src="5" tgt="12" wght="-0.83102446142584085" />
        <Con id="25" src="6" tgt="11" wght="0.13893735501915216" />
        <Con id="26" src="6" tgt="12" wght="0.39325472991913557" />
        <Con id="27" src="7" tgt="11" wght="-0.73457002826035023" />
        <Con id="28" src="7" tgt="12" wght="0.23288522753864527" />
        <Con id="29" src="8" tgt="11" wght="0.060256399214267731" />
        <Con id="30" src="8" tgt="12" wght="-0.24640674702823162" />
        <Con id="31" src="9" tgt="11" wght="0.032502202317118645" />
        <Con id="32" src="9" tgt="12" wght="-0.403219822794199" />
        <Con id="33" src="10" tgt="11" wght="-0.45192067604511976" />
        <Con id="34" src="10" tgt="12" wght="0.043647692538797855" />
      </Connections>
    </Network>
    <Network id="32" birthGen="0" fitness="0">
      <Nodes>
        <Node type="bias" id="0" />
        <Node type="in" id="1" />
        <Node type="in" id="2" />
        <Node type="in" id="3" />
        <Node type="in" id="4" />
        <Node type="in" id="5" />
        <Node type="in" id="6" />
        <Node type="in" id="7" />
        <Node type="in" id="8" />
        <Node type="in" id="9" />
        <Node type="in" id="10" />
        <Node type="out" id="11" />
        <Node type="out" id="12" />
      </Nodes>
      <Connections>
        <Con id="13" src="0" tgt="11" wght="-0.29071591980755329" />
        <Con id="14" src="0" tgt="12" wght="0.6245533088222146" />
        <Con id="15" src="1" tgt="11" wght="0.25362300407141447" />
        <Con id="16" src="1" tgt="12" wght="-0.15307268593460321" />
        <Con id="17" src="2" tgt="11" wght="-0.64880003128200769" />
        <Con id="18" src="2" tgt="12" wght="-0.46927716489881277" />
        <Con id="19" src="3" tgt="11" wght="0.78567636385560036" />
        <Con id="20" src="3" tgt="12" wght="-0.67410487309098244" />
        <Con id="21" src="4" tgt="11" wght="-0.69570511393249035" />
        <Con id="22" src="4" tgt="12" wght="-0.2029467485845089" />
        <Con id="23" src="5" tgt="11" wght="0.10046133305877447" />
        <Con id="24" src="5" tgt="12" wght="-0.91328126937150955" />
        <Con id="25" src="6" tgt="11" wght="0.33978222031146288" />
        <Con id="26" src="6" tgt="12" wght="-0.093771251849830151" />
        <Con id="27" src="7" tgt="11" wght="-0.93688036501407623" />
        <Con id="28" src="7" tgt="12" wght="-0.28521351050585508" />
        <Con id="29" src="8" tgt="11" wght="-0.7673146640881896" />
        <Con id="30" src="8" tgt="12" wght="0.175340561196208" />
        <Con id="31" src="9" tgt="11" wght="0.724286206997931" />
        <Con id="32" src="9" tgt="12" wght="-0.33061832189559937" />
        <Con id="33" src="10" tgt="11" wght="-0.12167311832308769" />
        <Con id="34" src="10" tgt="12" wght="-0.21776118408888578" />
      </Connections>
    </Network>
    <Network id="33" birthGen="0" fitness="0">
      <Nodes>
        <Node type="bias" id="0" />
        <Node type="in" id="1" />
        <Node type="in" id="2" />
        <Node type="in" id="3" />
        <Node type="in" id="4" />
        <Node type="in" id="5" />
        <Node type="in" id="6" />
        <Node type="in" id="7" />
        <Node type="in" id="8" />
        <Node type="in" id="9" />
        <Node type="in" id="10" />
        <Node type="out" id="11" />
        <Node type="out" id="12" />
      </Nodes>
      <Connections>
        <Con id="13" src="0" tgt="11" wght="-0.56061083450913429" />
        <Con id="14" src="0" tgt="12" wght="0.34877177886664867" />
        <Con id="15" src="1" tgt="11" wght="0.41228271089494228" />
        <Con id="16" src="1" tgt="12" wght="0.8335017953068018" />
        <Con id="17" src="2" tgt="11" wght="-0.2704037269577384" />
        <Con id="18" src="2" tgt="12" wght="0.93171888682991266" />
        <Con id="19" src="3" tgt="11" wght="-0.66550538595765829" />
        <Con id="20" src="3" tgt="12" wght="-0.51940757967531681" />
        <Con id="21" src="4" tgt="11" wght="0.83147557731717825" />
        <Con id="22" src="4" tgt="12" wght="0.976612901315093" />
        <Con id="23" src="5" tgt="11" wght="0.3626746516674757" />
        <Con id="24" src="5" tgt="12" wght="0.0099264932796359062" />
        <Con id="25" src="6" tgt="11" wght="-0.48047215305268764" />
        <Con id="26" src="6" tgt="12" wght="0.44143093284219503" />
        <Con id="27" src="7" tgt="11" wght="-0.49486012756824493" />
        <Con id="28" src="7" tgt="12" wght="0.57173626776784658" />
        <Con id="29" src="8" tgt="11" wght="-0.12943009659647942" />
        <Con id="30" src="8" tgt="12" wght="0.63086799904704094" />
        <Con id="31" src="9" tgt="11" wght="0.90519661642611027" />
        <Con id="32" src="9" tgt="12" wght="-0.29182075150310993" />
        <Con id="33" src="10" tgt="11" wght="0.64958431571722031" />
        <Con id="34" src="10" tgt="12" wght="0.895806766115129" />
      </Connections>
    </Network>
    <Network id="34" birthGen="0" fitness="0">
      <Nodes>
        <Node type="bias" id="0" />
        <Node type="in" id="1" />
        <Node type="in" id="2" />
        <Node type="in" id="3" />
        <Node type="in" id="4" />
        <Node type="in" id="5" />
        <Node type="in" id="6" />
        <Node type="in" id="7" />
        <Node type="in" id="8" />
        <Node type="in" id="9" />
        <Node type="in" id="10" />
        <Node type="out" id="11" />
        <Node type="out" id="12" />
      </Nodes>
      <Connections>
        <Con id="13" src="0" tgt="11" wght="0.40009122528135777" />
        <Con id="14" src="0" tgt="12" wght="-0.35319534130394459" />
        <Con id="15" src="1" tgt="11" wght="0.7440235847607255" />
        <Con id="16" src="1" tgt="12" wght="0.734453315846622" />
        <Con id="17" src="2" tgt="11" wght="0.23437745776027441" />
        <Con id="18" src="2" tgt="12" wght="-0.90889007411897182" />
        <Con id="19" src="3" tgt="11" wght="0.68798829335719347" />
        <Con id="20" src="3" tgt="12" wght="-0.20466411113739014" />
        <Con id="21" src="4" tgt="11" wght="0.045158559456467628" />
        <Con id="22" src="4" tgt="12" wght="-0.64806107524782419" />
        <Con id="23" src="5" tgt="11" wght="0.38961614109575748" />
        <Con id="24" src="5" tgt="12" wght="-0.12172423675656319" />
        <Con id="25" src="6" tgt="11" wght="-0.28495390899479389" />
        <Con id="26" src="6" tgt="12" wght="0.798117415048182" />
        <Con id="27" src="7" tgt="11" wght="0.80675656348466873" />
        <Con id="28" src="7" tgt="12" wght="-0.77862139791250229" />
        <Con id="29" src="8" tgt="11" wght="0.83980641886591911" />
        <Con id="30" src="8" tgt="12" wght="0.48767833318561316" />
        <Con id="31" src="9" tgt="11" wght="0.19849423319101334" />
        <Con id="32" src="9" tgt="12" wght="-0.57277678977698088" />
        <Con id="33" src="10" tgt="11" wght="-0.67827956285327673" />
        <Con id="34" src="10" tgt="12" wght="0.2978869890794158" />
      </Connections>
    </Network>
    <Network id="35" birthGen="0" fitness="0">
      <Nodes>
        <Node type="bias" id="0" />
        <Node type="in" id="1" />
        <Node type="in" id="2" />
        <Node type="in" id="3" />
        <Node type="in" id="4" />
        <Node type="in" id="5" />
        <Node type="in" id="6" />
        <Node type="in" id="7" />
        <Node type="in" id="8" />
        <Node type="in" id="9" />
        <Node type="in" id="10" />
        <Node type="out" id="11" />
        <Node type="out" id="12" />
      </Nodes>
      <Connections>
        <Con id="13" src="0" tgt="11" wght="0.16323632560670376" />
        <Con id="14" src="0" tgt="12" wght="-0.903479864820838" />
        <Con id="15" src="1" tgt="11" wght="0.041825346648693085" />
        <Con id="16" src="1" tgt="12" wght="0.6508413078263402" />
        <Con id="17" src="2" tgt="11" wght="0.4190881596878171" />
        <Con id="18" src="2" tgt="12" wght="-0.56309753190726042" />
        <Con id="19" src="3" tgt="11" wght="0.94807201996445656" />
        <Con id="20" src="3" tgt="12" wght="-0.306689596734941" />
        <Con id="21" src="4" tgt="11" wght="0.81959127355366945" />
        <Con id="22" src="4" tgt="12" wght="-0.24696250911802053" />
        <Con id="23" src="5" tgt="11" wght="0.97469542641192675" />
        <Con id="24" src="5" tgt="12" wght="-0.54758987948298454" />
        <Con id="25" src="6" tgt="11" wght="0.74644566513597965" />
        <Con id="26" src="6" tgt="12" wght="-0.615857464261353" />
        <Con id="27" src="7" tgt="11" wght="0.91112151741981506" />
        <Con id="28" src="7" tgt="12" wght="0.16959687881171703" />
        <Con id="29" src="8" tgt="11" wght="-0.14335459098219872" />
        <Con id="30" src="8" tgt="12" wght="0.76404823735356331" />
        <Con id="31" src="9" tgt="11" wght="-0.41109196748584509" />
        <Con id="32" src="9" tgt="12" wght="0.4065605653449893" />
        <Con id="33" src="10" tgt="11" wght="0.47047568764537573" />
        <Con id="34" src="10" tgt="12" wght="0.63430575933307409" />
      </Connections>
    </Network>
    <Network id="36" birthGen="0" fitness="0">
      <Nodes>
        <Node type="bias" id="0" />
        <Node type="in" id="1" />
        <Node type="in" id="2" />
        <Node type="in" id="3" />
        <Node type="in" id="4" />
        <Node type="in" id="5" />
        <Node type="in" id="6" />
        <Node type="in" id="7" />
        <Node type="in" id="8" />
        <Node type="in" id="9" />
        <Node type="in" id="10" />
        <Node type="out" id="11" />
        <Node type="out" id="12" />
      </Nodes>
      <Connections>
        <Con id="13" src="0" tgt="11" wght="0.18282364588230848" />
        <Con id="14" src="0" tgt="12" wght="-0.74094125255942345" />
        <Con id="15" src="1" tgt="11" wght="-0.6781013747677207" />
        <Con id="16" src="1" tgt="12" wght="-0.48160580545663834" />
        <Con id="17" src="2" tgt="11" wght="0.41992561612278223" />
        <Con id="18" src="2" tgt="12" wght="0.63684868440032" />
        <Con id="19" src="3" tgt="11" wght="-0.56153522338718176" />
        <Con id="20" src="3" tgt="12" wght="0.38166619744151831" />
        <Con id="21" src="4" tgt="11" wght="0.27016016189008951" />
        <Con id="22" src="4" tgt="12" wght="0.76959609147161245" />
        <Con id="23" src="5" tgt="11" wght="0.40422074031084776" />
        <Con id="24" src="5" tgt="12" wght="-0.18777182977646589" />
        <Con id="25" src="6" tgt="11" wght="-0.50843190494924784" />
        <Con id="26" src="6" tgt="12" wght="0.36179647035896778" />
        <Con id="27" src="7" tgt="11" wght="0.13408132735639811" />
        <Con id="28" src="7" tgt="12" wght="-0.2918640598654747" />
        <Con id="29" src="8" tgt="11" wght="0.16061583999544382" />
        <Con id="30" src="8" tgt="12" wght="-0.71363187115639448" />
        <Con id="31" src="9" tgt="11" wght="-0.48174735810607672" />
        <Con id="32" src="9" tgt="12" wght="-0.48177093081176281" />
        <Con id="33" src="10" tgt="11" wght="-0.738343833014369" />
        <Con id="34" src="10" tgt="12" wght="-0.69546529091894627" />
      </Connections>
    </Network>
    <Network id="37" birthGen="0" fitness="0">
      <Nodes>
        <Node type="bias" id="0" />
        <Node type="in" id="1" />
        <Node type="in" id="2" />
        <Node type="in" id="3" />
        <Node type="in" id="4" />
        <Node type="in" id="5" />
        <Node type="in" id="6" />
        <Node type="in" id="7" />
        <Node type="in" id="8" />
        <Node type="in" id="9" />
        <Node type="in" id="10" />
        <Node type="out" id="11" />
        <Node type="out" id="12" />
      </Nodes>
      <Connections>
        <Con id="13" src="0" tgt="11" wght="-0.23987796064466238" />
        <Con id="14" src="0" tgt="12" wght="0.55854818318039179" />
        <Con id="15" src="1" tgt="11" wght="-0.022426865994930267" />
        <Con id="16" src="1" tgt="12" wght="0.770963036455214" />
        <Con id="17" src="2" tgt="11" wght="-0.41515124589204788" />
        <Con id="18" src="2" tgt="12" wght="0.00702297780662775" />
        <Con id="19" src="3" tgt="11" wght="0.57965062092989683" />
        <Con id="20" src="3" tgt="12" wght="-0.1039161030203104" />
        <Con id="21" src="4" tgt="11" wght="0.49644761253148317" />
        <Con id="22" src="4" tgt="12" wght="0.35409615747630596" />
        <Con id="23" src="5" tgt="11" wght="-0.20541051402688026" />
        <Con id="24" src="5" tgt="12" wght="-0.49828593712300062" />
        <Con id="25" src="6" tgt="11" wght="0.29043067805469036" />
        <Con id="26" src="6" tgt="12" wght="0.6400511097162962" />
        <Con id="27" src="7" tgt="11" wght="-0.56062280293554068" />
        <Con id="28" src="7" tgt="12" wght="-0.24756816867738962" />
        <Con id="29" src="8" tgt="11" wght="-0.075884869322180748" />
        <Con id="30" src="8" tgt="12" wght="-0.48896316532045603" />
        <Con id="31" src="9" tgt="11" wght="0.024845943786203861" />
        <Con id="32" src="9" tgt="12" wght="0.39706579223275185" />
        <Con id="33" src="10" tgt="11" wght="-0.12801741901785135" />
        <Con id="34" src="10" tgt="12" wght="0.022587182000279427" />
      </Connections>
    </Network>
    <Network id="38" birthGen="0" fitness="0">
      <Nodes>
        <Node type="bias" id="0" />
        <Node type="in" id="1" />
        <Node type="in" id="2" />
        <Node type="in" id="3" />
        <Node type="in" id="4" />
        <Node type="in" id="5" />
        <Node type="in" id="6" />
        <Node type="in" id="7" />
        <Node type="in" id="8" />
        <Node type="in" id="9" />
        <Node type="in" id="10" />
        <Node type="out" id="11" />
        <Node type="out" id="12" />
      </Nodes>
      <Connections>
        <Con id="13" src="0" tgt="11" wght="0.088409404270350933" />
        <Con id="14" src="0" tgt="12" wght="-0.41652445215731859" />
        <Con id="15" src="1" tgt="11" wght="-0.93522739037871361" />
        <Con id="16" src="1" tgt="12" wght="0.41576730087399483" />
        <Con id="17" src="2" tgt="11" wght="0.91131344251334667" />
        <Con id="18" src="2" tgt="12" wght="0.65178553108125925" />
        <Con id="19" src="3" tgt="11" wght="-0.85999200213700533" />
        <Con id="20" src="3" tgt="12" wght="-0.87113085296005011" />
        <Con id="21" src="4" tgt="11" wght="-0.90622281841933727" />
        <Con id="22" src="4" tgt="12" wght="0.0815113065764308" />
        <Con id="23" src="5" tgt="11" wght="-0.24982424359768629" />
        <Con id="24" src="5" tgt="12" wght="0.56441652216017246" />
        <Con id="25" src="6" tgt="11" wght="-0.644900556653738" />
        <Con id="26" src="6" tgt="12" wght="-0.23741187993437052" />
        <Con id="27" src="7" tgt="11" wght="-0.37476806435734034" />
        <Con id="28" src="7" tgt="12" wght="0.912797843106091" />
        <Con id="29" src="8" tgt="11" wght="0.83399663772434" />
        <Con id="30" src="8" tgt="12" wght="0.78221807535737753" />
        <Con id="31" src="9" tgt="11" wght="0.23231373354792595" />
        <Con id="32" src="9" tgt="12" wght="0.061376363039016724" />
        <Con id="33" src="10" tgt="11" wght="-0.068879196420311928" />
        <Con id="34" src="10" tgt="12" wght="0.28592956252396107" />
      </Connections>
    </Network>
    <Network id="39" birthGen="0" fitness="0">
      <Nodes>
        <Node type="bias" id="0" />
        <Node type="in" id="1" />
        <Node type="in" id="2" />
        <Node type="in" id="3" />
        <Node type="in" id="4" />
        <Node type="in" id="5" />
        <Node type="in" id="6" />
        <Node type="in" id="7" />
        <Node type="in" id="8" />
        <Node type="in" id="9" />
        <Node type="in" id="10" />
        <Node type="out" id="11" />
        <Node type="out" id="12" />
      </Nodes>
      <Connections>
        <Con id="13" src="0" tgt="11" wght="0.1010788781568408" />
        <Con id="14" src="0" tgt="12" wght="0.20562807377427816" />
        <Con id="15" src="1" tgt="11" wght="-0.3930785795673728" />
        <Con id="16" src="1" tgt="12" wght="-0.32464252691715956" />
        <Con id="17" src="2" tgt="11" wght="0.52697651367634535" />
        <Con id="18" src="2" tgt="12" wght="0.58127481769770384" />
        <Con id="19" src="3" tgt="11" wght="-0.56738976761698723" />
        <Con id="20" src="3" tgt="12" wght="-0.20202651713043451" />
        <Con id="21" src="4" tgt="11" wght="0.93353906087577343" />
        <Con id="22" src="4" tgt="12" wght="0.59784272685647011" />
        <Con id="23" src="5" tgt="11" wght="-0.907037285156548" />
        <Con id="24" src="5" tgt="12" wght="0.78330049104988575" />
        <Con id="25" src="6" tgt="11" wght="-0.85342089924961329" />
        <Con id="26" src="6" tgt="12" wght="-0.011409391649067402" />
        <Con id="27" src="7" tgt="11" wght="-0.29148777946829796" />
        <Con id="28" src="7" tgt="12" wght="0.5983683206140995" />
        <Con id="29" src="8" tgt="11" wght="-0.24258988257497549" />
        <Con id="30" src="8" tgt="12" wght="0.50375207420438528" />
        <Con id="31" src="9" tgt="11" wght="0.23379466310143471" />
        <Con id="32" src="9" tgt="12" wght="0.10676501225680113" />
        <Con id="33" src="10" tgt="11" wght="0.42339741997420788" />
        <Con id="34" src="10" tgt="12" wght="0.27579343039542437" />
      </Connections>
    </Network>
    <Network id="40" birthGen="0" fitness="0">
      <Nodes>
        <Node type="bias" id="0" />
        <Node type="in" id="1" />
        <Node type="in" id="2" />
        <Node type="in" id="3" />
        <Node type="in" id="4" />
        <Node type="in" id="5" />
        <Node type="in" id="6" />
        <Node type="in" id="7" />
        <Node type="in" id="8" />
        <Node type="in" id="9" />
        <Node type="in" id="10" />
        <Node type="out" id="11" />
        <Node type="out" id="12" />
      </Nodes>
      <Connections>
        <Con id="13" src="0" tgt="11" wght="0.23816067166626453" />
        <Con id="14" src="0" tgt="12" wght="0.16547983605414629" />
        <Con id="15" src="1" tgt="11" wght="0.55998531170189381" />
        <Con id="16" src="1" tgt="12" wght="-0.893608845770359" />
        <Con id="17" src="2" tgt="11" wght="0.2539416067302227" />
        <Con id="18" src="2" tgt="12" wght="-0.704198588617146" />
        <Con id="19" src="3" tgt="11" wght="-0.78275857958942652" />
        <Con id="20" src="3" tgt="12" wght="0.692955625243485" />
        <Con id="21" src="4" tgt="11" wght="-0.88455186318606138" />
        <Con id="22" src="4" tgt="12" wght="0.08563260268419981" />
        <Con id="23" src="5" tgt="11" wght="-0.5776307312771678" />
        <Con id="24" src="5" tgt="12" wght="-0.8602679343894124" />
        <Con id="25" src="6" tgt="11" wght="0.58925444353371859" />
        <Con id="26" src="6" tgt="12" wght="0.32436070498079062" />
        <Con id="27" src="7" tgt="11" wght="0.8804587135091424" />
        <Con id="28" src="7" tgt="12" wght="-0.17690620105713606" />
        <Con id="29" src="8" tgt="11" wght="0.872090196236968" />
        <Con id="30" src="8" tgt="12" wght="0.87133808899670839" />
        <Con id="31" src="9" tgt="11" wght="-0.17573282029479742" />
        <Con id="32" src="9" tgt="12" wght="0.22548794932663441" />
        <Con id="33" src="10" tgt="11" wght="-0.93054963555186987" />
        <Con id="34" src="10" tgt="12" wght="-0.13657628651708364" />
      </Connections>
    </Network>
    <Network id="41" birthGen="0" fitness="0">
      <Nodes>
        <Node type="bias" id="0" />
        <Node type="in" id="1" />
        <Node type="in" id="2" />
        <Node type="in" id="3" />
        <Node type="in" id="4" />
        <Node type="in" id="5" />
        <Node type="in" id="6" />
        <Node type="in" id="7" />
        <Node type="in" id="8" />
        <Node type="in" id="9" />
        <Node type="in" id="10" />
        <Node type="out" id="11" />
        <Node type="out" id="12" />
      </Nodes>
      <Connections>
        <Con id="13" src="0" tgt="11" wght="0.37860016152262688" />
        <Con id="14" src="0" tgt="12" wght="0.80914546269923449" />
        <Con id="15" src="1" tgt="11" wght="-0.27990553341805935" />
        <Con id="16" src="1" tgt="12" wght="0.61909871827811" />
        <Con id="17" src="2" tgt="11" wght="0.28277436178177595" />
        <Con id="18" src="2" tgt="12" wght="0.33172107208520174" />
        <Con id="19" src="3" tgt="11" wght="-0.23530198913067579" />
        <Con id="20" src="3" tgt="12" wght="0.2438034899532795" />
        <Con id="21" src="4" tgt="11" wght="0.061527571640908718" />
        <Con id="22" src="4" tgt="12" wght="0.20773620065301657" />
        <Con id="23" src="5" tgt="11" wght="0.4053280521184206" />
        <Con id="24" src="5" tgt="12" wght="0.03319244459271431" />
        <Con id="25" src="6" tgt="11" wght="-0.66864163521677256" />
        <Con id="26" src="6" tgt="12" wght="-0.54216727428138256" />
        <Con id="27" src="7" tgt="11" wght="0.21062129829078913" />
        <Con id="28" src="7" tgt="12" wght="-0.53963367827236652" />
        <Con id="29" src="8" tgt="11" wght="-0.61430829297751188" />
        <Con id="30" src="8" tgt="12" wght="0.0816272720694542" />
        <Con id="31" src="9" tgt="11" wght="0.53620078694075346" />
        <Con id="32" src="9" tgt="12" wght="-0.47190793696790934" />
        <Con id="33" src="10" tgt="11" wght="0.43295787088572979" />
        <Con id="34" src="10" tgt="12" wght="-0.93763540685176849" />
      </Connections>
    </Network>
    <Network id="42" birthGen="0" fitness="0">
      <Nodes>
        <Node type="bias" id="0" />
        <Node type="in" id="1" />
        <Node type="in" id="2" />
        <Node type="in" id="3" />
        <Node type="in" id="4" />
        <Node type="in" id="5" />
        <Node type="in" id="6" />
        <Node type="in" id="7" />
        <Node type="in" id="8" />
        <Node type="in" id="9" />
        <Node type="in" id="10" />
        <Node type="out" id="11" />
        <Node type="out" id="12" />
      </Nodes>
      <Connections>
        <Con id="13" src="0" tgt="11" wght="0.17345207557082176" />
        <Con id="14" src="0" tgt="12" wght="0.78284404147416353" />
        <Con id="15" src="1" tgt="11" wght="-0.052301603369414806" />
        <Con id="16" src="1" tgt="12" wght="0.88213339913636446" />
        <Con id="17" src="2" tgt="11" wght="-0.924134329892695" />
        <Con id="18" src="2" tgt="12" wght="-0.94894507806748152" />
        <Con id="19" src="3" tgt="11" wght="0.5789152467623353" />
        <Con id="20" src="3" tgt="12" wght="0.42221081722527742" />
        <Con id="21" src="4" tgt="11" wght="0.35469628777354956" />
        <Con id="22" src="4" tgt="12" wght="0.521183704957366" />
        <Con id="23" src="5" tgt="11" wght="0.028364827856421471" />
        <Con id="24" src="5" tgt="12" wght="-0.71177530568093061" />
        <Con id="25" src="6" tgt="11" wght="-0.44959830399602652" />
        <Con id="26" src="6" tgt="12" wght="0.081475109793245792" />
        <Con id="27" src="7" tgt="11" wght="0.53886505775153637" />
        <Con id="28" src="7" tgt="12" wght="-0.3183392221108079" />
        <Con id="29" src="8" tgt="11" wght="0.54592254851013422" />
        <Con id="30" src="8" tgt="12" wght="0.64539314713329077" />
        <Con id="31" src="9" tgt="11" wght="0.56948968954384327" />
        <Con id="32" src="9" tgt="12" wght="-0.87707259599119425" />
        <Con id="33" src="10" tgt="11" wght="-0.67123977653682232" />
        <Con id="34" src="10" tgt="12" wght="0.95628342125564814" />
      </Connections>
    </Network>
    <Network id="43" birthGen="0" fitness="0">
      <Nodes>
        <Node type="bias" id="0" />
        <Node type="in" id="1" />
        <Node type="in" id="2" />
        <Node type="in" id="3" />
        <Node type="in" id="4" />
        <Node type="in" id="5" />
        <Node type="in" id="6" />
        <Node type="in" id="7" />
        <Node type="in" id="8" />
        <Node type="in" id="9" />
        <Node type="in" id="10" />
        <Node type="out" id="11" />
        <Node type="out" id="12" />
      </Nodes>
      <Connections>
        <Con id="13" src="0" tgt="11" wght="0.33975740056484938" />
        <Con id="14" src="0" tgt="12" wght="-0.83332870993763208" />
        <Con id="15" src="1" tgt="11" wght="-0.96471404656767845" />
        <Con id="16" src="1" tgt="12" wght="-0.32331084739416838" />
        <Con id="17" src="2" tgt="11" wght="0.19713101536035538" />
        <Con id="18" src="2" tgt="12" wght="0.31468362361192703" />
        <Con id="19" src="3" tgt="11" wght="0.9621509350836277" />
        <Con id="20" src="3" tgt="12" wght="-0.43799552880227566" />
        <Con id="21" src="4" tgt="11" wght="0.35499038454145193" />
        <Con id="22" src="4" tgt="12" wght="0.09096124954521656" />
        <Con id="23" src="5" tgt="11" wght="0.93154026754200459" />
        <Con id="24" src="5" tgt="12" wght="0.63763580191880465" />
        <Con id="25" src="6" tgt="11" wght="0.45684155263006687" />
        <Con id="26" src="6" tgt="12" wght="0.60419961716979742" />
        <Con id="27" src="7" tgt="11" wght="-0.83593924157321453" />
        <Con id="28" src="7" tgt="12" wght="0.058634689077734947" />
        <Con id="29" src="8" tgt="11" wght="0.47401758190244436" />
        <Con id="30" src="8" tgt="12" wght="0.29560496099293232" />
        <Con id="31" src="9" tgt="11" wght="0.33456043805927038" />
        <Con id="32" src="9" tgt="12" wght="-0.55827976111322641" />
        <Con id="33" src="10" tgt="11" wght="0.94055461697280407" />
        <Con id="34" src="10" tgt="12" wght="0.12915203627198935" />
      </Connections>
    </Network>
    <Network id="44" birthGen="0" fitness="0">
      <Nodes>
        <Node type="bias" id="0" />
        <Node type="in" id="1" />
        <Node type="in" id="2" />
        <Node type="in" id="3" />
        <Node type="in" id="4" />
        <Node type="in" id="5" />
        <Node type="in" id="6" />
        <Node type="in" id="7" />
        <Node type="in" id="8" />
        <Node type="in" id="9" />
        <Node type="in" id="10" />
        <Node type="out" id="11" />
        <Node type="out" id="12" />
      </Nodes>
      <Connections>
        <Con id="13" src="0" tgt="11" wght="-0.3864439157769084" />
        <Con id="14" src="0" tgt="12" wght="-0.70025428850203753" />
        <Con id="15" src="1" tgt="11" wght="-0.45090396329760551" />
        <Con id="16" src="1" tgt="12" wght="0.74841751717031" />
        <Con id="17" src="2" tgt="11" wght="0.049425658769905567" />
        <Con id="18" src="2" tgt="12" wght="-0.38797781988978386" />
        <Con id="19" src="3" tgt="11" wght="0.84421067871153355" />
        <Con id="20" src="3" tgt="12" wght="0.28513043653219938" />
        <Con id="21" src="4" tgt="11" wght="0.21349827200174332" />
        <Con id="22" src="4" tgt="12" wght="-0.1055302182212472" />
        <Con id="23" src="5" tgt="11" wght="-0.32694323733448982" />
        <Con id="24" src="5" tgt="12" wght="0.0056549869477748871" />
        <Con id="25" src="6" tgt="11" wght="0.71321069542318583" />
        <Con id="26" src="6" tgt="12" wght="-0.92492135427892208" />
        <Con id="27" src="7" tgt="11" wght="0.39241569302976131" />
        <Con id="28" src="7" tgt="12" wght="-0.93018047232180834" />
        <Con id="29" src="8" tgt="11" wght="0.525682371109724" />
        <Con id="30" src="8" tgt="12" wght="0.6278514452278614" />
        <Con id="31" src="9" tgt="11" wght="-0.37002934236079454" />
        <Con id="32" src="9" tgt="12" wght="0.071337303146719933" />
        <Con id="33" src="10" tgt="11" wght="-0.40953152533620596" />
        <Con id="34" src="10" tgt="12" wght="-0.960403660312295" />
      </Connections>
    </Network>
    <Network id="45" birthGen="0" fitness="0">
      <Nodes>
        <Node type="bias" id="0" />
        <Node type="in" id="1" />
        <Node type="in" id="2" />
        <Node type="in" id="3" />
        <Node type="in" id="4" />
        <Node type="in" id="5" />
        <Node type="in" id="6" />
        <Node type="in" id="7" />
        <Node type="in" id="8" />
        <Node type="in" id="9" />
        <Node type="in" id="10" />
        <Node type="out" id="11" />
        <Node type="out" id="12" />
      </Nodes>
      <Connections>
        <Con id="13" src="0" tgt="11" wght="-0.9210157273337245" />
        <Con id="14" src="0" tgt="12" wght="-0.62033631652593613" />
        <Con id="15" src="1" tgt="11" wght="-0.99782571662217379" />
        <Con id="16" src="1" tgt="12" wght="-0.82442674972116947" />
        <Con id="17" src="2" tgt="11" wght="0.91613801103085279" />
        <Con id="18" src="2" tgt="12" wght="0.73902325145900249" />
        <Con id="19" src="3" tgt="11" wght="0.46287809032946825" />
        <Con id="20" src="3" tgt="12" wght="0.44820426870137453" />
        <Con id="21" src="4" tgt="11" wght="0.16651095077395439" />
        <Con id="22" src="4" tgt="12" wght="-0.33758919686079025" />
        <Con id="23" src="5" tgt="11" wght="0.27579334937036037" />
        <Con id="24" src="5" tgt="12" wght="-0.70633670594543219" />
        <Con id="25" src="6" tgt="11" wght="-0.21585428155958652" />
        <Con id="26" src="6" tgt="12" wght="-0.22827034723013639" />
        <Con id="27" src="7" tgt="11" wght="-0.35631449148058891" />
        <Con id="28" src="7" tgt="12" wght="0.24035157449543476" />
        <Con id="29" src="8" tgt="11" wght="-0.46866498794406652" />
        <Con id="30" src="8" tgt="12" wght="-0.83854241669178009" />
        <Con id="31" src="9" tgt="11" wght="-0.62224379740655422" />
        <Con id="32" src="9" tgt="12" wght="0.72987671103328466" />
        <Con id="33" src="10" tgt="11" wght="-0.667576395906508" />
        <Con id="34" src="10" tgt="12" wght="-0.1190606402233243" />
      </Connections>
    </Network>
    <Network id="46" birthGen="0" fitness="0">
      <Nodes>
        <Node type="bias" id="0" />
        <Node type="in" id="1" />
        <Node type="in" id="2" />
        <Node type="in" id="3" />
        <Node type="in" id="4" />
        <Node type="in" id="5" />
        <Node type="in" id="6" />
        <Node type="in" id="7" />
        <Node type="in" id="8" />
        <Node type="in" id="9" />
        <Node type="in" id="10" />
        <Node type="out" id="11" />
        <Node type="out" id="12" />
      </Nodes>
      <Connections>
        <Con id="13" src="0" tgt="11" wght="-0.81871114391833544" />
        <Con id="14" src="0" tgt="12" wght="0.741817937232554" />
        <Con id="15" src="1" tgt="11" wght="-0.61803437862545252" />
        <Con id="16" src="1" tgt="12" wght="0.17482386622577906" />
        <Con id="17" src="2" tgt="11" wght="0.0954950824379921" />
        <Con id="18" src="2" tgt="12" wght="-0.76947315037250519" />
        <Con id="19" src="3" tgt="11" wght="0.057961373589932919" />
        <Con id="20" src="3" tgt="12" wght="0.37131564505398273" />
        <Con id="21" src="4" tgt="11" wght="0.0365502443164587" />
        <Con id="22" src="4" tgt="12" wght="-0.52028202265501022" />
        <Con id="23" src="5" tgt="11" wght="0.32686631474643946" />
        <Con id="24" src="5" tgt="12" wght="0.11439542472362518" />
        <Con id="25" src="6" tgt="11" wght="-0.51148567162454128" />
        <Con id="26" src="6" tgt="12" wght="-0.13859621342271566" />
        <Con id="27" src="7" tgt="11" wght="0.21853938791900873" />
        <Con id="28" src="7" tgt="12" wght="0.36387688666582108" />
        <Con id="29" src="8" tgt="11" wght="0.75709965266287327" />
        <Con id="30" src="8" tgt="12" wght="-0.15652987826615572" />
        <Con id="31" src="9" tgt="11" wght="-0.47572679072618484" />
        <Con id="32" src="9" tgt="12" wght="-0.36953454278409481" />
        <Con id="33" src="10" tgt="11" wght="0.53126551583409309" />
        <Con id="34" src="10" tgt="12" wght="0.21883838623762131" />
      </Connections>
    </Network>
    <Network id="47" birthGen="0" fitness="0">
      <Nodes>
        <Node type="bias" id="0" />
        <Node type="in" id="1" />
        <Node type="in" id="2" />
        <Node type="in" id="3" />
        <Node type="in" id="4" />
        <Node type="in" id="5" />
        <Node type="in" id="6" />
        <Node type="in" id="7" />
        <Node type="in" id="8" />
        <Node type="in" id="9" />
        <Node type="in" id="10" />
        <Node type="out" id="11" />
        <Node type="out" id="12" />
      </Nodes>
      <Connections>
        <Con id="13" src="0" tgt="11" wght="0.53694277442991734" />
        <Con id="14" src="0" tgt="12" wght="-0.24446361511945724" />
        <Con id="15" src="1" tgt="11" wght="0.12085591908544302" />
        <Con id="16" src="1" tgt="12" wght="-0.085217929445207119" />
        <Con id="17" src="2" tgt="11" wght="-0.8169570304453373" />
        <Con id="18" src="2" tgt="12" wght="0.96837262064218521" />
        <Con id="19" src="3" tgt="11" wght="-0.66005633305758238" />
        <Con id="20" src="3" tgt="12" wght="0.99610851053148508" />
        <Con id="21" src="4" tgt="11" wght="-0.84090251289308071" />
        <Con id="22" src="4" tgt="12" wght="-0.95591168105602264" />
        <Con id="23" src="5" tgt="11" wght="0.78115670941770077" />
        <Con id="24" src="5" tgt="12" wght="0.029485532082617283" />
        <Con id="25" src="6" tgt="11" wght="0.15587988868355751" />
        <Con id="26" src="6" tgt="12" wght="0.43440442904829979" />
        <Con id="27" src="7" tgt="11" wght="-0.42025128100067377" />
        <Con id="28" src="7" tgt="12" wght="0.32089532725512981" />
        <Con id="29" src="8" tgt="11" wght="0.82812195364385843" />
        <Con id="30" src="8" tgt="12" wght="0.20666677877306938" />
