<?xml version="1.0" encoding="utf-8"?>
<Root>
  <ActivationFunctions>
    <Fn id="0" name="SteepenedSigmoid" prob="1" />
  </ActivationFunctions>
  <Networks>
    <Network id="0" birthGen="0" fitness="0">
      <Nodes>
        <Node type="bias" id="0" />
        <Node type="in" id="1" />
        <Node type="in" id="2" />
        <Node type="in" id="3" />
        <Node type="in" id="4" />
        <Node type="in" id="5" />
        <Node type="in" id="6" />
        <Node type="in" id="7" />
        <Node type="in" id="8" />
        <Node type="in" id="9" />
        <Node type="in" id="10" />
        <Node type="out" id="11" />
        <Node type="out" id="12" />
      </Nodes>
      <Connections>
        <Con id="13" src="0" tgt="11" wght="-0.98846387770026922" />
        <Con id="14" src="0" tgt="12" wght="0.62855339981615543" />
        <Con id="15" src="1" tgt="11" wght="-0.46984766982495785" />
        <Con id="16" src="1" tgt="12" wght="0.12447059620171785" />
        <Con id="17" src="2" tgt="11" wght="-0.95035355910658836" />
        <Con id="18" src="2" tgt="12" wght="0.39982799626886845" />
        <Con id="19" src="3" tgt="11" wght="-0.13498074654489756" />
        <Con id="20" src="3" tgt="12" wght="-0.459857938811183" />
        <Con id="21" src="4" tgt="11" wght="0.00047882553189992905" />
        <Con id="22" src="4" tgt="12" wght="-0.054721844382584095" />
        <Con id="23" src="5" tgt="11" wght="-0.51558240875601768" />
        <Con id="24" src="5" tgt="12" wght="0.50098383333534" />
        <Con id="25" src="6" tgt="11" wght="-0.87442939914762974" />
        <Con id="26" src="6" tgt="12" wght="-0.37571266107261181" />
        <Con id="27" src="7" tgt="11" wght="-0.83876686543226242" />
        <Con id="28" src="7" tgt="12" wght="-0.62221852969378233" />
        <Con id="29" src="8" tgt="11" wght="0.75636061560362577" />
        <Con id="30" src="8" tgt="12" wght="0.59630961250513792" />
        <Con id="31" src="9" tgt="11" wght="0.94939354807138443" />
        <Con id="32" src="9" tgt="12" wght="-0.87042563315480947" />
        <Con id="33" src="10" tgt="11" wght="0.21349478233605623" />
        <Con id="34" src="10" tgt="12" wght="-0.46822756342589855" />
      </Connections>
    </Network>
    <Network id="1" birthGen="0" fitness="0">
      <Nodes>
        <Node type="bias" id="0" />
        <Node type="in" id="1" />
        <Node type="in" id="2" />
        <Node type="in" id="3" />
        <Node type="in" id="4" />
        <Node type="in" id="5" />
        <Node type="in" id="6" />
        <Node type="in" id="7" />
        <Node type="in" id="8" />
        <Node type="in" id="9" />
        <Node type="in" id="10" />
        <Node type="out" id="11" />
        <Node type="out" id="12" />
      </Nodes>
      <Connections>
        <Con id="13" src="0" tgt="11" wght="0.52961081359535456" />
        <Con id="14" src="0" tgt="12" wght="0.88758169300854206" />
        <Con id="15" src="1" tgt="11" wght="0.1429213983938098" />
        <Con id="16" src="1" tgt="12" wght="0.6363101564347744" />
        <Con id="17" src="2" tgt="11" wght="0.46306585893034935" />
        <Con id="18" src="2" tgt="12" wght="0.38937870785593987" />
        <Con id="19" src="3" tgt="11" wght="0.58102470263838768" />
        <Con id="20" src="3" tgt="12" wght="0.87521972320973873" />
        <Con id="21" src="4" tgt="11" wght="0.93687968794256449" />
        <Con id="22" src="4" tgt="12" wght="0.19301749113947153" />
        <Con id="23" src="5" tgt="11" wght="0.911794975399971" />
        <Con id="24" src="5" tgt="12" wght="-0.83893732354044914" />
        <Con id="25" src="6" tgt="11" wght="-0.24949098657816648" />
        <Con id="26" src="6" tgt="12" wght="0.3720077071338892" />
        <Con id="27" src="7" tgt="11" wght="0.81618358660489321" />
        <Con id="28" src="7" tgt="12" wght="0.0467301607131958" />
        <Con id="29" src="8" tgt="11" wght="-0.54311499558389187" />
        <Con id="30" src="8" tgt="12" wght="0.062841923907399178" />
        <Con id="31" src="9" tgt="11" wght="0.54761964827775955" />
        <Con id="32" src="9" tgt="12" wght="0.49802208691835403" />
        <Con id="33" src="10" tgt="11" wght="-0.031166332773864269" />
        <Con id="34" src="10" tgt="12" wght="-0.39316979050636292" />
      </Connections>
    </Network>
    <Network id="2" birthGen="0" fitness="0">
      <Nodes>
        <Node type="bias" id="0" />
        <Node type="in" id="1" />
        <Node type="in" id="2" />
        <Node type="in" id="3" />
        <Node type="in" id="4" />
        <Node type="in" id="5" />
        <Node type="in" id="6" />
        <Node type="in" id="7" />
        <Node type="in" id="8" />
        <Node type="in" id="9" />
        <Node type="in" id="10" />
        <Node type="out" id="11" />
        <Node type="out" id="12" />
      </Nodes>
      <Connections>
        <Con id="13" src="0" tgt="11" wght="0.2885539410635829" />
        <Con id="14" src="0" tgt="12" wght="0.11908594705164433" />
        <Con id="15" src="1" tgt="11" wght="-0.60031415428966284" />
        <Con id="16" src="1" tgt="12" wght="0.5631661145016551" />
        <Con id="17" src="2" tgt="11" wght="-0.40030482690781355" />
        <Con id="18" src="2" tgt="12" wght="0.26310667395591736" />
        <Con id="19" src="3" tgt="11" wght="-0.95156571734696627" />
        <Con id="20" src="3" tgt="12" wght="0.29017693735659122" />
        <Con id="21" src="4" tgt="11" wght="-0.12418305408209562" />
        <Con id="22" src="4" tgt="12" wght="-0.099470858462154865" />
        <Con id="23" src="5" tgt="11" wght="-0.26084342319518328" />
        <Con id="24" src="5" tgt="12" wght="0.13318504672497511" />
        <Con id="25" src="6" tgt="11" wght="0.13560438435524702" />
        <Con id="26" src="6" tgt="12" wght="-0.65626768209040165" />
        <Con id="27" src="7" tgt="11" wght="0.27508785855025053" />
        <Con id="28" src="7" tgt="12" wght="0.82056570518761873" />
        <Con id="29" src="8" tgt="11" wght="0.63653187081217766" />
        <Con id="30" src="8" tgt="12" wght="0.86299161333590746" />
        <Con id="31" src="9" tgt="11" wght="-0.8757357420399785" />
        <Con id="32" src="9" tgt="12" wght="0.60552981309592724" />
        <Con id="33" src="10" tgt="11" wght="-0.74083014391362667" />
        <Con id="34" src="10" tgt="12" wght="-0.95597611553967" />
      </Connections>
    </Network>
    <Network id="3" birthGen="0" fitness="0">
      <Nodes>
        <Node type="bias" id="0" />
        <Node type="in" id="1" />
        <Node type="in" id="2" />
        <Node type="in" id="3" />
        <Node type="in" id="4" />
        <Node type="in" id="5" />
        <Node type="in" id="6" />
        <Node type="in" id="7" />
        <Node type="in" id="8" />
        <Node type="in" id="9" />
        <Node type="in" id="10" />
        <Node type="out" id="11" />
        <Node type="out" id="12" />
      </Nodes>
      <Connections>
        <Con id="13" src="0" tgt="11" wght="-0.545897763222456" />
        <Con id="14" src="0" tgt="12" wght="-0.027978683821856976" />
        <Con id="15" src="1" tgt="11" wght="-0.18121855892241" />
        <Con id="16" src="1" tgt="12" wght="0.59783978573977947" />
        <Con id="17" src="2" tgt="11" wght="0.051678250543773174" />
        <Con id="18" src="2" tgt="12" wght="0.33836137503385544" />
        <Con id="19" src="3" tgt="11" wght="0.96204986143857241" />
        <Con id="20" src="3" tgt="12" wght="-0.74311781860888" />
        <Con id="21" src="4" tgt="11" wght="-0.031397196464240551" />
        <Con id="22" src="4" tgt="12" wght="-0.42675876058638096" />
        <Con id="23" src="5" tgt="11" wght="0.98342441394925117" />
        <Con id="24" src="5" tgt="12" wght="-0.40583834145218134" />
        <Con id="25" src="6" tgt="11" wght="0.84146199841052294" />
        <Con id="26" src="6" tgt="12" wght="-0.84777321759611368" />
        <Con id="27" src="7" tgt="11" wght="-0.48594919964671135" />
        <Con id="28" src="7" tgt="12" wght="-0.84314088895916939" />
        <Con id="29" src="8" tgt="11" wght="-0.8091646172106266" />
        <Con id="30" src="8" tgt="12" wght="-0.2592609440907836" />
        <Con id="31" src="9" tgt="11" wght="0.14336426183581352" />
        <Con id="32" src="9" tgt="12" wght="0.13441926799714565" />
        <Con id="33" src="10" tgt="11" wght="0.39487926196306944" />
        <Con id="34" src="10" tgt="12" wght="-0.59519211575388908" />
      </Connections>
    </Network>
    <Network id="4" birthGen="0" fitness="0">
      <Nodes>
        <Node type="bias" id="0" />
        <Node type="in" id="1" />
        <Node type="in" id="2" />
        <Node type="in" id="3" />
        <Node type="in" id="4" />
        <Node type="in" id="5" />
        <Node type="in" id="6" />
        <Node type="in" id="7" />
        <Node type="in" id="8" />
        <Node type="in" id="9" />
        <Node type="in" id="10" />
        <Node type="out" id="11" />
        <Node type="out" id="12" />
      </Nodes>
      <Connections>
        <Con id="13" src="0" tgt="11" wght="0.44918783102184534" />
        <Con id="14" src="0" tgt="12" wght="-0.2797414967790246" />
        <Con id="15" src="1" tgt="11" wght="0.30296213086694479" />
        <Con id="16" src="1" tgt="12" wght="-0.3970131753012538" />
        <Con id="17" src="2" tgt="11" wght="0.69387156888842583" />
        <Con id="18" src="2" tgt="12" wght="0.799616739153862" />
        <Con id="19" src="3" tgt="11" wght="0.41744253225624561" />
        <Con id="20" src="3" tgt="12" wght="0.19447027239948511" />
        <Con id="21" src="4" tgt="11" wght="-0.84459841717034578" />
        <Con id="22" src="4" tgt="12" wght="0.98651220556348562" />
        <Con id="23" src="5" tgt="11" wght="-0.72033478226512671" />
        <Con id="24" src="5" tgt="12" wght="0.47440832294523716" />
        <Con id="25" src="6" tgt="11" wght="0.25307432189583778" />
        <Con id="26" src="6" tgt="12" wght="-0.31893309205770493" />
        <Con id="27" src="7" tgt="11" wght="-0.21304244827479124" />
        <Con id="28" src="7" tgt="12" wght="-0.22142762783914804" />
        <Con id="29" src="8" tgt="11" wght="0.8963876161724329" />
        <Con id="30" src="8" tgt="12" wght="0.64713516365736723" />
        <Con id="31" src="9" tgt="11" wght="-0.77879816666245461" />
        <Con id="32" src="9" tgt="12" wght="-0.74486768618226051" />
        <Con id="33" src="10" tgt="11" wght="0.45690023712813854" />
        <Con id="34" src="10" tgt="12" wght="-0.21567211765795946" />
      </Connections>
    </Network>
    <Network id="5" birthGen="0" fitness="0">
      <Nodes>
        <Node type="bias" id="0" />
        <Node type="in" id="1" />
        <Node type="in" id="2" />
        <Node type="in" id="3" />
        <Node type="in" id="4" />
        <Node type="in" id="5" />
        <Node type="in" id="6" />
        <Node type="in" id="7" />
        <Node type="in" id="8" />
        <Node type="in" id="9" />
        <Node type="in" id="10" />
        <Node type="out" id="11" />
        <Node type="out" id="12" />
      </Nodes>
      <Connections>
        <Con id="13" src="0" tgt="11" wght="0.059730931185185909" />
        <Con id="14" src="0" tgt="12" wght="-0.50106443092226982" />
        <Con id="15" src="1" tgt="11" wght="0.28171918448060751" />
        <Con id="16" src="1" tgt="12" wght="0.81308328825980425" />
        <Con id="17" src="2" tgt="11" wght="0.52199146989732981" />
        <Con id="18" src="2" tgt="12" wght="0.18754739034920931" />
        <Con id="19" src="3" tgt="11" wght="0.68444554600864649" />
        <Con id="20" src="3" tgt="12" wght="0.83347861655056477" />
        <Con id="21" src="4" tgt="11" wght="-0.62430522684007883" />
        <Con id="22" src="4" tgt="12" wght="-0.934935849159956" />
        <Con id="23" src="5" tgt="11" wght="-0.86470796726644039" />
        <Con id="24" src="5" tgt="12" wght="-0.66950040776282549" />
        <Con id="25" src="6" tgt="11" wght="0.11615816783159971" />
        <Con id="26" src="6" tgt="12" wght="-0.14181282557547092" />
        <Con id="27" src="7" tgt="11" wght="0.59519451484084129" />
        <Con id="28" src="7" tgt="12" wght="-0.25455878861248493" />
        <Con id="29" src="8" tgt="11" wght="0.35813187714666128" />
        <Con id="30" src="8" tgt="12" wght="0.93849904742091894" />
        <Con id="31" src="9" tgt="11" wght="-0.36762876249849796" />
        <Con id="32" src="9" tgt="12" wght="-0.37230707611888647" />
        <Con id="33" src="10" tgt="11" wght="-0.44734843168407679" />
        <Con id="34" src="10" tgt="12" wght="-0.28290331736207008" />
      </Connections>
    </Network>
    <Network id="6" birthGen="0" fitness="0">
      <Nodes>
        <Node type="bias" id="0" />
        <Node type="in" id="1" />
        <Node type="in" id="2" />
        <Node type="in" id="3" />
        <Node type="in" id="4" />
        <Node type="in" id="5" />
        <Node type="in" id="6" />
        <Node type="in" id="7" />
        <Node type="in" id="8" />
        <Node type="in" id="9" />
        <Node type="in" id="10" />
        <Node type="out" id="11" />
        <Node type="out" id="12" />
      </Nodes>
      <Connections>
        <Con id="13" src="0" tgt="11" wght="0.33371992688626051" />
        <Con id="14" src="0" tgt="12" wght="0.32251720689237118" />
        <Con id="15" src="1" tgt="11" wght="0.80179847031831741" />
        <Con id="16" src="1" tgt="12" wght="-0.29765355307608843" />
        <Con id="17" src="2" tgt="11" wght="0.78084031213074923" />
        <Con id="18" src="2" tgt="12" wght="-0.60791842173784971" />
        <Con id="19" src="3" tgt="11" wght="0.88952868804335594" />
        <Con id="20" src="3" tgt="12" wght="-0.63224110100418329" />
        <Con id="21" src="4" tgt="11" wght="-0.785973415710032" />
        <Con id="22" src="4" tgt="12" wght="0.2831115173175931" />
        <Con id="23" src="5" tgt="11" wght="0.570611004717648" />
        <Con id="24" src="5" tgt="12" wght="0.73561374098062515" />
        <Con id="25" src="6" tgt="11" wght="0.43952423613518476" />
        <Con id="26" src="6" tgt="12" wght="0.49539911840111017" />
        <Con id="27" src="7" tgt="11" wght="-0.88991308957338333" />
        <Con id="28" src="7" tgt="12" wght="-0.29294163547456264" />
        <Con id="29" src="8" tgt="11" wght="0.92944328673183918" />
        <Con id="30" src="8" tgt="12" wght="0.94513550121337175" />
        <Con id="31" src="9" tgt="11" wght="0.51768301706761122" />
        <Con id="32" src="9" tgt="12" wght="0.31369705870747566" />
        <Con id="33" src="10" tgt="11" wght="-0.86062933038920164" />
        <Con id="34" src="10" tgt="12" wght="-0.47617350798100233" />
      </Connections>
    </Network>
    <Network id="7" birthGen="0" fitness="0">
      <Nodes>
        <Node type="bias" id="0" />
        <Node type="in" id="1" />
        <Node type="in" id="2" />
        <Node type="in" id="3" />
        <Node type="in" id="4" />
        <Node type="in" id="5" />
        <Node type="in" id="6" />
        <Node type="in" id="7" />
        <Node type="in" id="8" />
        <Node type="in" id="9" />
        <Node type="in" id="10" />
        <Node type="out" id="11" />
        <Node type="out" id="12" />
      </Nodes>
      <Connections>
        <Con id="13" src="0" tgt="11" wght="-0.18077804148197174" />
        <Con id="14" src="0" tgt="12" wght="0.38048359286040068" />
        <Con id="15" src="1" tgt="11" wght="0.16727818641811609" />
        <Con id="16" src="1" tgt="12" wght="0.51566886436194181" />
        <Con id="17" src="2" tgt="11" wght="-0.615778923034668" />
        <Con id="18" src="2" tgt="12" wght="-0.21371884271502495" />
        <Con id="19" src="3" tgt="11" wght="-0.70230943895876408" />
        <Con id="20" src="3" tgt="12" wght="0.054346189834177494" />
        <Con id="21" src="4" tgt="11" wght="-0.35507970117032528" />
        <Con id="22" src="4" tgt="12" wght="-0.69174801744520664" />
        <Con id="23" src="5" tgt="11" wght="0.76854489091783762" />
        <Con id="24" src="5" tgt="12" wght="0.52380449324846268" />
        <Con id="25" src="6" tgt="11" wght="0.91852621268481016" />
        <Con id="26" src="6" tgt="12" wght="-0.88247220125049353" />
        <Con id="27" src="7" tgt="11" wght="-0.50566407106816769" />
        <Con id="28" src="7" tgt="12" wght="-0.28011451847851276" />
        <Con id="29" src="8" tgt="11" wght="-0.76462397910654545" />
        <Con id="30" src="8" tgt="12" wght="0.622932456433773" />
        <Con id="31" src="9" tgt="11" wght="0.24533612560480833" />
        <Con id="32" src="9" tgt="12" wght="-0.4151169890537858" />
        <Con id="33" src="10" tgt="11" wght="-0.61071334965527058" />
        <Con id="34" src="10" tgt="12" wght="0.16072841733694077" />
      </Connections>
    </Network>
    <Network id="8" birthGen="0" fitness="0">
      <Nodes>
        <Node type="bias" id="0" />
        <Node type="in" id="1" />
        <Node type="in" id="2" />
        <Node type="in" id="3" />
        <Node type="in" id="4" />
        <Node type="in" id="5" />
        <Node type="in" id="6" />
        <Node type="in" id="7" />
        <Node type="in" id="8" />
        <Node type="in" id="9" />
        <Node type="in" id="10" />
        <Node type="out" id="11" />
        <Node type="out" id="12" />
      </Nodes>
      <Connections>
        <Con id="13" src="0" tgt="11" wght="0.90440282598137856" />
        <Con id="14" src="0" tgt="12" wght="-0.38675984833389521" />
        <Con id="15" src="1" tgt="11" wght="-0.31599328387528658" />
        <Con id="16" src="1" tgt="12" wght="-0.94414742663502693" />
        <Con id="17" src="2" tgt="11" wght="0.8820636086165905" />
        <Con id="18" src="2" tgt="12" wght="0.1935558645054698" />
        <Con id="19" src="3" tgt="11" wght="-0.38524446915835142" />
        <Con id="20" src="3" tgt="12" wght="-0.12814334500581026" />
        <Con id="21" src="4" tgt="11" wght="-0.75256096664816141" />
        <Con id="22" src="4" tgt="12" wght="0.44109430722892284" />
        <Con id="23" src="5" tgt="11" wght="-0.86154236923903227" />
        <Con id="24" src="5" tgt="12" wght="-0.486666607670486" />
        <Con id="25" src="6" tgt="11" wght="0.87338832579553127" />
        <Con id="26" src="6" tgt="12" wght="0.8309271140024066" />
        <Con id="27" src="7" tgt="11" wght="0.96315965242683887" />
        <Con id="28" src="7" tgt="12" wght="0.72386589180678129" />
        <Con id="29" src="8" tgt="11" wght="0.31758339516818523" />
        <Con id="30" src="8" tgt="12" wght="0.56292131915688515" />
        <Con id="31" src="9" tgt="11" wght="0.046762777492403984" />
        <Con id="32" src="9" tgt="12" wght="0.12195333000272512" />
        <Con id="33" src="10" tgt="11" wght="0.579220075160265" />
        <Con id="34" src="10" tgt="12" wght="0.22873181197792292" />
      </Connections>
    </Network>
    <Network id="9" birthGen="0" fitness="0">
      <Nodes>
        <Node type="bias" id="0" />
        <Node type="in" id="1" />
        <Node type="in" id="2" />
        <Node type="in" id="3" />
        <Node type="in" id="4" />
        <Node type="in" id="5" />
        <Node type="in" id="6" />
        <Node type="in" id="7" />
        <Node type="in" id="8" />
        <Node type="in" id="9" />
        <Node type="in" id="10" />
        <Node type="out" id="11" />
        <Node type="out" id="12" />
      </Nodes>
      <Connections>
        <Con id="13" src="0" tgt="11" wght="-0.67679818533360958" />
        <Con id="14" src="0" tgt="12" wght="-0.1885424917563796" />
        <Con id="15" src="1" tgt="11" wght="-0.82742988131940365" />
        <Con id="16" src="1" tgt="12" wght="-0.40745180565863848" />
        <Con id="17" src="2" tgt="11" wght="0.10203299485147" />
        <Con id="18" src="2" tgt="12" wght="0.34033012576401234" />
        <Con id="19" src="3" tgt="11" wght="0.58929289598017931" />
        <Con id="20" src="3" tgt="12" wght="-0.9785318411886692" />
        <Con id="21" src="4" tgt="11" wght="0.080943477340042591" />
        <Con id="22" src="4" tgt="12" wght="-0.3060114374384284" />
        <Con id="23" src="5" tgt="11" wght="0.84371671639382839" />
        <Con id="24" src="5" tgt="12" wght="-0.89997460134327412" />
        <Con id="25" src="6" tgt="11" wght="0.94027429539710283" />
        <Con id="26" src="6" tgt="12" wght="0.78128845803439617" />
        <Con id="27" src="7" tgt="11" wght="0.13504987396299839" />
        <Con id="28" src="7" tgt="12" wght="-0.77365227974951267" />
        <Con id="29" src="8" tgt="11" wght="0.19303776789456606" />
        <Con id="30" src="8" tgt="12" wght="0.28231820557266474" />
        <Con id="31" src="9" tgt="11" wght="-0.9421223122626543" />
        <Con id="32" src="9" tgt="12" wght="0.10880870185792446" />
        <Con id="33" src="10" tgt="11" wght="-0.47154559474438429" />
        <Con id="34" src="10" tgt="12" wght="0.46416320465505123" />
      </Connections>
    </Network>
    <Network id="10" birthGen="0" fitness="0">
      <Nodes>
        <Node type="bias" id="0" />
        <Node type="in" id="1" />
        <Node type="in" id="2" />
        <Node type="in" id="3" />
        <Node type="in" id="4" />
        <Node type="in" id="5" />
        <Node type="in" id="6" />
        <Node type="in" id="7" />
        <Node type="in" id="8" />
        <Node type="in" id="9" />
        <Node type="in" id="10" />
        <Node type="out" id="11" />
        <Node type="out" id="12" />
      </Nodes>
      <Connections>
        <Con id="13" src="0" tgt="11" wght="0.56264194194227457" />
        <Con id="14" src="0" tgt="12" wght="-0.16114982217550278" />
        <Con id="15" src="1" tgt="11" wght="0.456553902477026" />
        <Con id="16" src="1" tgt="12" wght="-0.056427238509058952" />
        <Con id="17" src="2" tgt="11" wght="-0.98122793808579445" />
        <Con id="18" src="2" tgt="12" wght="-0.65111468452960253" />
        <Con id="19" src="3" tgt="11" wght="0.64331749361008406" />
        <Con id="20" src="3" tgt="12" wght="0.38584372401237488" />
        <Con id="21" src="4" tgt="11" wght="-0.29865073319524527" />
        <Con id="22" src="4" tgt="12" wght="0.62449777778238058" />
        <Con id="23" src="5" tgt="11" wght="-0.28298815712332726" />
        <Con id="24" src="5" tgt="12" wght="-0.17716750130057335" />
        <Con id="25" src="6" tgt="11" wght="0.0045876232907176018" />
        <Con id="26" src="6" tgt="12" wght="0.0938743157312274" />
        <Con id="27" src="7" tgt="11" wght="-0.62947898078709841" />
        <Con id="28" src="7" tgt="12" wght="-0.61433947551995516" />
        <Con id="29" src="8" tgt="11" wght="0.88725836668163538" />
        <Con id="30" src="8" tgt="12" wght="-0.1994411600753665" />
        <Con id="31" src="9" tgt="11" wght="0.28448624536395073" />
        <Con id="32" src="9" tgt="12" wght="-0.247027768753469" />
        <Con id="33" src="10" tgt="11" wght="-0.25260659214109182" />
        <Con id="34" src="10" tgt="12" wght="0.274705545976758" />
      </Connections>
    </Network>
    <Network id="11" birthGen="0" fitness="0">
      <Nodes>
        <Node type="bias" id="0" />
        <Node type="in" id="1" />
        <Node type="in" id="2" />
        <Node type="in" id="3" />
        <Node type="in" id="4" />
        <Node type="in" id="5" />
        <Node type="in" id="6" />
        <Node type="in" id="7" />
        <Node type="in" id="8" />
        <Node type="in" id="9" />
        <Node type="in" id="10" />
        <Node type="out" id="11" />
        <Node type="out" id="12" />
      </Nodes>
      <Connections>
        <Con id="13" src="0" tgt="11" wght="-0.90382714942097664" />
        <Con id="14" src="0" tgt="12" wght="0.29220649320632219" />
        <Con id="15" src="1" tgt="11" wght="-0.12226890679448843" />
        <Con id="16" src="1" tgt="12" wght="0.8411070154979825" />
        <Con id="17" src="2" tgt="11" wght="0.80674516782164574" />
        <Con id="18" src="2" tgt="12" wght="-0.74101872090250254" />
        <Con id="19" src="3" tgt="11" wght="-0.51482338551431894" />
        <Con id="20" src="3" tgt="12" wght="0.99879768677055836" />
        <Con id="21" src="4" tgt="11" wght="-0.36943291593343019" />
        <Con id="22" src="4" tgt="12" wght="0.870981628075242" />
        <Con id="23" src="5" tgt="11" wght="0.90729743614792824" />
        <Con id="24" src="5" tgt="12" wght="-0.22610362898558378" />
        <Con id="25" src="6" tgt="11" wght="0.8874495318159461" />
        <Con id="26" src="6" tgt="12" wght="0.15159118082374334" />
        <Con id="27" src="7" tgt="11" wght="-0.12248440459370613" />
        <Con id="28" src="7" tgt="12" wght="-0.43747969716787338" />
        <Con id="29" src="8" tgt="11" wght="0.76153052225708961" />
        <Con id="30" src="8" tgt="12" wght="-0.34038948826491833" />
        <Con id="31" src="9" tgt="11" wght="0.47194262128323317" />
        <Con id="32" src="9" tgt="12" wght="0.60998498741537333" />
        <Con id="33" src="10" tgt="11" wght="0.06360710971057415" />
        <Con id="34" src="10" tgt="12" wght="-0.999391014687717" />
      </Connections>
    </Network>
    <Network id="12" birthGen="0" fitness="0">
      <Nodes>
        <Node type="bias" id="0" />
        <Node type="in" id="1" />
        <Node type="in" id="2" />
        <Node type="in" id="3" />
        <Node type="in" id="4" />
        <Node type="in" id="5" />
        <Node type="in" id="6" />
        <Node type="in" id="7" />
        <Node type="in" id="8" />
        <Node type="in" id="9" />
        <Node type="in" id="10" />
        <Node type="out" id="11" />
        <Node type="out" id="12" />
      </Nodes>
      <Connections>
        <Con id="13" src="0" tgt="11" wght="-0.4063470046967268" />
        <Con id="14" src="0" tgt="12" wght="0.11555430758744478" />
        <Con id="15" src="1" tgt="11" wght="-0.7731936601921916" />
        <Con id="16" src="1" tgt="12" wght="0.72120123822242022" />
        <Con id="17" src="2" tgt="11" wght="0.637063954025507" />
        <Con id="18" src="2" tgt="12" wght="0.06454185675829649" />
        <Con id="19" src="3" tgt="11" wght="0.02688152901828289" />
        <Con id="20" src="3" tgt="12" wght="-0.87240197602659464" />
        <Con id="21" src="4" tgt="11" wght="-0.600578173995018" />
        <Con id="22" src="4" tgt="12" wght="0.25303165800869465" />
        <Con id="23" src="5" tgt="11" wght="-0.25213753338903189" />
        <Con id="24" src="5" tgt="12" wght="-0.74763707537204027" />
        <Con id="25" src="6" tgt="11" wght="0.78006439842283726" />
        <Con id="26" src="6" tgt="12" wght="-0.5423937663435936" />
        <Con id="27" src="7" tgt="11" wght="-0.11738530360162258" />
        <Con id="28" src="7" tgt="12" wght="0.80082940217107534" />
        <Con id="29" src="8" tgt="11" wght="0.15769414696842432" />
        <Con id="30" src="8" tgt="12" wght="0.02092056255787611" />
        <Con id="31" src="9" tgt="11" wght="-0.40943164937198162" />
        <Con id="32" src="9" tgt="12" wght="-0.37996232137084007" />
        <Con id="33" src="10" tgt="11" wght="-0.0014605950564146042" />
        <Con id="34" src="10" tgt="12" wght="-0.14064526930451393" />
      </Connections>
    </Network>
    <Network id="13" birthGen="0" fitness="0">
      <Nodes>
        <Node type="bias" id="0" />
        <Node type="in" id="1" />
        <Node type="in" id="2" />
        <Node type="in" id="3" />
        <Node type="in" id="4" />
        <Node type="in" id="5" />
        <Node type="in" id="6" />
        <Node type="in" id="7" />
        <Node type="in" id="8" />
        <Node type="in" id="9" />
        <Node type="in" id="10" />
        <Node type="out" id="11" />
        <Node type="out" id="12" />
      </Nodes>
      <Connections>
        <Con id="13" src="0" tgt="11" wght="-0.29207288194447756" />
        <Con id="14" src="0" tgt="12" wght="-0.97156682331115007" />
        <Con id="15" src="1" tgt="11" wght="0.75114872958511114" />
        <Con id="16" src="1" tgt="12" wght="-0.700738457031548" />
        <Con id="17" src="2" tgt="11" wght="0.15542331337928772" />
        <Con id="18" src="2" tgt="12" wght="0.17431654036045074" />
        <Con id="19" src="3" tgt="11" wght="0.68881022557616234" />
        <Con id="20" src="3" tgt="12" wght="-0.40941449254751205" />
        <Con id="21" src="4" tgt="11" wght="0.72874314337968826" />
        <Con id="22" src="4" tgt="12" wght="0.97970423009246588" />
        <Con id="23" src="5" tgt="11" wght="-0.14237355906516314" />
        <Con id="24" src="5" tgt="12" wght="0.091818591579794884" />
        <Con id="25" src="6" tgt="11" wght="-0.096878622658550739" />
        <Con id="26" src="6" tgt="12" wght="0.83917714189738035" />
        <Con id="27" src="7" tgt="11" wght="-0.25438084360212088" />
        <Con id="28" src="7" tgt="12" wght="-0.14297845773398876" />
        <Con id="29" src="8" tgt="11" wght="-0.297936943359673" />
        <Con id="30" src="8" tgt="12" wght="-0.29219776391983032" />
        <Con id="31" src="9" tgt="11" wght="0.48829450644552708" />
        <Con id="32" src="9" tgt="12" wght="-0.22087389882653952" />
        <Con id="33" src="10" tgt="11" wght="-0.793827717192471" />
        <Con id="34" src="10" tgt="12" wght="-0.42776094563305378" />
      </Connections>
    </Network>
    <Network id="14" birthGen="0" fitness="0">
      <Nodes>
        <Node type="bias" id="0" />
        <Node type="in" id="1" />
        <Node type="in" id="2" />
        <Node type="in" id="3" />
        <Node type="in" id="4" />
        <Node type="in" id="5" />
        <Node type="in" id="6" />
        <Node type="in" id="7" />
        <Node type="in" id="8" />
        <Node type="in" id="9" />
        <Node type="in" id="10" />
        <Node type="out" id="11" />
        <Node type="out" id="12" />
      </Nodes>
      <Connections>
        <Con id="13" src="0" tgt="11" wght="-0.99481570906937122" />
        <Con id="14" src="0" tgt="12" wght="-0.040221022441983223" />
        <Con id="15" src="1" tgt="11" wght="0.97971038892865181" />
        <Con id="16" src="1" tgt="12" wght="0.45715566445142031" />
        <Con id="17" src="2" tgt="11" wght="0.038934907875955105" />
        <Con id="18" src="2" tgt="12" wght="0.71997628081589937" />
        <Con id="19" src="3" tgt="11" wght="-0.85165170859545469" />
        <Con id="20" src="3" tgt="12" wght="0.049994060769677162" />
        <Con id="21" src="4" tgt="11" wght="0.42860685661435127" />
        <Con id="22" src="4" tgt="12" wght="0.52272188197821379" />
        <Con id="23" src="5" tgt="11" wght="-0.526928998529911" />
        <Con id="24" src="5" tgt="12" wght="0.26103292033076286" />
        <Con id="25" src="6" tgt="11" wght="-0.77206259593367577" />
        <Con id="26" src="6" tgt="12" wght="0.30749625898897648" />
        <Con id="27" src="7" tgt="11" wght="-0.32733998820185661" />
        <Con id="28" src="7" tgt="12" wght="0.95471147540956736" />
        <Con id="29" src="8" tgt="11" wght="0.79429726302623749" />
        <Con id="30" src="8" tgt="12" wght="-0.50130135845392942" />
        <Con id="31" src="9" tgt="11" wght="-0.51823021844029427" />
        <Con id="32" src="9" tgt="12" wght="-0.21113574784249067" />
        <Con id="33" src="10" tgt="11" wght="0.81828540656715631" />
        <Con id="34" src="10" tgt="12" wght="0.46617632545530796" />
      </Connections>
    </Network>
    <Network id="15" birthGen="0" fitness="0">
      <Nodes>
        <Node type="bias" id="0" />
        <Node type="in" id="1" />
        <Node type="in" id="2" />
        <Node type="in" id="3" />
        <Node type="in" id="4" />
        <Node type="in" id="5" />
        <Node type="in" id="6" />
        <Node type="in" id="7" />
        <Node type="in" id="8" />
        <Node type="in" id="9" />
        <Node type="in" id="10" />
        <Node type="out" id="11" />
        <Node type="out" id="12" />
      </Nodes>
      <Connections>
        <Con id="13" src="0" tgt="11" wght="-0.99156196694821119" />
        <Con id="14" src="0" tgt="12" wght="0.089333431795239449" />
        <Con id="15" src="1" tgt="11" wght="-0.68840610701590776" />
        <Con id="16" src="1" tgt="12" wght="-0.54456037655472755" />
        <Con id="17" src="2" tgt="11" wght="-0.792029794305563" />
        <Con id="18" src="2" tgt="12" wght="-0.20334201864898205" />
        <Con id="19" src="3" tgt="11" wght="-0.71655334811657667" />
        <Con id="20" src="3" tgt="12" wght="-0.30956868268549442" />
        <Con id="21" src="4" tgt="11" wght="-0.81228287518024445" />
        <Con id="22" src="4" tgt="12" wght="-0.23343789856880903" />
        <Con id="23" src="5" tgt="11" wght="-0.31978295557200909" />
        <Con id="24" src="5" tgt="12" wght="0.28763458039611578" />
        <Con id="25" src="6" tgt="11" wght="0.95553968660533428" />
        <Con id="26" src="6" tgt="12" wght="0.897159606218338" />
        <Con id="27" src="7" tgt="11" wght="-0.20577585976570845" />
        <Con id="28" src="7" tgt="12" wght="-0.057225244119763374" />
        <Con id="29" src="8" tgt="11" wght="-0.30440667551010847" />
        <Con id="30" src="8" tgt="12" wght="0.062859718687832355" />
        <Con id="31" src="9" tgt="11" wght="-0.0370812164619565" />
        <Con id="32" src="9" tgt="12" wght="-0.312396839261055" />
        <Con id="33" src="10" tgt="11" wght="0.86622665915638208" />
        <Con id="34" src="10" tgt="12" wght="0.40885787270963192" />
      </Connections>
    </Network>
    <Network id="16" birthGen="0" fitness="0">
      <Nodes>
        <Node type="bias" id="0" />
        <Node type="in" id="1" />
        <Node type="in" id="2" />
        <Node type="in" id="3" />
        <Node type="in" id="4" />
        <Node type="in" id="5" />
        <Node type="in" id="6" />
        <Node type="in" id="7" />
        <Node type="in" id="8" />
        <Node type="in" id="9" />
        <Node type="in" id="10" />
        <Node type="out" id="11" />
        <Node type="out" id="12" />
      </Nodes>
      <Connections>
        <Con id="13" src="0" tgt="11" wght="0.49127430096268654" />
        <Con id="14" src="0" tgt="12" wght="0.082084427587687969" />
        <Con id="15" src="1" tgt="11" wght="-0.36074063181877136" />
        <Con id="16" src="1" tgt="12" wght="-0.037276868708431721" />
        <Con id="17" src="2" tgt="11" wght="0.55656498298048973" />
        <Con id="18" src="2" tgt="12" wght="-0.10277915187180042" />
        <Con id="19" src="3" tgt="11" wght="-0.083200975321233273" />
        <Con id="20" src="3" tgt="12" wght="0.0391524750739336" />
        <Con id="21" src="4" tgt="11" wght="-0.52968004532158375" />
        <Con id="22" src="4" tgt="12" wght="-0.86425228416919708" />
        <Con id="23" src="5" tgt="11" wght="0.38379628211259842" />
        <Con id="24" src="5" tgt="12" wght="-0.380321285687387" />
        <Con id="25" src="6" tgt="11" wght="-0.8261488052085042" />
        <Con id="26" src="6" tgt="12" wght="-0.99436590261757374" />
        <Con id="27" src="7" tgt="11" wght="0.719000774435699" />
        <Con id="28" src="7" tgt="12" wght="-0.87822384014725685" />
        <Con id="29" src="8" tgt="11" wght="0.594091821461916" />
        <Con id="30" src="8" tgt="12" wght="-0.28841439168900251" />
        <Con id="31" src="9" tgt="11" wght="-0.46767311543226242" />
        <Con id="32" src="9" tgt="12" wght="-0.49560676235705614" />
        <Con id="33" src="10" tgt="11" wght="0.68081919942051172" />
        <Con id="34" src="10" tgt="12" wght="0.61770323012024164" />
      </Connections>
    </Network>
    <Network id="17" birthGen="0" fitness="0">
      <Nodes>
        <Node type="bias" id="0" />
        <Node type="in" id="1" />
        <Node type="in" id="2" />
        <Node type="in" id="3" />
        <Node type="in" id="4" />
        <Node type="in" id="5" />
        <Node type="in" id="6" />
        <Node type="in" id="7" />
        <Node type="in" id="8" />
        <Node type="in" id="9" />
        <Node type="in" id="10" />
        <Node type="out" id="11" />
        <Node type="out" id="12" />
      </Nodes>
      <Connections>
        <Con id="13" src="0" tgt="11" wght="-0.85191245842725039" />
        <Con id="14" src="0" tgt="12" wght="-0.76146888919174671" />
        <Con id="15" src="1" tgt="11" wght="0.64814903866499662" />
        <Con id="16" src="1" tgt="12" wght="-0.15293485298752785" />
        <Con id="17" src="2" tgt="11" wght="0.53326412755995989" />
        <Con id="18" src="2" tgt="12" wght="-0.905450664460659" />
        <Con id="19" src="3" tgt="11" wght="-0.889582134783268" />
        <Con id="20" src="3" tgt="12" wght="-0.77911896165460348" />
        <Con id="21" src="4" tgt="11" wght="0.21026096679270267" />
        <Con id="22" src="4" tgt="12" wght="0.63104023598134518" />
        <Con id="23" src="5" tgt="11" wght="-0.90111093781888485" />
        <Con id="24" src="5" tgt="12" wght="0.32251148018985987" />
        <Con id="25" src="6" tgt="11" wght="-0.68115272372961044" />
        <Con id="26" src="6" tgt="12" wght="0.45287219621241093" />
        <Con id="27" src="7" tgt="11" wght="0.14256508555263281" />
        <Con id="28" src="7" tgt="12" wght="0.792797265574336" />
        <Con id="29" src="8" tgt="11" wght="-0.36513465456664562" />
        <Con id="30" src="8" tgt="12" wght="-0.87199294380843639" />
        <Con id="31" src="9" tgt="11" wght="-0.834600224159658" />
        <Con id="32" src="9" tgt="12" wght="0.62285426259040833" />
        <Con id="33" src="10" tgt="11" wght="-0.097650052048265934" />
        <Con id="34" src="10" tgt="12" wght="0.79894520435482264" />
      </Connections>
    </Network>
    <Network id="18" birthGen="0" fitness="0">
      <Nodes>
        <Node type="bias" id="0" />
        <Node type="in" id="1" />
        <Node type="in" id="2" />
        <Node type="in" id="3" />
        <Node type="in" id="4" />
        <Node type="in" id="5" />
        <Node type="in" id="6" />
        <Node type="in" id="7" />
        <Node type="in" id="8" />
        <Node type="in" id="9" />
        <Node type="in" id="10" />
        <Node type="out" id="11" />
        <Node type="out" id="12" />
      </Nodes>
      <Connections>
        <Con id="13" src="0" tgt="11" wght="-0.33547527343034744" />
        <Con id="14" src="0" tgt="12" wght="-0.76664457097649574" />
        <Con id="15" src="1" tgt="11" wght="-0.43212262075394392" />
        <Con id="16" src="1" tgt="12" wght="0.60056730918586254" />
        <Con id="17" src="2" tgt="11" wght="-0.12930788286030293" />
        <Con id="18" src="2" tgt="12" wght="0.35890836734324694" />
        <Con id="19" src="3" tgt="11" wght="0.8590943356975913" />
        <Con id="20" src="3" tgt="12" wght="0.16676714830100536" />
        <Con id="21" src="4" tgt="11" wght="0.51557754911482334" />
        <Con id="22" src="4" tgt="12" wght="-0.02749025821685791" />
        <Con id="23" src="5" tgt="11" wght="0.6599242240190506" />
        <Con id="24" src="5" tgt="12" wght="-0.78489327244460583" />
        <Con id="25" src="6" tgt="11" wght="0.024246492423117161" />
        <Con id="26" src="6" tgt="12" wght="0.54871933907270432" />
        <Con id="27" src="7" tgt="11" wght="-0.93150464817881584" />
        <Con id="28" src="7" tgt="12" wght="-0.26760795339941978" />
        <Con id="29" src="8" tgt="11" wght="-0.410109993070364" />
        <Con id="30" src="8" tgt="12" wght="0.37677367217838764" />
        <Con id="31" src="9" tgt="11" wght="-0.97970858030021191" />
        <Con id="32" src="9" tgt="12" wght="-0.013504708185791969" />
        <Con id="33" src="10" tgt="11" wght="-0.45707162003964186" />
        <Con id="34" src="10" tgt="12" wght="-0.045677083544433117" />
      </Connections>
    </Network>
    <Network id="19" birthGen="0" fitness="0">
      <Nodes>
        <Node type="bias" id="0" />
        <Node type="in" id="1" />
        <Node type="in" id="2" />
        <Node type="in" id="3" />
        <Node type="in" id="4" />
        <Node type="in" id="5" />
        <Node type="in" id="6" />
        <Node type="in" id="7" />
        <Node type="in" id="8" />
        <Node type="in" id="9" />
        <Node type="in" id="10" />
        <Node type="out" id="11" />
        <Node type="out" id="12" />
      </Nodes>
      <Connections>
        <Con id="13" src="0" tgt="11" wght="-0.87128996849060059" />
        <Con id="14" src="0" tgt="12" wght="-0.13435456622391939" />
        <Con id="15" src="1" tgt="11" wght="-0.59446320682764053" />
        <Con id="16" src="1" tgt="12" wght="-0.041275834664702415" />
        <Con id="17" src="2" tgt="11" wght="-0.80973172280937433" />
        <Con id="18" src="2" tgt="12" wght="-0.32479670643806458" />
        <Con id="19" src="3" tgt="11" wght="0.14967893250286579" />
        <Con id="20" src="3" tgt="12" wght="-0.83250940591096878" />
        <Con id="21" src="4" tgt="11" wght="0.71351056639105082" />
        <Con id="22" src="4" tgt="12" wght="0.62506120093166828" />
        <Con id="23" src="5" tgt="11" wght="0.13420691806823015" />
        <Con id="24" src="5" tgt="12" wght="-0.22556044440716505" />
        <Con id="25" src="6" tgt="11" wght="0.68972478993237019" />
        <Con id="26" src="6" tgt="12" wght="0.33758544735610485" />
        <Con id="27" src="7" tgt="11" wght="0.91229733824729919" />
        <Con id="28" src="7" tgt="12" wght="-0.71312980074435472" />
        <Con id="29" src="8" tgt="11" wght="-0.49886129703372717" />
        <Con id="30" src="8" tgt="12" wght="0.784956912510097" />
        <Con id="31" src="9" tgt="11" wght="-0.558250367641449" />
        <Con id="32" src="9" tgt="12" wght="-0.58547614701092243" />
        <Con id="33" src="10" tgt="11" wght="0.7469099024310708" />
        <Con id="34" src="10" tgt="12" wght="-0.084062202833592892" />
      </Connections>
    </Network>
    <Network id="20" birthGen="0" fitness="0">
      <Nodes>
        <Node type="bias" id="0" />
        <Node type="in" id="1" />
        <Node type="in" id="2" />
        <Node type="in" id="3" />
        <Node type="in" id="4" />
        <Node type="in" id="5" />
        <Node type="in" id="6" />
        <Node type="in" id="7" />
        <Node type="in" id="8" />
        <Node type="in" id="9" />
        <Node type="in" id="10" />
        <Node type="out" id="11" />
        <Node type="out" id="12" />
      </Nodes>
      <Connections>
        <Con id="13" src="0" tgt="11" wght="-0.81792689301073551" />
        <Con id="14" src="0" tgt="12" wght="0.48464063741266727" />
        <Con id="15" src="1" tgt="11" wght="0.63841044530272484" />
        <Con id="16" src="1" tgt="12" wght="0.59676052629947662" />
        <Con id="17" src="2" tgt="11" wght="0.61538025084882975" />
        <Con id="18" src="2" tgt="12" wght="0.82760904636234045" />
        <Con id="19" src="3" tgt="11" wght="0.42955788969993591" />
        <Con id="20" src="3" tgt="12" wght="-0.7216661935672164" />
        <Con id="21" src="4" tgt="11" wght="0.95452768821269274" />
        <Con id="22" src="4" tgt="12" wght="-0.024437145330011845" />
        <Con id="23" src="5" tgt="11" wght="-0.85753319039940834" />
        <Con id="24" src="5" tgt="12" wght="-0.0164883891120553" />
        <Con id="25" src="6" tgt="11" wght="-0.38375134114176035" />
        <Con id="26" src="6" tgt="12" wght="0.55630770046263933" />
        <Con id="27" src="7" tgt="11" wght="0.22151797637343407" />
        <Con id="28" src="7" tgt="12" wght="0.70269143860787153" />
        <Con id="29" src="8" tgt="11" wght="0.88082030229270458" />
        <Con id="30" src="8" tgt="12" wght="0.74983982648700476" />
        <Con id="31" src="9" tgt="11" wght="-0.63451508618891239" />
        <Con id="32" src="9" tgt="12" wght="-0.59047974273562431" />
        <Con id="33" src="10" tgt="11" wght="-0.80510671343654394" />
        <Con id="34" src="10" tgt="12" wght="0.18842657934874296" />
      </Connections>
    </Network>
    <Network id="21" birthGen="0" fitness="0">
      <Nodes>
        <Node type="bias" id="0" />
        <Node type="in" id="1" />
        <Node type="in" id="2" />
        <Node type="in" id="3" />
        <Node type="in" id="4" />
        <Node type="in" id="5" />
        <Node type="in" id="6" />
        <Node type="in" id="7" />
        <Node type="in" id="8" />
        <Node type="in" id="9" />
        <Node type="in" id="10" />
        <Node type="out" id="11" />
        <Node type="out" id="12" />
      </Nodes>
      <Connections>
        <Con id="13" src="0" tgt="11" wght="-0.70437298435717821" />
        <Con id="14" src="0" tgt="12" wght="0.083638663403689861" />
        <Con id="15" src="1" tgt="11" wght="-0.506445774808526" />
        <Con id="16" src="1" tgt="12" wght="0.60412263683974743" />
        <Con id="17" src="2" tgt="11" wght="-0.18003368750214577" />
        <Con id="18" src="2" tgt="12" wght="0.87645662203431129" />
        <Con id="19" src="3" tgt="11" wght="0.11179276183247566" />
        <Con id="20" src="3" tgt="12" wght="0.37712312210351229" />
        <Con id="21" src="4" tgt="11" wght="0.74551715794950724" />
        <Con id="22" src="4" tgt="12" wght="-0.15311589650809765" />
        <Con id="23" src="5" tgt="11" wght="-0.60488651692867279" />
        <Con id="24" src="5" tgt="12" wght="0.82083220407366753" />
        <Con id="25" src="6" tgt="11" wght="-0.641885431483388" />
        <Con id="26" src="6" tgt="12" wght="0.98179028183221817" />
        <Con id="27" src="7" tgt="11" wght="0.043458675034344196" />
        <Con id="28" src="7" tgt="12" wght="0.057613802142441273" />
        <Con id="29" src="8" tgt="11" wght="0.65825612004846334" />
        <Con id="30" src="8" tgt="12" wght="0.77345734834671021" />
        <Con id="31" src="9" tgt="11" wght="0.32365780510008335" />
        <Con id="32" src="9" tgt="12" wght="-0.20766737777739763" />
        <Con id="33" src="10" tgt="11" wght="-0.45164491888135672" />
        <Con id="34" src="10" tgt="12" wght="0.89336790237575769" />
      </Connections>
    </Network>
    <Network id="22" birthGen="0" fitness="0">
      <Nodes>
        <Node type="bias" id="0" />
        <Node type="in" id="1" />
        <Node type="in" id="2" />
        <Node type="in" id="3" />
        <Node type="in" id="4" />
        <Node type="in" id="5" />
        <Node type="in" id="6" />
        <Node type="in" id="7" />
        <Node type="in" id="8" />
        <Node type="in" id="9" />
        <Node type="in" id="10" />
        <Node type="out" id="11" />
        <Node type="out" id="12" />
      </Nodes>
      <Connections>
        <Con id="13" src="0" tgt="11" wght="0.16069472394883633" />
        <Con id="14" src="0" tgt="12" wght="0.95305688586086035" />
        <Con id="15" src="1" tgt="11" wght="-0.89260166417807341" />
        <Con id="16" src="1" tgt="12" wght="-0.67149950005114079" />
        <Con id="17" src="2" tgt="11" wght="-0.896214104257524" />
        <Con id="18" src="2" tgt="12" wght="0.73887363635003567" />
        <Con id="19" src="3" tgt="11" wght="0.48663876112550497" />
        <Con id="20" src="3" tgt="12" wght="0.77952032350003719" />
        <Con id="21" src="4" tgt="11" wght="-0.8585261944681406" />
        <Con id="22" src="4" tgt="12" wght="-0.3499866770580411" />
        <Con id="23" src="5" tgt="11" wght="-0.015262922272086143" />
        <Con id="24" src="5" tgt="12" wght="0.68934293836355209" />
        <Con id="25" src="6" tgt="11" wght="-0.85063755419105291" />
        <Con id="26" src="6" tgt="12" wght="-0.98241287842392921" />
        <Con id="27" src="7" tgt="11" wght="-0.064445491880178452" />
        <Con id="28" src="7" tgt="12" wght="0.47634327504783869" />
        <Con id="29" src="8" tgt="11" wght="-0.78558870498090982" />
        <Con id="30" src="8" tgt="12" wght="-0.30649967398494482" />
        <Con id="31" src="9" tgt="11" wght="0.560836398974061" />
        <Con id="32" src="9" tgt="12" wght="-0.19007713720202446" />
        <Con id="33" src="10" tgt="11" wght="0.94452802184969187" />
        <Con id="34" src="10" tgt="12" wght="-0.74673246592283249" />
      </Connections>
    </Network>
    <Network id="23" birthGen="0" fitness="0">
      <Nodes>
        <Node type="bias" id="0" />
        <Node type="in" id="1" />
        <Node type="in" id="2" />
        <Node type="in" id="3" />
        <Node type="in" id="4" />
        <Node type="in" id="5" />
        <Node type="in" id="6" />
        <Node type="in" id="7" />
        <Node type="in" id="8" />
        <Node type="in" id="9" />
        <Node type="in" id="10" />
        <Node type="out" id="11" />
        <Node type="out" id="12" />
      </Nodes>
      <Connections>
        <Con id="13" src="0" tgt="11" wght="-0.87030856031924486" />
        <Con id="14" src="0" tgt="12" wght="-0.33174951560795307" />
        <Con id="15" src="1" tgt="11" wght="-0.22185969911515713" />
        <Con id="16" src="1" tgt="12" wght="-0.58609346020966768" />
        <Con id="17" src="2" tgt="11" wght="0.23415743932127953" />
        <Con id="18" src="2" tgt="12" wght="0.71455945447087288" />
        <Con id="19" src="3" tgt="11" wght="-0.17994486913084984" />
        <Con id="20" src="3" tgt="12" wght="-0.2674149377271533" />
        <Con id="21" src="4" tgt="11" wght="0.568869611248374" />
        <Con id="22" src="4" tgt="12" wght="-0.52029756642878056" />
        <Con id="23" src="5" tgt="11" wght="0.65444659069180489" />
        <Con id="24" src="5" tgt="12" wght="-0.59653874114155769" />
        <Con id="25" src="6" tgt="11" wght="0.14010319113731384" />
        <Con id="26" src="6" tgt="12" wght="-0.6397028611972928" />
        <Con id="27" src="7" tgt="11" wght="-0.67066049296408892" />
        <Con id="28" src="7" tgt="12" wght="0.66110726445913315" />
        <Con id="29" src="8" tgt="11" wght="0.16810768190771341" />
        <Con id="30" src="8" tgt="12" wght="0.9305949741974473" />
        <Con id="31" src="9" tgt="11" wght="0.085541837848722935" />
        <Con id="32" src="9" tgt="12" wght="-0.8760642958804965" />
        <Con id="33" src="10" tgt="11" wght="-0.54425706900656223" />
        <Con id="34" src="10" tgt="12" wght="-0.278720423579216" />
      </Connections>
    </Network>
    <Network id="24" birthGen="0" fitness="0">
      <Nodes>
        <Node type="bias" id="0" />
        <Node type="in" id="1" />
        <Node type="in" id="2" />
        <Node type="in" id="3" />
        <Node type="in" id="4" />
        <Node type="in" id="5" />
        <Node type="in" id="6" />
        <Node type="in" id="7" />
        <Node type="in" id="8" />
        <Node type="in" id="9" />
        <Node type="in" id="10" />
        <Node type="out" id="11" />
        <Node type="out" id="12" />
      </Nodes>
      <Connections>
        <Con id="13" src="0" tgt="11" wght="-0.72012232523411512" />
        <Con id="14" src="0" tgt="12" wght="-0.41806692257523537" />
        <Con id="15" src="1" tgt="11" wght="-0.91251964960247278" />
        <Con id="16" src="1" tgt="12" wght="0.31199438124895096" />
        <Con id="17" src="2" tgt="11" wght="-0.18685668986290693" />
        <Con id="18" src="2" tgt="12" wght="0.62710033543407917" />
        <Con id="19" src="3" tgt="11" wght="-0.45818391535431147" />
        <Con id="20" src="3" tgt="12" wght="0.13936547376215458" />
        <Con id="21" src="4" tgt="11" wght="0.088926667347550392" />
        <Con id="22" src="4" tgt="12" wght="-0.029147797264158726" />
        <Con id="23" src="5" tgt="11" wght="-0.43006494548171759" />
        <Con id="24" src="5" tgt="12" wght="0.25315246824175119" />
        <Con id="25" src="6" tgt="11" wght="0.040412981994450092" />
        <Con id="26" src="6" tgt="12" wght="0.47843420971184969" />
        <Con id="27" src="7" tgt="11" wght="0.1962085822597146" />
        <Con id="28" src="7" tgt="12" wght="0.46562805492430925" />
        <Con id="29" src="8" tgt="11" wght="0.92892771027982235" />
        <Con id="30" src="8" tgt="12" wght="0.3096189834177494" />
        <Con id="31" src="9" tgt="11" wght="-0.39991853106766939" />
        <Con id="32" src="9" tgt="12" wght="-0.055879773572087288" />
        <Con id="33" src="10" tgt="11" wght="0.80493155401200056" />
        <Con id="34" src="10" tgt="12" wght="0.65572357177734375" />
      </Connections>
    </Network>
    <Network id="25" birthGen="0" fitness="0">
      <Nodes>
        <Node type="bias" id="0" />
        <Node type="in" id="1" />
        <Node type="in" id="2" />
        <Node type="in" id="3" />
        <Node type="in" id="4" />
        <Node type="in" id="5" />
        <Node type="in" id="6" />
        <Node type="in" id="7" />
        <Node type="in" id="8" />
        <Node type="in" id="9" />
        <Node type="in" id="10" />
        <Node type="out" id="11" />
        <Node type="out" id="12" />
      </Nodes>
      <Connections>
        <Con id="13" src="0" tgt="11" wght="-0.91480232309550047" />
        <Con id="14" src="0" tgt="12" wght="0.67734674829989672" />
        <Con id="15" src="1" tgt="11" wght="0.61716931872069836" />
        <Con id="16" src="1" tgt="12" wght="0.40227395854890347" />
        <Con id="17" src="2" tgt="11" wght="-0.4337769728153944" />
        <Con id="18" src="2" tgt="12" wght="0.1999680744484067" />
        <Con id="19" src="3" tgt="11" wght="-0.91375419590622187" />
        <Con id="20" src="3" tgt="12" wght="-0.15292605012655258" />
        <Con id="21" src="4" tgt="11" wght="0.051174837164580822" />
        <Con id="22" src="4" tgt="12" wght="0.927201272919774" />
        <Con id="23" src="5" tgt="11" wght="-0.402821852825582" />
        <Con id="24" src="5" tgt="12" wght="-0.98551596235483885" />
        <Con id="25" src="6" tgt="11" wght="0.34910490829497576" />
        <Con id="26" src="6" tgt="12" wght="-0.807410161010921" />
        <Con id="27" src="7" tgt="11" wght="0.52023354265838861" />
        <Con id="28" src="7" tgt="12" wght="0.34584897849708796" />
        <Con id="29" src="8" tgt="11" wght="0.81945938523858786" />
        <Con id="30" src="8" tgt="12" wght="-0.8130261143669486" />
        <Con id="31" src="9" tgt="11" wght="0.026430534198880196" />
        <Con id="32" src="9" tgt="12" wght="-0.28629990480840206" />
        <Con id="33" src="10" tgt="11" wght="-0.7414728756994009" />
        <Con id="34" src="10" tgt="12" wght="-0.46832649037241936" />
      </Connections>
    </Network>
    <Network id="26" birthGen="0" fitness="0">
      <Nodes>
        <Node type="bias" id="0" />
        <Node type="in" id="1" />
        <Node type="in" id="2" />
        <Node type="in" id="3" />
        <Node type="in" id="4" />
        <Node type="in" id="5" />
        <Node type="in" id="6" />
        <Node type="in" id="7" />
        <Node type="in" id="8" />
        <Node type="in" id="9" />
        <Node type="in" id="10" />
        <Node type="out" id="11" />
        <Node type="out" id="12" />
      </Nodes>
      <Connections>
        <Con id="13" src="0" tgt="11" wght="0.25090140569955111" />
        <Con id="14" src="0" tgt="12" wght="0.2525070384144783" />
        <Con id="15" src="1" tgt="11" wght="-0.72478742804378271" />
        <Con id="16" src="1" tgt="12" wght="-0.78349138051271439" />
        <Con id="17" src="2" tgt="11" wght="-0.21171423140913248" />
        <Con id="18" src="2" tgt="12" wght="0.80151764862239361" />
        <Con id="19" src="3" tgt="11" wght="-0.53112827520817518" />
        <Con id="20" src="3" tgt="12" wght="0.43201508931815624" />
        <Con id="21" src="4" tgt="11" wght="-0.40747153572738171" />
        <Con id="22" src="4" tgt="12" wght="-0.14577755238860846" />
        <Con id="23" src="5" tgt="11" wght="0.95200806576758623" />
        <Con id="24" src="5" tgt="12" wght="0.07429939229041338" />
        <Con id="25" src="6" tgt="11" wght="0.12726923264563084" />
        <Con id="26" src="6" tgt="12" wght="-0.3942116592079401" />
        <Con id="27" src="7" tgt="11" wght="-0.94694993831217289" />
        <Con id="28" src="7" tgt="12" wght="0.13321757968515158" />
        <Con id="29" src="8" tgt="11" wght="0.68668000306934118" />
        <Con id="30" src="8" tgt="12" wght="0.43042597360908985" />
        <Con id="31" src="9" tgt="11" wght="0.81796574685722589" />
        <Con id="32" src="9" tgt="12" wght="0.4078499237075448" />
        <Con id="33" src="10" tgt="11" wght="-0.45692926738411188" />
        <Con id="34" src="10" tgt="12" wght="0.54157343227416277" />
      </Connections>
    </Network>
    <Network id="27" birthGen="0" fitness="0">
      <Nodes>
        <Node type="bias" id="0" />
        <Node type="in" id="1" />
        <Node type="in" id="2" />
        <Node type="in" id="3" />
        <Node type="in" id="4" />
        <Node type="in" id="5" />
        <Node type="in" id="6" />
        <Node type="in" id="7" />
        <Node type="in" id="8" />
        <Node type="in" id="9" />
        <Node type="in" id="10" />
        <Node type="out" id="11" />
        <Node type="out" id="12" />
      </Nodes>
      <Connections>
        <Con id="13" src="0" tgt="11" wght="0.10093184281140566" />
        <Con id="14" src="0" tgt="12" wght="0.6193892527371645" />
        <Con id="15" src="1" tgt="11" wght="0.19290947914123535" />
        <Con id="16" src="1" tgt="12" wght="-0.29987916443496943" />
        <Con id="17" src="2" tgt="11" wght="0.93767259269952774" />
        <Con id="18" src="2" tgt="12" wght="-0.066853965632617474" />
        <Con id="19" src="3" tgt="11" wght="-0.84635928925126791" />
        <Con id="20" src="3" tgt="12" wght="0.10672004893422127" />
        <Con id="21" src="4" tgt="11" wght="-0.64250899199396372" />
        <Con id="22" src="4" tgt="12" wght="-0.98235318064689636" />
        <Con id="23" src="5" tgt="11" wght="-0.50141140818595886" />
        <Con id="24" src="5" tgt="12" wght="-0.95961568038910627" />
        <Con id="25" src="6" tgt="11" wght="0.55677362345159054" />
        <Con id="26" src="6" tgt="12" wght="-0.81622381322085857" />
        <Con id="27" src="7" tgt="11" wght="-0.5505554499104619" />
        <Con id="28" src="7" tgt="12" wght="-0.425183717161417" />
        <Con id="29" src="8" tgt="11" wght="0.54746997728943825" />
        <Con id="30" src="8" tgt="12" wght="0.11229372769594193" />
        <Con id="31" src="9" tgt="11" wght="-0.6415714044123888" />
        <Con id="32" src="9" tgt="12" wght="-0.66246004961431026" />
        <Con id="33" src="10" tgt="11" wght="0.98821407184004784" />
        <Con id="34" src="10" tgt="12" wght="0.98941924050450325" />
      </Connections>
    </Network>
    <Network id="28" birthGen="0" fitness="0">
      <Nodes>
        <Node type="bias" id="0" />
        <Node type="in" id="1" />
        <Node type="in" id="2" />
        <Node type="in" id="3" />
        <Node type="in" id="4" />
        <Node type="in" id="5" />
        <Node type="in" id="6" />
        <Node type="in" id="7" />
        <Node type="in" id="8" />
        <Node type="in" id="9" />
        <Node type="in" id="10" />
        <Node type="out" id="11" />
        <Node type="out" id="12" />
      </Nodes>
      <Connections>
        <Con id="13" src="0" tgt="11" wght="-0.11336975824087858" />
        <Con id="14" src="0" tgt="12" wght="0.987595840357244" />
        <Con id="15" src="1" tgt="11" wght="0.21060885116457939" />
        <Con id="16" src="1" tgt="12" wght="-0.8181358128786087" />
        <Con id="17" src="2" tgt="11" wght="-0.70775845553725958" />
        <Con id="18" src="2" tgt="12" wght="-0.86227848567068577" />
        <Con id="19" src="3" tgt="11" wght="0.661064038053155" />
        <Con id="20" src="3" tgt="12" wght="-0.194677016697824" />
        <Con id="21" src="4" tgt="11" wght="-0.71081193909049034" />
        <Con id="22" src="4" tgt="12" wght="0.11570334434509277" />
        <Con id="23" src="5" tgt="11" wght="-0.53763781674206257" />
        <Con id="24" src="5" tgt="12" wght="0.52045253571122885" />
        <Con id="25" src="6" tgt="11" wght="-0.97760194353759289" />
        <Con id="26" src="6" tgt="12" wght="-0.53568921703845263" />
        <Con id="27" src="7" tgt="11" wght="0.40052840299904346" />
        <Con id="28" src="7" tgt="12" wght="-0.94013237301260233" />
        <Con id="29" src="8" tgt="11" wght="0.31277153734117746" />
        <Con id="30" src="8" tgt="12" wght="-0.42426891159266233" />
        <Con id="31" src="9" tgt="11" wght="-0.50960595346987247" />
        <Con id="32" src="9" tgt="12" wght="0.56923240981996059" />
        <Con id="33" src="10" tgt="11" wght="0.61638922896236181" />
        <Con id="34" src="10" tgt="12" wght="0.96687151025980711" />
      </Connections>
    </Network>
    <Network id="29" birthGen="0" fitness="0">
      <Nodes>
        <Node type="bias" id="0" />
        <Node type="in" id="1" />
        <Node type="in" id="2" />
        <Node type="in" id="3" />
        <Node type="in" id="4" />
        <Node type="in" id="5" />
        <Node type="in" id="6" />
        <Node type="in" id="7" />
        <Node type="in" id="8" />
        <Node type="in" id="9" />
        <Node type="in" id="10" />
        <Node type="out" id="11" />
        <Node type="out" id="12" />
      </Nodes>
      <Connections>
        <Con id="13" src="0" tgt="11" wght="-0.030370414257049561" />
        <Con id="14" src="0" tgt="12" wght="-0.59783805161714554" />
        <Con id="15" src="1" tgt="11" wght="0.44828689843416214" />
        <Con id="16" src="1" tgt="12" wght="0.45942419394850731" />
        <Con id="17" src="2" tgt="11" wght="0.24079447612166405" />
        <Con id="18" src="2" tgt="12" wght="0.093162893317639828" />
        <Con id="19" src="3" tgt="11" wght="0.56390096619725227" />
        <Con id="20" src="3" tgt="12" wght="-0.091234700754284859" />
        <Con id="21" src="4" tgt="11" wght="0.046382268890738487" />
        <Con id="22" src="4" tgt="12" wght="0.77580559905618429" />
        <Con id="23" src="5" tgt="11" wght="0.006783265620470047" />
        <Con id="24" src="5" tgt="12" wght="-0.46465278882533312" />
        <Con id="25" src="6" tgt="11" wght="0.53952712193131447" />
        <Con id="26" src="6" tgt="12" wght="0.86914432235062122" />
        <Con id="27" src="7" tgt="11" wght="0.26897598803043365" />
        <Con id="28" src="7" tgt="12" wght="0.92535439040511847" />
        <Con id="29" src="8" tgt="11" wght="0.73769675940275192" />
        <Con id="30" src="8" tgt="12" wght="-0.39665253926068544" />
        <Con id="31" src="9" tgt="11" wght="-0.06725770141929388" />
        <Con id="32" src="9" tgt="12" wght="-0.47946556564420462" />
        <Con id="33" src="10" tgt="11" wght="-0.73792491015046835" />
        <Con id="34" src="10" tgt="12" wght="0.51709652971476316" />
      </Connections>
    </Network>
    <Network id="30" birthGen="0" fitness="0">
      <Nodes>
        <Node type="bias" id="0" />
        <Node type="in" id="1" />
        <Node type="in" id="2" />
        <Node type="in" id="3" />
        <Node type="in" id="4" />
        <Node type="in" id="5" />
        <Node type="in" id="6" />
        <Node type="in" id="7" />
        <Node type="in" id="8" />
        <Node type="in" id="9" />
        <Node type="in" id="10" />
        <Node type="out" id="11" />
        <Node type="out" id="12" />
      </Nodes>
      <Connections>
        <Con id="13" src="0" tgt="11" wght="0.40824062097817659" />
        <Con id="14" src="0" tgt="12" wght="0.83548904210329056" />
        <Con id="15" src="1" tgt="11" wght="-0.64716266188770533" />
        <Con id="16" src="1" tgt="12" wght="0.056322843767702579" />
        <Con id="17" src="2" tgt="11" wght="0.79164456482976675" />
        <Con id="18" src="2" tgt="12" wght="-0.698610951192677" />
        <Con id="19" src="3" tgt="11" wght="0.83678540866822" />
        <Con id="20" src="3" tgt="12" wght="0.21625923737883568" />
        <Con id="21" src="4" tgt="11" wght="-0.5915936641395092" />
        <Con id="22" src="4" tgt="12" wght="-0.83816481474787" />
        <Con id="23" src="5" tgt="11" wght="-0.89093798771500587" />
        <Con id="24" src="5" tgt="12" wght="-0.39836528990417719" />
        <Con id="25" src="6" tgt="11" wght="0.3750709630548954" />
        <Con id="26" src="6" tgt="12" wght="0.92371269688010216" />
        <Con id="27" src="7" tgt="11" wght="-0.40430071856826544" />
        <Con id="28" src="7" tgt="12" wght="0.97650159895420074" />
        <Con id="29" src="8" tgt="11" wght="-0.21543300524353981" />
        <Con id="30" src="8" tgt="12" wght="0.38282943144440651" />
        <Con id="31" src="9" tgt="11" wght="-0.55770536325871944" />
        <Con id="32" src="9" tgt="12" wght="-0.30088893882930279" />
        <Con id="33" src="10" tgt="11" wght="0.68149367161095142" />
        <Con id="34" src="10" tgt="12" wght="-0.72800154332071543" />
      </Connections>
    </Network>
    <Network id="31" birthGen="0" fitness="0">
      <Nodes>
        <Node type="bias" id="0" />
        <Node type="in" id="1" />
        <Node type="in" id="2" />
        <Node type="in" id="3" />
        <Node type="in" id="4" />
        <Node type="in" id="5" />
        <Node type="in" id="6" />
        <Node type="in" id="7" />
        <Node type="in" id="8" />
        <Node type="in" id="9" />
        <Node type="in" id="10" />
        <Node type="out" id="11" />
        <Node type="out" id="12" />
      </Nodes>
      <Connections>
        <Con id="13" src="0" tgt="11" wght="-0.659186621196568" />
        <Con id="14" src="0" tgt="12" wght="-0.87573151290416718" />
        <Con id="15" src="1" tgt="11" wght="-0.80882224719971418" />
        <Con id="16" src="1" tgt="12" wght="0.29065120778977871" />
        <Con id="17" src="2" tgt="11" wght="0.90205719415098429" />
        <Con id="18" src="2" tgt="12" wght="-0.80751090496778488" />
        <Con id="19" src="3" tgt="11" wght="0.996982978656888" />
        <Con id="20" src="3" tgt="12" wght="0.10799363162368536" />
        <Con id="21" src="4" tgt="11" wght="-0.85227074660360813" />
        <Con id="22" src="4" tgt="12" wght="0.39021195005625486" />
        <Con id="23" src="5" tgt="11" wght="-0.98296710010617971" />
        <Con id="24" src="5" tgt="12" wght="0.12985618505626917" />
        <Con id="25" src="6" tgt="11" wght="0.99538354389369488" />
        <Con id="26" src="6" tgt="12" wght="0.39818184077739716" />
        <Con id="27" src="7" tgt="11" wght="0.96588621940463781" />
        <Con id="28" src="7" tgt="12" wght="-0.88567399885505438" />
        <Con id="29" src="8" tgt="11" wght="-0.81434700917452574" />
        <Con id="30" src="8" tgt="12" wght="-0.14601287245750427" />
        <Con id="31" src="9" tgt="11" wght="0.14501193165779114" />
        <Con id="32" src="9" tgt="12" wght="-0.82318741362541914" />
        <Con id="33" src="10" tgt="11" wght="-0.12253200635313988" />
        <Con id="34" src="10" tgt="12" wght="-0.46263906080275774" />
      </Connections>
    </Network>
    <Network id="32" birthGen="0" fitness="0">
      <Nodes>
        <Node type="bias" id="0" />
        <Node type="in" id="1" />
        <Node type="in" id="2" />
        <Node type="in" id="3" />
        <Node type="in" id="4" />
        <Node type="in" id="5" />
        <Node type="in" id="6" />
        <Node type="in" id="7" />
        <Node type="in" id="8" />
        <Node type="in" id="9" />
        <Node type="in" id="10" />
        <Node type="out" id="11" />
        <Node type="out" id="12" />
      </Nodes>
      <Connections>
        <Con id="13" src="0" tgt="11" wght="0.95860326569527388" />
        <Con id="14" src="0" tgt="12" wght="0.73143001273274422" />
        <Con id="15" src="1" tgt="11" wght="-0.67043528705835342" />
        <Con id="16" src="1" tgt="12" wght="0.44196318462491035" />
        <Con id="17" src="2" tgt="11" wght="-0.2180885961279273" />
        <Con id="18" src="2" tgt="12" wght="0.96090817078948021" />
        <Con id="19" src="3" tgt="11" wght="0.11360238678753376" />
        <Con id="20" src="3" tgt="12" wght="0.45564230438321829" />
        <Con id="21" src="4" tgt="11" wght="0.33948317915201187" />
        <Con id="22" src="4" tgt="12" wght="0.21218279283493757" />
        <Con id="23" src="5" tgt="11" wght="0.17145308572798967" />
        <Con id="24" src="5" tgt="12" wght="0.48175591044127941" />
        <Con id="25" src="6" tgt="11" wght="-0.78888063505291939" />
        <Con id="26" src="6" tgt="12" wght="0.40399975422769785" />
        <Con id="27" src="7" tgt="11" wght="-0.37850892078131437" />
        <Con id="28" src="7" tgt="12" wght="0.064229540526866913" />
        <Con id="29" src="8" tgt="11" wght="0.035589759238064289" />
        <Con id="30" src="8" tgt="12" wght="0.646332286298275" />
        <Con id="31" src="9" tgt="11" wght="0.44706553872674704" />
        <Con id="32" src="9" tgt="12" wght="-0.26410218048840761" />
        <Con id="33" src="10" tgt="11" wght="-0.31971339695155621" />
        <Con id="34" src="10" tgt="12" wght="-0.33881158102303743" />
      </Connections>
    </Network>
    <Network id="33" birthGen="0" fitness="0">
      <Nodes>
        <Node type="bias" id="0" />
        <Node type="in" id="1" />
        <Node type="in" id="2" />
        <Node type="in" id="3" />
        <Node type="in" id="4" />
        <Node type="in" id="5" />
        <Node type="in" id="6" />
        <Node type="in" id="7" />
        <Node type="in" id="8" />
        <Node type="in" id="9" />
        <Node type="in" id="10" />
        <Node type="out" id="11" />
        <Node type="out" id="12" />
      </Nodes>
      <Connections>
        <Con id="13" src="0" tgt="11" wght="-0.13914123829454184" />
        <Con id="14" src="0" tgt="12" wght="-0.92445637099444866" />
        <Con id="15" src="1" tgt="11" wght="-0.79434266500175" />
        <Con id="16" src="1" tgt="12" wght="0.8788206810131669" />
        <Con id="17" src="2" tgt="11" wght="0.88288444373756647" />
        <Con id="18" src="2" tgt="12" wght="-0.88921290636062622" />
        <Con id="19" src="3" tgt="11" wght="-0.442543288692832" />
        <Con id="20" src="3" tgt="12" wght="0.89606453012675047" />
        <Con id="21" src="4" tgt="11" wght="0.93330041319131851" />
        <Con id="22" src="4" tgt="12" wght="0.65453371871262789" />
        <Con id="23" src="5" tgt="11" wght="0.60468776896595955" />
        <Con id="24" src="5" tgt="12" wght="0.34713039081543684" />
        <Con id="25" src="6" tgt="11" wght="-0.820650433190167" />
        <Con id="26" src="6" tgt="12" wght="-0.25932037271559238" />
        <Con id="27" src="7" tgt="11" wght="-0.16764352656900883" />
        <Con id="28" src="7" tgt="12" wght="-0.05717195849865675" />
        <Con id="29" src="8" tgt="11" wght="-0.66332764830440283" />
        <Con id="30" src="8" tgt="12" wght="-0.18983526155352592" />
        <Con id="31" src="9" tgt="11" wght="0.97723707370460033" />
        <Con id="32" src="9" tgt="12" wght="0.48398083169013262" />
        <Con id="33" src="10" tgt="11" wght="0.44875567127019167" />
        <Con id="34" src="10" tgt="12" wght="-0.31742575950920582" />
      </Connections>
    </Network>
    <Network id="34" birthGen="0" fitness="0">
      <Nodes>
        <Node type="bias" id="0" />
        <Node type="in" id="1" />
        <Node type="in" id="2" />
        <Node type="in" id="3" />
        <Node type="in" id="4" />
        <Node type="in" id="5" />
        <Node type="in" id="6" />
        <Node type="in" id="7" />
        <Node type="in" id="8" />
        <Node type="in" id="9" />
        <Node type="in" id="10" />
        <Node type="out" id="11" />
        <Node type="out" id="12" />
      </Nodes>
      <Connections>
        <Con id="13" src="0" tgt="11" wght="0.58812204282730818" />
        <Con id="14" src="0" tgt="12" wght="0.43060887418687344" />
        <Con id="15" src="1" tgt="11" wght="0.034632026217877865" />
        <Con id="16" src="1" tgt="12" wght="-0.79821941442787647" />
        <Con id="17" src="2" tgt="11" wght="-0.61052420735359192" />
        <Con id="18" src="2" tgt="12" wght="0.57700190134346485" />
        <Con id="19" src="3" tgt="11" wght="0.33100444637238979" />
        <Con id="20" src="3" tgt="12" wght="-0.94325974211096764" />
        <Con id="21" src="4" tgt="11" wght="0.4925960386171937" />
        <Con id="22" src="4" tgt="12" wght="0.54631869122385979" />
        <Con id="23" src="5" tgt="11" wght="-0.052075083367526531" />
        <Con id="24" src="5" tgt="12" wght="0.48424819298088551" />
        <Con id="25" src="6" tgt="11" wght="-0.51155245490372181" />
        <Con id="26" src="6" tgt="12" wght="-0.962945343926549" />
        <Con id="27" src="7" tgt="11" wght="-0.42898525949567556" />
        <Con id="28" src="7" tgt="12" wght="0.79846230801194906" />
        <Con id="29" src="8" tgt="11" wght="-0.24867457803338766" />
        <Con id="30" src="8" tgt="12" wght="0.51578628271818161" />
        <Con id="31" src="9" tgt="11" wght="-0.745874622836709" />
        <Con id="32" src="9" tgt="12" wght="-0.8221229575574398" />
        <Con id="33" src="10" tgt="11" wght="0.718819466419518" />
        <Con id="34" src="10" tgt="12" wght="-0.86151997558772564" />
      </Connections>
    </Network>
    <Network id="35" birthGen="0" fitness="0">
      <Nodes>
        <Node type="bias" id="0" />
        <Node type="in" id="1" />
        <Node type="in" id="2" />
        <Node type="in" id="3" />
        <Node type="in" id="4" />
        <Node type="in" id="5" />
        <Node type="in" id="6" />
        <Node type="in" id="7" />
        <Node type="in" id="8" />
        <Node type="in" id="9" />
        <Node type="in" id="10" />
        <Node type="out" id="11" />
        <Node type="out" id="12" />
      </Nodes>
      <Connections>
        <Con id="13" src="0" tgt="11" wght="-0.21783839073032141" />
        <Con id="14" src="0" tgt="12" wght="-0.3118913322687149" />
        <Con id="15" src="1" tgt="11" wght="0.23483931645751" />
        <Con id="16" src="1" tgt="12" wght="-0.54943953361362219" />
        <Con id="17" src="2" tgt="11" wght="0.32822645548731089" />
        <Con id="18" src="2" tgt="12" wght="-0.82878404948860407" />
        <Con id="19" src="3" tgt="11" wght="0.52769294753670692" />
        <Con id="20" src="3" tgt="12" wght="0.96729708462953568" />
        <Con id="21" src="4" tgt="11" wght="-0.046917052939534187" />
        <Con id="22" src="4" tgt="12" wght="0.56579302623867989" />
        <Con id="23" src="5" tgt="11" wght="0.65614859573543072" />
        <Con id="24" src="5" tgt="12" wght="0.0521086398512125" />
        <Con id="25" src="6" tgt="11" wght="-0.1532480688765645" />
        <Con id="26" src="6" tgt="12" wght="-0.57180842012166977" />
        <Con id="27" src="7" tgt="11" wght="0.32986906915903091" />
        <Con id="28" src="7" tgt="12" wght="-0.54288010019809008" />
        <Con id="29" src="8" tgt="11" wght="0.18944229558110237" />
        <Con id="30" src="8" tgt="12" wght="-0.63617728091776371" />
        <Con id="31" src="9" tgt="11" wght="-0.34578916244208813" />
        <Con id="32" src="9" tgt="12" wght="-0.42268719337880611" />
        <Con id="33" src="10" tgt="11" wght="0.62944594584405422" />
        <Con id="34" src="10" tgt="12" wght="0.27428480796515942" />
      </Connections>
    </Network>
    <Network id="36" birthGen="0" fitness="0">
      <Nodes>
        <Node type="bias" id="0" />
        <Node type="in" id="1" />
        <Node type="in" id="2" />
        <Node type="in" id="3" />
        <Node type="in" id="4" />
        <Node type="in" id="5" />
        <Node type="in" id="6" />
        <Node type="in" id="7" />
        <Node type="in" id="8" />
        <Node type="in" id="9" />
        <Node type="in" id="10" />
        <Node type="out" id="11" />
        <Node type="out" id="12" />
      </Nodes>
      <Connections>
        <Con id="13" src="0" tgt="11" wght="-0.19716138299554586" />
        <Con id="14" src="0" tgt="12" wght="-0.70532645657658577" />
        <Con id="15" src="1" tgt="11" wght="0.54526037164032459" />
        <Con id="16" src="1" tgt="12" wght="0.8841824708506465" />
        <Con id="17" src="2" tgt="11" wght="-0.70173147972673178" />
        <Con id="18" src="2" tgt="12" wght="-0.955010405741632" />
        <Con id="19" src="3" tgt="11" wght="-0.37057156022638083" />
        <Con id="20" src="3" tgt="12" wght="0.15877834241837263" />
        <Con id="21" src="4" tgt="11" wght="0.72301603853702545" />
        <Con id="22" src="4" tgt="12" wght="-0.16769644618034363" />
        <Con id="23" src="5" tgt="11" wght="0.4504917161539197" />
        <Con id="24" src="5" tgt="12" wght="0.76036328449845314" />
        <Con id="25" src="6" tgt="11" wght="-0.64916239678859711" />
        <Con id="26" src="6" tgt="12" wght="-0.41392830107361078" />
        <Con id="27" src="7" tgt="11" wght="0.6317604947835207" />
        <Con id="28" src="7" tgt="12" wght="0.82668323069810867" />
        <Con id="29" src="8" tgt="11" wght="-0.532776671461761" />
        <Con id="30" src="8" tgt="12" wght="-0.93385781906545162" />
        <Con id="31" src="9" tgt="11" wght="0.43073552474379539" />
        <Con id="32" src="9" tgt="12" wght="-0.48920619394630194" />
        <Con id="33" src="10" tgt="11" wght="0.665208931080997" />
        <Con id="34" src="10" tgt="12" wght="-0.34909548703581095" />
      </Connections>
    </Network>
    <Network id="37" birthGen="0" fitness="0">
      <Nodes>
        <Node type="bias" id="0" />
        <Node type="in" id="1" />
        <Node type="in" id="2" />
        <Node type="in" id="3" />
        <Node type="in" id="4" />
        <Node type="in" id="5" />
        <Node type="in" id="6" />
        <Node type="in" id="7" />
        <Node type="in" id="8" />
        <Node type="in" id="9" />
        <Node type="in" id="10" />
        <Node type="out" id="11" />
        <Node type="out" id="12" />
      </Nodes>
      <Connections>
        <Con id="13" src="0" tgt="11" wght="-0.74882345367223024" />
        <Con id="14" src="0" tgt="12" wght="0.15221573784947395" />
        <Con id="15" src="1" tgt="11" wght="0.21697981096804142" />
        <Con id="16" src="1" tgt="12" wght="-0.9942848477512598" />
        <Con id="17" src="2" tgt="11" wght="-0.6805427772924304" />
        <Con id="18" src="2" tgt="12" wght="-0.8938734233379364" />
        <Con id="19" src="3" tgt="11" wght="0.707028103992343" />
        <Con id="20" src="3" tgt="12" wght="-0.091567172668874264" />
        <Con id="21" src="4" tgt="11" wght="0.67585483659058809" />
        <Con id="22" src="4" tgt="12" wght="-0.30166620016098022" />
        <Con id="23" src="5" tgt="11" wght="0.95768205914646387" />
        <Con id="24" src="5" tgt="12" wght="-0.76927889976650476" />
        <Con id="25" src="6" tgt="11" wght="0.36789310444146395" />
        <Con id="26" src="6" tgt="12" wght="-0.95461859833449125" />
        <Con id="27" src="7" tgt="11" wght="-0.80627501662820578" />
        <Con id="28" src="7" tgt="12" wght="-0.29043364990502596" />
        <Con id="29" src="8" tgt="11" wght="0.5059480220079422" />
        <Con id="30" src="8" tgt="12" wght="0.60579847637563944" />
        <Con id="31" src="9" tgt="11" wght="-0.61845865659415722" />
        <Con id="32" src="9" tgt="12" wght="-0.84986326564103365" />
        <Con id="33" src="10" tgt="11" wght="-0.30524558667093515" />
        <Con id="34" src="10" tgt="12" wght="-0.36801134794950485" />
      </Connections>
    </Network>
    <Network id="38" birthGen="0" fitness="0">
      <Nodes>
        <Node type="bias" id="0" />
        <Node type="in" id="1" />
        <Node type="in" id="2" />
        <Node type="in" id="3" />
        <Node type="in" id="4" />
        <Node type="in" id="5" />
        <Node type="in" id="6" />
        <Node type="in" id="7" />
        <Node type="in" id="8" />
        <Node type="in" id="9" />
        <Node type="in" id="10" />
        <Node type="out" id="11" />
        <Node type="out" id="12" />
      </Nodes>
      <Connections>
        <Con id="13" src="0" tgt="11" wght="-0.670505790039897" />
        <Con id="14" src="0" tgt="12" wght="-0.71116987429559231" />
        <Con id="15" src="1" tgt="11" wght="-0.0071882493793964386" />
        <Con id="16" src="1" tgt="12" wght="0.073921720497310162" />
        <Con id="17" src="2" tgt="11" wght="-0.13967235665768385" />
        <Con id="18" src="2" tgt="12" wght="0.95078375097364187" />
        <Con id="19" src="3" tgt="11" wght="-0.42391599528491497" />
        <Con id="20" src="3" tgt="12" wght="0.74610219243913889" />
        <Con id="21" src="4" tgt="11" wght="-0.19388314243406057" />
        <Con id="22" src="4" tgt="12" wght="0.98835882823914289" />
        <Con id="23" src="5" tgt="11" wght="-0.14251602720469236" />
        <Con id="24" src="5" tgt="12" wght="0.6097914008423686" />
        <Con id="25" src="6" tgt="11" wght="0.40503622964024544" />
        <Con id="26" src="6" tgt="12" wght="0.81366655509918928" />
        <Con id="27" src="7" tgt="11" wght="0.027169303968548775" />
        <Con id="28" src="7" tgt="12" wght="0.65866323374211788" />
        <Con id="29" src="8" tgt="11" wght="0.032267199829220772" />
        <Con id="30" src="8" tgt="12" wght="-0.72213219851255417" />
        <Con id="31" src="9" tgt="11" wght="-0.82628559414297342" />
        <Con id="32" src="9" tgt="12" wght="-0.75996870640665293" />
        <Con id="33" src="10" tgt="11" wght="0.53018009196966887" />
        <Con id="34" src="10" tgt="12" wght="0.580577302724123" />
      </Connections>
    </Network>
    <Network id="39" birthGen="0" fitness="0">
      <Nodes>
        <Node type="bias" id="0" />
        <Node type="in" id="1" />
        <Node type="in" id="2" />
        <Node type="in" id="3" />
        <Node type="in" id="4" />
        <Node type="in" id="5" />
        <Node type="in" id="6" />
        <Node type="in" id="7" />
        <Node type="in" id="8" />
        <Node type="in" id="9" />
        <Node type="in" id="10" />
        <Node type="out" id="11" />
        <Node type="out" id="12" />
      </Nodes>
      <Connections>
        <Con id="13" src="0" tgt="11" wght="-0.59087336622178555" />
        <Con id="14" src="0" tgt="12" wght="-0.020402596332132816" />
        <Con id="15" src="1" tgt="11" wght="-0.7324960408732295" />
        <Con id="16" src="1" tgt="12" wght="0.055097778327763081" />
        <Con id="17" src="2" tgt="11" wght="0.075145083479583263" />
        <Con id="18" src="2" tgt="12" wght="0.5269817877560854" />
        <Con id="19" src="3" tgt="11" wght="0.31432123947888613" />
        <Con id="20" src="3" tgt="12" wght="0.58500336203724146" />
        <Con id="21" src="4" tgt="11" wght="0.33497556112706661" />
        <Con id="22" src="4" tgt="12" wght="-0.45700292754918337" />
        <Con id="23" src="5" tgt="11" wght="-0.8042770167812705" />
        <Con id="24" src="5" tgt="12" wght="-0.53198189660906792" />
        <Con id="25" src="6" tgt="11" wght="0.68764054030179977" />
        <Con id="26" src="6" tgt="12" wght="-0.92812175303697586" />
        <Con id="27" src="7" tgt="11" wght="-0.13567462936043739" />
        <Con id="28" src="7" tgt="12" wght="0.78668576944619417" />
        <Con id="29" src="8" tgt="11" wght="-0.64583146944642067" />
        <Con id="30" src="8" tgt="12" wght="0.3892053896561265" />
        <Con id="31" src="9" tgt="11" wght="0.68905329145491123" />
        <Con id="32" src="9" tgt="12" wght="0.58743119705468416" />
        <Con id="33" src="10" tgt="11" wght="0.25821878854185343" />
        <Con id="34" src="10" tgt="12" wght="0.89205225929617882" />
      </Connections>
    </Network>
    <Network id="40" birthGen="0" fitness="0">
      <Nodes>
        <Node type="bias" id="0" />
        <Node type="in" id="1" />
        <Node type="in" id="2" />
        <Node type="in" id="3" />
        <Node type="in" id="4" />
        <Node type="in" id="5" />
        <Node type="in" id="6" />
        <Node type="in" id="7" />
        <Node type="in" id="8" />
        <Node type="in" id="9" />
        <Node type="in" id="10" />
        <Node type="out" id="11" />
        <Node type="out" id="12" />
      </Nodes>
      <Connections>
        <Con id="13" src="0" tgt="11" wght="0.89824783336371183" />
        <Con id="14" src="0" tgt="12" wght="-0.17041079327464104" />
        <Con id="15" src="1" tgt="11" wght="-0.72280480805784464" />
        <Con id="16" src="1" tgt="12" wght="-0.52785700373351574" />
        <Con id="17" src="2" tgt="11" wght="-0.47864626068621874" />
        <Con id="18" src="2" tgt="12" wght="0.81766184885054827" />
        <Con id="19" src="3" tgt="11" wght="-0.0034810323268175125" />
        <Con id="20" src="3" tgt="12" wght="0.69556487817317247" />
        <Con id="21" src="4" tgt="11" wght="-0.9282218599691987" />
        <Con id="22" src="4" tgt="12" wght="-0.3197685219347477" />
        <Con id="23" src="5" tgt="11" wght="0.93417462427169085" />
        <Con id="24" src="5" tgt="12" wght="-0.44649933092296124" />
        <Con id="25" src="6" tgt="11" wght="0.40485830046236515" />
        <Con id="26" src="6" tgt="12" wght="-0.063968355767428875" />
        <Con id="27" src="7" tgt="11" wght="-0.017235313542187214" />
        <Con id="28" src="7" tgt="12" wght="-0.65617012139409781" />
        <Con id="29" src="8" tgt="11" wght="0.80031222105026245" />
        <Con id="30" src="8" tgt="12" wght="0.47137632220983505" />
        <Con id="31" src="9" tgt="11" wght="-0.32231591548770666" />
        <Con id="32" src="9" tgt="12" wght="-0.201992928981781" />
        <Con id="33" src="10" tgt="11" wght="0.657588854432106" />
        <Con id="34" src="10" tgt="12" wght="0.95442563761025667" />
      </Connections>
    </Network>
    <Network id="41" birthGen="0" fitness="0">
      <Nodes>
        <Node type="bias" id="0" />
        <Node type="in" id="1" />
        <Node type="in" id="2" />
        <Node type="in" id="3" />
        <Node type="in" id="4" />
        <Node type="in" id="5" />
        <Node type="in" id="6" />
        <Node type="in" id="7" />
        <Node type="in" id="8" />
        <Node type="in" id="9" />
        <Node type="in" id="10" />
        <Node type="out" id="11" />
        <Node type="out" id="12" />
      </Nodes>
      <Connections>
        <Con id="13" src="0" tgt="11" wght="-0.18338968697935343" />
        <Con id="14" src="0" tgt="12" wght="-0.13795934244990349" />
        <Con id="15" src="1" tgt="11" wght="0.85708013642579317" />
        <Con id="16" src="1" tgt="12" wght="-0.25149188376963139" />
        <Con id="17" src="2" tgt="11" wght="-0.71282682381570339" />
        <Con id="18" src="2" tgt="12" wght="0.72681592591106892" />
        <Con id="19" src="3" tgt="11" wght="-0.92764520831406116" />
        <Con id="20" src="3" tgt="12" wght="-0.76706544496119022" />
        <Con id="21" src="4" tgt="11" wght="-0.073401214554905891" />
        <Con id="22" src="4" tgt="12" wght="0.011611765250563622" />
        <Con id="23" src="5" tgt="11" wght="0.61035350523889065" />
        <Con id="24" src="5" tgt="12" wght="-0.74381288979202509" />
        <Con id="25" src="6" tgt="11" wght="0.86445460747927427" />
        <Con id="26" src="6" tgt="12" wght="0.37554888054728508" />
        <Con id="27" src="7" tgt="11" wght="-0.96294017601758242" />
        <Con id="28" src="7" tgt="12" wght="0.40952817630022764" />
        <Con id="29" src="8" tgt="11" wght="0.81468901317566633" />
        <Con id="30" src="8" tgt="12" wght="0.036859448999166489" />
        <Con id="31" src="9" tgt="11" wght="-0.99617173243314028" />
        <Con id="32" src="9" tgt="12" wght="-0.4755802508443594" />
        <Con id="33" src="10" tgt="11" wght="-0.36243862006813288" />
        <Con id="34" src="10" tgt="12" wght="0.64603861793875694" />
      </Connections>
    </Network>
    <Network id="42" birthGen="0" fitness="0">
      <Nodes>
        <Node type="bias" id="0" />
        <Node type="in" id="1" />
        <Node type="in" id="2" />
        <Node type="in" id="3" />
        <Node type="in" id="4" />
        <Node type="in" id="5" />
        <Node type="in" id="6" />
        <Node type="in" id="7" />
        <Node type="in" id="8" />
        <Node type="in" id="9" />
        <Node type="in" id="10" />
        <Node type="out" id="11" />
        <Node type="out" id="12" />
      </Nodes>
      <Connections>
        <Con id="13" src="0" tgt="11" wght="0.17637065332382917" />
        <Con id="14" src="0" tgt="12" wght="0.41475769504904747" />
        <Con id="15" src="1" tgt="11" wght="-0.59656199067831039" />
        <Con id="16" src="1" tgt="12" wght="-0.81790801603347063" />
        <Con id="17" src="2" tgt="11" wght="0.18953932076692581" />
        <Con id="18" src="2" tgt="12" wght="0.83860588725656271" />
        <Con id="19" src="3" tgt="11" wght="-0.26776591874659061" />
        <Con id="20" src="3" tgt="12" wght="0.56912339944392443" />
        <Con id="21" src="4" tgt="11" wght="0.585483162663877" />
        <Con id="22" src="4" tgt="12" wght="-0.45588533487170935" />
        <Con id="23" src="5" tgt="11" wght="-0.75833092536777258" />
        <Con id="24" src="5" tgt="12" wght="0.66733499243855476" />
        <Con id="25" src="6" tgt="11" wght="0.4657612182199955" />
        <Con id="26" src="6" tgt="12" wght="-0.047220082953572273" />
        <Con id="27" src="7" tgt="11" wght="0.42588306777179241" />
        <Con id="28" src="7" tgt="12" wght="-0.67317362409085035" />
        <Con id="29" src="8" tgt="11" wght="-0.75395869556814432" />
        <Con id="30" src="8" tgt="12" wght="-0.5932446550577879" />
        <Con id="31" src="9" tgt="11" wght="0.82891392894089222" />
        <Con id="32" src="9" tgt="12" wght="-0.45398563705384731" />
        <Con id="33" src="10" tgt="11" wght="0.39677991531789303" />
        <Con id="34" src="10" tgt="12" wght="-0.84110934473574162" />
      </Connections>
    </Network>
    <Network id="43" birthGen="0" fitness="0">
      <Nodes>
        <Node type="bias" id="0" />
        <Node type="in" id="1" />
        <Node type="in" id="2" />
        <Node type="in" id="3" />
        <Node type="in" id="4" />
        <Node type="in" id="5" />
        <Node type="in" id="6" />
        <Node type="in" id="7" />
        <Node type="in" id="8" />
        <Node type="in" id="9" />
        <Node type="in" id="10" />
        <Node type="out" id="11" />
        <Node type="out" id="12" />
      </Nodes>
      <Connections>
        <Con id="13" src="0" tgt="11" wght="0.92107167188078165" />
        <Con id="14" src="0" tgt="12" wght="-0.38646071963012218" />
        <Con id="15" src="1" tgt="11" wght="-0.58849328011274338" />
        <Con id="16" src="1" tgt="12" wght="0.23954951763153076" />
        <Con id="17" src="2" tgt="11" wght="-0.010664721019566059" />
        <Con id="18" src="2" tgt="12" wght="-0.30387845728546381" />
        <Con id="19" src="3" tgt="11" wght="0.52466429863125086" />
        <Con id="20" src="3" tgt="12" wght="-0.95166937541216612" />
        <Con id="21" src="4" tgt="11" wght="-0.16866673156619072" />
        <Con id="22" src="4" tgt="12" wght="-0.53654582053422928" />
        <Con id="23" src="5" tgt="11" wght="-0.591520993039012" />
        <Con id="24" src="5" tgt="12" wght="-0.78525611385703087" />
        <Con id="25" src="6" tgt="11" wght="0.89162776526063681" />
        <Con id="26" src="6" tgt="12" wght="-0.71491707023233175" />
        <Con id="27" src="7" tgt="11" wght="-0.83449570648372173" />
        <Con id="28" src="7" tgt="12" wght="0.47572926990687847" />
        <Con id="29" src="8" tgt="11" wght="-0.24403910059481859" />
        <Con id="30" src="8" tgt="12" wght="-0.676852623000741" />
        <Con id="31" src="9" tgt="11" wght="-0.50905707478523254" />
        <Con id="32" src="9" tgt="12" wght="-0.7595271822065115" />
        <Con id="33" src="10" tgt="11" wght="0.022427664138376713" />
        <Con id="34" src="10" tgt="12" wght="0.24521712958812714" />
      </Connections>
    </Network>
    <Network id="44" birthGen="0" fitness="0">
      <Nodes>
        <Node type="bias" id="0" />
        <Node type="in" id="1" />
        <Node type="in" id="2" />
        <Node type="in" id="3" />
        <Node type="in" id="4" />
        <Node type="in" id="5" />
        <Node type="in" id="6" />
        <Node type="in" id="7" />
        <Node type="in" id="8" />
        <Node type="in" id="9" />
        <Node type="in" id="10" />
        <Node type="out" id="11" />
        <Node type="out" id="12" />
      </Nodes>
      <Connections>
        <Con id="13" src="0" tgt="11" wght="0.70678918529301882" />
        <Con id="14" src="0" tgt="12" wght="-0.92128907702863216" />
        <Con id="15" src="1" tgt="11" wght="0.42098644748330116" />
        <Con id="16" src="1" tgt="12" wght="-0.46100557781755924" />
        <Con id="17" src="2" tgt="11" wght="0.095994588918983936" />
        <Con id="18" src="2" tgt="12" wght="0.71268611121922731" />
        <Con id="19" src="3" tgt="11" wght="-0.55670951399952173" />
        <Con id="20" src="3" tgt="12" wght="-0.70135993324220181" />
        <Con id="21" src="4" tgt="11" wght="-0.71898796409368515" />
        <Con id="22" src="4" tgt="12" wght="-0.13078375905752182" />
        <Con id="23" src="5" tgt="11" wght="0.89267672412097454" />
        <Con id="24" src="5" tgt="12" wght="-0.751571892760694" />
        <Con id="25" src="6" tgt="11" wght="-0.26500356011092663" />
        <Con id="26" src="6" tgt="12" wght="-0.40752220246940851" />
        <Con id="27" src="7" tgt="11" wght="0.26538543310016394" />
        <Con id="28" src="7" tgt="12" wght="-0.24932089168578386" />
        <Con id="29" src="8" tgt="11" wght="-0.6089284485206008" />
        <Con id="30" src="8" tgt="12" wght="0.18811109010130167" />
        <Con id="31" src="9" tgt="11" wght="-0.66808054223656654" />
        <Con id="32" src="9" tgt="12" wght="-0.29828666057437658" />
        <Con id="33" src="10" tgt="11" wght="-0.53691770415753126" />
        <Con id="34" src="10" tgt="12" wght="-0.42496258858591318" />
      </Connections>
    </Network>
    <Network id="45" birthGen="0" fitness="0">
      <Nodes>
        <Node type="bias" id="0" />
        <Node type="in" id="1" />
        <Node type="in" id="2" />
        <Node type="in" id="3" />
        <Node type="in" id="4" />
        <Node type="in" id="5" />
        <Node type="in" id="6" />
        <Node type="in" id="7" />
        <Node type="in" id="8" />
        <Node type="in" id="9" />
        <Node type="in" id="10" />
        <Node type="out" id="11" />
        <Node type="out" id="12" />
      </Nodes>
      <Connections>
        <Con id="13" src="0" tgt="11" wght="0.63880757242441177" />
        <Con id="14" src="0" tgt="12" wght="0.68707767222076654" />
        <Con id="15" src="1" tgt="11" wght="0.060380937531590462" />
        <Con id="16" src="1" tgt="12" wght="0.96290503721684217" />
        <Con id="17" src="2" tgt="11" wght="-0.0615883432328701" />
        <Con id="18" src="2" tgt="12" wght="0.47222012467682362" />
        <Con id="19" src="3" tgt="11" wght="-0.25959640461951494" />
        <Con id="20" src="3" tgt="12" wght="0.97784000914543867" />
        <Con id="21" src="4" tgt="11" wght="-0.89316242001950741" />
        <Con id="22" src="4" tgt="12" wght="-0.16898538451641798" />
        <Con id="23" src="5" tgt="11" wght="0.8411134984344244" />
        <Con id="24" src="5" tgt="12" wght="0.31377498339861631" />
        <Con id="25" src="6" tgt="11" wght="-0.58405028842389584" />
        <Con id="26" src="6" tgt="12" wght="0.18148443661630154" />
        <Con id="27" src="7" tgt="11" wght="-0.30862507410347462" />
        <Con id="28" src="7" tgt="12" wght="0.43899066746234894" />
        <Con id="29" src="8" tgt="11" wght="-0.33322409819811583" />
        <Con id="30" src="8" tgt="12" wght="0.976718831807375" />
        <Con id="31" src="9" tgt="11" wght="-0.88292513880878687" />
        <Con id="32" src="9" tgt="12" wght="-0.90652504097670317" />
        <Con id="33" src="10" tgt="11" wght="0.31037711352109909" />
        <Con id="34" src="10" tgt="12" wght="-0.3868646863847971" />
      </Connections>
    </Network>
    <Network id="46" birthGen="0" fitness="0">
      <Nodes>
        <Node type="bias" id="0" />
        <Node type="in" id="1" />
        <Node type="in" id="2" />
        <Node type="in" id="3" />
        <Node type="in" id="4" />
        <Node type="in" id="5" />
        <Node type="in" id="6" />
        <Node type="in" id="7" />
        <Node type="in" id="8" />
        <Node type="in" id="9" />
        <Node type="in" id="10" />
        <Node type="out" id="11" />
        <Node type="out" id="12" />
      </Nodes>
      <Connections>
        <Con id="13" src="0" tgt="11" wght="0.37223603762686253" />
        <Con id="14" src="0" tgt="12" wght="-0.46728050615638494" />
        <Con id="15" src="1" tgt="11" wght="0.58837052714079618" />
        <Con id="16" src="1" tgt="12" wght="0.59024136699736118" />
        <Con id="17" src="2" tgt="11" wght="-0.099788798950612545" />
        <Con id="18" src="2" tgt="12" wght="-0.082754770293831825" />
        <Con id="19" src="3" tgt="11" wght="0.25228054448962212" />
        <Con id="20" src="3" tgt="12" wght="-0.20279692951589823" />
        <Con id="21" src="4" tgt="11" wght="0.18770286720246077" />
        <Con id="22" src="4" tgt="12" wght="0.1752131087705493" />
        <Con id="23" src="5" tgt="11" wght="-0.41952911205589771" />
        <Con id="24" src="5" tgt="12" wght="-0.983374766074121" />
        <Con id="25" src="6" tgt="11" wght="0.49910456594079733" />
        <Con id="26" src="6" tgt="12" wght="-0.80023494735360146" />
        <Con id="27" src="7" tgt="11" wght="-0.48137867171317339" />
        <Con id="28" src="7" tgt="12" wght="-0.49796838127076626" />
        <Con id="29" src="8" tgt="11" wght="0.15207206457853317" />
        <Con id="30" src="8" tgt="12" wght="0.91257563512772322" />
        <Con id="31" src="9" tgt="11" wght="-0.12133326940238476" />
        <Con id="32" src="9" tgt="12" wght="-0.60904591530561447" />
        <Con id="33" src="10" tgt="11" wght="0.75363574642688036" />
        <Con id="34" src="10" tgt="12" wght="0.876718319952488" />
      </Connections>
    </Network>
    <Network id="47" birthGen="0" fitness="0">
      <Nodes>
        <Node type="bias" id="0" />
        <Node type="in" id="1" />
        <Node type="in" id="2" />
        <Node type="in" id="3" />
        <Node type="in" id="4" />
        <Node type="in" id="5" />
        <Node type="in" id="6" />
        <Node type="in" id="7" />
        <Node type="in" id="8" />
        <Node type="in" id="9" />
        <Node type="in" id="10" />
        <Node type="out" id="11" />
        <Node type="out" id="12" />
      </Nodes>
      <Connections>
        <Con id="13" src="0" tgt="11" wght="0.70148517470806837" />
        <Con id="14" src="0" tgt="12" wght="-0.2187490202486515" />
        <Con id="15" src="1" tgt="11" wght="-0.97594434954226017" />
        <Con id="16" src="1" tgt="12" wght="-0.75276777055114508" />
        <Con id="17" src="2" tgt="11" wght="-0.502321757376194" />
        <Con id="18" src="2" tgt="12" wght="-0.014789248816668987" />
        <Con id="19" src="3" tgt="11" wght="0.0033842138946056366" />
        <Con id="20" src="3" tgt="12" wght="0.52888292539864779" />
        <Con id="21" src="4" tgt="11" wght="0.26642223633825779" />
        <Con id="22" src="4" tgt="12" wght="-0.57058922294527292" />
        <Con id="23" src="5" tgt="11" wght="0.37619590293616056" />
        <Con id="24" src="5" tgt="12" wght="-0.58108651079237461" />
        <Con id="25" src="6" tgt="11" wght="0.28652277681976557" />
        <Con id="26" src="6" tgt="12" wght="-0.59477728977799416" />
        <Con id="27" src="7" tgt="11" wght="0.4711633725091815" />
        <Con id="28" src="7" tgt="12" wght="0.24260926712304354" />
        <Con id="29" src="8" tgt="11" wght="-0.79495942965149879" />
        <Con id="30" src="8" tgt="12" wght="-0.42924445401877165" />
