<?xml version="1.0" encoding="utf-8"?>
<Root>
  <ActivationFunctions>
    <Fn id="0" name="SteepenedSigmoid" prob="1" />
  </ActivationFunctions>
  <Networks>
    <Network id="0" birthGen="0" fitness="0">
      <Nodes>
        <Node type="bias" id="0" />
        <Node type="in" id="1" />
        <Node type="in" id="2" />
        <Node type="in" id="3" />
        <Node type="in" id="4" />
        <Node type="in" id="5" />
        <Node type="in" id="6" />
        <Node type="in" id="7" />
        <Node type="in" id="8" />
        <Node type="in" id="9" />
        <Node type="in" id="10" />
        <Node type="out" id="11" />
        <Node type="out" id="12" />
      </Nodes>
      <Connections>
        <Con id="13" src="0" tgt="11" wght="-0.30713738966733217" />
        <Con id="14" src="0" tgt="12" wght="-0.18650768045336008" />
        <Con id="15" src="1" tgt="11" wght="0.508417272940278" />
        <Con id="16" src="1" tgt="12" wght="0.46820059698075056" />
        <Con id="17" src="2" tgt="11" wght="-0.63383934739977121" />
        <Con id="18" src="2" tgt="12" wght="0.79350890591740608" />
        <Con id="19" src="3" tgt="11" wght="0.897518546320498" />
        <Con id="20" src="3" tgt="12" wght="-0.56046853773295879" />
        <Con id="21" src="4" tgt="11" wght="0.2716360604390502" />
        <Con id="22" src="4" tgt="12" wght="0.16370898950845003" />
        <Con id="23" src="5" tgt="11" wght="0.97831056825816631" />
        <Con id="24" src="5" tgt="12" wght="0.31601557694375515" />
        <Con id="25" src="6" tgt="11" wght="0.19340523611754179" />
        <Con id="26" src="6" tgt="12" wght="0.67177300341427326" />
        <Con id="27" src="7" tgt="11" wght="0.84293471369892359" />
        <Con id="28" src="7" tgt="12" wght="0.72225370164960623" />
        <Con id="29" src="8" tgt="11" wght="0.78247493412345648" />
        <Con id="30" src="8" tgt="12" wght="-0.049673357978463173" />
        <Con id="31" src="9" tgt="11" wght="-0.42204161174595356" />
        <Con id="32" src="9" tgt="12" wght="0.051042307168245316" />
        <Con id="33" src="10" tgt="11" wght="-0.67203969787806273" />
        <Con id="34" src="10" tgt="12" wght="0.85903049912303686" />
      </Connections>
    </Network>
    <Network id="1" birthGen="0" fitness="0">
      <Nodes>
        <Node type="bias" id="0" />
        <Node type="in" id="1" />
        <Node type="in" id="2" />
        <Node type="in" id="3" />
        <Node type="in" id="4" />
        <Node type="in" id="5" />
        <Node type="in" id="6" />
        <Node type="in" id="7" />
        <Node type="in" id="8" />
        <Node type="in" id="9" />
        <Node type="in" id="10" />
        <Node type="out" id="11" />
        <Node type="out" id="12" />
      </Nodes>
      <Connections>
        <Con id="13" src="0" tgt="11" wght="-0.38586594257503748" />
        <Con id="14" src="0" tgt="12" wght="0.95004291832447052" />
        <Con id="15" src="1" tgt="11" wght="0.15654072165489197" />
        <Con id="16" src="1" tgt="12" wght="0.635260303504765" />
        <Con id="17" src="2" tgt="11" wght="-0.61198297422379255" />
        <Con id="18" src="2" tgt="12" wght="-0.70330261904746294" />
        <Con id="19" src="3" tgt="11" wght="0.3541604932397604" />
        <Con id="20" src="3" tgt="12" wght="-0.056471468880772591" />
        <Con id="21" src="4" tgt="11" wght="0.30160455778241158" />
        <Con id="22" src="4" tgt="12" wght="0.47685999982059" />
        <Con id="23" src="5" tgt="11" wght="0.14713551849126816" />
        <Con id="24" src="5" tgt="12" wght="-0.70951132848858833" />
        <Con id="25" src="6" tgt="11" wght="-0.76990419160574675" />
        <Con id="26" src="6" tgt="12" wght="0.41791301500052214" />
        <Con id="27" src="7" tgt="11" wght="0.31426206417381763" />
        <Con id="28" src="7" tgt="12" wght="0.513155972585082" />
        <Con id="29" src="8" tgt="11" wght="0.942019771784544" />
        <Con id="30" src="8" tgt="12" wght="0.932122852653265" />
        <Con id="31" src="9" tgt="11" wght="-0.73865795880556107" />
        <Con id="32" src="9" tgt="12" wght="0.10499369725584984" />
        <Con id="33" src="10" tgt="11" wght="-0.51064993813633919" />
        <Con id="34" src="10" tgt="12" wght="-0.46547063998878" />
      </Connections>
    </Network>
    <Network id="2" birthGen="0" fitness="0">
      <Nodes>
        <Node type="bias" id="0" />
        <Node type="in" id="1" />
        <Node type="in" id="2" />
        <Node type="in" id="3" />
        <Node type="in" id="4" />
        <Node type="in" id="5" />
        <Node type="in" id="6" />
        <Node type="in" id="7" />
        <Node type="in" id="8" />
        <Node type="in" id="9" />
        <Node type="in" id="10" />
        <Node type="out" id="11" />
        <Node type="out" id="12" />
      </Nodes>
      <Connections>
        <Con id="13" src="0" tgt="11" wght="0.00037860032171010971" />
        <Con id="14" src="0" tgt="12" wght="0.2393279979005456" />
        <Con id="15" src="1" tgt="11" wght="-0.48675753828138113" />
        <Con id="16" src="1" tgt="12" wght="-0.53175666090101" />
        <Con id="17" src="2" tgt="11" wght="0.74192661792039871" />
        <Con id="18" src="2" tgt="12" wght="0.53596985153853893" />
        <Con id="19" src="3" tgt="11" wght="-0.36795460619032383" />
        <Con id="20" src="3" tgt="12" wght="0.28082702960819006" />
        <Con id="21" src="4" tgt="11" wght="-0.86401998717337847" />
        <Con id="22" src="4" tgt="12" wght="-0.21804902236908674" />
        <Con id="23" src="5" tgt="11" wght="0.72406954225152731" />
        <Con id="24" src="5" tgt="12" wght="-0.049500526860356331" />
        <Con id="25" src="6" tgt="11" wght="0.40113104414194822" />
        <Con id="26" src="6" tgt="12" wght="0.78915061615407467" />
        <Con id="27" src="7" tgt="11" wght="-0.22261752467602491" />
        <Con id="28" src="7" tgt="12" wght="0.84015863388776779" />
        <Con id="29" src="8" tgt="11" wght="-0.997418443672359" />
        <Con id="30" src="8" tgt="12" wght="0.43689139187335968" />
        <Con id="31" src="9" tgt="11" wght="0.26861204020678997" />
        <Con id="32" src="9" tgt="12" wght="-0.56657974235713482" />
        <Con id="33" src="10" tgt="11" wght="-0.1219126870855689" />
        <Con id="34" src="10" tgt="12" wght="0.61148322280496359" />
      </Connections>
    </Network>
    <Network id="3" birthGen="0" fitness="0">
      <Nodes>
        <Node type="bias" id="0" />
        <Node type="in" id="1" />
        <Node type="in" id="2" />
        <Node type="in" id="3" />
        <Node type="in" id="4" />
        <Node type="in" id="5" />
        <Node type="in" id="6" />
        <Node type="in" id="7" />
        <Node type="in" id="8" />
        <Node type="in" id="9" />
        <Node type="in" id="10" />
        <Node type="out" id="11" />
        <Node type="out" id="12" />
      </Nodes>
      <Connections>
        <Con id="13" src="0" tgt="11" wght="0.9157075397670269" />
        <Con id="14" src="0" tgt="12" wght="0.41719397064298391" />
        <Con id="15" src="1" tgt="11" wght="0.78403210546821356" />
        <Con id="16" src="1" tgt="12" wght="0.23999586049467325" />
        <Con id="17" src="2" tgt="11" wght="-0.19511224888265133" />
        <Con id="18" src="2" tgt="12" wght="0.26895624678581953" />
        <Con id="19" src="3" tgt="11" wght="-0.514786927960813" />
        <Con id="20" src="3" tgt="12" wght="0.97617748659104109" />
        <Con id="21" src="4" tgt="11" wght="-0.289171414449811" />
        <Con id="22" src="4" tgt="12" wght="-0.5685220854356885" />
        <Con id="23" src="5" tgt="11" wght="-0.21654138062149286" />
        <Con id="24" src="5" tgt="12" wght="0.56862135976552963" />
        <Con id="25" src="6" tgt="11" wght="-0.66964845173060894" />
        <Con id="26" src="6" tgt="12" wght="-0.45494114886969328" />
        <Con id="27" src="7" tgt="11" wght="-0.41966404300183058" />
        <Con id="28" src="7" tgt="12" wght="0.64423404075205326" />
        <Con id="29" src="8" tgt="11" wght="0.913128619082272" />
        <Con id="30" src="8" tgt="12" wght="-0.86247212719172239" />
        <Con id="31" src="9" tgt="11" wght="-0.3100132429972291" />
        <Con id="32" src="9" tgt="12" wght="-0.50903598964214325" />
        <Con id="33" src="10" tgt="11" wght="-0.92312395945191383" />
        <Con id="34" src="10" tgt="12" wght="0.38096550758928061" />
      </Connections>
    </Network>
    <Network id="4" birthGen="0" fitness="0">
      <Nodes>
        <Node type="bias" id="0" />
        <Node type="in" id="1" />
        <Node type="in" id="2" />
        <Node type="in" id="3" />
        <Node type="in" id="4" />
        <Node type="in" id="5" />
        <Node type="in" id="6" />
        <Node type="in" id="7" />
        <Node type="in" id="8" />
        <Node type="in" id="9" />
        <Node type="in" id="10" />
        <Node type="out" id="11" />
        <Node type="out" id="12" />
      </Nodes>
      <Connections>
        <Con id="13" src="0" tgt="11" wght="-0.7945171631872654" />
        <Con id="14" src="0" tgt="12" wght="-0.57083645556122065" />
        <Con id="15" src="1" tgt="11" wght="0.75255534425377846" />
        <Con id="16" src="1" tgt="12" wght="0.6037346264347434" />
        <Con id="17" src="2" tgt="11" wght="-0.24358975328505039" />
        <Con id="18" src="2" tgt="12" wght="0.77907297760248184" />
        <Con id="19" src="3" tgt="11" wght="0.96844654530286789" />
        <Con id="20" src="3" tgt="12" wght="0.23081011325120926" />
        <Con id="21" src="4" tgt="11" wght="-0.61038494110107422" />
        <Con id="22" src="4" tgt="12" wght="0.8036087192595005" />
        <Con id="23" src="5" tgt="11" wght="0.5599253922700882" />
        <Con id="24" src="5" tgt="12" wght="-0.91039156541228294" />
        <Con id="25" src="6" tgt="11" wght="0.20775110553950071" />
        <Con id="26" src="6" tgt="12" wght="-0.65242209006100893" />
        <Con id="27" src="7" tgt="11" wght="0.59473101980984211" />
        <Con id="28" src="7" tgt="12" wght="0.70039672870188951" />
        <Con id="29" src="8" tgt="11" wght="0.753765782341361" />
        <Con id="30" src="8" tgt="12" wght="-0.83298721257597208" />
        <Con id="31" src="9" tgt="11" wght="0.26052192971110344" />
        <Con id="32" src="9" tgt="12" wght="-0.4393298514187336" />
        <Con id="33" src="10" tgt="11" wght="0.72270350158214569" />
        <Con id="34" src="10" tgt="12" wght="0.93585996422916651" />
      </Connections>
    </Network>
    <Network id="5" birthGen="0" fitness="0">
      <Nodes>
        <Node type="bias" id="0" />
        <Node type="in" id="1" />
        <Node type="in" id="2" />
        <Node type="in" id="3" />
        <Node type="in" id="4" />
        <Node type="in" id="5" />
        <Node type="in" id="6" />
        <Node type="in" id="7" />
        <Node type="in" id="8" />
        <Node type="in" id="9" />
        <Node type="in" id="10" />
        <Node type="out" id="11" />
        <Node type="out" id="12" />
      </Nodes>
      <Connections>
        <Con id="13" src="0" tgt="11" wght="0.56803568731993437" />
        <Con id="14" src="0" tgt="12" wght="-0.42233500722795725" />
        <Con id="15" src="1" tgt="11" wght="-0.53629861399531364" />
        <Con id="16" src="1" tgt="12" wght="0.8984390152618289" />
        <Con id="17" src="2" tgt="11" wght="0.81634929776191711" />
        <Con id="18" src="2" tgt="12" wght="0.94329426344484091" />
        <Con id="19" src="3" tgt="11" wght="-0.58255017269402742" />
        <Con id="20" src="3" tgt="12" wght="0.00018315762281417847" />
        <Con id="21" src="4" tgt="11" wght="0.76817527413368225" />
        <Con id="22" src="4" tgt="12" wght="0.96212427690625191" />
        <Con id="23" src="5" tgt="11" wght="-0.71903086919337511" />
        <Con id="24" src="5" tgt="12" wght="-0.0668967142701149" />
        <Con id="25" src="6" tgt="11" wght="-0.787252327427268" />
        <Con id="26" src="6" tgt="12" wght="-0.39869032613933086" />
        <Con id="27" src="7" tgt="11" wght="-0.32846350874751806" />
        <Con id="28" src="7" tgt="12" wght="-0.50390437059104443" />
        <Con id="29" src="8" tgt="11" wght="-0.59909133706241846" />
        <Con id="30" src="8" tgt="12" wght="-0.49982744269073009" />
        <Con id="31" src="9" tgt="11" wght="-0.93840396776795387" />
        <Con id="32" src="9" tgt="12" wght="-0.47896595764905214" />
        <Con id="33" src="10" tgt="11" wght="0.46405757684260607" />
        <Con id="34" src="10" tgt="12" wght="-0.068814977072179317" />
      </Connections>
    </Network>
    <Network id="6" birthGen="0" fitness="0">
      <Nodes>
        <Node type="bias" id="0" />
        <Node type="in" id="1" />
        <Node type="in" id="2" />
        <Node type="in" id="3" />
        <Node type="in" id="4" />
        <Node type="in" id="5" />
        <Node type="in" id="6" />
        <Node type="in" id="7" />
        <Node type="in" id="8" />
        <Node type="in" id="9" />
        <Node type="in" id="10" />
        <Node type="out" id="11" />
        <Node type="out" id="12" />
      </Nodes>
      <Connections>
        <Con id="13" src="0" tgt="11" wght="0.7796428669244051" />
        <Con id="14" src="0" tgt="12" wght="-0.76481464877724648" />
        <Con id="15" src="1" tgt="11" wght="0.029690146446228027" />
        <Con id="16" src="1" tgt="12" wght="0.055125118233263493" />
        <Con id="17" src="2" tgt="11" wght="-0.57388919312506914" />
        <Con id="18" src="2" tgt="12" wght="0.622168755158782" />
        <Con id="19" src="3" tgt="11" wght="-0.66527141537517309" />
        <Con id="20" src="3" tgt="12" wght="-0.434022787027061" />
        <Con id="21" src="4" tgt="11" wght="-0.89290136378258467" />
        <Con id="22" src="4" tgt="12" wght="0.28172860853374004" />
        <Con id="23" src="5" tgt="11" wght="-0.023241287097334862" />
        <Con id="24" src="5" tgt="12" wght="-0.38521395437419415" />
        <Con id="25" src="6" tgt="11" wght="-0.464019195176661" />
        <Con id="26" src="6" tgt="12" wght="0.73963674996048212" />
        <Con id="27" src="7" tgt="11" wght="-0.203131390735507" />
        <Con id="28" src="7" tgt="12" wght="0.36075192037969828" />
        <Con id="29" src="8" tgt="11" wght="-0.29826208204030991" />
        <Con id="30" src="8" tgt="12" wght="-0.49806008115410805" />
        <Con id="31" src="9" tgt="11" wght="-0.85612147767096758" />
        <Con id="32" src="9" tgt="12" wght="0.14878774713724852" />
        <Con id="33" src="10" tgt="11" wght="0.24837775062769651" />
        <Con id="34" src="10" tgt="12" wght="0.11950352974236012" />
      </Connections>
    </Network>
    <Network id="7" birthGen="0" fitness="0">
      <Nodes>
        <Node type="bias" id="0" />
        <Node type="in" id="1" />
        <Node type="in" id="2" />
        <Node type="in" id="3" />
        <Node type="in" id="4" />
        <Node type="in" id="5" />
        <Node type="in" id="6" />
        <Node type="in" id="7" />
        <Node type="in" id="8" />
        <Node type="in" id="9" />
        <Node type="in" id="10" />
        <Node type="out" id="11" />
        <Node type="out" id="12" />
      </Nodes>
      <Connections>
        <Con id="13" src="0" tgt="11" wght="0.928727556951344" />
        <Con id="14" src="0" tgt="12" wght="-0.066095585003495216" />
        <Con id="15" src="1" tgt="11" wght="0.54664181359112263" />
        <Con id="16" src="1" tgt="12" wght="0.19483819976449013" />
        <Con id="17" src="2" tgt="11" wght="0.66241879295557737" />
        <Con id="18" src="2" tgt="12" wght="-0.41211791709065437" />
        <Con id="19" src="3" tgt="11" wght="-0.70427897945046425" />
        <Con id="20" src="3" tgt="12" wght="0.60995527356863022" />
        <Con id="21" src="4" tgt="11" wght="-0.91291370894759893" />
        <Con id="22" src="4" tgt="12" wght="-0.73576190415769815" />
        <Con id="23" src="5" tgt="11" wght="-0.49477692041546106" />
        <Con id="24" src="5" tgt="12" wght="0.68418383318930864" />
        <Con id="25" src="6" tgt="11" wght="0.49355913139879704" />
        <Con id="26" src="6" tgt="12" wght="-0.63401175662875175" />
        <Con id="27" src="7" tgt="11" wght="0.57187724485993385" />
        <Con id="28" src="7" tgt="12" wght="-0.03191756084561348" />
        <Con id="29" src="8" tgt="11" wght="0.36970724444836378" />
        <Con id="30" src="8" tgt="12" wght="-0.15127366315573454" />
        <Con id="31" src="9" tgt="11" wght="-0.20105885062366724" />
        <Con id="32" src="9" tgt="12" wght="-0.45318442489951849" />
        <Con id="33" src="10" tgt="11" wght="0.98511107265949249" />
        <Con id="34" src="10" tgt="12" wght="-0.13873163051903248" />
      </Connections>
    </Network>
    <Network id="8" birthGen="0" fitness="0">
      <Nodes>
        <Node type="bias" id="0" />
        <Node type="in" id="1" />
        <Node type="in" id="2" />
        <Node type="in" id="3" />
        <Node type="in" id="4" />
        <Node type="in" id="5" />
        <Node type="in" id="6" />
        <Node type="in" id="7" />
        <Node type="in" id="8" />
        <Node type="in" id="9" />
        <Node type="in" id="10" />
        <Node type="out" id="11" />
        <Node type="out" id="12" />
      </Nodes>
      <Connections>
        <Con id="13" src="0" tgt="11" wght="0.34972781501710415" />
        <Con id="14" src="0" tgt="12" wght="0.743494613096118" />
        <Con id="15" src="1" tgt="11" wght="-0.46159102022647858" />
        <Con id="16" src="1" tgt="12" wght="0.0941563080996275" />
        <Con id="17" src="2" tgt="11" wght="-0.29914823453873396" />
        <Con id="18" src="2" tgt="12" wght="-0.44744675233960152" />
        <Con id="19" src="3" tgt="11" wght="-0.96066365204751492" />
        <Con id="20" src="3" tgt="12" wght="-0.41665888205170631" />
        <Con id="21" src="4" tgt="11" wght="0.74950188212096691" />
        <Con id="22" src="4" tgt="12" wght="0.9123001154512167" />
        <Con id="23" src="5" tgt="11" wght="-0.42750635370612144" />
        <Con id="24" src="5" tgt="12" wght="-0.2865325678139925" />
        <Con id="25" src="6" tgt="11" wght="-0.083072546869516373" />
        <Con id="26" src="6" tgt="12" wght="-0.32633846066892147" />
        <Con id="27" src="7" tgt="11" wght="-0.79738135077059269" />
        <Con id="28" src="7" tgt="12" wght="0.0080638797953724861" />
        <Con id="29" src="8" tgt="11" wght="0.282886378467083" />
        <Con id="30" src="8" tgt="12" wght="0.037341614253818989" />
        <Con id="31" src="9" tgt="11" wght="-0.80250027775764465" />
        <Con id="32" src="9" tgt="12" wght="-0.84090687334537506" />
        <Con id="33" src="10" tgt="11" wght="0.93510755151510239" />
        <Con id="34" src="10" tgt="12" wght="-0.93623796105384827" />
      </Connections>
    </Network>
    <Network id="9" birthGen="0" fitness="0">
      <Nodes>
        <Node type="bias" id="0" />
        <Node type="in" id="1" />
        <Node type="in" id="2" />
        <Node type="in" id="3" />
        <Node type="in" id="4" />
        <Node type="in" id="5" />
        <Node type="in" id="6" />
        <Node type="in" id="7" />
        <Node type="in" id="8" />
        <Node type="in" id="9" />
        <Node type="in" id="10" />
        <Node type="out" id="11" />
        <Node type="out" id="12" />
      </Nodes>
      <Connections>
        <Con id="13" src="0" tgt="11" wght="-0.41528201662003994" />
        <Con id="14" src="0" tgt="12" wght="-0.48536926414817572" />
        <Con id="15" src="1" tgt="11" wght="0.74542854633182287" />
        <Con id="16" src="1" tgt="12" wght="0.024263644590973854" />
        <Con id="17" src="2" tgt="11" wght="0.4128507524728775" />
        <Con id="18" src="2" tgt="12" wght="0.94733452517539263" />
        <Con id="19" src="3" tgt="11" wght="0.92534553725272417" />
        <Con id="20" src="3" tgt="12" wght="0.9516226127743721" />
        <Con id="21" src="4" tgt="11" wght="0.88506378792226315" />
        <Con id="22" src="4" tgt="12" wght="0.2237849123775959" />
        <Con id="23" src="5" tgt="11" wght="0.051649383269250393" />
        <Con id="24" src="5" tgt="12" wght="0.037577680312097073" />
        <Con id="25" src="6" tgt="11" wght="0.83408446609973907" />
        <Con id="26" src="6" tgt="12" wght="0.023533430881798267" />
        <Con id="27" src="7" tgt="11" wght="-0.29183113574981689" />
        <Con id="28" src="7" tgt="12" wght="-0.45437687821686268" />
        <Con id="29" src="8" tgt="11" wght="0.75477646756917238" />
        <Con id="30" src="8" tgt="12" wght="-0.16010465938597918" />
        <Con id="31" src="9" tgt="11" wght="-0.076403402723371983" />
        <Con id="32" src="9" tgt="12" wght="0.79280589334666729" />
        <Con id="33" src="10" tgt="11" wght="-0.36707369517534971" />
        <Con id="34" src="10" tgt="12" wght="0.55047173798084259" />
      </Connections>
    </Network>
    <Network id="10" birthGen="0" fitness="0">
      <Nodes>
        <Node type="bias" id="0" />
        <Node type="in" id="1" />
        <Node type="in" id="2" />
        <Node type="in" id="3" />
        <Node type="in" id="4" />
        <Node type="in" id="5" />
        <Node type="in" id="6" />
        <Node type="in" id="7" />
        <Node type="in" id="8" />
        <Node type="in" id="9" />
        <Node type="in" id="10" />
        <Node type="out" id="11" />
        <Node type="out" id="12" />
      </Nodes>
      <Connections>
        <Con id="13" src="0" tgt="11" wght="-0.61295981798321009" />
        <Con id="14" src="0" tgt="12" wght="-0.834852572530508" />
        <Con id="15" src="1" tgt="11" wght="-0.29814286530017853" />
        <Con id="16" src="1" tgt="12" wght="-0.68510886002331972" />
        <Con id="17" src="2" tgt="11" wght="0.305980434641242" />
        <Con id="18" src="2" tgt="12" wght="-0.16955893021076918" />
        <Con id="19" src="3" tgt="11" wght="-0.675006628036499" />
        <Con id="20" src="3" tgt="12" wght="0.29773224703967571" />
        <Con id="21" src="4" tgt="11" wght="-0.71817486640065908" />
        <Con id="22" src="4" tgt="12" wght="0.73702824860811234" />
        <Con id="23" src="5" tgt="11" wght="0.24597707856446505" />
        <Con id="24" src="5" tgt="12" wght="-0.81219042092561722" />
        <Con id="25" src="6" tgt="11" wght="0.57990972883999348" />
        <Con id="26" src="6" tgt="12" wght="-0.6220096293836832" />
        <Con id="27" src="7" tgt="11" wght="0.53693486377596855" />
        <Con id="28" src="7" tgt="12" wght="0.3980388380587101" />
        <Con id="29" src="8" tgt="11" wght="-0.87278351746499538" />
        <Con id="30" src="8" tgt="12" wght="-0.026131241582334042" />
        <Con id="31" src="9" tgt="11" wght="-0.20953238382935524" />
        <Con id="32" src="9" tgt="12" wght="-0.059607183560729027" />
        <Con id="33" src="10" tgt="11" wght="-0.75622407346963882" />
        <Con id="34" src="10" tgt="12" wght="-0.65397464856505394" />
      </Connections>
    </Network>
    <Network id="11" birthGen="0" fitness="0">
      <Nodes>
        <Node type="bias" id="0" />
        <Node type="in" id="1" />
        <Node type="in" id="2" />
        <Node type="in" id="3" />
        <Node type="in" id="4" />
        <Node type="in" id="5" />
        <Node type="in" id="6" />
        <Node type="in" id="7" />
        <Node type="in" id="8" />
        <Node type="in" id="9" />
        <Node type="in" id="10" />
        <Node type="out" id="11" />
        <Node type="out" id="12" />
      </Nodes>
      <Connections>
        <Con id="13" src="0" tgt="11" wght="0.45184705965220928" />
        <Con id="14" src="0" tgt="12" wght="-0.78877570107579231" />
        <Con id="15" src="1" tgt="11" wght="-0.43917190097272396" />
        <Con id="16" src="1" tgt="12" wght="-0.36523429024964571" />
        <Con id="17" src="2" tgt="11" wght="0.0015555955469608307" />
        <Con id="18" src="2" tgt="12" wght="0.65375495795160532" />
        <Con id="19" src="3" tgt="11" wght="0.55640240106731653" />
        <Con id="20" src="3" tgt="12" wght="0.18027994781732559" />
        <Con id="21" src="4" tgt="11" wght="-0.72906532976776361" />
        <Con id="22" src="4" tgt="12" wght="0.65715599898248911" />
        <Con id="23" src="5" tgt="11" wght="0.45281100459396839" />
        <Con id="24" src="5" tgt="12" wght="-0.779131943359971" />
        <Con id="25" src="6" tgt="11" wght="0.71532669849693775" />
        <Con id="26" src="6" tgt="12" wght="0.808192266151309" />
        <Con id="27" src="7" tgt="11" wght="-0.18765638582408428" />
        <Con id="28" src="7" tgt="12" wght="-0.52220639679580927" />
        <Con id="29" src="8" tgt="11" wght="-0.99830140080302954" />
        <Con id="30" src="8" tgt="12" wght="0.10459869634360075" />
        <Con id="31" src="9" tgt="11" wght="0.88236778322607279" />
        <Con id="32" src="9" tgt="12" wght="-0.37382911331951618" />
        <Con id="33" src="10" tgt="11" wght="0.42705707438290119" />
        <Con id="34" src="10" tgt="12" wght="-0.84062248934060335" />
      </Connections>
    </Network>
    <Network id="12" birthGen="0" fitness="0">
      <Nodes>
        <Node type="bias" id="0" />
        <Node type="in" id="1" />
        <Node type="in" id="2" />
        <Node type="in" id="3" />
        <Node type="in" id="4" />
        <Node type="in" id="5" />
        <Node type="in" id="6" />
        <Node type="in" id="7" />
        <Node type="in" id="8" />
        <Node type="in" id="9" />
        <Node type="in" id="10" />
        <Node type="out" id="11" />
        <Node type="out" id="12" />
      </Nodes>
      <Connections>
        <Con id="13" src="0" tgt="11" wght="-0.57559291180223227" />
        <Con id="14" src="0" tgt="12" wght="-0.49791304394602776" />
        <Con id="15" src="1" tgt="11" wght="0.11638852022588253" />
        <Con id="16" src="1" tgt="12" wght="-0.83187759388238192" />
        <Con id="17" src="2" tgt="11" wght="-0.29583851993083954" />
        <Con id="18" src="2" tgt="12" wght="0.782641937956214" />
        <Con id="19" src="3" tgt="11" wght="0.42666769586503506" />
        <Con id="20" src="3" tgt="12" wght="0.58693206589668989" />
        <Con id="21" src="4" tgt="11" wght="0.41174192540347576" />
        <Con id="22" src="4" tgt="12" wght="0.42149719689041376" />
        <Con id="23" src="5" tgt="11" wght="0.45997927244752645" />
        <Con id="24" src="5" tgt="12" wght="-0.95695788413286209" />
        <Con id="25" src="6" tgt="11" wght="-0.43928963877260685" />
        <Con id="26" src="6" tgt="12" wght="0.70174754783511162" />
        <Con id="27" src="7" tgt="11" wght="0.5461786612868309" />
        <Con id="28" src="7" tgt="12" wght="-0.32094682659953833" />
        <Con id="29" src="8" tgt="11" wght="0.42755995597690344" />
        <Con id="30" src="8" tgt="12" wght="-0.50792341679334641" />
        <Con id="31" src="9" tgt="11" wght="0.26105028111487627" />
        <Con id="32" src="9" tgt="12" wght="0.58463305700570345" />
        <Con id="33" src="10" tgt="11" wght="-0.12080520205199718" />
        <Con id="34" src="10" tgt="12" wght="0.61015824973583221" />
      </Connections>
    </Network>
    <Network id="13" birthGen="0" fitness="0">
      <Nodes>
        <Node type="bias" id="0" />
        <Node type="in" id="1" />
        <Node type="in" id="2" />
        <Node type="in" id="3" />
        <Node type="in" id="4" />
        <Node type="in" id="5" />
        <Node type="in" id="6" />
        <Node type="in" id="7" />
        <Node type="in" id="8" />
        <Node type="in" id="9" />
        <Node type="in" id="10" />
        <Node type="out" id="11" />
        <Node type="out" id="12" />
      </Nodes>
      <Connections>
        <Con id="13" src="0" tgt="11" wght="-0.14139484893530607" />
        <Con id="14" src="0" tgt="12" wght="-0.37832639459520578" />
        <Con id="15" src="1" tgt="11" wght="0.34906522277742624" />
        <Con id="16" src="1" tgt="12" wght="0.16298088058829308" />
        <Con id="17" src="2" tgt="11" wght="-0.031864572316408157" />
        <Con id="18" src="2" tgt="12" wght="-0.98321417439728975" />
        <Con id="19" src="3" tgt="11" wght="0.47709132917225361" />
        <Con id="20" src="3" tgt="12" wght="0.98954058159142733" />
        <Con id="21" src="4" tgt="11" wght="-0.30727359745651484" />
        <Con id="22" src="4" tgt="12" wght="-0.98046149127185345" />
        <Con id="23" src="5" tgt="11" wght="0.48954523075371981" />
        <Con id="24" src="5" tgt="12" wght="0.70152684953063726" />
        <Con id="25" src="6" tgt="11" wght="-0.13663669768720865" />
        <Con id="26" src="6" tgt="12" wght="0.49899830669164658" />
        <Con id="27" src="7" tgt="11" wght="0.22051880694925785" />
        <Con id="28" src="7" tgt="12" wght="0.70274454820901155" />
        <Con id="29" src="8" tgt="11" wght="0.1010950580239296" />
        <Con id="30" src="8" tgt="12" wght="-0.78562543075531721" />
        <Con id="31" src="9" tgt="11" wght="0.63659993279725313" />
        <Con id="32" src="9" tgt="12" wght="-0.64089119248092175" />
        <Con id="33" src="10" tgt="11" wght="-0.76283712312579155" />
        <Con id="34" src="10" tgt="12" wght="-0.051821531727910042" />
      </Connections>
    </Network>
    <Network id="14" birthGen="0" fitness="0">
      <Nodes>
        <Node type="bias" id="0" />
        <Node type="in" id="1" />
        <Node type="in" id="2" />
        <Node type="in" id="3" />
        <Node type="in" id="4" />
        <Node type="in" id="5" />
        <Node type="in" id="6" />
        <Node type="in" id="7" />
        <Node type="in" id="8" />
        <Node type="in" id="9" />
        <Node type="in" id="10" />
        <Node type="out" id="11" />
        <Node type="out" id="12" />
      </Nodes>
      <Connections>
        <Con id="13" src="0" tgt="11" wght="-0.39399639144539833" />
        <Con id="14" src="0" tgt="12" wght="-0.81159467715770006" />
        <Con id="15" src="1" tgt="11" wght="-0.642142403870821" />
        <Con id="16" src="1" tgt="12" wght="0.21089236997067928" />
        <Con id="17" src="2" tgt="11" wght="0.97114773187786341" />
        <Con id="18" src="2" tgt="12" wght="0.1237872950732708" />
        <Con id="19" src="3" tgt="11" wght="0.21605429612100124" />
        <Con id="20" src="3" tgt="12" wght="-0.043837771750986576" />
        <Con id="21" src="4" tgt="11" wght="-0.97819920536130667" />
        <Con id="22" src="4" tgt="12" wght="0.97322807461023331" />
        <Con id="23" src="5" tgt="11" wght="0.082068938761949539" />
        <Con id="24" src="5" tgt="12" wght="0.59052783343940973" />
        <Con id="25" src="6" tgt="11" wght="-0.52992762997746468" />
        <Con id="26" src="6" tgt="12" wght="0.33032356854528189" />
        <Con id="27" src="7" tgt="11" wght="0.27526317350566387" />
        <Con id="28" src="7" tgt="12" wght="0.28530027810484171" />
        <Con id="29" src="8" tgt="11" wght="0.67318195942789316" />
        <Con id="30" src="8" tgt="12" wght="0.76084706000983715" />
        <Con id="31" src="9" tgt="11" wght="-0.869738501496613" />
        <Con id="32" src="9" tgt="12" wght="0.11585233546793461" />
        <Con id="33" src="10" tgt="11" wght="0.20195823814719915" />
        <Con id="34" src="10" tgt="12" wght="-0.21773009281605482" />
      </Connections>
    </Network>
    <Network id="15" birthGen="0" fitness="0">
      <Nodes>
        <Node type="bias" id="0" />
        <Node type="in" id="1" />
        <Node type="in" id="2" />
        <Node type="in" id="3" />
        <Node type="in" id="4" />
        <Node type="in" id="5" />
        <Node type="in" id="6" />
        <Node type="in" id="7" />
        <Node type="in" id="8" />
        <Node type="in" id="9" />
        <Node type="in" id="10" />
        <Node type="out" id="11" />
        <Node type="out" id="12" />
      </Nodes>
      <Connections>
        <Con id="13" src="0" tgt="11" wght="0.59436040464788675" />
        <Con id="14" src="0" tgt="12" wght="0.73949922434985638" />
        <Con id="15" src="1" tgt="11" wght="-0.0800027959048748" />
        <Con id="16" src="1" tgt="12" wght="0.35280798561871052" />
        <Con id="17" src="2" tgt="11" wght="0.7715205354616046" />
        <Con id="18" src="2" tgt="12" wght="0.160090203396976" />
        <Con id="19" src="3" tgt="11" wght="-0.35798877850174904" />
        <Con id="20" src="3" tgt="12" wght="-0.40851719956845045" />
        <Con id="21" src="4" tgt="11" wght="-0.95921447221189737" />
        <Con id="22" src="4" tgt="12" wght="-0.0064158812165260315" />
        <Con id="23" src="5" tgt="11" wght="0.31548461597412825" />
        <Con id="24" src="5" tgt="12" wght="-0.68234614655375481" />
        <Con id="25" src="6" tgt="11" wght="0.63054539915174246" />
        <Con id="26" src="6" tgt="12" wght="-0.58428573608398438" />
        <Con id="27" src="7" tgt="11" wght="0.41388779785484076" />
        <Con id="28" src="7" tgt="12" wght="0.958007151260972" />
        <Con id="29" src="8" tgt="11" wght="0.27240563929080963" />
        <Con id="30" src="8" tgt="12" wght="-0.41588992532342672" />
        <Con id="31" src="9" tgt="11" wght="0.44728566519916058" />
        <Con id="32" src="9" tgt="12" wght="-0.79901656694710255" />
        <Con id="33" src="10" tgt="11" wght="0.53051852528005838" />
        <Con id="34" src="10" tgt="12" wght="0.34165647253394127" />
      </Connections>
    </Network>
    <Network id="16" birthGen="0" fitness="0">
      <Nodes>
        <Node type="bias" id="0" />
        <Node type="in" id="1" />
        <Node type="in" id="2" />
        <Node type="in" id="3" />
        <Node type="in" id="4" />
        <Node type="in" id="5" />
        <Node type="in" id="6" />
        <Node type="in" id="7" />
        <Node type="in" id="8" />
        <Node type="in" id="9" />
        <Node type="in" id="10" />
        <Node type="out" id="11" />
        <Node type="out" id="12" />
      </Nodes>
      <Connections>
        <Con id="13" src="0" tgt="11" wght="0.32813993375748396" />
        <Con id="14" src="0" tgt="12" wght="0.89845805987715721" />
        <Con id="15" src="1" tgt="11" wght="-0.27466446720063686" />
        <Con id="16" src="1" tgt="12" wght="0.79533524997532368" />
        <Con id="17" src="2" tgt="11" wght="0.72047789953649044" />
        <Con id="18" src="2" tgt="12" wght="0.373226260766387" />
        <Con id="19" src="3" tgt="11" wght="0.31046407110989094" />
        <Con id="20" src="3" tgt="12" wght="0.11555622238665819" />
        <Con id="21" src="4" tgt="11" wght="-0.046093916520476341" />
        <Con id="22" src="4" tgt="12" wght="0.31011556554585695" />
        <Con id="23" src="5" tgt="11" wght="0.24033498857170343" />
        <Con id="24" src="5" tgt="12" wght="-0.11217107623815536" />
        <Con id="25" src="6" tgt="11" wght="-0.66657770611345768" />
        <Con id="26" src="6" tgt="12" wght="-0.9146282859146595" />
        <Con id="27" src="7" tgt="11" wght="0.091248497366905212" />
        <Con id="28" src="7" tgt="12" wght="-0.52376669552177191" />
        <Con id="29" src="8" tgt="11" wght="0.61093861516565084" />
        <Con id="30" src="8" tgt="12" wght="-0.43412600830197334" />
        <Con id="31" src="9" tgt="11" wght="-0.40191077161580324" />
        <Con id="32" src="9" tgt="12" wght="0.73226567357778549" />
        <Con id="33" src="10" tgt="11" wght="0.80260832421481609" />
        <Con id="34" src="10" tgt="12" wght="0.22471326217055321" />
      </Connections>
    </Network>
    <Network id="17" birthGen="0" fitness="0">
      <Nodes>
        <Node type="bias" id="0" />
        <Node type="in" id="1" />
        <Node type="in" id="2" />
        <Node type="in" id="3" />
        <Node type="in" id="4" />
        <Node type="in" id="5" />
        <Node type="in" id="6" />
        <Node type="in" id="7" />
        <Node type="in" id="8" />
        <Node type="in" id="9" />
        <Node type="in" id="10" />
        <Node type="out" id="11" />
        <Node type="out" id="12" />
      </Nodes>
      <Connections>
        <Con id="13" src="0" tgt="11" wght="-0.12429769616574049" />
        <Con id="14" src="0" tgt="12" wght="-0.68891846016049385" />
        <Con id="15" src="1" tgt="11" wght="-0.77805170509964228" />
        <Con id="16" src="1" tgt="12" wght="-0.3271927023306489" />
        <Con id="17" src="2" tgt="11" wght="0.15981541387736797" />
        <Con id="18" src="2" tgt="12" wght="0.031500195153057575" />
        <Con id="19" src="3" tgt="11" wght="0.29603146109730005" />
        <Con id="20" src="3" tgt="12" wght="0.479942986741662" />
        <Con id="21" src="4" tgt="11" wght="0.233480304479599" />
        <Con id="22" src="4" tgt="12" wght="-0.35393368266522884" />
        <Con id="23" src="5" tgt="11" wght="0.59097285475581884" />
        <Con id="24" src="5" tgt="12" wght="0.38858354371041059" />
        <Con id="25" src="6" tgt="11" wght="-0.76468665897846222" />
        <Con id="26" src="6" tgt="12" wght="0.20583320781588554" />
        <Con id="27" src="7" tgt="11" wght="-0.981410819105804" />
        <Con id="28" src="7" tgt="12" wght="0.18365938682109118" />
        <Con id="29" src="8" tgt="11" wght="-0.90412698499858379" />
        <Con id="30" src="8" tgt="12" wght="-0.11453879810869694" />
        <Con id="31" src="9" tgt="11" wght="-0.49043834209442139" />
        <Con id="32" src="9" tgt="12" wght="-0.47012429125607014" />
        <Con id="33" src="10" tgt="11" wght="-0.21099084429442883" />
        <Con id="34" src="10" tgt="12" wght="0.569587673060596" />
      </Connections>
    </Network>
    <Network id="18" birthGen="0" fitness="0">
      <Nodes>
        <Node type="bias" id="0" />
        <Node type="in" id="1" />
        <Node type="in" id="2" />
        <Node type="in" id="3" />
        <Node type="in" id="4" />
        <Node type="in" id="5" />
        <Node type="in" id="6" />
        <Node type="in" id="7" />
        <Node type="in" id="8" />
        <Node type="in" id="9" />
        <Node type="in" id="10" />
        <Node type="out" id="11" />
        <Node type="out" id="12" />
      </Nodes>
      <Connections>
        <Con id="13" src="0" tgt="11" wght="0.21437151171267033" />
        <Con id="14" src="0" tgt="12" wght="0.19861394166946411" />
        <Con id="15" src="1" tgt="11" wght="-0.3262977646663785" />
        <Con id="16" src="1" tgt="12" wght="-0.82041629496961832" />
        <Con id="17" src="2" tgt="11" wght="-0.28792103100568056" />
        <Con id="18" src="2" tgt="12" wght="-0.068182259798049927" />
        <Con id="19" src="3" tgt="11" wght="-0.24886403698474169" />
        <Con id="20" src="3" tgt="12" wght="0.21407937724143267" />
        <Con id="21" src="4" tgt="11" wght="-0.5836548050865531" />
        <Con id="22" src="4" tgt="12" wght="0.56241484265774488" />
        <Con id="23" src="5" tgt="11" wght="-0.61714147590100765" />
        <Con id="24" src="5" tgt="12" wght="-0.58230469841510057" />
        <Con id="25" src="6" tgt="11" wght="-0.38627736922353506" />
        <Con id="26" src="6" tgt="12" wght="-0.10441828519105911" />
        <Con id="27" src="7" tgt="11" wght="0.96077997051179409" />
        <Con id="28" src="7" tgt="12" wght="0.39741845335811377" />
        <Con id="29" src="8" tgt="11" wght="-0.89412378612905741" />
        <Con id="30" src="8" tgt="12" wght="0.96041860617697239" />
        <Con id="31" src="9" tgt="11" wght="-0.58417284581810236" />
        <Con id="32" src="9" tgt="12" wght="0.1935162004083395" />
        <Con id="33" src="10" tgt="11" wght="0.82757476437836885" />
        <Con id="34" src="10" tgt="12" wght="0.41451711487025023" />
      </Connections>
    </Network>
    <Network id="19" birthGen="0" fitness="0">
      <Nodes>
        <Node type="bias" id="0" />
        <Node type="in" id="1" />
        <Node type="in" id="2" />
        <Node type="in" id="3" />
        <Node type="in" id="4" />
        <Node type="in" id="5" />
        <Node type="in" id="6" />
        <Node type="in" id="7" />
        <Node type="in" id="8" />
        <Node type="in" id="9" />
        <Node type="in" id="10" />
        <Node type="out" id="11" />
        <Node type="out" id="12" />
      </Nodes>
      <Connections>
        <Con id="13" src="0" tgt="11" wght="-0.89496153686195612" />
        <Con id="14" src="0" tgt="12" wght="-0.25148111302405596" />
        <Con id="15" src="1" tgt="11" wght="-0.50739375501871109" />
        <Con id="16" src="1" tgt="12" wght="0.992565150372684" />
        <Con id="17" src="2" tgt="11" wght="0.63558740634471178" />
        <Con id="18" src="2" tgt="12" wght="-0.99702345300465822" />
        <Con id="19" src="3" tgt="11" wght="0.050265689380466938" />
        <Con id="20" src="3" tgt="12" wght="0.51638281717896461" />
        <Con id="21" src="4" tgt="11" wght="0.045757940039038658" />
        <Con id="22" src="4" tgt="12" wght="-0.74357151333242655" />
        <Con id="23" src="5" tgt="11" wght="-0.7156172851100564" />
        <Con id="24" src="5" tgt="12" wght="0.16077789198607206" />
        <Con id="25" src="6" tgt="11" wght="0.19696128088980913" />
        <Con id="26" src="6" tgt="12" wght="-0.038954277522861958" />
        <Con id="27" src="7" tgt="11" wght="-0.18283584155142307" />
        <Con id="28" src="7" tgt="12" wght="-0.61290346924215555" />
        <Con id="29" src="8" tgt="11" wght="0.94117856305092573" />
        <Con id="30" src="8" tgt="12" wght="0.47450614534318447" />
        <Con id="31" src="9" tgt="11" wght="-0.053932355716824532" />
        <Con id="32" src="9" tgt="12" wght="0.99440744891762733" />
        <Con id="33" src="10" tgt="11" wght="0.02930155023932457" />
        <Con id="34" src="10" tgt="12" wght="-0.99999199435114861" />
      </Connections>
    </Network>
    <Network id="20" birthGen="0" fitness="0">
      <Nodes>
        <Node type="bias" id="0" />
        <Node type="in" id="1" />
        <Node type="in" id="2" />
        <Node type="in" id="3" />
        <Node type="in" id="4" />
        <Node type="in" id="5" />
        <Node type="in" id="6" />
        <Node type="in" id="7" />
        <Node type="in" id="8" />
        <Node type="in" id="9" />
        <Node type="in" id="10" />
        <Node type="out" id="11" />
        <Node type="out" id="12" />
      </Nodes>
      <Connections>
        <Con id="13" src="0" tgt="11" wght="-0.53567458968609571" />
        <Con id="14" src="0" tgt="12" wght="-0.29466463625431061" />
        <Con id="15" src="1" tgt="11" wght="0.39213003776967525" />
        <Con id="16" src="1" tgt="12" wght="-0.57636840268969536" />
        <Con id="17" src="2" tgt="11" wght="-0.17929265834391117" />
        <Con id="18" src="2" tgt="12" wght="-0.26016228087246418" />
        <Con id="19" src="3" tgt="11" wght="0.11126511916518211" />
        <Con id="20" src="3" tgt="12" wght="0.90038112178444862" />
        <Con id="21" src="4" tgt="11" wght="-0.65637996420264244" />
        <Con id="22" src="4" tgt="12" wght="-0.19619547296315432" />
        <Con id="23" src="5" tgt="11" wght="-0.71235278155654669" />
        <Con id="24" src="5" tgt="12" wght="-0.45451144780963659" />
        <Con id="25" src="6" tgt="11" wght="-0.516118785366416" />
        <Con id="26" src="6" tgt="12" wght="-0.23857707437127829" />
        <Con id="27" src="7" tgt="11" wght="0.2283079419285059" />
        <Con id="28" src="7" tgt="12" wght="-0.81954291742295027" />
        <Con id="29" src="8" tgt="11" wght="0.49702704884111881" />
        <Con id="30" src="8" tgt="12" wght="-0.19374056626111269" />
        <Con id="31" src="9" tgt="11" wght="0.48761126771569252" />
        <Con id="32" src="9" tgt="12" wght="-0.96791514847427607" />
        <Con id="33" src="10" tgt="11" wght="0.98231723997741938" />
        <Con id="34" src="10" tgt="12" wght="-0.23511925060302019" />
      </Connections>
    </Network>
    <Network id="21" birthGen="0" fitness="0">
      <Nodes>
        <Node type="bias" id="0" />
        <Node type="in" id="1" />
        <Node type="in" id="2" />
        <Node type="in" id="3" />
        <Node type="in" id="4" />
        <Node type="in" id="5" />
        <Node type="in" id="6" />
        <Node type="in" id="7" />
        <Node type="in" id="8" />
        <Node type="in" id="9" />
        <Node type="in" id="10" />
        <Node type="out" id="11" />
        <Node type="out" id="12" />
      </Nodes>
      <Connections>
        <Con id="13" src="0" tgt="11" wght="-0.45219577755779028" />
        <Con id="14" src="0" tgt="12" wght="-0.85637320298701525" />
        <Con id="15" src="1" tgt="11" wght="-0.38953011855483055" />
        <Con id="16" src="1" tgt="12" wght="-0.46544775646179914" />
        <Con id="17" src="2" tgt="11" wght="-0.88671563472598791" />
        <Con id="18" src="2" tgt="12" wght="0.78015286196023226" />
        <Con id="19" src="3" tgt="11" wght="0.94399178121238947" />
        <Con id="20" src="3" tgt="12" wght="0.13057166896760464" />
        <Con id="21" src="4" tgt="11" wght="-0.256347369402647" />
        <Con id="22" src="4" tgt="12" wght="0.98391597252339125" />
        <Con id="23" src="5" tgt="11" wght="-0.25809969566762447" />
        <Con id="24" src="5" tgt="12" wght="0.18944103550165892" />
        <Con id="25" src="6" tgt="11" wght="0.72516899090260267" />
        <Con id="26" src="6" tgt="12" wght="-0.55702659767121077" />
        <Con id="27" src="7" tgt="11" wght="0.11537013668566942" />
        <Con id="28" src="7" tgt="12" wght="-0.27107314299792051" />
        <Con id="29" src="8" tgt="11" wght="-0.89044732227921486" />
        <Con id="30" src="8" tgt="12" wght="0.91581358294934034" />
        <Con id="31" src="9" tgt="11" wght="0.64920184668153524" />
        <Con id="32" src="9" tgt="12" wght="-0.70671490021049976" />
        <Con id="33" src="10" tgt="11" wght="0.72089511342346668" />
        <Con id="34" src="10" tgt="12" wght="0.46753070503473282" />
      </Connections>
    </Network>
    <Network id="22" birthGen="0" fitness="0">
      <Nodes>
        <Node type="bias" id="0" />
        <Node type="in" id="1" />
        <Node type="in" id="2" />
        <Node type="in" id="3" />
        <Node type="in" id="4" />
        <Node type="in" id="5" />
        <Node type="in" id="6" />
        <Node type="in" id="7" />
        <Node type="in" id="8" />
        <Node type="in" id="9" />
        <Node type="in" id="10" />
        <Node type="out" id="11" />
        <Node type="out" id="12" />
      </Nodes>
      <Connections>
        <Con id="13" src="0" tgt="11" wght="-0.6892837742343545" />
        <Con id="14" src="0" tgt="12" wght="-0.026666568592190742" />
        <Con id="15" src="1" tgt="11" wght="0.78025702759623528" />
        <Con id="16" src="1" tgt="12" wght="0.02671084925532341" />
        <Con id="17" src="2" tgt="11" wght="0.84910649247467518" />
        <Con id="18" src="2" tgt="12" wght="0.82936895173043013" />
        <Con id="19" src="3" tgt="11" wght="0.61028690077364445" />
        <Con id="20" src="3" tgt="12" wght="0.35550133790820837" />
        <Con id="21" src="4" tgt="11" wght="-0.93659810908138752" />
        <Con id="22" src="4" tgt="12" wght="0.54667484387755394" />
        <Con id="23" src="5" tgt="11" wght="-0.34087571036070585" />
        <Con id="24" src="5" tgt="12" wght="-0.8718157485127449" />
        <Con id="25" src="6" tgt="11" wght="0.28279160615056753" />
        <Con id="26" src="6" tgt="12" wght="0.18794926814734936" />
        <Con id="27" src="7" tgt="11" wght="-0.31992417015135288" />
        <Con id="28" src="7" tgt="12" wght="-0.18439725693315268" />
        <Con id="29" src="8" tgt="11" wght="0.48204364627599716" />
        <Con id="30" src="8" tgt="12" wght="-0.26835824828594923" />
        <Con id="31" src="9" tgt="11" wght="0.98437884822487831" />
        <Con id="32" src="9" tgt="12" wght="-0.42825417779386044" />
        <Con id="33" src="10" tgt="11" wght="0.30183144379407167" />
        <Con id="34" src="10" tgt="12" wght="-0.42907279171049595" />
      </Connections>
    </Network>
    <Network id="23" birthGen="0" fitness="0">
      <Nodes>
        <Node type="bias" id="0" />
        <Node type="in" id="1" />
        <Node type="in" id="2" />
        <Node type="in" id="3" />
        <Node type="in" id="4" />
        <Node type="in" id="5" />
        <Node type="in" id="6" />
        <Node type="in" id="7" />
        <Node type="in" id="8" />
        <Node type="in" id="9" />
        <Node type="in" id="10" />
        <Node type="out" id="11" />
        <Node type="out" id="12" />
      </Nodes>
      <Connections>
        <Con id="13" src="0" tgt="11" wght="-0.85342868790030479" />
        <Con id="14" src="0" tgt="12" wght="-0.8224911754950881" />
        <Con id="15" src="1" tgt="11" wght="-0.17596463486552238" />
        <Con id="16" src="1" tgt="12" wght="-0.14485534001141787" />
        <Con id="17" src="2" tgt="11" wght="-0.04223289992660284" />
        <Con id="18" src="2" tgt="12" wght="-0.90949523076415062" />
        <Con id="19" src="3" tgt="11" wght="-0.93046946451067924" />
        <Con id="20" src="3" tgt="12" wght="0.8423860315233469" />
        <Con id="21" src="4" tgt="11" wght="0.07808306161314249" />
        <Con id="22" src="4" tgt="12" wght="-0.027180991135537624" />
        <Con id="23" src="5" tgt="11" wght="0.17135567590594292" />
        <Con id="24" src="5" tgt="12" wght="-0.44251638185232878" />
        <Con id="25" src="6" tgt="11" wght="0.61847734358161688" />
        <Con id="26" src="6" tgt="12" wght="-0.060878312215209007" />
        <Con id="27" src="7" tgt="11" wght="-0.83611867390573025" />
        <Con id="28" src="7" tgt="12" wght="0.13141819555312395" />
        <Con id="29" src="8" tgt="11" wght="0.10447090025991201" />
        <Con id="30" src="8" tgt="12" wght="0.23097158782184124" />
        <Con id="31" src="9" tgt="11" wght="-0.69750464428216219" />
        <Con id="32" src="9" tgt="12" wght="0.8833869332447648" />
        <Con id="33" src="10" tgt="11" wght="0.34755848813802004" />
        <Con id="34" src="10" tgt="12" wght="0.74631706811487675" />
      </Connections>
    </Network>
    <Network id="24" birthGen="0" fitness="0">
      <Nodes>
        <Node type="bias" id="0" />
        <Node type="in" id="1" />
        <Node type="in" id="2" />
        <Node type="in" id="3" />
        <Node type="in" id="4" />
        <Node type="in" id="5" />
        <Node type="in" id="6" />
        <Node type="in" id="7" />
        <Node type="in" id="8" />
        <Node type="in" id="9" />
        <Node type="in" id="10" />
        <Node type="out" id="11" />
        <Node type="out" id="12" />
      </Nodes>
      <Connections>
        <Con id="13" src="0" tgt="11" wght="-0.96569935698062181" />
        <Con id="14" src="0" tgt="12" wght="-0.94670117367058992" />
        <Con id="15" src="1" tgt="11" wght="-0.23298041615635157" />
        <Con id="16" src="1" tgt="12" wght="-0.54614450503140688" />
        <Con id="17" src="2" tgt="11" wght="0.479084137827158" />
        <Con id="18" src="2" tgt="12" wght="-0.78936199937015772" />
        <Con id="19" src="3" tgt="11" wght="-0.019285434857010841" />
        <Con id="20" src="3" tgt="12" wght="-0.60509047377854586" />
        <Con id="21" src="4" tgt="11" wght="-0.41267706640064716" />
        <Con id="22" src="4" tgt="12" wght="0.92667859233915806" />
        <Con id="23" src="5" tgt="11" wght="-0.51431105565279722" />
        <Con id="24" src="5" tgt="12" wght="0.9426263365894556" />
        <Con id="25" src="6" tgt="11" wght="0.92355913110077381" />
        <Con id="26" src="6" tgt="12" wght="-0.9679355276748538" />
        <Con id="27" src="7" tgt="11" wght="-0.2236344376578927" />
        <Con id="28" src="7" tgt="12" wght="0.75649029482156038" />
        <Con id="29" src="8" tgt="11" wght="0.972166383638978" />
        <Con id="30" src="8" tgt="12" wght="0.86237469874322414" />
        <Con id="31" src="9" tgt="11" wght="0.34771193750202656" />
        <Con id="32" src="9" tgt="12" wght="-0.0980988061055541" />
        <Con id="33" src="10" tgt="11" wght="-0.32695975247770548" />
        <Con id="34" src="10" tgt="12" wght="0.1344805583357811" />
      </Connections>
    </Network>
    <Network id="25" birthGen="0" fitness="0">
      <Nodes>
        <Node type="bias" id="0" />
        <Node type="in" id="1" />
        <Node type="in" id="2" />
        <Node type="in" id="3" />
        <Node type="in" id="4" />
        <Node type="in" id="5" />
        <Node type="in" id="6" />
        <Node type="in" id="7" />
        <Node type="in" id="8" />
        <Node type="in" id="9" />
        <Node type="in" id="10" />
        <Node type="out" id="11" />
        <Node type="out" id="12" />
      </Nodes>
      <Connections>
        <Con id="13" src="0" tgt="11" wght="-0.00938904844224453" />
        <Con id="14" src="0" tgt="12" wght="-0.68539499118924141" />
        <Con id="15" src="1" tgt="11" wght="0.75634210743010044" />
        <Con id="16" src="1" tgt="12" wght="-0.77548742853105068" />
        <Con id="17" src="2" tgt="11" wght="0.70697719696909189" />
        <Con id="18" src="2" tgt="12" wght="0.10791640821844339" />
        <Con id="19" src="3" tgt="11" wght="0.49400389287620783" />
        <Con id="20" src="3" tgt="12" wght="0.0840420750901103" />
        <Con id="21" src="4" tgt="11" wght="0.8829621272161603" />
        <Con id="22" src="4" tgt="12" wght="-0.39172997046262026" />
        <Con id="23" src="5" tgt="11" wght="-0.35252740420401096" />
        <Con id="24" src="5" tgt="12" wght="-0.38931798096746206" />
        <Con id="25" src="6" tgt="11" wght="0.2839367613196373" />
        <Con id="26" src="6" tgt="12" wght="0.86194641701877117" />
        <Con id="27" src="7" tgt="11" wght="-0.97539521381258965" />
        <Con id="28" src="7" tgt="12" wght="-0.088268731720745564" />
        <Con id="29" src="8" tgt="11" wght="0.30204766988754272" />
        <Con id="30" src="8" tgt="12" wght="0.23425799980759621" />
        <Con id="31" src="9" tgt="11" wght="0.18967581260949373" />
        <Con id="32" src="9" tgt="12" wght="-0.21350184176117182" />
        <Con id="33" src="10" tgt="11" wght="0.51558258943259716" />
        <Con id="34" src="10" tgt="12" wght="-0.10389149468392134" />
      </Connections>
    </Network>
    <Network id="26" birthGen="0" fitness="0">
      <Nodes>
        <Node type="bias" id="0" />
        <Node type="in" id="1" />
        <Node type="in" id="2" />
        <Node type="in" id="3" />
        <Node type="in" id="4" />
        <Node type="in" id="5" />
        <Node type="in" id="6" />
        <Node type="in" id="7" />
        <Node type="in" id="8" />
        <Node type="in" id="9" />
        <Node type="in" id="10" />
        <Node type="out" id="11" />
        <Node type="out" id="12" />
      </Nodes>
      <Connections>
        <Con id="13" src="0" tgt="11" wght="0.24574204161763191" />
        <Con id="14" src="0" tgt="12" wght="0.92289044056087732" />
        <Con id="15" src="1" tgt="11" wght="0.71305086556822062" />
        <Con id="16" src="1" tgt="12" wght="-0.5488906791433692" />
        <Con id="17" src="2" tgt="11" wght="0.39635614398866892" />
        <Con id="18" src="2" tgt="12" wght="-0.35368724633008242" />
        <Con id="19" src="3" tgt="11" wght="0.58316038828343153" />
        <Con id="20" src="3" tgt="12" wght="-0.9385164026170969" />
        <Con id="21" src="4" tgt="11" wght="-0.53876933082938194" />
        <Con id="22" src="4" tgt="12" wght="0.59106881264597178" />
        <Con id="23" src="5" tgt="11" wght="-0.24996240343898535" />
        <Con id="24" src="5" tgt="12" wght="-0.5682253772392869" />
        <Con id="25" src="6" tgt="11" wght="-0.64216531813144684" />
        <Con id="26" src="6" tgt="12" wght="0.95582527294754982" />
        <Con id="27" src="7" tgt="11" wght="-0.9146139370277524" />
        <Con id="28" src="7" tgt="12" wght="-0.900733950547874" />
        <Con id="29" src="8" tgt="11" wght="-0.67723663989454508" />
        <Con id="30" src="8" tgt="12" wght="0.80783381313085556" />
        <Con id="31" src="9" tgt="11" wght="0.71053832396864891" />
        <Con id="32" src="9" tgt="12" wght="0.21087825763970613" />
        <Con id="33" src="10" tgt="11" wght="-0.24093144107609987" />
        <Con id="34" src="10" tgt="12" wght="-0.61329352483153343" />
      </Connections>
    </Network>
    <Network id="27" birthGen="0" fitness="0">
      <Nodes>
        <Node type="bias" id="0" />
        <Node type="in" id="1" />
        <Node type="in" id="2" />
        <Node type="in" id="3" />
        <Node type="in" id="4" />
        <Node type="in" id="5" />
        <Node type="in" id="6" />
        <Node type="in" id="7" />
        <Node type="in" id="8" />
        <Node type="in" id="9" />
        <Node type="in" id="10" />
        <Node type="out" id="11" />
        <Node type="out" id="12" />
      </Nodes>
      <Connections>
        <Con id="13" src="0" tgt="11" wght="0.81719213724136353" />
        <Con id="14" src="0" tgt="12" wght="0.95758259296417236" />
        <Con id="15" src="1" tgt="11" wght="-0.045184341259300709" />
        <Con id="16" src="1" tgt="12" wght="-0.26825450174510479" />
        <Con id="17" src="2" tgt="11" wght="0.9953556451946497" />
        <Con id="18" src="2" tgt="12" wght="0.29881842061877251" />
        <Con id="19" src="3" tgt="11" wght="-0.13513933122158051" />
        <Con id="20" src="3" tgt="12" wght="-0.47293810080736876" />
        <Con id="21" src="4" tgt="11" wght="-0.11131318658590317" />
        <Con id="22" src="4" tgt="12" wght="-0.80267463531345129" />
        <Con id="23" src="5" tgt="11" wght="0.60399071034044027" />
        <Con id="24" src="5" tgt="12" wght="0.56714685447514057" />
        <Con id="25" src="6" tgt="11" wght="0.45889338944107294" />
        <Con id="26" src="6" tgt="12" wght="-0.21862158644944429" />
        <Con id="27" src="7" tgt="11" wght="-0.41399379074573517" />
        <Con id="28" src="7" tgt="12" wght="0.35851198062300682" />
        <Con id="29" src="8" tgt="11" wght="0.20562269911170006" />
        <Con id="30" src="8" tgt="12" wght="-0.15503228642046452" />
        <Con id="31" src="9" tgt="11" wght="0.843409257940948" />
        <Con id="32" src="9" tgt="12" wght="-0.53104715887457132" />
        <Con id="33" src="10" tgt="11" wght="-0.90303756576031446" />
        <Con id="34" src="10" tgt="12" wght="-0.66551613993942738" />
      </Connections>
    </Network>
    <Network id="28" birthGen="0" fitness="0">
      <Nodes>
        <Node type="bias" id="0" />
        <Node type="in" id="1" />
        <Node type="in" id="2" />
        <Node type="in" id="3" />
        <Node type="in" id="4" />
        <Node type="in" id="5" />
        <Node type="in" id="6" />
        <Node type="in" id="7" />
        <Node type="in" id="8" />
        <Node type="in" id="9" />
        <Node type="in" id="10" />
        <Node type="out" id="11" />
        <Node type="out" id="12" />
      </Nodes>
      <Connections>
        <Con id="13" src="0" tgt="11" wght="-0.41337484307587147" />
        <Con id="14" src="0" tgt="12" wght="0.8543978612869978" />
        <Con id="15" src="1" tgt="11" wght="-0.77835171204060316" />
        <Con id="16" src="1" tgt="12" wght="-0.55819631833583117" />
        <Con id="17" src="2" tgt="11" wght="-0.35223384667187929" />
        <Con id="18" src="2" tgt="12" wght="-0.593895798549056" />
        <Con id="19" src="3" tgt="11" wght="0.548068986274302" />
        <Con id="20" src="3" tgt="12" wght="-0.29441214632242918" />
        <Con id="21" src="4" tgt="11" wght="-0.38653580006211996" />
        <Con id="22" src="4" tgt="12" wght="0.58249066863209009" />
        <Con id="23" src="5" tgt="11" wght="0.56559515371918678" />
        <Con id="24" src="5" tgt="12" wght="0.1771094249561429" />
        <Con id="25" src="6" tgt="11" wght="-0.83630924206227064" />
        <Con id="26" src="6" tgt="12" wght="-0.73127808701246977" />
        <Con id="27" src="7" tgt="11" wght="0.31984189432114363" />
        <Con id="28" src="7" tgt="12" wght="-0.55541439540684223" />
        <Con id="29" src="8" tgt="11" wght="0.55740362964570522" />
        <Con id="30" src="8" tgt="12" wght="-0.83108225744217634" />
        <Con id="31" src="9" tgt="11" wght="-0.72888419684022665" />
        <Con id="32" src="9" tgt="12" wght="0.939586266875267" />
        <Con id="33" src="10" tgt="11" wght="-0.22121726162731647" />
        <Con id="34" src="10" tgt="12" wght="-0.19918040558695793" />
      </Connections>
    </Network>
    <Network id="29" birthGen="0" fitness="0">
      <Nodes>
        <Node type="bias" id="0" />
        <Node type="in" id="1" />
        <Node type="in" id="2" />
        <Node type="in" id="3" />
        <Node type="in" id="4" />
        <Node type="in" id="5" />
        <Node type="in" id="6" />
        <Node type="in" id="7" />
        <Node type="in" id="8" />
        <Node type="in" id="9" />
        <Node type="in" id="10" />
        <Node type="out" id="11" />
        <Node type="out" id="12" />
      </Nodes>
      <Connections>
        <Con id="13" src="0" tgt="11" wght="-0.5082068732008338" />
        <Con id="14" src="0" tgt="12" wght="0.04188375361263752" />
        <Con id="15" src="1" tgt="11" wght="-0.82653556764125824" />
        <Con id="16" src="1" tgt="12" wght="0.61365171428769827" />
        <Con id="17" src="2" tgt="11" wght="0.27103342488408089" />
        <Con id="18" src="2" tgt="12" wght="-0.14896437712013721" />
        <Con id="19" src="3" tgt="11" wght="-0.065068086609244347" />
        <Con id="20" src="3" tgt="12" wght="-0.33660323172807693" />
        <Con id="21" src="4" tgt="11" wght="0.88170132972300053" />
        <Con id="22" src="4" tgt="12" wght="0.6998164402320981" />
        <Con id="23" src="5" tgt="11" wght="-0.889579233713448" />
        <Con id="24" src="5" tgt="12" wght="-0.15864481776952744" />
        <Con id="25" src="6" tgt="11" wght="0.082971165888011456" />
        <Con id="26" src="6" tgt="12" wght="0.42460790555924177" />
        <Con id="27" src="7" tgt="11" wght="-0.057270281948149204" />
        <Con id="28" src="7" tgt="12" wght="0.72345226537436247" />
        <Con id="29" src="8" tgt="11" wght="-0.86270269192755222" />
        <Con id="30" src="8" tgt="12" wght="0.0061144903302192688" />
        <Con id="31" src="9" tgt="11" wght="0.85394468624144793" />
        <Con id="32" src="9" tgt="12" wght="-0.97744752466678619" />
        <Con id="33" src="10" tgt="11" wght="0.25868698861449957" />
        <Con id="34" src="10" tgt="12" wght="-0.60307296738028526" />
      </Connections>
    </Network>
    <Network id="30" birthGen="0" fitness="0">
      <Nodes>
        <Node type="bias" id="0" />
        <Node type="in" id="1" />
        <Node type="in" id="2" />
        <Node type="in" id="3" />
        <Node type="in" id="4" />
        <Node type="in" id="5" />
        <Node type="in" id="6" />
        <Node type="in" id="7" />
        <Node type="in" id="8" />
        <Node type="in" id="9" />
        <Node type="in" id="10" />
        <Node type="out" id="11" />
        <Node type="out" id="12" />
      </Nodes>
      <Connections>
        <Con id="13" src="0" tgt="11" wght="0.58138755988329649" />
        <Con id="14" src="0" tgt="12" wght="-0.2227333327755332" />
        <Con id="15" src="1" tgt="11" wght="-0.435409783385694" />
        <Con id="16" src="1" tgt="12" wght="0.025850927457213402" />
        <Con id="17" src="2" tgt="11" wght="-0.78378119133412838" />
        <Con id="18" src="2" tgt="12" wght="-0.18472843710333109" />
        <Con id="19" src="3" tgt="11" wght="0.040233099833130836" />
        <Con id="20" src="3" tgt="12" wght="0.81691958848387" />
        <Con id="21" src="4" tgt="11" wght="-0.23912977427244186" />
        <Con id="22" src="4" tgt="12" wght="-0.80019436869770288" />
        <Con id="23" src="5" tgt="11" wght="0.38014024216681719" />
        <Con id="24" src="5" tgt="12" wght="-0.9514901377260685" />
        <Con id="25" src="6" tgt="11" wght="-0.093672966584563255" />
        <Con id="26" src="6" tgt="12" wght="-0.048826546408236027" />
        <Con id="27" src="7" tgt="11" wght="0.54351873882114887" />
        <Con id="28" src="7" tgt="12" wght="0.42017768975347281" />
        <Con id="29" src="8" tgt="11" wght="0.15052184276282787" />
        <Con id="30" src="8" tgt="12" wght="-0.789731620810926" />
        <Con id="31" src="9" tgt="11" wght="0.20625654421746731" />
        <Con id="32" src="9" tgt="12" wght="-0.65494626481086016" />
        <Con id="33" src="10" tgt="11" wght="0.60691649746149778" />
        <Con id="34" src="10" tgt="12" wght="-0.639534130692482" />
      </Connections>
    </Network>
    <Network id="31" birthGen="0" fitness="0">
      <Nodes>
        <Node type="bias" id="0" />
        <Node type="in" id="1" />
        <Node type="in" id="2" />
        <Node type="in" id="3" />
        <Node type="in" id="4" />
        <Node type="in" id="5" />
        <Node type="in" id="6" />
        <Node type="in" id="7" />
        <Node type="in" id="8" />
        <Node type="in" id="9" />
        <Node type="in" id="10" />
        <Node type="out" id="11" />
        <Node type="out" id="12" />
      </Nodes>
      <Connections>
        <Con id="13" src="0" tgt="11" wght="-0.18958844058215618" />
        <Con id="14" src="0" tgt="12" wght="0.36919937562197447" />
        <Con id="15" src="1" tgt="11" wght="0.53665552008897066" />
        <Con id="16" src="1" tgt="12" wght="-0.89696881547570229" />
        <Con id="17" src="2" tgt="11" wght="-0.74674560409039259" />
        <Con id="18" src="2" tgt="12" wght="0.77914704103022814" />
        <Con id="19" src="3" tgt="11" wght="-0.536878869868815" />
        <Con id="20" src="3" tgt="12" wght="-0.3584025027230382" />
        <Con id="21" src="4" tgt="11" wght="-0.32917658891528845" />
        <Con id="22" src="4" tgt="12" wght="-0.75657831318676472" />
        <Con id="23" src="5" tgt="11" wght="0.76377350464463234" />
        <Con id="24" src="5" tgt="12" wght="-0.18512826878577471" />
        <Con id="25" src="6" tgt="11" wght="-0.82014197111129761" />
        <Con id="26" src="6" tgt="12" wght="0.89528182055801153" />
        <Con id="27" src="7" tgt="11" wght="-0.35328355059027672" />
        <Con id="28" src="7" tgt="12" wght="-0.69706038013100624" />
        <Con id="29" src="8" tgt="11" wght="0.36933766771107912" />
        <Con id="30" src="8" tgt="12" wght="0.42951907869428396" />
        <Con id="31" src="9" tgt="11" wght="-0.22412365116178989" />
        <Con id="32" src="9" tgt="12" wght="0.45586126018315554" />
        <Con id="33" src="10" tgt="11" wght="0.57520745228976011" />
        <Con id="34" src="10" tgt="12" wght="0.829556180164218" />
      </Connections>
    </Network>
    <Network id="32" birthGen="0" fitness="0">
      <Nodes>
        <Node type="bias" id="0" />
        <Node type="in" id="1" />
        <Node type="in" id="2" />
        <Node type="in" id="3" />
        <Node type="in" id="4" />
        <Node type="in" id="5" />
        <Node type="in" id="6" />
        <Node type="in" id="7" />
        <Node type="in" id="8" />
        <Node type="in" id="9" />
        <Node type="in" id="10" />
        <Node type="out" id="11" />
        <Node type="out" id="12" />
      </Nodes>
      <Connections>
        <Con id="13" src="0" tgt="11" wght="-0.54562295414507389" />
        <Con id="14" src="0" tgt="12" wght="-0.3717435197904706" />
        <Con id="15" src="1" tgt="11" wght="0.82808191608637571" />
        <Con id="16" src="1" tgt="12" wght="-0.56770580634474754" />
        <Con id="17" src="2" tgt="11" wght="0.50331487134099007" />
        <Con id="18" src="2" tgt="12" wght="0.83069908618927" />
        <Con id="19" src="3" tgt="11" wght="0.12968640215694904" />
        <Con id="20" src="3" tgt="12" wght="0.49226892925798893" />
        <Con id="21" src="4" tgt="11" wght="-0.8179318904876709" />
        <Con id="22" src="4" tgt="12" wght="0.43026414047926664" />
        <Con id="23" src="5" tgt="11" wght="0.21541946288198233" />
        <Con id="24" src="5" tgt="12" wght="-0.53582913801074028" />
        <Con id="25" src="6" tgt="11" wght="-0.56482081860303879" />
        <Con id="26" src="6" tgt="12" wght="0.4020511768758297" />
        <Con id="27" src="7" tgt="11" wght="0.60130941495299339" />
        <Con id="28" src="7" tgt="12" wght="-0.39209349546581507" />
        <Con id="29" src="8" tgt="11" wght="0.24860066920518875" />
        <Con id="30" src="8" tgt="12" wght="0.98072000686079264" />
        <Con id="31" src="9" tgt="11" wght="0.1377582848072052" />
        <Con id="32" src="9" tgt="12" wght="0.26824763603508472" />
        <Con id="33" src="10" tgt="11" wght="-0.26090172678232193" />
        <Con id="34" src="10" tgt="12" wght="-0.69936660304665565" />
      </Connections>
    </Network>
    <Network id="33" birthGen="0" fitness="0">
      <Nodes>
        <Node type="bias" id="0" />
        <Node type="in" id="1" />
        <Node type="in" id="2" />
        <Node type="in" id="3" />
        <Node type="in" id="4" />
        <Node type="in" id="5" />
        <Node type="in" id="6" />
        <Node type="in" id="7" />
        <Node type="in" id="8" />
        <Node type="in" id="9" />
        <Node type="in" id="10" />
        <Node type="out" id="11" />
        <Node type="out" id="12" />
      </Nodes>
      <Connections>
        <Con id="13" src="0" tgt="11" wght="-0.67893722094595432" />
        <Con id="14" src="0" tgt="12" wght="0.749113985337317" />
        <Con id="15" src="1" tgt="11" wght="-0.10781180113554001" />
        <Con id="16" src="1" tgt="12" wght="0.23065923526883125" />
        <Con id="17" src="2" tgt="11" wght="-0.57368251401931047" />
        <Con id="18" src="2" tgt="12" wght="-0.0021623745560646057" />
        <Con id="19" src="3" tgt="11" wght="0.28220343869179487" />
        <Con id="20" src="3" tgt="12" wght="-0.9504955243319273" />
        <Con id="21" src="4" tgt="11" wght="0.92498768772929907" />
        <Con id="22" src="4" tgt="12" wght="-0.84994453750550747" />
        <Con id="23" src="5" tgt="11" wght="0.52829837519675493" />
        <Con id="24" src="5" tgt="12" wght="0.60948118753731251" />
        <Con id="25" src="6" tgt="11" wght="-0.5958958463743329" />
        <Con id="26" src="6" tgt="12" wght="-0.94075454026460648" />
        <Con id="27" src="7" tgt="11" wght="0.56734150927513838" />
        <Con id="28" src="7" tgt="12" wght="0.65107809752225876" />
        <Con id="29" src="8" tgt="11" wght="-0.76998181827366352" />
        <Con id="30" src="8" tgt="12" wght="0.31283204723149538" />
        <Con id="31" src="9" tgt="11" wght="-0.41486915294080973" />
        <Con id="32" src="9" tgt="12" wght="0.14554036129266024" />
        <Con id="33" src="10" tgt="11" wght="-0.084371907636523247" />
        <Con id="34" src="10" tgt="12" wght="0.95045927632600069" />
      </Connections>
    </Network>
    <Network id="34" birthGen="0" fitness="0">
      <Nodes>
        <Node type="bias" id="0" />
        <Node type="in" id="1" />
        <Node type="in" id="2" />
        <Node type="in" id="3" />
        <Node type="in" id="4" />
        <Node type="in" id="5" />
        <Node type="in" id="6" />
        <Node type="in" id="7" />
        <Node type="in" id="8" />
        <Node type="in" id="9" />
        <Node type="in" id="10" />
        <Node type="out" id="11" />
        <Node type="out" id="12" />
      </Nodes>
      <Connections>
        <Con id="13" src="0" tgt="11" wght="-0.24892562907189131" />
        <Con id="14" src="0" tgt="12" wght="0.00035046320408582687" />
        <Con id="15" src="1" tgt="11" wght="-0.074440654367208481" />
        <Con id="16" src="1" tgt="12" wght="-0.47772910818457603" />
        <Con id="17" src="2" tgt="11" wght="-0.066314332187175751" />
        <Con id="18" src="2" tgt="12" wght="0.27282903157174587" />
        <Con id="19" src="3" tgt="11" wght="-0.84037409257143736" />
        <Con id="20" src="3" tgt="12" wght="0.35401097685098648" />
        <Con id="21" src="4" tgt="11" wght="0.516458441503346" />
        <Con id="22" src="4" tgt="12" wght="-0.60430872719734907" />
        <Con id="23" src="5" tgt="11" wght="-0.42193121928721666" />
        <Con id="24" src="5" tgt="12" wght="0.94870623853057623" />
        <Con id="25" src="6" tgt="11" wght="0.34803990088403225" />
        <Con id="26" src="6" tgt="12" wght="0.012403374537825584" />
        <Con id="27" src="7" tgt="11" wght="-0.84448407683521509" />
        <Con id="28" src="7" tgt="12" wght="0.30445484537631273" />
        <Con id="29" src="8" tgt="11" wght="-0.29574278090149164" />
        <Con id="30" src="8" tgt="12" wght="-0.60875730775296688" />
        <Con id="31" src="9" tgt="11" wght="-0.89120323117822409" />
        <Con id="32" src="9" tgt="12" wght="-0.14060077723115683" />
        <Con id="33" src="10" tgt="11" wght="0.96766387484967709" />
        <Con id="34" src="10" tgt="12" wght="0.1573700737208128" />
      </Connections>
    </Network>
    <Network id="35" birthGen="0" fitness="0">
      <Nodes>
        <Node type="bias" id="0" />
        <Node type="in" id="1" />
        <Node type="in" id="2" />
        <Node type="in" id="3" />
        <Node type="in" id="4" />
        <Node type="in" id="5" />
        <Node type="in" id="6" />
        <Node type="in" id="7" />
        <Node type="in" id="8" />
        <Node type="in" id="9" />
        <Node type="in" id="10" />
        <Node type="out" id="11" />
        <Node type="out" id="12" />
      </Nodes>
      <Connections>
        <Con id="13" src="0" tgt="11" wght="0.79673073906451464" />
        <Con id="14" src="0" tgt="12" wght="-0.10959546454250813" />
        <Con id="15" src="1" tgt="11" wght="-0.023072601296007633" />
        <Con id="16" src="1" tgt="12" wght="-0.592769917100668" />
        <Con id="17" src="2" tgt="11" wght="0.75733086094260216" />
        <Con id="18" src="2" tgt="12" wght="0.12979426700621843" />
        <Con id="19" src="3" tgt="11" wght="-0.7722395583987236" />
        <Con id="20" src="3" tgt="12" wght="0.54739614948630333" />
        <Con id="21" src="4" tgt="11" wght="0.30688689090311527" />
        <Con id="22" src="4" tgt="12" wght="-0.14314549323171377" />
        <Con id="23" src="5" tgt="11" wght="0.10668266750872135" />
        <Con id="24" src="5" tgt="12" wght="0.32987021934241056" />
        <Con id="25" src="6" tgt="11" wght="0.12662889715284109" />
        <Con id="26" src="6" tgt="12" wght="0.83128123171627522" />
        <Con id="27" src="7" tgt="11" wght="0.35028207581490278" />
        <Con id="28" src="7" tgt="12" wght="0.86334798112511635" />
        <Con id="29" src="8" tgt="11" wght="-0.93892326857894659" />
        <Con id="30" src="8" tgt="12" wght="-0.60028673149645329" />
        <Con id="31" src="9" tgt="11" wght="0.62818364333361387" />
        <Con id="32" src="9" tgt="12" wght="0.79655303247272968" />
        <Con id="33" src="10" tgt="11" wght="-0.30237849336117506" />
        <Con id="34" src="10" tgt="12" wght="-0.78375973924994469" />
      </Connections>
    </Network>
    <Network id="36" birthGen="0" fitness="0">
      <Nodes>
        <Node type="bias" id="0" />
        <Node type="in" id="1" />
        <Node type="in" id="2" />
        <Node type="in" id="3" />
        <Node type="in" id="4" />
        <Node type="in" id="5" />
        <Node type="in" id="6" />
        <Node type="in" id="7" />
        <Node type="in" id="8" />
        <Node type="in" id="9" />
        <Node type="in" id="10" />
        <Node type="out" id="11" />
        <Node type="out" id="12" />
      </Nodes>
      <Connections>
        <Con id="13" src="0" tgt="11" wght="-0.54795321356505156" />
        <Con id="14" src="0" tgt="12" wght="-0.30396490823477507" />
        <Con id="15" src="1" tgt="11" wght="0.47788164485245943" />
        <Con id="16" src="1" tgt="12" wght="-0.10262037348002195" />
        <Con id="17" src="2" tgt="11" wght="-0.48043142259120941" />
        <Con id="18" src="2" tgt="12" wght="-0.51806302275508642" />
        <Con id="19" src="3" tgt="11" wght="-0.55379004683345556" />
        <Con id="20" src="3" tgt="12" wght="0.5589568754658103" />
        <Con id="21" src="4" tgt="11" wght="-0.50847990158945322" />
        <Con id="22" src="4" tgt="12" wght="-0.73375027254223824" />
        <Con id="23" src="5" tgt="11" wght="-0.35263414494693279" />
        <Con id="24" src="5" tgt="12" wght="-0.77869339380413294" />
        <Con id="25" src="6" tgt="11" wght="0.83839540649205446" />
        <Con id="26" src="6" tgt="12" wght="0.7649648105725646" />
        <Con id="27" src="7" tgt="11" wght="-0.730073724873364" />
        <Con id="28" src="7" tgt="12" wght="-0.73877736274152994" />
        <Con id="29" src="8" tgt="11" wght="-0.95766132883727551" />
        <Con id="30" src="8" tgt="12" wght="0.2653517359867692" />
        <Con id="31" src="9" tgt="11" wght="0.42862756364047527" />
        <Con id="32" src="9" tgt="12" wght="-0.85092557221651077" />
        <Con id="33" src="10" tgt="11" wght="0.44156328123062849" />
        <Con id="34" src="10" tgt="12" wght="0.25972774997353554" />
      </Connections>
    </Network>
    <Network id="37" birthGen="0" fitness="0">
      <Nodes>
        <Node type="bias" id="0" />
        <Node type="in" id="1" />
        <Node type="in" id="2" />
        <Node type="in" id="3" />
        <Node type="in" id="4" />
        <Node type="in" id="5" />
        <Node type="in" id="6" />
        <Node type="in" id="7" />
        <Node type="in" id="8" />
        <Node type="in" id="9" />
        <Node type="in" id="10" />
        <Node type="out" id="11" />
        <Node type="out" id="12" />
      </Nodes>
      <Connections>
        <Con id="13" src="0" tgt="11" wght="-0.71258462406694889" />
        <Con id="14" src="0" tgt="12" wght="-0.33149714954197407" />
        <Con id="15" src="1" tgt="11" wght="0.11991570051759481" />
        <Con id="16" src="1" tgt="12" wght="-0.12633759249001741" />
        <Con id="17" src="2" tgt="11" wght="0.861347021535039" />
        <Con id="18" src="2" tgt="12" wght="-0.38656766805797815" />
        <Con id="19" src="3" tgt="11" wght="-0.097515196539461613" />
        <Con id="20" src="3" tgt="12" wght="-0.10026513785123825" />
        <Con id="21" src="4" tgt="11" wght="-0.98806734848767519" />
        <Con id="22" src="4" tgt="12" wght="0.41822485066950321" />
        <Con id="23" src="5" tgt="11" wght="-0.8698043217882514" />
        <Con id="24" src="5" tgt="12" wght="-0.417765311896801" />
        <Con id="25" src="6" tgt="11" wght="-0.33907976280897856" />
        <Con id="26" src="6" tgt="12" wght="0.35376890655606985" />
        <Con id="27" src="7" tgt="11" wght="-0.28679291252046824" />
        <Con id="28" src="7" tgt="12" wght="-0.7940181465819478" />
        <Con id="29" src="8" tgt="11" wght="-0.10147036705166101" />
        <Con id="30" src="8" tgt="12" wght="-0.60986847616732121" />
        <Con id="31" src="9" tgt="11" wght="-0.81161652971059084" />
        <Con id="32" src="9" tgt="12" wght="0.0443319845944643" />
        <Con id="33" src="10" tgt="11" wght="0.61389792151749134" />
        <Con id="34" src="10" tgt="12" wght="0.045157333835959435" />
      </Connections>
    </Network>
    <Network id="38" birthGen="0" fitness="0">
      <Nodes>
        <Node type="bias" id="0" />
        <Node type="in" id="1" />
        <Node type="in" id="2" />
        <Node type="in" id="3" />
        <Node type="in" id="4" />
        <Node type="in" id="5" />
        <Node type="in" id="6" />
        <Node type="in" id="7" />
        <Node type="in" id="8" />
        <Node type="in" id="9" />
        <Node type="in" id="10" />
        <Node type="out" id="11" />
        <Node type="out" id="12" />
      </Nodes>
      <Connections>
        <Con id="13" src="0" tgt="11" wght="0.74303534440696239" />
        <Con id="14" src="0" tgt="12" wght="0.011395461857318878" />
        <Con id="15" src="1" tgt="11" wght="0.96886652708053589" />
        <Con id="16" src="1" tgt="12" wght="-0.16207180451601744" />
        <Con id="17" src="2" tgt="11" wght="0.31593999918550253" />
        <Con id="18" src="2" tgt="12" wght="0.9195580305531621" />
        <Con id="19" src="3" tgt="11" wght="-0.63980195857584476" />
        <Con id="20" src="3" tgt="12" wght="0.31067989952862263" />
        <Con id="21" src="4" tgt="11" wght="-0.54673768859356642" />
        <Con id="22" src="4" tgt="12" wght="-0.1683913292363286" />
        <Con id="23" src="5" tgt="11" wght="0.48817404266446829" />
        <Con id="24" src="5" tgt="12" wght="0.30367275699973106" />
        <Con id="25" src="6" tgt="11" wght="-0.26661684550344944" />
        <Con id="26" src="6" tgt="12" wght="-0.34566892776638269" />
        <Con id="27" src="7" tgt="11" wght="0.67273601610213518" />
        <Con id="28" src="7" tgt="12" wght="0.30026903003454208" />
        <Con id="29" src="8" tgt="11" wght="0.33998840302228928" />
        <Con id="30" src="8" tgt="12" wght="0.28622606210410595" />
        <Con id="31" src="9" tgt="11" wght="0.99204648658633232" />
        <Con id="32" src="9" tgt="12" wght="-0.66203771904110909" />
        <Con id="33" src="10" tgt="11" wght="0.49338453449308872" />
        <Con id="34" src="10" tgt="12" wght="0.65137109160423279" />
      </Connections>
    </Network>
    <Network id="39" birthGen="0" fitness="0">
      <Nodes>
        <Node type="bias" id="0" />
        <Node type="in" id="1" />
        <Node type="in" id="2" />
        <Node type="in" id="3" />
        <Node type="in" id="4" />
        <Node type="in" id="5" />
        <Node type="in" id="6" />
        <Node type="in" id="7" />
        <Node type="in" id="8" />
        <Node type="in" id="9" />
        <Node type="in" id="10" />
        <Node type="out" id="11" />
        <Node type="out" id="12" />
      </Nodes>
      <Connections>
        <Con id="13" src="0" tgt="11" wght="0.99612011574208736" />
        <Con id="14" src="0" tgt="12" wght="-0.40613120049238205" />
        <Con id="15" src="1" tgt="11" wght="-0.78328202478587627" />
        <Con id="16" src="1" tgt="12" wght="0.28999733831733465" />
        <Con id="17" src="2" tgt="11" wght="0.68684839922934771" />
        <Con id="18" src="2" tgt="12" wght="0.16823757532984018" />
        <Con id="19" src="3" tgt="11" wght="-0.86420546565204859" />
        <Con id="20" src="3" tgt="12" wght="-0.29079829715192318" />
        <Con id="21" src="4" tgt="11" wght="0.373096757568419" />
        <Con id="22" src="4" tgt="12" wght="-0.66074758861213923" />
        <Con id="23" src="5" tgt="11" wght="-0.61954116821289063" />
        <Con id="24" src="5" tgt="12" wght="0.95092249475419521" />
        <Con id="25" src="6" tgt="11" wght="0.20296973921358585" />
        <Con id="26" src="6" tgt="12" wght="-0.22357150539755821" />
        <Con id="27" src="7" tgt="11" wght="0.105590651743114" />
        <Con id="28" src="7" tgt="12" wght="-0.6427345359697938" />
        <Con id="29" src="8" tgt="11" wght="-0.20640876237303019" />
        <Con id="30" src="8" tgt="12" wght="0.58247604221105576" />
        <Con id="31" src="9" tgt="11" wght="0.26830670889467" />
        <Con id="32" src="9" tgt="12" wght="-0.076260320842266083" />
        <Con id="33" src="10" tgt="11" wght="0.16228220053017139" />
        <Con id="34" src="10" tgt="12" wght="0.68197911977767944" />
      </Connections>
    </Network>
    <Network id="40" birthGen="0" fitness="0">
      <Nodes>
        <Node type="bias" id="0" />
        <Node type="in" id="1" />
        <Node type="in" id="2" />
        <Node type="in" id="3" />
        <Node type="in" id="4" />
        <Node type="in" id="5" />
        <Node type="in" id="6" />
        <Node type="in" id="7" />
        <Node type="in" id="8" />
        <Node type="in" id="9" />
        <Node type="in" id="10" />
        <Node type="out" id="11" />
        <Node type="out" id="12" />
      </Nodes>
      <Connections>
        <Con id="13" src="0" tgt="11" wght="-0.59323402028530836" />
        <Con id="14" src="0" tgt="12" wght="-0.77033273503184319" />
        <Con id="15" src="1" tgt="11" wght="0.14072378911077976" />
        <Con id="16" src="1" tgt="12" wght="-0.30694219656288624" />
        <Con id="17" src="2" tgt="11" wght="0.48552191164344549" />
        <Con id="18" src="2" tgt="12" wght="-0.526393829844892" />
        <Con id="19" src="3" tgt="11" wght="0.3833912331610918" />
        <Con id="20" src="3" tgt="12" wght="0.838603887706995" />
        <Con id="21" src="4" tgt="11" wght="0.65773377660661936" />
        <Con id="22" src="4" tgt="12" wght="-0.99554458726197481" />
        <Con id="23" src="5" tgt="11" wght="0.27134166844189167" />
        <Con id="24" src="5" tgt="12" wght="0.35727372393012047" />
        <Con id="25" src="6" tgt="11" wght="0.17139156349003315" />
        <Con id="26" src="6" tgt="12" wght="-0.64598318468779325" />
        <Con id="27" src="7" tgt="11" wght="-0.73430775199085474" />
        <Con id="28" src="7" tgt="12" wght="0.14308962225914001" />
        <Con id="29" src="8" tgt="11" wght="0.62536120507866144" />
        <Con id="30" src="8" tgt="12" wght="-0.83446100540459156" />
        <Con id="31" src="9" tgt="11" wght="0.0049625271931290627" />
        <Con id="32" src="9" tgt="12" wght="-0.89576069172471762" />
        <Con id="33" src="10" tgt="11" wght="0.014743118546903133" />
        <Con id="34" src="10" tgt="12" wght="0.30765876173973083" />
      </Connections>
    </Network>
    <Network id="41" birthGen="0" fitness="0">
      <Nodes>
        <Node type="bias" id="0" />
        <Node type="in" id="1" />
        <Node type="in" id="2" />
        <Node type="in" id="3" />
        <Node type="in" id="4" />
        <Node type="in" id="5" />
        <Node type="in" id="6" />
        <Node type="in" id="7" />
        <Node type="in" id="8" />
        <Node type="in" id="9" />
        <Node type="in" id="10" />
        <Node type="out" id="11" />
        <Node type="out" id="12" />
      </Nodes>
      <Connections>
        <Con id="13" src="0" tgt="11" wght="-0.10022315382957458" />
        <Con id="14" src="0" tgt="12" wght="-0.17494545690715313" />
        <Con id="15" src="1" tgt="11" wght="-0.59105257596820593" />
        <Con id="16" src="1" tgt="12" wght="0.36519691813737154" />
        <Con id="17" src="2" tgt="11" wght="-0.20878834836184978" />
        <Con id="18" src="2" tgt="12" wght="-0.92282180767506361" />
        <Con id="19" src="3" tgt="11" wght="0.65572461392730474" />
        <Con id="20" src="3" tgt="12" wght="0.35884089767932892" />
        <Con id="21" src="4" tgt="11" wght="0.4114149734377861" />
        <Con id="22" src="4" tgt="12" wght="0.986905868165195" />
        <Con id="23" src="5" tgt="11" wght="0.3117709755897522" />
        <Con id="24" src="5" tgt="12" wght="0.15797976776957512" />
        <Con id="25" src="6" tgt="11" wght="0.013326067477464676" />
        <Con id="26" src="6" tgt="12" wght="-0.43487924337387085" />
        <Con id="27" src="7" tgt="11" wght="0.0871234554797411" />
        <Con id="28" src="7" tgt="12" wght="0.082581277936697" />
        <Con id="29" src="8" tgt="11" wght="-0.86275054048746824" />
        <Con id="30" src="8" tgt="12" wght="0.45736838225275278" />
        <Con id="31" src="9" tgt="11" wght="-0.84070212952792645" />
        <Con id="32" src="9" tgt="12" wght="-0.25302893109619617" />
        <Con id="33" src="10" tgt="11" wght="-0.55864968523383141" />
        <Con id="34" src="10" tgt="12" wght="0.72563067637383938" />
      </Connections>
    </Network>
    <Network id="42" birthGen="0" fitness="0">
      <Nodes>
        <Node type="bias" id="0" />
        <Node type="in" id="1" />
        <Node type="in" id="2" />
        <Node type="in" id="3" />
        <Node type="in" id="4" />
        <Node type="in" id="5" />
        <Node type="in" id="6" />
        <Node type="in" id="7" />
        <Node type="in" id="8" />
        <Node type="in" id="9" />
        <Node type="in" id="10" />
        <Node type="out" id="11" />
        <Node type="out" id="12" />
      </Nodes>
      <Connections>
        <Con id="13" src="0" tgt="11" wght="0.090558458119630814" />
        <Con id="14" src="0" tgt="12" wght="0.91433063801378012" />
        <Con id="15" src="1" tgt="11" wght="-0.21479653008282185" />
        <Con id="16" src="1" tgt="12" wght="0.22690017893910408" />
        <Con id="17" src="2" tgt="11" wght="0.26398549787700176" />
        <Con id="18" src="2" tgt="12" wght="-0.59367008972913027" />
        <Con id="19" src="3" tgt="11" wght="-0.41400452796369791" />
        <Con id="20" src="3" tgt="12" wght="-0.12142688035964966" />
        <Con id="21" src="4" tgt="11" wght="-0.94976300559937954" />
        <Con id="22" src="4" tgt="12" wght="-0.014717034064233303" />
        <Con id="23" src="5" tgt="11" wght="-0.72239884082227945" />
        <Con id="24" src="5" tgt="12" wght="-0.33567996975034475" />
        <Con id="25" src="6" tgt="11" wght="0.23480527848005295" />
        <Con id="26" src="6" tgt="12" wght="0.95263920351862907" />
        <Con id="27" src="7" tgt="11" wght="-0.39316029567271471" />
        <Con id="28" src="7" tgt="12" wght="-0.72082891408354044" />
        <Con id="29" src="8" tgt="11" wght="0.13448187336325645" />
        <Con id="30" src="8" tgt="12" wght="0.62912549264729023" />
        <Con id="31" src="9" tgt="11" wght="-0.86792435683310032" />
        <Con id="32" src="9" tgt="12" wght="-0.92456115875393152" />
        <Con id="33" src="10" tgt="11" wght="-0.00056695006787776947" />
        <Con id="34" src="10" tgt="12" wght="0.31473823450505733" />
      </Connections>
    </Network>
    <Network id="43" birthGen="0" fitness="0">
      <Nodes>
        <Node type="bias" id="0" />
        <Node type="in" id="1" />
        <Node type="in" id="2" />
        <Node type="in" id="3" />
        <Node type="in" id="4" />
        <Node type="in" id="5" />
        <Node type="in" id="6" />
        <Node type="in" id="7" />
        <Node type="in" id="8" />
        <Node type="in" id="9" />
        <Node type="in" id="10" />
        <Node type="out" id="11" />
        <Node type="out" id="12" />
      </Nodes>
      <Connections>
        <Con id="13" src="0" tgt="11" wght="-0.80339845828711987" />
        <Con id="14" src="0" tgt="12" wght="-0.30122700706124306" />
        <Con id="15" src="1" tgt="11" wght="0.036478705704212189" />
        <Con id="16" src="1" tgt="12" wght="0.68035477120429277" />
        <Con id="17" src="2" tgt="11" wght="-0.20745379012078047" />
        <Con id="18" src="2" tgt="12" wght="0.46971520408988" />
        <Con id="19" src="3" tgt="11" wght="0.33633628580719233" />
        <Con id="20" src="3" tgt="12" wght="-0.2593438783660531" />
        <Con id="21" src="4" tgt="11" wght="0.45418574102222919" />
        <Con id="22" src="4" tgt="12" wght="0.42065524775534868" />
        <Con id="23" src="5" tgt="11" wght="0.54371312819421291" />
        <Con id="24" src="5" tgt="12" wght="0.33405446726828814" />
        <Con id="25" src="6" tgt="11" wght="-0.31891829892992973" />
        <Con id="26" src="6" tgt="12" wght="-0.86816072836518288" />
        <Con id="27" src="7" tgt="11" wght="-0.3779462156817317" />
        <Con id="28" src="7" tgt="12" wght="-0.72674713190644979" />
        <Con id="29" src="8" tgt="11" wght="0.72813837230205536" />
        <Con id="30" src="8" tgt="12" wght="0.0060858521610498428" />
        <Con id="31" src="9" tgt="11" wght="0.99502156022936106" />
        <Con id="32" src="9" tgt="12" wght="-0.75276353769004345" />
        <Con id="33" src="10" tgt="11" wght="-0.36271550040692091" />
        <Con id="34" src="10" tgt="12" wght="0.46618298161774874" />
      </Connections>
    </Network>
    <Network id="44" birthGen="0" fitness="0">
      <Nodes>
        <Node type="bias" id="0" />
        <Node type="in" id="1" />
        <Node type="in" id="2" />
        <Node type="in" id="3" />
        <Node type="in" id="4" />
        <Node type="in" id="5" />
        <Node type="in" id="6" />
        <Node type="in" id="7" />
        <Node type="in" id="8" />
        <Node type="in" id="9" />
        <Node type="in" id="10" />
        <Node type="out" id="11" />
        <Node type="out" id="12" />
      </Nodes>
      <Connections>
        <Con id="13" src="0" tgt="11" wght="0.265227809548378" />
        <Con id="14" src="0" tgt="12" wght="0.54396536946296692" />
        <Con id="15" src="1" tgt="11" wght="0.57201334089040756" />
        <Con id="16" src="1" tgt="12" wght="-0.8433949276804924" />
        <Con id="17" src="2" tgt="11" wght="-0.28077447414398193" />
        <Con id="18" src="2" tgt="12" wght="-0.8332049734890461" />
        <Con id="19" src="3" tgt="11" wght="0.67004198394715786" />
        <Con id="20" src="3" tgt="12" wght="0.81531106308102608" />
        <Con id="21" src="4" tgt="11" wght="-0.86684153042733669" />
        <Con id="22" src="4" tgt="12" wght="-0.23610023688524961" />
        <Con id="23" src="5" tgt="11" wght="0.96444701962172985" />
        <Con id="24" src="5" tgt="12" wght="-0.4205623883754015" />
        <Con id="25" src="6" tgt="11" wght="0.5770024387165904" />
        <Con id="26" src="6" tgt="12" wght="0.31448932457715273" />
        <Con id="27" src="7" tgt="11" wght="0.38683084398508072" />
        <Con id="28" src="7" tgt="12" wght="-0.0640831058844924" />
        <Con id="29" src="8" tgt="11" wght="-0.27025456074625254" />
        <Con id="30" src="8" tgt="12" wght="-0.98234415333718061" />
        <Con id="31" src="9" tgt="11" wght="0.83907899539917707" />
        <Con id="32" src="9" tgt="12" wght="-0.55173119343817234" />
        <Con id="33" src="10" tgt="11" wght="0.90975510701537132" />
        <Con id="34" src="10" tgt="12" wght="0.027791144326329231" />
      </Connections>
    </Network>
    <Network id="45" birthGen="0" fitness="0">
      <Nodes>
        <Node type="bias" id="0" />
        <Node type="in" id="1" />
        <Node type="in" id="2" />
        <Node type="in" id="3" />
        <Node type="in" id="4" />
        <Node type="in" id="5" />
        <Node type="in" id="6" />
        <Node type="in" id="7" />
        <Node type="in" id="8" />
        <Node type="in" id="9" />
        <Node type="in" id="10" />
        <Node type="out" id="11" />
        <Node type="out" id="12" />
      </Nodes>
      <Connections>
        <Con id="13" src="0" tgt="11" wght="0.3879004493355751" />
        <Con id="14" src="0" tgt="12" wght="-0.5211288295686245" />
        <Con id="15" src="1" tgt="11" wght="-0.998648920096457" />
        <Con id="16" src="1" tgt="12" wght="0.66685255337506533" />
        <Con id="17" src="2" tgt="11" wght="0.22705166228115559" />
        <Con id="18" src="2" tgt="12" wght="-0.085623851045966148" />
        <Con id="19" src="3" tgt="11" wght="0.36704661790281534" />
        <Con id="20" src="3" tgt="12" wght="0.44129128288477659" />
        <Con id="21" src="4" tgt="11" wght="0.38624727074056864" />
        <Con id="22" src="4" tgt="12" wght="-0.357977919280529" />
        <Con id="23" src="5" tgt="11" wght="-0.36135686561465263" />
        <Con id="24" src="5" tgt="12" wght="-0.32625686097890139" />
        <Con id="25" src="6" tgt="11" wght="-0.22890262212604284" />
        <Con id="26" src="6" tgt="12" wght="0.21173135843127966" />
        <Con id="27" src="7" tgt="11" wght="-0.83526791911572218" />
        <Con id="28" src="7" tgt="12" wght="0.86343840416520834" />
        <Con id="29" src="8" tgt="11" wght="0.10445602517575026" />
        <Con id="30" src="8" tgt="12" wght="0.15753777790814638" />
        <Con id="31" src="9" tgt="11" wght="-0.7013682909309864" />
        <Con id="32" src="9" tgt="12" wght="0.71188979502767324" />
        <Con id="33" src="10" tgt="11" wght="-0.59331026673316956" />
        <Con id="34" src="10" tgt="12" wght="0.96274569258093834" />
      </Connections>
    </Network>
    <Network id="46" birthGen="0" fitness="0">
      <Nodes>
        <Node type="bias" id="0" />
        <Node type="in" id="1" />
        <Node type="in" id="2" />
        <Node type="in" id="3" />
        <Node type="in" id="4" />
        <Node type="in" id="5" />
        <Node type="in" id="6" />
        <Node type="in" id="7" />
        <Node type="in" id="8" />
        <Node type="in" id="9" />
        <Node type="in" id="10" />
        <Node type="out" id="11" />
        <Node type="out" id="12" />
      </Nodes>
      <Connections>
        <Con id="13" src="0" tgt="11" wght="0.72148443851619959" />
        <Con id="14" src="0" tgt="12" wght="-0.80083453096449375" />
        <Con id="15" src="1" tgt="11" wght="-0.17902977205812931" />
        <Con id="16" src="1" tgt="12" wght="-0.84848052635788918" />
        <Con id="17" src="2" tgt="11" wght="0.46751734428107738" />
        <Con id="18" src="2" tgt="12" wght="-0.23622214794158936" />
        <Con id="19" src="3" tgt="11" wght="-0.15439601149410009" />
        <Con id="20" src="3" tgt="12" wght="-0.60622610710561275" />
        <Con id="21" src="4" tgt="11" wght="-0.90974533464759588" />
        <Con id="22" src="4" tgt="12" wght="0.69582362752407789" />
        <Con id="23" src="5" tgt="11" wght="0.51430515199899673" />
        <Con id="24" src="5" tgt="12" wght="-0.7760296231135726" />
        <Con id="25" src="6" tgt="11" wght="-0.80009977426379919" />
        <Con id="26" src="6" tgt="12" wght="-0.57978098560124636" />
        <Con id="27" src="7" tgt="11" wght="0.22184967435896397" />
        <Con id="28" src="7" tgt="12" wght="0.63911673706024885" />
        <Con id="29" src="8" tgt="11" wght="0.17635910306125879" />
        <Con id="30" src="8" tgt="12" wght="-0.24004098866134882" />
        <Con id="31" src="9" tgt="11" wght="0.69506499450653791" />
        <Con id="32" src="9" tgt="12" wght="0.51995750144124031" />
        <Con id="33" src="10" tgt="11" wght="-0.0894465921446681" />
        <Con id="34" src="10" tgt="12" wght="-0.67917718552052975" />
      </Connections>
    </Network>
    <Network id="47" birthGen="0" fitness="0">
      <Nodes>
        <Node type="bias" id="0" />
        <Node type="in" id="1" />
        <Node type="in" id="2" />
        <Node type="in" id="3" />
        <Node type="in" id="4" />
        <Node type="in" id="5" />
        <Node type="in" id="6" />
        <Node type="in" id="7" />
        <Node type="in" id="8" />
        <Node type="in" id="9" />
        <Node type="in" id="10" />
        <Node type="out" id="11" />
        <Node type="out" id="12" />
      </Nodes>
      <Connections>
        <Con id="13" src="0" tgt="11" wght="0.51464132219552994" />
        <Con id="14" src="0" tgt="12" wght="-0.94435597490519285" />
        <Con id="15" src="1" tgt="11" wght="0.20412385370582342" />
        <Con id="16" src="1" tgt="12" wght="0.38361753057688475" />
        <Con id="17" src="2" tgt="11" wght="0.67963474523276091" />
        <Con id="18" src="2" tgt="12" wght="-0.432280951179564" />
        <Con id="19" src="3" tgt="11" wght="0.54985097888857126" />
        <Con id="20" src="3" tgt="12" wght="-0.86238926649093628" />
        <Con id="21" src="4" tgt="11" wght="0.549212190322578" />
        <Con id="22" src="4" tgt="12" wght="0.78144076373428106" />
        <Con id="23" src="5" tgt="11" wght="-0.7932733092457056" />
        <Con id="24" src="5" tgt="12" wght="-0.53853734955191612" />
        <Con id="25" src="6" tgt="11" wght="-0.991657747887075" />
        <Con id="26" src="6" tgt="12" wght="0.41060449182987213" />
        <Con id="27" src="7" tgt="11" wght="-0.62769424449652433" />
        <Con id="28" src="7" tgt="12" wght="-0.95927320327609777" />
        <Con id="29" src="8" tgt="11" wght="0.79049645736813545" />
        <Con id="30" src="8" tgt="12" wght="0.2603757418692112" />
